abbey 0.15705 0.18207 -0.27124 0.15846 0.482 -0.51485 0.428 0.17735 0.065197 -0.44204 -0.53897 -1.0634 0.037747 -0.23735 0.09187 -0.13738 -0.15545 -0.29799 0.58766 -0.55846 -0.40265 0.24563 -1.0598 0.22713 0.10445 -0.44554 -0.23283 -0.026135 -0.34027 1.094 0.82908 -0.52259 -0.20787 0.88461 -0.37938 0.043211 0.057023 -0.061047 0.55765 -1.0294 0.026637 -0.22792 -0.26373 0.50721 0.85866 0.34097 0.45984 0.10404 1.0912 -0.29753 -1.0061 0.39878 -0.021612 0.19202 0.57482 -0.24461 0.60142 0.41587 -0.25029 -0.64081 0.71855 -0.42394 0.15222 0.60934 0.45405 -0.32725 0.45396 -0.26875 -0.10513 0.12198 0.24887 0.12466 -0.74688 -0.083865 0.081937 0.41547 -0.17177 -0.74924 -0.50235 -0.49255 -0.88524 0.52706 -0.35866 0.52887 0.13003 0.37315 0.69111 0.84619 -0.14474 0.084662 0.16193 -0.14647 0.37186 0.38542 0.62131 -0.024638 0.12229 -0.28741 -0.67532 0.24534 -0.54586 -0.12238 -0.24629 0.054298 -0.24579 -0.24885 -0.12694 0.59797 -0.44917 -0.062159 -0.83678 -0.22898 -0.27677 0.46192 -0.57782 -0.61324 0.05145 -0.3565 0.43022 -0.64992 -0.30723 0.25539 0.19135 -0.12681 0.29644 -0.45845 -0.38488 0.25365 -0.74355 -0.52915 0.61343 0.48442 -0.22527 -0.21725 -0.37086 0.11497 -0.061343 -0.01872 -0.87577 -0.14468 0.41263 -0.34962 -0.36236 -0.10825 -0.22869 -1.0551 0.025524 0.26352 -0.29272 -0.0016919 -0.039066 0.54359 -0.26192 -0.1287 -0.10759 0.35425 0.31756 0.47215 0.19148 0.13437 0.14566 0.14356 -0.3947 -0.060482 -0.86927 0.097438 -0.29441 -0.82993 0.60547 0.061647 0.27377 0.29965 0.58377 0.27282 0.015318 0.5481 0.14659 0.46029 0.51498 -0.66929 -0.59194 0.54996 -0.44955 -0.12982 0.93966 -0.060406 -0.76965 -0.38677 -0.51085 0.7126 -0.56024 0.36062 0.27069 -0.48518 0.095826 -0.45009 -0.058602 -0.37948 -0.07254 -0.21246 0.31521 0.015175 -0.36671 -0.43341 0.13749 0.024317 0.019407 -0.071113 -0.57762 -0.11853 0.51986 0.60222 -0.19807 -1.0505 -0.20602 0.40499 0.33198 -0.065692 -0.0032232 0.66152 -0.2324 -0.35709 -0.234 -0.31387 -0.57475 -0.26469 0.41402 -0.25095 0.48031 0.021415 -0.76194 0.19229 -0.12167 -0.11749 0.19662 0.53177 0.8847 0.36877 0.067639 0.094311 -0.57269 0.53324 1.012 -0.20143 -0.094094 -0.25499 0.25731 -0.90812 -0.11091 -0.3655 0.62305 0.38836 0.44608 -0.25403 0.27812 0.75089 0.40615 -0.7103 0.49908 -0.7799 0.23582 0.079438 0.075711 -0.097246 -0.41006 0.41874 -0.34362 0.054211 -0.064058 -0.10534 -0.37107 -0.2768 0.6751 -0.45493 0.0064567 -0.13789 -0.57608 -0.7025 0.2861 0.45058 0.1139 0.1724 0.01092 -1.0074 -0.56412 0.9224 -0.19536 -0.16097 0.52219 0.27909 -0.23187 0.38562 0.40332 -0.29017 -0.18492 0.021223 0.072726 0.71773 -0.19065 0.1243
access_road -0.30246 -0.36733 0.21212999999999999 -0.08876999999999999 -0.111955 -0.09603 0.17151750000000002 0.24065999999999999 0.241825 -1.4146699999999999 -0.59407 -0.24017 -0.08801199999999999 0.1800745 -0.190975 -0.2344595 -0.53386 -0.245595 0.201426 -0.26735 -0.347535 -0.0470846 0.14912350000000002 0.086005 -0.174115 0.18374000000000001 -0.056783 0.20696499999999995 0.109655 0.738835 0.4402025 0.145411 -0.053819 0.29827699999999996 -0.38417999999999997 0.30368 -0.5681849999999999 -0.205395 0.022879499999999997 -0.8161 -0.41999 0.096972 -0.369755 0.09716999999999999 -0.030484999999999998 0.472245 0.24463200000000002 0.377055 -0.16707 -0.41202 -0.230151 0.0530375 -0.09064000000000001 -0.1456665 0.48973500000000003 -0.02917 0.04035000000000001 -0.217235 -0.13877 -0.13026 -0.1721415 -0.1391465 0.072999 0.08686 0.298998 0.231855 -0.1741865 0.33258 -0.0005729000000000003 -0.191746 -0.2368 0.1650135 0.025935 0.202 0.04038999999999998 0.407505 -0.22565000000000002 0.0096365 -0.384635 -0.35634 0.285225 -0.19807 0.460097 -0.03655100000000001 -0.353845 -0.44328999999999996 0.09828500000000001 -0.05532999999999999 0.4139415 0.005415000000000003 -0.07933499999999999 0.07863 0.1691915 0.02207999999999999 0.21591500000000002 0.49729 -0.105324 -0.23645500000000003 0.07026000000000002 -0.2833 -0.334855 0.07217499999999999 -0.120915 -0.09010499999999999 -0.1963953 0.207129 0.34551 0.13594499999999998 -0.18035299999999999 -0.297975 -0.287015 -0.6745650000000001 0.367465 -0.36189000000000004 -0.0779855 -0.1996095 0.16142900000000002 0.200143 -0.0377045 0.12956 0.0626905 -0.027986499999999997 0.571275 -0.5930200000000001 0.05345999999999998 -0.09145 -0.31851 0.026545499999999993 -0.107497 -0.12986999999999999 0.106682 0.12956800000000002 0.43374 0.218335 0.2024 0.100128 0.362205 -0.15899795 0.00027499999999999747 -0.1458155 -0.1372225 -0.187681 0.16950916 -0.03880999999999998 -0.627765 -0.131006 0.1094735 -0.32477599999999995 -0.41984999999999995 -0.013671495 0.234816 -0.048625 0.10954499999999998 -0.1317305 0.4527 0.08859149999999999 0.175435 0.276175 -0.04026500000000001 -0.3288645 0.085585 -0.33188 -0.2184395 -0.64525 -0.38521 0.07138155 0.108982 -0.12611499999999998 0.007539999999999991 -0.034349999999999964 -0.0799995 -0.324955 0.07810499999999998 0.41930500000000004 -0.32975 -0.18183850000000001 -0.041288500000000006 -0.23456000000000002 -0.157525 0.0038396999999999997 -0.224882 0.12290000000000001 -0.020143499999999998 -0.06259 -0.137676 -0.2113 0.11677944999999999 -0.155661 0.15157500000000002 0.410095 0.0393154 0.5998600000000001 -0.17674494999999998 -0.37848 -0.1916475 0.24759000000000003 -0.01424922 -0.31213425 0.3506087 0.0009300000000000003 0.754185 -0.033377000000000004 0.294465 -0.19314 -0.03275499999999999 -0.11901 -0.272165 -0.370745 0.459085 0.1728375 -0.439765 -0.17199699999999998 0.03703500000000001 -0.057164999999999994 -0.3141785 -0.224 -0.39808 0.37483 -0.0003500000000000031 -0.044225000000000014 0.3452795 -0.258645 0.3188325 -0.195705 0.562655 -0.23001 -0.3327595 -0.11696000000000001 0.026347000000000002 -0.33789 -0.43293 -0.054905999999999996 0.017008000000000002 -0.12093 0.3074515 0.129805 0.0650925 0.4535 -0.40978 -0.163112 0.20613700000000001 0.28601550000000003 0.84709 -0.460735 -0.7071449999999999 0.25001 -0.0121 0.12257199999999999 0.1480685 -0.19104500000000002 0.205877 -0.05501500000000001 -0.266895 -0.275865 -0.012700000000000017 -0.307063 -0.16934849999999999 0.009140000000000002 -0.016825 0.278154 -0.18974000000000002 -0.464445 -0.003594999999999987 0.1168698 -0.12080250000000001 0.343495 0.540645 -0.35157 0.07544000000000001 -0.38354 -0.0454185 0.0700615 0.171955 -0.006670000000000009 0.332515 -0.029149 -2.2561999999999998 -0.145259 0.41661 0.169645 -0.021204999999999974 -0.551205 0.44177 -0.213833 -0.286975 -0.15142 0.37918 -0.39091 0.0885475 -0.135855 -0.37487000000000004 -0.11437499999999999 -0.40207000000000004 0.165257 -0.1762145 0.57616 -0.056245 0.0544785 -0.01557 -0.037540000000000004
airfield -0.31233 -0.12677 -0.15524 -0.17197 -0.12394 -0.12228 0.071662 0.060244 -0.34378 -0.6573 0.0031444 0.2847 0.54013 0.15747 0.44098 0.23628 0.31732 0.27134 0.030255 -0.3767 -0.054975 -0.18528 0.24936 -0.54216 0.033894 -0.0075074 -0.22846 -0.23858 -0.47575 0.69391 0.25441 -0.38598 -0.14833 0.72818 1.107 0.15588 -0.6981 0.13762 0.56769 -0.29367 -0.23186 0.1974 -0.31784 -0.04331 0.55404 -0.10912 0.44655 0.43804 0.16634 0.29358 -0.12367 -0.46685 -0.14221 0.62979 -0.14296 -0.66412 0.21395 -0.26359 0.44373 0.12089 -0.3653 -0.73857 0.12843 -0.44828 0.27746 0.47617 -0.1856 0.27447 0.19549 -0.45829 -0.56248 0.44216 -0.082828 -0.62465 -0.7128 0.1327 -0.36037 0.63508 -0.081159 -0.66632 0.29978 -0.044544 -0.29633 0.11821 -0.15689 -0.38165 -0.064178 -0.173 0.47631 -0.21702 0.46633 0.4419 0.54138 -0.35855 0.17969 0.15643 -0.37701 -0.088456 -0.45961 0.73049 0.050084 -0.55986 -0.36615 0.74617 -0.00050395 -0.15261 -0.22138 -0.10738 -0.10934 0.34299 -0.40067 -0.23529 0.074093 -0.42793 -1.1253 0.10665 -0.062711 0.32624 0.15167 0.17132 -0.18536 0.42576 0.39443 -0.37657 -0.023261 0.17387 -0.51501 0.13882 0.068064 -0.086921 0.5495 0.49404 -0.10123 -0.18528 0.06055 -0.42393 0.41674 -0.5953 -0.50116 -0.94661 -0.21719 0.21319 -0.38877 0.088261 -0.18948 0.2038 0.32564 0.40664 -0.26547 -0.14303 0.34085 -0.64876 -0.14706 -0.25023 0.82825 -0.0063583 0.69925 0.38672 0.67449 0.38065 0.22845 -0.8954 -0.058729 -0.68799 0.12928 -0.23765 -0.016502 0.17197 0.19926 0.032919 0.06991 -0.40521 1.2805 -0.39278 -0.46992 0.76705 0.61545 -0.59097 0.12396 0.056027 -0.13539 0.90093 0.15284 0.0639 0.06104 0.52722 0.075477 -0.12333 0.32041 0.17312 0.015816 0.85949 0.062921 -0.69696 0.1815 0.024252 -0.25121 -0.040613 -0.055442 -0.18054 0.13942 -0.82707 -0.43636 -0.088566 0.20653 0.83623 0.026713 -0.53498 0.23721 0.53308 -0.10441 -0.0087295 -0.48056 -0.3025 -0.18846 -0.12215 -0.48326 0.071537 -0.52942 0.079737 0.64319 -0.41202 0.70671 0.04644 -0.42761 -0.00018123 0.27851 -0.16977 -0.12667 -0.57363 1.0184 -0.17356 -0.037175 0.33955 0.26025 0.16899 -0.15951 0.33374 -0.36551 0.97692 0.14531 0.084836 0.4527 -0.56492 0.64102 0.045164 0.046199 -0.26312 0.20626 -0.1016 -0.24978 0.029134 -0.44593 -0.25658 0.34608 0.094894 -0.29727 0.056115 -0.082367 -0.63784 0.32116 0.55474 -0.27199 0.02508 -0.26968 -0.095524 -0.24426 -0.26442 0.84493 0.42451 0.93422 0.234 -0.18372 -0.15258 -0.37838 -0.012849 -0.87712 0.21899 0.21372 0.18999 -0.78659 -0.19178 0.083456 -0.29792 0.14944 -0.6474 -0.080894 0.52894 -0.36628 0.34828 -0.05825 0.051633 -0.33786 -0.54272 -0.37536 0.64706 0.29296 -0.56916 -0.26857 -0.051541
airlock 0.50016 0.27724 0.2986 -0.094824 0.00036284 -0.064377 -0.16196 -0.072462 -0.058686 0.20482 -0.017657 0.10541 0.51185 -0.15318 -0.63318 0.3714 0.26376 -0.048846 0.061777 -0.0019377 -0.38296 -0.69588 -0.29189 -0.37777 0.70312 -0.27129 0.88134 0.22095 0.20751 0.027591 0.2529 -0.61552 0.50507 -0.42229 -0.11432 0.75337 -0.46538 0.23462 -0.31253 0.54059 -1.0362 0.81142 -0.051681 -0.13868 -0.48629 1.1135 0.24288 -0.46017 -0.80389 0.31945 -0.24987 0.2377 -0.10241 -0.43202 -0.17266 -0.33203 0.56993 0.79698 -0.13803 0.3255 -0.028605 -0.46935 0.029404 -0.40412 -0.51443 0.22547 0.32563 -0.15411 -0.18244 0.044686 0.082416 -0.30119 0.26181 -0.41168 0.255 0.22386 -0.044749 0.36095 0.43349 -0.25044 0.19845 0.098415 0.22619 0.18505 0.061028 -0.33316 -0.13498 0.4135 -0.60237 -0.4153 -0.037254 -0.46467 0.12399 0.40995 -0.34996 -0.98092 -0.54066 0.00046052 0.042702 -0.4264 -0.012812 0.021442 -0.23119 0.13793 1.0488 -0.0833 -0.26939 -0.068308 0.029394 0.051607 0.29882 1.05 -0.36884 0.19506 -1.1482 -0.12984 -0.10968 0.27838 -0.33629 0.4374 0.34462 -0.33437 -0.23612 0.19807 -0.12293 -0.46975 -0.94114 -0.15453 0.25304 0.17167 0.30753 0.06672 0.15337 -0.33262 -0.48441 0.050787 -0.11337 0.16488 -0.07367 -0.38201 0.19949 -0.60858 0.36221 0.24351 0.13536 -0.82938 -0.24698 0.15804 0.05985 -0.22654 -0.062857 0.031143 0.35049 -0.10691 0.78911 -0.20293 0.291 0.65309 0.17606 0.43996 0.31351 0.57776 0.035722 0.84716 0.82638 -0.63434 -0.045854 -0.48155 0.40363 -0.43229 -0.21312 0.15184 0.82145 0.59802 -0.48067 0.24845 -1.1395 0.81792 -0.38548 -0.52573 0.28184 0.51385 0.059326 0.043613 0.60368 0.20527 0.67491 0.19389 -0.084401 -0.048197 -0.6821 0.12006 0.17394 0.41566 0.28679 0.37956 0.3321 0.19303 -0.30546 0.60408 -0.42708 -0.35815 0.98106 -0.080304 0.29591 0.10079 0.1078 -0.16717 0.58712 0.24302 0.35424 0.054078 -0.20334 -0.0082594 0.48943 -0.64062 0.34898 0.30471 -0.60366 -0.22055 0.50304 0.24251 -0.19146 -0.58664 -0.26663 -0.26166 -1.0251 0.069092 0.078786 -0.055566 -0.23158 -0.30177 -0.50948 -0.21497 -0.15551 0.02456 0.080811 0.087639 0.060358 -0.023191 0.57964 0.57763 -0.51689 0.11523 0.36299 -0.34523 0.47593 -0.38446 -0.15728 -0.70348 -0.57003 0.16592 -0.28897 -0.47035 -0.80131 0.50804 -0.23654 -0.67995 0.76432 0.75593 0.94722 -0.4426 -0.24783 -0.033554 0.6319 0.69644 0.075229 0.018036 0.58837 0.26215 0.14936 -0.020901 0.059883 -0.57087 -0.32046 -0.35551 0.39391 -0.18357 -0.12215 -0.1402 -0.28764 -0.36995 -0.12825 0.58774 -0.70341 0.29344 -0.69783 0.23512 0.21463 -0.62832 -0.46695 -0.094801 0.19047 0.0050036 -0.10935 -0.36611 0.11208 0.74204 -0.68102 0.63101
airplane_cabin 0.184695 0.17849 -0.3117 -0.4131705 -0.463735 -0.09177 0.0005849999999999987 0.18216500000000002 -0.136541 -0.700155 -0.49199000000000004 0.12314549999999999 0.119395 -0.44836 -0.169185 0.35077 0.42828499999999997 -0.043945 -0.1370825 -0.12862 0.317635 0.57717 0.31159499999999996 0.32936 -0.41515 -0.17821499999999998 0.152455 -0.35354 -0.334455 0.08044000000000001 0.06329000000000001 0.030735 -0.3582 -0.245805 -0.075218 0.36833499999999997 -0.5138199999999999 -0.362165 0.053351199999999994 0.4208 -0.650115 0.08345749999999999 0.221895 0.12906 -0.3407 0.07269125000000001 0.585195 -0.254785 0.27285000000000004 -0.234666 0.55386 -0.463025 0.09485500000000001 0.002590000000000009 -0.531145 -0.011989 0.081668 -0.19842500000000002 0.09696300000000001 0.146095 -0.26070805 -0.046261 0.36623 0.0645455 -0.28688 -0.406654 -0.2947865 -0.34748 -0.0225155 0.0018350000000000033 0.17182499999999998 -0.29041 -0.007549999999999998 0.2288945 -0.26253 0.021126500000000003 -0.50622 0.306725 -0.346195 0.13488 -0.59406 0.336495 0.29939 0.13443 0.10611399999999999 -0.205155 0.18041403 0.06982000000000001 -0.63308 0.026865 0.65546 0.19377000000000003 0.12519349999999999 0.02152000000000001 0.38509000000000004 -0.176635 -0.21958399999999997 0.222785 -0.19224000000000002 0.258 -0.4305575 0.38605500000000004 0.12696000000000002 -0.03404 0.037925 -0.317925 0.096744 0.11934000000000002 -0.256675 -0.1244555 -0.563075 0.0156175 0.2213185 -0.2707775 -0.55414 -0.37032 0.26003 0.500955 -0.588775 -0.116899 -0.15223 -0.47528000000000004 0.05711500000000001 0.016335000000000002 -0.268465 0.06376799999999999 0.014899999999999997 -0.35283 0.454575 -0.04095 0.304425 0.6064 0.22577766 -0.173005 0.5094449999999999 0.49798 -0.5665849999999999 0.222395 -0.82938 -0.34691 -0.0636585 -0.25866 -0.1720125 0.12114050000000001 -0.378975 -0.37168199999999996 0.329465 0.159615 -0.268385 -0.0477983 0.629535 0.29649 0.08947 -0.22749 0.7729349999999999 0.21524949999999998 0.2088035 0.5323599999999999 -0.011789999999999995 0.002343999999999999 0.39447 -0.48078 -0.1750015 0.20289000000000001 0.11635029999999999 0.104851 0.1309965 0.148958 0.03245500000000001 -0.002824999999999994 -0.509575 -0.03143499999999999 0.29789 0.29500000000000004 -0.403965 -0.13943 0.034275 -0.25209 0.2053975 -0.42933 0.715435 0.17078500000000002 0.24203999999999998 0.15183449999999998 -0.354995 -0.55324 -0.055537 0.5146299999999999 0.06935150000000001 0.29422 0.1186 0.277315 -0.479445 -0.40166 -0.21821100000000002 -0.15644 -0.338655 0.40548 -0.45460999999999996 -0.24348999999999998 0.15065 0.03761999999999999 0.08221 -0.33482 0.43949499999999997 -0.35002500000000003 -0.026319999999999996 -0.026024999999999993 -0.259555 0.0918465 -0.27003 -0.22086299999999998 -0.2583 -0.1787 0.235825 -0.483275 -0.16137549999999998 0.254245 0.013424999999999992 0.09933499999999998 0.31667500000000004 0.245095 0.3285 -0.0800225 -0.009929999999999994 0.304206 -0.1889015 0.011457499999999999 0.03159700000000001 -0.31924 -0.057765 -0.248689 0.049385 0.113945 0.6812050000000001 -0.254135 -0.19569 0.1084075 -0.547945 0.053593 0.68197 0.19720100000000002 -0.298505 0.1743045 0.16266999999999998 -0.636115 0.25509 -0.0654965 -0.005975000000000008 0.47626 -0.61956 -0.095251 -0.0754245 0.131085 0.30948 0.45777 -0.015569499999999998 -0.1235605 0.46475500000000003 -0.297003 0.141775045 -0.44079499999999994 0.138117 -0.158812 0.12274000000000002 0.139574 0.207575 -0.09807550000000001 -0.073494 0.26527 0.499755 0.27838450000000003 0.010457000000000001 -0.00247 0.16472599999999998 -0.32404 -1.20425 0.26027 -0.25709 -0.28359015 -0.5632600000000001 0.204745 0.08149999999999999 -0.184775 -0.016223 -0.0988705 0.100795 0.3229265 -0.32656 -0.0715745 0.33038999999999996 -0.316805 -0.23627499999999999 -0.61139 -0.17292999999999997 0.27237999999999996 -0.50346 0.138669 -0.18786 0.42818500000000004
airport 0.043208 -0.42214 -0.038634 -0.20321 0.013715 -0.33612 -0.039051 0.68539 -0.087348 -1.2703 -0.47131 -0.045159 0.51426 0.0034706 0.58547 0.15513 0.31187 0.30021 -0.016186 -0.60688 -0.30388 -0.15595 -0.12538 -0.46801 -0.49277 0.52055 -0.52476 0.44421 -0.26884 -0.21784 0.66716 -0.18537 -0.43184 0.93874 -0.36606 -0.14195 -0.49685 0.070899 -0.19283 -0.52956 -1.108 0.20113 0.1373 0.51847 0.11728 0.38941 0.51914 0.4127 -0.36735 0.5882 -0.026619 -0.79818 -0.066448 0.131 -0.080568 0.27938 0.2465 -0.132 0.34887 -0.64843 -0.46946 -0.15985 -0.09982 0.23854 -0.17288 -0.042605 -0.2922 0.091812 0.3201 -0.31274 0.21542 -0.083214 0.57369 -0.44186 -0.0027464 -0.15883 -0.23368 0.2366 0.60033 -0.049821 -0.32664 0.014515 0.38607 0.36695 -0.2357 -0.64938 -0.11627 -0.48395 -0.017227 0.026273 -0.027936 0.32695 0.0092348 -0.23088 0.21813 -0.063861 -0.45327 -0.14737 -0.2559 0.49591 0.055601 -0.43147 -0.4747 -0.027517 -0.34304 -0.28206 0.099386 0.16622 -0.44916 0.21423 -0.059812 -0.34284 0.36845 -0.47666 0.09709 0.14687 0.34279 0.33926 -0.41737 -0.49279 -0.17448 -0.4601 0.13323 -0.39189 -0.73308 -0.43812 0.26781 -0.15749 0.38521 -0.25326 0.65444 0.21743 0.20293 0.22941 0.38374 -0.17692 0.083249 -0.80586 -0.19619 -0.64567 -0.84399 -0.1587 -0.39311 -0.12187 0.16253 -0.22152 0.86736 0.51071 -0.4993 0.047752 1.5021 -0.25493 0.46703 0.3034 0.62666 0.26651 0.67199 0.39599 0.33074 0.13052 0.65298 -0.26308 0.046993 -0.016071 0.26349 -0.25674 0.50341 0.35931 -0.31306 -0.056334 -0.35528 -0.35239 0.94829 -0.19594 -0.34413 0.26543 0.045538 -0.98335 -0.21897 0.010315 -0.13518 0.31471 -0.010855 0.17252 -0.45942 0.1788 -0.082322 -0.10848 -0.47921 0.12506 -0.046532 0.63751 -0.031578 -0.70439 -0.6217 -0.39242 -0.2828 0.049552 -0.27316 0.39079 0.28339 -0.74338 0.049349 -0.24576 0.40215 -0.25182 0.12018 -0.42724 0.67445 -0.43793 0.028363 -0.46964 -0.083094 -0.13717 0.48425 -0.17937 -0.52168 -0.047007 -0.52682 -0.25041 1.3316 0.018431 0.90217 0.3376 -0.15029 -0.042969 -0.22288 -0.07291 -0.20044 -0.2619 0.79598 0.12833 0.04429 0.087661 0.37331 -0.078754 -0.26053 0.42962 0.19341 0.31308 -0.31031 -0.12642 -0.19968 -0.6112 0.49473 -0.086872 0.23758 -0.42702 0.1685 -0.41093 -0.025846 0.26475 0.16952 0.022694 -0.11845 -0.1073 0.45298 0.16276 -0.021203 -0.62201 0.49217 0.38818 0.34221 0.15667 0.22957 -0.37771 0.7948 -0.57261 0.31864 0.38905 0.91437 0.47122 0.043896 -0.12454 -0.014188 -0.29576 -2.192 0.0010112 0.15871 -0.054078 -0.48799 0.076633 0.25158 -0.55618 -0.21814 0.19 0.16022 0.48214 -0.34171 -0.15922 1.3129 0.26483 -0.6837 -0.44237 0.11632 0.45693 -0.11918 -0.59857 -0.43594 0.25322
airport 0.043208 -0.42214 -0.038634 -0.20321 0.013715 -0.33612 -0.039051 0.68539 -0.087348 -1.2703 -0.47131 -0.045159 0.51426 0.0034706 0.58547 0.15513 0.31187 0.30021 -0.016186 -0.60688 -0.30388 -0.15595 -0.12538 -0.46801 -0.49277 0.52055 -0.52476 0.44421 -0.26884 -0.21784 0.66716 -0.18537 -0.43184 0.93874 -0.36606 -0.14195 -0.49685 0.070899 -0.19283 -0.52956 -1.108 0.20113 0.1373 0.51847 0.11728 0.38941 0.51914 0.4127 -0.36735 0.5882 -0.026619 -0.79818 -0.066448 0.131 -0.080568 0.27938 0.2465 -0.132 0.34887 -0.64843 -0.46946 -0.15985 -0.09982 0.23854 -0.17288 -0.042605 -0.2922 0.091812 0.3201 -0.31274 0.21542 -0.083214 0.57369 -0.44186 -0.0027464 -0.15883 -0.23368 0.2366 0.60033 -0.049821 -0.32664 0.014515 0.38607 0.36695 -0.2357 -0.64938 -0.11627 -0.48395 -0.017227 0.026273 -0.027936 0.32695 0.0092348 -0.23088 0.21813 -0.063861 -0.45327 -0.14737 -0.2559 0.49591 0.055601 -0.43147 -0.4747 -0.027517 -0.34304 -0.28206 0.099386 0.16622 -0.44916 0.21423 -0.059812 -0.34284 0.36845 -0.47666 0.09709 0.14687 0.34279 0.33926 -0.41737 -0.49279 -0.17448 -0.4601 0.13323 -0.39189 -0.73308 -0.43812 0.26781 -0.15749 0.38521 -0.25326 0.65444 0.21743 0.20293 0.22941 0.38374 -0.17692 0.083249 -0.80586 -0.19619 -0.64567 -0.84399 -0.1587 -0.39311 -0.12187 0.16253 -0.22152 0.86736 0.51071 -0.4993 0.047752 1.5021 -0.25493 0.46703 0.3034 0.62666 0.26651 0.67199 0.39599 0.33074 0.13052 0.65298 -0.26308 0.046993 -0.016071 0.26349 -0.25674 0.50341 0.35931 -0.31306 -0.056334 -0.35528 -0.35239 0.94829 -0.19594 -0.34413 0.26543 0.045538 -0.98335 -0.21897 0.010315 -0.13518 0.31471 -0.010855 0.17252 -0.45942 0.1788 -0.082322 -0.10848 -0.47921 0.12506 -0.046532 0.63751 -0.031578 -0.70439 -0.6217 -0.39242 -0.2828 0.049552 -0.27316 0.39079 0.28339 -0.74338 0.049349 -0.24576 0.40215 -0.25182 0.12018 -0.42724 0.67445 -0.43793 0.028363 -0.46964 -0.083094 -0.13717 0.48425 -0.17937 -0.52168 -0.047007 -0.52682 -0.25041 1.3316 0.018431 0.90217 0.3376 -0.15029 -0.042969 -0.22288 -0.07291 -0.20044 -0.2619 0.79598 0.12833 0.04429 0.087661 0.37331 -0.078754 -0.26053 0.42962 0.19341 0.31308 -0.31031 -0.12642 -0.19968 -0.6112 0.49473 -0.086872 0.23758 -0.42702 0.1685 -0.41093 -0.025846 0.26475 0.16952 0.022694 -0.11845 -0.1073 0.45298 0.16276 -0.021203 -0.62201 0.49217 0.38818 0.34221 0.15667 0.22957 -0.37771 0.7948 -0.57261 0.31864 0.38905 0.91437 0.47122 0.043896 -0.12454 -0.014188 -0.29576 -2.192 0.0010112 0.15871 -0.054078 -0.48799 0.076633 0.25158 -0.55618 -0.21814 0.19 0.16022 0.48214 -0.34171 -0.15922 1.3129 0.26483 -0.6837 -0.44237 0.11632 0.45693 -0.11918 -0.59857 -0.43594 0.25322
airport_terminal -0.017425 -0.2137549 -0.056068 -0.241965 -0.0686475 -0.036424999999999985 0.0744895 0.5197400000000001 -0.073226 -1.023665 -0.51292 -0.1682345 0.26854700000000004 -0.1570147 0.5267200000000001 0.36393 -0.19752999999999998 0.22793 0.185182 -0.550535 -0.521335 -0.24980000000000002 -0.28883000000000003 -0.25592149999999997 -0.5292749999999999 0.51498 -0.36538 0.38000999999999996 -0.229085 -0.249865 0.6593549999999999 0.29142999999999997 -0.139305 0.7462150000000001 0.03223999999999999 0.039720000000000005 -0.354725 -0.23916050000000003 -0.032265 -0.08924000000000001 -1.0989 0.244465 -0.194805 0.230008 0.16286499999999998 0.1598625 0.5907800000000001 0.39654 -0.24604 0.51439 0.0410955 -0.32255 0.023446 -0.049699999999999994 0.020991000000000003 0.20458500000000002 0.43972999999999995 0.131325 0.1551325 -0.464055 -0.29695 0.134735 0.25934999999999997 -0.155335 -0.252675 0.060742500000000005 -0.442995 0.133576 0.389985 -0.08069000000000001 0.1631 0.017813000000000002 0.75351 -0.59631 -0.0445657 -0.008275000000000005 -0.358575 0.025055000000000008 0.3392715 -0.1088055 -0.152716 0.1471025 0.162998 -0.078015 0.067255 -0.223325 -0.127685 -0.50205 -0.1035985 0.2450415 0.036517 0.28025 -0.11681760000000001 -0.19690000000000002 0.08098549999999999 -0.011821500000000002 -0.34347 -0.0931905 0.26488 -0.04034499999999999 -0.0296395 -0.37236 -0.307305 -0.2494885 -0.23873 -0.035869999999999985 0.380313 -0.063315 -0.13184 0.076399 -0.146931 -0.01685499999999998 0.46392 -0.18524999999999997 0.15594 0.054428000000000004 0.177559 0.44005500000000003 -0.4188 0.09498500000000001 -0.21866000000000002 -0.694775 -0.0033500000000000058 -0.156078 -0.26619 -0.27378 0.005144999999999983 -0.25321499999999997 0.44459000000000004 -0.228815 0.7819050000000001 0.314 0.113038 0.011620000000000005 0.395585 -0.24594500000000002 0.4481295 -0.5670850000000001 -0.382225 -0.19607499999999997 -0.76878 -0.13468 -0.34158 0.025355000000000003 0.055170500000000004 -0.34657499999999997 0.14304500000000003 0.38282 -0.262447 0.15635100000000002 0.926385 -0.222595 0.630455 0.20366499999999998 0.512875 0.38817 0.5152 0.216246 0.10890499999999999 0.059662 0.37163 0.0072500000000000064 0.02055065 -0.1301105 0.2242 0.0031799999999999884 0.08596000000000001 0.32493 -0.335505 0.11668800000000001 -0.36106499999999997 -0.34386 0.899635 -0.324485 -0.23948 0.1409345 -0.085401 -0.93462 -0.096015 -0.37960750000000004 -0.34774 0.2599 0.1123475 0.17987999999999998 -0.33575 0.29982 0.10005900000000001 -0.20648499999999997 -0.304615 0.27276 0.10585400000000002 0.7682450000000001 0.207111 -0.37886899999999996 -0.460735 -0.149967 -0.37421499999999996 0.006606499999999998 -0.574345 0.40736 0.43908499999999995 -0.649265 0.05795549999999999 -0.47975999999999996 0.292735 -0.020839999999999997 0.05364 -0.2600635 0.8174250000000001 -0.381245 0.0821515 -0.49633499999999997 -0.007614000000000003 -0.013139999999999992 0.28144800000000003 -0.19376 -0.14921 -0.0885135 -0.42233999999999994 -0.25313 1.00474 -0.13107950000000002 0.674945 0.398825 -0.008645 -0.2116545 -0.117962 -0.0742485 -0.1993 -0.209725 0.635535 0.06584275 -0.134905 0.1184955 0.2697 0.007664999999999998 0.04274 0.5213749999999999 -0.13661 0.09501000000000001 -0.38807499999999995 -0.31883 -0.0702955 -0.537845 0.12966 -0.270191 0.27771500000000005 -0.6577500000000001 0.19695000000000001 -0.38871500000000003 -0.194218 0.31366499999999997 -0.009399999999999992 0.242457 -0.1929 -0.141215 0.297425 0.19716499999999998 0.025771500000000003 -0.207885 0.2150655 0.10530500000000001 0.113195 -0.03171 0.371845 -0.1713585 0.5519449999999999 -0.6351899999999999 0.284055 0.36039 0.836925 0.32184500000000005 0.132613 -0.26 -0.091974 -0.460135 -1.8265000000000002 0.0330506 -0.06543500000000001 -0.02209175 -0.666185 -0.36065349999999996 0.08504450000000002 -0.46951 0.04694999999999999 0.23417 -0.008010000000000003 0.429075 -0.43503500000000006 -0.07733495 0.8088 0.07545 -0.63226 -0.31779 0.20764500000000002 0.531875 -0.144 -0.915285 -0.138325 0.103993
airport_ticket_counter 0.063114 0.2904 0.0779415 -0.263735 0.24975124999999998 -0.030914999999999998 0.19872975000000004 0.2633225 0.121118 -1.3593725 -0.151645 0.11940275 0.2941125 -0.19063785 0.44580000000000003 0.054371499999999996 0.30445875 -0.013973750000000007 -0.33029225 -0.2593185 0.07037 -0.1280775 0.16874250000000002 -0.48033 -0.2718225 0.29450550000000003 -0.0309025 0.097547 -0.2124925 -0.20753500000000003 0.10828749999999998 -0.3413275 -0.09287749999999999 0.01437250000000001 -0.92769 0.06199550000000001 -0.49951 -0.27846525 -0.22144250000000001 -0.2627335 -0.5374275000000001 -0.0292875 0.250665 0.320875 0.131885 -0.09354000000000001 0.33670600000000006 -0.32473 -0.13454325 0.20622999999999997 0.07130175 -0.443745 0.019983499999999998 -0.15539750000000002 -0.0770745 0.06268750000000001 -0.20390750000000002 0.23531745 -0.07583800000000002 -0.07378499999999999 0.07661000000000001 -0.23322500000000002 -0.0835225 -0.0220425 -0.31582 0.11836125 -0.2548575 -0.202012 0.0205925 -0.11275 0.374745 -0.01957175 0.3824225 -0.22096375 0.3384059 -0.23682999999999998 0.003077499999999983 0.0444138 0.02195275000000002 0.06205025 -0.2129145 0.22013675000000002 0.34719750000000005 0.07489499999999999 0.04504725 -0.41874500000000003 -0.18032549999999997 -0.10685500000000003 -0.31836175 -0.013461749999999995 0.07495149999999999 0.01971325 0.24271120000000002 -0.1125945 0.04312750000000001 0.33163475 -0.37023 0.039738499999999996 0.06303999999999998 0.14107699999999998 -0.25826225 -0.07393475000000001 -0.271742 -0.19661675 -0.1227425 -0.31064899999999995 -0.246261 0.0466 -0.006532499999999997 0.0013689999999999952 0.10254920000000001 -0.38081 0.1439745 0.10989500000000002 0.17206 0.113565 -0.0868325 0.24499824999999997 -0.3443775 -0.41755 0.2074775 -0.19279625 -0.046022499999999994 -0.259516 -0.38244999999999996 -0.10677099999999999 0.447585 0.09374774999999999 0.2546525 -0.05263999999999999 0.21281500000000003 0.010064500000000004 -0.1935325 -0.06928500000000001 0.15761 -0.02729249999999999 0.21494725 0.016252500000000003 0.015752500000000003 0.21796000000000001 -0.30727 -0.24949999999999997 -0.33157749999999997 0.09613149999999998 -0.2957175 0.4143375 -0.0495925 0.09151024999999999 -0.09135500000000002 -0.1923385 0.717844 0.0343705 0.4696 -0.24162999999999998 -0.10827 0.131135625 0.041534499999999974 0.23231000000000002 0.0663185 -0.09085349999999999 0.34570500000000004 0.018653000000000003 0.13160325 0.34669475000000005 0.277139 0.028839999999999998 -0.2221425 0.07669000000000001 0.29034000000000004 -0.03610225 0.06272775 -0.24397999999999997 0.038443000000000005 -0.558775 -0.39052725 -0.2786375 -0.166105275 -0.08745482499999999 -0.134705 -0.25321625000000003 -0.1294375 -0.023790000000000006 -0.18577625 0.12199 -0.058921 0.11345 -0.03516799999999999 0.2445 -0.2820535 0.14088 0.13804450000000001 0.45140749999999996 -0.2454435 -0.25935684999999997 -0.19635750000000002 -0.138175 -0.49258749999999996 -0.16513200000000003 -0.0929495 0.26419000000000004 0.18877249999999998 -0.1926875 -0.110569 0.1231905 0.056855 -0.1485575 -0.1652175 -0.2226225 0.20168 -0.058425000000000005 -0.15246625 -0.20260999999999998 0.018442000000000007 0.228465 -0.160665 -0.233538 -0.19954999999999998 0.049452249999999996 -0.163435 0.47995750000000004 0.3075675 0.24949775 -0.12315499999999999 -0.11011649999999999 -0.024529000000000002 -0.10679225000000002 -0.253415 0.024057500000000002 0.035634 -0.12181050000000002 0.20973250000000002 -0.133023 0.2647325 0.05805275 -0.004812499999999997 0.0045015000000000055 -0.1821275 0.1459925 0.19171749999999999 0.19356275 -0.42151249999999996 0.023495000000000002 -0.19774999999999998 -0.228096 -0.19324 -0.272413 0.3743575 -0.39661 -0.10647549999999999 0.112175 0.08070000000000001 -0.062067 0.2391725 0.388861 -0.011299999999999977 -0.17367749999999998 0.09586275 -0.17213 -0.03551825 -0.06559999999999999 -0.06580750000000002 0.1553425 0.283475 0.0840635 0.18339049999999998 -0.080574 0.058132500000000004 0.15287 0.294875 0.24078349999999998 0.47706249999999994 -0.13684249999999998 -0.244667 -0.0871615 -0.11864949999999999 0.032915 -1.9122750000000002 0.310528025 0.25422225 0.07822799999999999 -0.07323724999999999 -0.22286925000000002 0.2521025 0.011492500000000003 0.11602250000000003 0.100185 0.18567570300000003 -0.004677499999999987 -0.08532499999999998 -0.021738274999999998 0.39265999999999995 0.1302421 -0.37070000000000003 0.08256250000000001 -0.0717651 0.371165 -0.07937749999999999 -0.404915 -0.4426295 -0.031997499999999984
alcove -0.2214 0.11822 -0.43148 -0.19572 0.2706 0.53724 -0.48481 -0.74526 -0.06161 0.52171 -0.71432 0.92802 0.19211 -0.30445 -0.18622 0.53977 -0.36758 -0.46224 -0.12706 -0.27813 -0.5555 0.38232 -0.13239 -0.070559 0.2167 -0.13361 0.47349 -0.0075468 0.29702 -0.20881 0.52558 0.016846 0.063851 0.45114 0.6054 0.48855 -0.19685 -0.18988 -0.45761 -0.22042 0.23317 -0.074514 -0.75076 0.12477 0.004667 0.74622 0.51645 -0.06532 -0.026615 0.072482 -0.42066 0.26173 0.29093 -0.052599 0.20149 -0.23203 0.12235 0.21029 0.26137 0.4912 0.34219 -0.26056 0.37878 0.4852 -0.046073 -0.084915 0.27531 0.127 0.06869 -0.062742 -0.25592 -0.077488 0.33252 -0.87019 -0.39062 0.18155 -0.49595 0.13238 0.24361 -0.10476 0.34495 0.22781 -0.091255 0.05203 0.35754 0.36064 0.022395 0.0772 0.18608 -0.032395 0.20681 0.3369 0.59538 0.53081 -0.077453 0.29729 0.8299 0.26883 0.64957 0.20094 0.35644 -0.44811 -0.29678 0.13993 -0.10429 -0.22582 0.18919 -0.04282 0.34701 -0.58367 -0.083758 -0.15789 -0.30742 -0.075279 -0.32557 0.064177 -0.1399 -0.15518 -0.49801 0.11915 -0.057982 0.33291 0.18233 0.49185 0.068414 -0.43991 -0.28804 -0.54778 -0.063133 -0.71505 0.24296 -0.60446 0.41023 -0.44265 0.17852 0.11344 0.024902 -0.09212 -0.53938 -0.45941 -0.058739 -0.085412 0.12654 -0.30506 -0.037547 -0.53602 0.11198 -0.6226 0.37431 -0.54908 -0.47174 0.19044 0.016702 -0.20281 -0.14411 0.36249 0.64594 0.58227 -0.18733 0.036231 0.13946 0.11168 -0.021864 0.39247 0.68657 -0.16077 0.72173 0.01756 0.21639 -0.21838 -0.53605 -0.063658 0.70026 -0.75411 -0.73834 0.13761 -0.54818 0.50903 -0.40577 -0.88156 0.35227 -0.099965 0.55565 -0.31791 0.42491 -0.17218 0.41614 0.33386 0.28405 0.41515 0.38831 -0.38837 -0.1082 0.15504 0.36196 0.13133 -0.64777 0.19749 -1.2334 -0.45756 -0.18361 0.26237 0.075377 0.10687 -0.2375 0.29521 -0.49628 -0.08095 0.19788 -0.062078 0.05586 0.059306 0.4984 0.20458 -0.019791 0.4067 -0.41577 -0.40825 -0.32125 0.31286 0.13464 0.12119 -0.72954 0.01597 0.34434 -0.50064 -0.32403 0.065171 0.1603 -0.59316 -0.071228 -0.35128 -0.12785 0.14414 0.20291 -0.31723 -0.066985 0.0032656 -0.51527 -0.63332 0.57661 0.057217 -0.98265 0.14956 -0.71447 0.00032097 0.24625 0.3752 -0.643 -0.47396 0.22906 -0.20975 0.51245 -0.60879 -0.29739 0.69395 0.46636 -0.45514 -0.21257 0.24821 0.50465 -0.14332 0.41619 0.090856 -0.2815 0.21052 0.64608 0.20304 -0.074522 0.24094 -0.28071 0.056782 -0.13341 -0.2215 -0.23022 0.43349 0.56653 0.66001 -0.78351 -0.054746 -0.62721 0.378 -0.24926 -0.35615 -0.1497 -0.019022 -0.12907 0.14865 -0.2479 -0.17177 -0.074291 0.25506 0.34361 -0.20893 -0.15473 0.26349 -0.030613 0.25488 -0.078408 -0.22883
alley 0.3273 -0.2172 0.014705 0.054468 0.35799 0.074777 0.14201 -0.33409 0.19938 0.407 0.11686 -0.033274 -0.56776 -0.24165 -0.26317 0.3453 -0.051042 0.55404 0.21356 0.11928 0.167 0.17667 0.13902 0.29642 -0.068352 0.027298 -0.27599 -0.39206 0.4254 0.27457 0.26091 -0.19125 0.16985 0.28362 -0.43876 0.24951 -0.50178 0.46869 -0.5292 0.043993 0.21626 0.53871 -0.20951 0.61525 0.43408 -0.056528 0.75466 0.35369 -0.34667 -0.096761 0.017871 -0.23544 0.1056 0.098968 0.42057 -0.29427 -0.23178 0.39335 0.65885 -0.46382 -0.50859 -0.79633 0.014417 -0.035764 0.72744 0.025733 0.20734 -0.10859 0.058133 -0.19217 -0.45409 0.16102 0.16694 -0.26954 -0.51911 0.061912 -0.4266 -0.13331 0.30487 -0.58152 0.43949 0.01263 0.53181 0.12446 0.053735 -0.45647 -0.034079 0.24272 -0.027651 -0.25629 -0.040452 0.065672 0.022157 0.32117 -0.50969 0.92399 0.36391 -0.088847 0.14806 -0.34265 -0.34008 0.037647 0.28406 0.12865 0.49202 -0.18184 0.60582 -0.92366 0.13183 0.34163 -0.70733 0.070257 0.5844 0.354 0.43867 0.18051 -0.031469 -0.5965 -0.61637 -0.011414 0.20023 -0.10068 0.65727 -0.20729 0.36976 -0.012206 -0.13963 -0.1377 -0.10097 0.16297 -0.035816 -0.33887 0.19828 -0.053561 0.29843 -0.20588 0.24527 0.26658 -0.46328 0.0075713 0.13039 0.035249 -0.16322 -0.078264 -0.88655 0.39153 -0.22842 0.19594 -0.69389 0.21815 -0.51467 0.15115 -0.20751 -0.5949 0.29836 0.55736 0.081674 0.7389 0.54084 0.23519 0.53385 -0.1567 -0.29085 -0.5773 -0.25409 0.43002 0.0536 0.04578 -0.17859 -0.35101 -0.16478 0.026897 0.62385 -0.31644 0.019535 -0.28914 -0.68589 0.18593 -0.22616 -0.58909 -0.27306 -0.082585 0.28362 0.24928 -0.027878 0.029457 0.45563 0.14249 0.38009 -0.25349 0.15196 -0.1809 -0.45663 -0.058819 -0.26962 0.13597 -0.46136 -0.59509 -0.48471 -0.029711 0.96924 -0.22379 0.26854 -0.30087 0.024484 0.42961 -0.3043 -0.41716 0.13885 0.088527 -0.16223 -0.035854 0.086864 0.14673 -0.26053 0.34839 -0.1943 -0.16619 -0.34867 -0.12972 -0.1049 -0.25207 -0.066151 -0.34701 -0.21288 -0.073705 -0.20238 -0.45497 0.068301 -0.24689 -0.11475 0.012164 -0.2761 0.19347 -0.39106 0.16527 -0.12315 -0.28948 -1.0356 -0.19442 0.53393 -0.21642 -0.43347 0.29597 -0.6851 -0.12342 -0.053594 0.17387 -0.26184 0.050526 -0.043344 -0.29587 -0.35984 -0.2662 0.92407 -0.50757 0.14049 0.35838 0.39764 0.28096 0.077842 -0.16892 0.19392 -0.58327 -0.026791 -0.22998 -0.35278 -0.023515 -0.25296 -0.69678 0.067405 0.23046 0.11108 -0.1973 -0.17672 -0.41985 -0.72918 0.012319 -1.0083 0.48692 -0.67985 -0.37773 -0.51514 0.067046 0.3529 0.82819 0.40606 -0.2493 -0.47707 -0.59129 0.30101 -0.042172 0.097542 0.89398 0.038709 0.11918 0.19331 -0.14591 -0.2257 0.28082
amphitheater -0.035769 -0.029526 -0.41041 -0.29138 0.24703 0.26007 0.052061 -0.64241 0.1514 0.933 -0.48162 0.87884 0.18575 0.089798 -0.046669 0.29773 -0.39583 -0.25836 0.69127 -0.047398 -0.53069 -0.18822 -0.011812 -0.061752 0.26964 -0.070811 -0.32997 0.04149 -0.1454 0.70693 0.41312 0.31858 -0.072286 0.15233 0.52429 0.057296 -0.53332 -0.67278 0.57841 -0.23279 0.030364 0.15004 -0.31239 0.11785 0.65253 0.17728 0.86881 0.00061112 0.71655 -0.27557 -0.28159 0.037557 -0.22689 -0.17287 0.66601 -0.16085 -0.02633 0.048768 0.51574 0.16215 -0.47913 0.036478 0.34763 0.26493 -0.55984 0.15892 0.30789 0.48803 -0.47397 -0.32046 -0.070898 0.33908 0.73362 0.059797 -0.03952 -0.48977 -0.18491 -0.032411 0.38672 -0.40195 -0.08836 -0.27918 -0.43456 -0.025781 0.061307 0.66186 -0.013642 0.33158 0.38094 0.15815 0.16391 0.26483 0.24187 0.63657 -0.082756 -0.10128 0.68279 -0.11682 -0.58962 0.076417 0.20532 0.15838 0.036713 -0.23523 0.71457 0.38291 -0.42584 0.025882 -0.228 -0.89101 -0.080919 -0.12618 0.11194 0.29972 -0.85028 -0.41601 0.00022596 0.15756 -0.027147 0.35555 -0.2435 -0.0049387 -0.077123 0.42483 -0.29751 -0.29277 0.16135 -0.36302 -0.68899 -0.57521 -0.033936 -0.10995 0.33364 -0.093027 0.092231 -0.38027 -0.037804 0.14077 -0.013825 0.28201 -0.30716 -0.25671 0.26677 0.011165 0.37425 0.058243 -0.06478 -0.089593 -0.083069 -0.2707 -0.071521 0.1362 0.24262 -0.54604 0.03276 0.17834 -0.09707 0.4756 0.38256 -0.20219 0.50574 -0.28656 0.21073 0.26235 -0.20999 -0.093878 0.20609 0.33201 0.49626 -0.73641 -0.22519 1.0872 0.83597 0.44649 -0.00046432 0.38394 0.25404 0.30217 0.37456 -0.57166 0.19423 0.65782 0.57534 -0.54276 0.34093 0.0026323 0.12436 0.075025 -0.10031 0.39991 0.43957 -0.13579 -0.21251 -0.70128 -0.19126 0.4546 0.15565 0.214 -0.61993 0.35116 0.27357 -0.015976 -0.19203 -0.26352 -0.31471 0.13369 0.16408 -0.19605 0.11633 -0.10062 0.1239 0.9394 -0.18806 -0.62173 -0.84462 0.66448 0.039759 -0.33339 -0.61794 -0.41833 0.99386 0.20016 -0.2719 -0.07448 -0.40201 -0.099136 0.18805 -0.47067 -0.00074687 -0.84226 -0.11174 0.11533 0.44872 0.067478 0.27031 0.58197 0.012858 -0.25594 -0.17874 0.5817 0.31791 0.34524 -0.045869 0.1326 -0.98787 -0.18497 -0.50851 -0.01325 -0.26664 0.20708 0.71987 0.29227 -0.28695 -0.27992 -0.55837 0.12132 0.044237 -0.73313 0.44474 -0.42473 -0.12569 0.032702 0.53786 0.085575 0.10356 -0.28881 0.72991 0.77841 0.47703 -0.51047 0.36269 0.045009 -0.16669 -0.2121 0.83358 -0.55122 -0.46259 0.37128 -0.10469 0.35311 -0.40663 -0.52705 -0.022609 -0.2033 -0.49518 -0.14313 -0.48984 0.0040925 -0.012806 0.10885 0.55031 -0.040951 -0.5546 0.20013 -0.39276 -0.39667 0.016856 0.20205 -0.33992 -0.13775
amusement_arcade 0.1662995 -0.249429 0.24553 -0.38424 -0.0578325 0.80898 0.4177865 -0.555675 -0.12584499999999998 0.1397 -0.1636265 -0.457364 0.380015 -0.13283000000000003 0.41354 0.336565 -0.505695 0.035945000000000005 0.176685 0.142381 0.277495 0.21459 -0.080223 0.2065555 0.24471500000000002 0.578735 -0.31547 0.11968000000000001 -0.231055 0.28267 0.327765 0.38548499999999997 0.30462350000000005 -0.18734699999999999 0.142515 0.2871065 0.122145 -0.058808000000000006 -0.22707500000000003 0.078075 0.11112500000000002 0.444785 -0.06367500000000001 0.559475 0.4383 0.09114000000000001 0.9071100000000001 -0.722895 0.199185 0.18202000000000002 -0.33877999999999997 0.208765 -0.1824655 0.45432 -0.161225 0.0932265 0.10502900000000001 0.34525 0.19543500000000003 0.1889835 -0.039691950000000004 -0.04023499999999999 0.25208 -0.37988 0.121732 0.15977 -0.0202155 -0.07890899999999999 0.32647000000000004 -0.0913935 0.1613275 0.311706 -0.1181 -0.486595 -0.0353335 0.125344 -0.0075305000000000025 -0.194045 0.502545 -0.36827550000000003 0.345615 0.2884305 0.431898 -0.596075 0.488885 -0.24344500000000002 0.147503 -0.13578500000000002 0.118026 -0.129691 0.07609450000000001 -0.12552599999999997 0.335105 0.32038 -0.170785 0.23374 0.32821500000000003 0.19084 0.2162255 -0.8890450000000001 -0.073715 0.19893 -0.25514499999999996 -0.0536805 0.10179099999999999 0.10653000000000001 -0.24736000000000002 -0.35179499999999997 0.2002935 -0.2923555 -0.238809 -0.35367 0.1727395 0.133799 0.398785 -0.3799572 -0.176346 0.150495 -0.23162 0.854175 0.0510815 -0.42330999999999996 0.12104999999999999 -0.1552425 -0.088273 -0.060490000000000016 -0.32642000000000004 0.31781 -0.372235 0.106745 -0.16614 0.34907 0.5296350000000001 0.027069999999999997 -0.015565000000000023 0.415945 0.38497000000000003 -0.66824 0.336595 0.6235674999999999 0.14475 -0.207185 -0.479663 0.49393 0.648705 -0.1493846 0.246243 0.166781 -0.363045 0.175224 -0.2509595 0.1954225 -0.51603 -0.1692205 -0.0965 0.159241 -0.42972 0.64682 0.303705 -0.005945499999999999 0.333084 0.11341000000000001 -0.580895 -0.17495899999999998 0.42467 0.3565305 0.146815 0.570285 -0.0884255 -0.004194 -0.319975 0.038933499999999996 -0.33784000000000003 0.383395 0.28039000000000003 0.511775 -0.18502380000000002 0.047808 0.06161699999999999 -0.517865 -0.1822355 0.35141999999999995 -0.10028000000000001 0.1316745 0.40485499999999996 -0.040785 0.36632 -0.436905 0.17635499999999998 -0.18428 -0.22634500000000002 -0.334873 -0.059275499999999995 -0.15315569999999998 -0.47795 0.40305 -0.443355 -0.13308799999999998 -0.496705 0.34452 0.5951500000000001 -0.04327000000000002 -0.071681 -0.259595 0.29107500000000003 0.39329000000000003 0.08352499999999999 -0.08238 0.259245 -0.088397 -0.142875 -0.34809999999999997 -0.1906315 -0.20972999999999997 -0.3138685 0.11601700000000001 -0.261305 0.1782615 -0.08364484999999999 0.0749215 -0.208321365 -0.5998600000000001 -0.747135 -0.098003 -0.2501975 0.044161 -0.013114999999999995 -0.275445 0.085833 -0.15485100000000002 -0.04661 -0.30981000000000003 -0.36563500000000004 -0.37438000000000005 0.5435099999999999 -0.15808 0.661125 0.65789 -0.18903999999999999 0.305045 -0.19616 -0.383476 -0.114316 -0.16135549999999999 -0.33382 -0.356925 -0.362821 -0.003360000000000002 -0.158276 -0.089067 -0.220729 0.15852 0.18774000000000002 0.14998499999999998 -0.162811 -0.047115000000000004 -0.14309305 0.13957000000000003 0.073765 -0.68801 -0.513305 -0.731325 0.182435 -0.29303 0.1064155 -0.45904500000000004 -0.3151075 0.2669245 0.25602 -0.2017435 0.016880000000000006 0.17736 0.446565 -0.5476650000000001 0.15037999999999999 -0.1902325 -1.2666499999999998 0.711015 -0.454915 -0.21349100000000001 0.2301505 0.455935 -0.671495 -0.313635 -0.223883 -0.252345 -0.3495405 -0.20729199999999998 0.002705000000000013 -0.845945 0.442475 0.456385 -0.649365 0.42036100000000004 0.30375100000000005 -0.04690999999999998 -0.43707 0.283055 0.267465 -0.627625
amusement_park 0.2014795 -0.11952 -0.113265 -0.2150475 -0.157063 0.35755449499999997 0.5431349999999999 -0.2130875 -0.10328499999999999 -0.08057500000000001 0.09211849999999999 -0.06801399999999999 0.136839 0.42145999999999995 0.03106500000000001 0.335895 -0.250195 0.12053435 0.39306 0.11916099999999999 0.10736 0.10512780000000001 -0.1260663 0.458375 -0.14401 0.699695 -0.522775 0.29834000000000005 -0.38115 0.344815 0.738635 0.387445 0.1842335 0.17394300000000001 -0.01632 0.3104785 -0.293455 -0.022652000000000005 -0.354265 -0.45236 0.00037500000000000033 0.33623499999999995 0.040995000000000004 0.9929 0.088458 -0.23973 0.9172100000000001 -0.137895 0.587715 0.40712000000000004 -0.584135 -0.330715 0.014839499999999999 0.317095 0.28935 0.23262 0.442085 0.3248845 0.07393000000000001 0.09608 0.03681405 -0.129959 0.312095 0.05593000000000001 0.313102 -0.118325 -0.088519 -0.06428899999999999 0.17294500000000002 -0.29627000000000003 -0.1243975 0.483765 0.113095 0.07551000000000002 -0.330888 0.30127000000000004 -0.003578000000000005 -0.152205 0.37263 -0.2732655 0.2402995 -0.21556450000000002 0.171408 -0.377015 0.34143 -0.15344999999999998 0.06042600000000001 -0.11024 -0.016233 0.254364 -0.027277000000000003 -0.328535 0.558335 0.199185 -0.618795 0.11498499999999999 0.82855 -0.152715 -0.1708045 -0.428885 -0.17301 0.25823 -0.224545 -0.037083 -0.03921500000000001 0.198795 -0.08247 -0.156643 0.009779500000000003 -0.0873505 -0.258364 -0.65462 0.19122 0.2686 0.29777 0.0066853 -0.180676 0.34419 0.032742999999999994 0.6456905000000001 -0.1869635 -0.268235 0.04039999999999999 -0.1233825 -0.24743500000000002 0.14973999999999998 -0.082571 -0.0871 -0.47258999999999995 -0.153165 0.057005299999999995 0.453975 0.40837 0.24651499999999998 -0.27272 0.59014 0.53921 -0.44001 0.249805 0.1861325 0.1049 -0.57165 0.012192000000000001 0.29583950000000003 0.362328 -0.1523246 0.322958 0.0812875 -0.5576749999999999 -0.019894999999999996 0.3651955 0.40698999999999996 -0.655915 0.017259 0.37072 -0.197334 -0.554595 0.6355 0.03109999999999999 0.102702 0.3471485 -0.40098999999999996 -0.008355000000000001 -0.131629 0.23449499999999998 -0.3310995 0.1774725 0.39516 0.054934999999999984 -0.0010834999999999994 -0.19858800000000001 0.10596 -0.353725 0.25161049999999996 0.148615 0.397455 0.0767562 -0.236692 0.16088 -0.0658145 -0.012583999999999998 0.38466999999999996 -0.27562 -0.3413055 0.04961299999999999 0.14339000000000002 -0.09710999999999999 -0.35752500000000004 0.17847000000000002 0.154065 0.10607 -0.15166000000000002 -0.021082999999999998 -0.47839 -0.9235800000000001 0.64403 0.02549499999999999 -0.47385499999999997 -0.45936 0.459895 0.8898649999999999 0.0005049999999999916 -0.026426500000000006 -0.596095 0.253875 0.44202 0.36387 0.209115 -0.03727900000000001 -0.39917 -0.21263490000000002 -0.31498 -0.0948915 -0.500515 -0.0959985 0.105485 -0.25382 0.16601149999999998 0.07310515 -0.04767500000000001 0.341963635 -0.53463 -0.489585 -0.232353 0.018897500000000005 -0.15836 0.17879 -0.27094 -0.12632700000000002 -0.08500550000000001 -0.008684999999999998 -0.180845 -0.14747 -0.2673225 0.41973499999999997 0.06463 0.22172499999999998 0.271915 -0.112845 0.39294 0.005394999999999997 0.023034000000000006 0.117435 -0.1752075 -0.492135 -0.53653 0.117264 -0.301415 -0.05143500000000001 -0.28107499999999996 -0.247705 0.0710345 0.44284500000000004 -0.23278500000000002 0.152814 -0.37783 0.0029031 -0.44293 -0.248355 -0.630745 -0.34165999999999996 -0.73721 0.0730975 -0.269645 -0.07508500000000001 -0.2938095 -0.042013 0.557825 0.424375 0.1095815 0.25007999999999997 0.0017134999999999997 0.313799 -0.5465 0.623435 0.038250000000000006 -1.8362500000000002 0.757655 0.13543500000000003 0.171379 -0.14641949999999998 0.182774 -0.16175500000000004 -0.527385 -0.6885899999999999 -0.329935 0.1173845 -0.302145 0.02311500000000001 -0.411755 0.49411000000000005 0.09921999999999997 -0.781865 0.166686 0.113996 -0.44536 -0.15163500000000002 0.32331 0.342175 -0.03403999999999999
anechoic_chamber -0.02372000000000002 0.343445 -0.11529 -0.42647500000000005 -0.0033149999999999846 -0.65845 0.34652000000000005 0.016805 -0.378785 0.028490000000000015 0.092345 0.12376000000000001 0.12215500000000001 -0.12017699999999999 -0.075615 0.0374035 -0.012740000000000001 0.3835205 -0.216445 0.034425 0.027705499999999994 -0.4302025 0.14459 0.41698 -0.22160149999999998 -0.276715 0.4344 0.28323800000000005 0.04645500000000001 -0.0825895 0.18487699999999999 0.08224450000000001 -0.0915065 -0.28741714999999995 0.38236149999999997 0.269487 0.0025350000000000095 -0.31086 0.174515 0.393345 -0.037725 0.040092 0.07183500000000001 0.09781500000000001 0.027230000000000004 0.500855 -0.5706450000000001 0.136303 -0.094383 -0.228555 -0.512355 0.15597 -0.487305 0.712145 0.1049625 -0.289535 -0.45109 -0.1202195 0.447665 0.35340499999999997 -0.15207500000000002 -0.49426000000000003 0.03747999999999996 -0.18517999999999998 0.0110205 -0.542285 0.16265300000000002 0.0821085 -0.120259 0.153765 0.16083999999999998 -0.222316 0.057390000000000004 -0.23801 0.0315175 0.2209955 0.2851325 0.14984 0.4638415 0.028800000000000006 0.2545435 0.1571997 -0.07507499999999999 -0.30278499999999997 0.011470000000000008 0.46051000000000003 0.11949399999999999 0.083125 -0.280005 -0.2303155 0.26371500000000003 -0.312478 -0.53 0.2473 0.473085 0.13616699999999998 -0.045244999999999994 -0.14199499999999998 0.58157 -0.465765 -0.1219955 -0.29106000000000004 -0.6092949999999999 -0.4287045 0.23547500000000002 0.153035 0.012775000000000009 -0.378795 0.011034999999999996 -0.070965 0.642455 0.150167 0.046818500000000006 0.534125 -0.56838 -0.0741155 -0.03866999999999998 -0.21982999999999997 0.143235 -0.05709499999999998 0.1367225 0.13508399999999998 -0.35082 -0.22581999999999997 -0.0052199999999999955 -0.018369999999999997 0.10183199999999999 -0.24095 -0.176145 0.413535 0.13926225 -0.244535 -0.09432499999999999 -0.264985 -0.50433 -0.216887 -0.76207 -0.253069 0.048702499999999996 -0.2377595 0.403555 -0.18984499999999999 -0.49321499999999996 -0.2138055 0.139515 -0.6683049999999999 0.4229585 -0.29291500000000004 -0.085075 0.10175899999999999 -0.08508000000000004 0.035364999999999994 -0.370545 -0.63012 0.200895 0.38141899999999995 -0.43146 0.21977000000000002 -0.093333 -0.717805 -0.027658999999999996 0.547015 -0.2502665 0.07643199999999999 0.204787 -0.566045 0.10887999999999999 -0.306045 -0.15626299999999999 -0.141785 -0.05685499999999999 0.577575 0.37576 0.3047685 0.16806000000000001 0.6033850000000001 -0.384065 0.41529499999999997 -0.1607055 -0.1524915 0.009360000000000007 -0.42358700000000005 0.31732 0.065475 0.14917 -0.27178599999999997 0.28007000000000004 0.52073 -0.590525 -0.260755 0.35666 -0.18934499999999999 0.351515 0.110787131 0.140704 0.558055 0.37258 0.23704 -0.25289049999999996 -0.08009999999999999 -0.018089999999999995 1.06365 -0.22946 -0.323335 -0.13383 0.2496615 0.14401750000000002 -0.358699 0.0866002 -0.326314 0.527375 0.3348 -0.24066125000000002 -0.306185 0.29063 0.27954 -0.17400500000000002 -0.7797000000000001 -0.589145 0.14317675 0.280605 0.25177000000000005 -0.197576 -0.45352 -0.1873695 0.20150449999999998 -0.63383 -0.40139 0.098557 -0.541965 -0.03504455 0.10169800000000001 0.45410500000000004 0.17427954999999998 0.12810499999999997 -0.256375 -0.1608105 -0.1034775 -0.07171999999999999 -0.153113 0.0854043 0.460885 -0.1405335 0.48934 0.09336499999999999 0.51763 0.31802 0.6063000000000001 -0.62228 0.013761999999999996 0.224535 -0.335275 0.7708349999999999 -0.274015 -0.606205 -0.056855 0.199575 -0.376363 0.18582295000000001 -0.06465500000000002 -0.032564 -0.2857935 0.5756 0.0998375 0.137824 -0.068124 -0.23085499999999998 0.34552499999999997 0.2183125 -0.482095 0.069367 0.028848000000000002 0.48460000000000003 -0.155478 0.19587500000000002 -0.28956750000000003 -0.103155 0.301545 -0.23586499999999996 0.351605 -0.45523500000000006 -0.0735635 -0.8503099999999999 -0.0157565 -0.058860499999999996 0.24567999999999998 0.07934350000000001 0.18136000000000002 -0.26243500000000003 -0.210918 -0.27981 -0.039644999999999986 0.392679 0.056974999999999984 -0.111695 -0.17423 0.260588 -0.0990635 -0.2525485 0.42086999999999997
apartment_building -0.305685 0.118475 -0.6158349999999999 -0.45466 0.230935 0.332575 0.13131500000000002 -0.1341 -0.19937549999999998 -1.33239 0.1108065 -0.33497 0.39273 0.30705499999999997 0.040303500000000006 0.205294 -0.1061825 -0.0107245 0.185429 0.0721865 0.051023000000000006 0.0832595 0.3186137 0.261882 0.040401 -0.044341000000000005 0.10726350000000001 -0.03683 -0.527695 -0.008709999999999996 0.04147000000000001 0.466975 -0.270115 0.526575 0.0154765 0.3435245 -0.26558000000000004 -0.330845 0.2991735 -0.106436 -0.33289 -0.026524999999999993 -0.618885 0.579225 0.029465000000000005 0.031009999999999996 0.42428 0.321075 -0.08775115 -0.05117000000000001 -0.08961 -0.1713996 0.074515 -0.0566875 0.6828000000000001 0.06513500000000001 0.32135 0.06552000000000001 -0.35512 -0.323885 0.086785 0.021304299999999998 0.367375 0.26442 0.11484849999999999 -0.1178 0.31926 -0.03923499999999999 0.17285499999999998 -0.474735 -0.315735 -0.24089100000000002 -0.460275 0.25337 -0.5539350000000001 0.28695499999999996 -0.323705 -0.04087000000000002 0.30345 0.184285 0.017903499999999996 0.14984974999999998 0.007190000000000002 0.44561 0.2024825 0.1069125 0.012125000000000004 -0.23615 -0.078395 -0.1042315 0.57985 0.1501691 0.362225 0.446615 0.065791 -0.40908500000000003 -0.22827 -0.38438000000000005 0.25736000000000003 -0.50654 -0.44553499999999996 0.352955 -0.14867000000000002 -0.0117165 -0.12097350000000001 -0.0226288 0.563795 -0.1358741 0.041392 -0.161123 -0.5681700000000001 -0.13758399999999998 -0.11649099999999998 0.13387 -0.186708 0.271783 -0.16853 0.069265 -0.143335 -0.1741995 0.47081 -0.0821295 0.280445 0.27904999999999996 -0.04928 -0.405275 0.015127000000000002 -0.50051 0.1441845 -0.536895 0.194405 0.57013 0.153045 -0.016496000000000004 0.269013 0.1062255 -0.38661999999999996 -0.131513 -0.300125 -0.29303599999999996 0.0047599999999999865 -0.028232999999999998 0.1977825 0.87069 -0.261733 -0.45797 0.038292999999999994 0.398795 -0.52698 -0.047134 0.252484 0.379635 -0.015429000000000002 -0.0540895 -0.01612000000000001 0.39061999999999997 -0.12058800000000001 0.33091499999999996 -0.082249 0.21308975 0.52555 0.22622 0.30844 -0.20324350000000002 0.01802999999999999 0.098134 -0.074925 -0.0712855 0.438315 0.300775 -0.11858499999999997 -0.400955 0.012095000000000009 -0.12632500000000002 -0.05419499999999999 0.4987 -0.541595 -0.17605500000000002 0.1142465 -0.49266 -0.03394 -0.46435499999999996 0.026520000000000002 -0.139384 -0.23056500000000002 0.571925 0.1421215 0.308265 -0.0546985 0.684045 0.8493599999999999 -0.190475 -0.595535 -0.16145199999999998 -0.182345 -0.057636 -0.59714 0.114 -0.1491715 0.039393 0.38161500000000004 -0.563055 -0.0750155 0.034855 -0.18672450000000002 -0.336445 0.0848135 -0.22013449999999998 -0.21197 0.1435615 -0.178035 0.593595 -0.42845500000000003 -0.40864999999999996 0.125785 0.502305 0.008910000000000001 0.05548 0.02939855 0.043788 0.5360849999999999 -0.32727 0.0449965 0.432775 -0.02487365 0.025286999999999997 -0.16552 -0.05930500000000001 -0.1335305 -0.010039 0.1256705 -0.14068999999999998 -0.312145 0.18448949999999997 0.36103999999999997 0.05394 0.418535 0.30451 -0.189095 0.11467499999999999 0.46189 -0.132494 0.294195 0.25898770000000004 -0.07257 -0.11725 0.40490000000000004 -0.25525 -0.167236 0.018416500000000002 0.44686000000000003 -0.014899999999999997 0.304895 -0.04284500000000001 0.544495 0.091925 0.0428705 0.12009 0.328955 -0.11753849999999999 -0.308495 0.24585 0.16935050000000001 -0.49901500000000004 0.14276 -0.1897045 0.11426249999999999 0.036235 0.14650570000000002 -0.17873 -0.31934 -0.011266000000000002 0.0067000000000000115 -0.189645 -0.0372005 0.169215 -2.16265 0.53673 -0.07192499999999999 0.1359325 -0.258047 0.19824499999999998 0.170535 -0.25566 -0.11721000000000001 1.17208 -0.22553499999999999 0.68786 -0.1025485 -0.36835 -0.12395199999999998 -0.32223 0.01064000000000001 0.141128 0.423585 0.516245 0.2642895 -0.177639 0.268855 0.41096
apse 0.24725 -0.051097 -1.0629 -0.4738 0.3707 0.89191 -0.77418 -0.2126 -0.39541 0.43769 -0.74997 0.79221 0.30124 0.1251 0.041471 -0.19691 -0.42892 0.27685 0.1575 -0.71887 -0.15105 0.18499 0.43986 -0.44901 0.4654 0.27724 -0.00089374 -0.15076 -0.34642 0.098663 0.72871 0.99552 0.42448 -0.13192 0.30308 -0.056094 -0.21053 -0.35556 0.62954 -0.047805 -0.039983 -0.26498 -0.60602 0.39139 0.046515 0.27251 0.013445 -0.56861 0.047041 -1.1487 -0.078281 0.96697 0.30138 0.065011 0.0012439 -0.12992 0.25845 0.2801 0.095101 -0.34329 0.53961 -0.4371 0.26234 0.41791 -0.26016 -0.2258 0.33913 -0.1041 0.61754 -0.21069 -0.45872 -0.57748 -0.3494 -0.5533 0.46558 0.19936 -0.22064 -0.46346 0.0096181 0.23559 -0.29681 1.1359 -0.5892 0.40941 0.33209 0.44821 -0.42722 -0.40894 0.50644 0.20207 0.37685 -0.31306 0.088004 0.20025 -0.14928 0.023017 0.19274 -0.12075 0.44757 0.0072776 -0.26072 0.35226 -0.40957 0.1862 -0.27744 0.14974 0.054367 0.024065 0.18867 -0.47365 -0.95383 0.091086 -0.36163 0.051766 -0.073417 -0.52534 -0.76953 -0.56849 -0.62459 0.33345 0.11513 -0.26913 0.23231 0.49147 0.54823 -0.62026 -0.034415 0.55996 -0.16952 0.20953 -0.12215 -0.18035 -0.25018 0.70725 0.13363 -0.31593 0.78951 0.14355 0.069894 0.11552 0.017521 0.16965 -0.8211 -0.38184 -0.36867 -0.48937 -0.24028 0.30047 0.28423 -0.12322 -0.90261 -0.03576 0.65138 0.0014397 -0.65673 0.65652 -0.14523 0.5682 -0.25618 0.57142 -0.33193 0.42605 0.3824 0.16752 0.32373 0.38367 -0.47193 0.30605 0.61801 -0.42495 0.32572 0.33946 0.57098 -0.022798 -0.33217 1.3364 -0.19386 0.49701 -0.56579 -1.6464 -0.5659 0.51264 0.26266 -0.52373 0.77121 -0.43544 -0.19175 -0.36982 -0.027435 0.49266 -0.0056895 0.13664 -0.19181 0.53711 0.27928 0.99022 -0.32025 -0.023575 0.21804 0.40651 -0.11722 -0.64245 -0.25502 -0.66391 0.50034 0.48557 -0.49332 -0.10563 0.23558 -0.032108 0.65147 0.67261 0.45297 -0.45815 -0.053738 -0.47748 0.23405 -0.088099 -0.55505 0.48307 0.76286 -0.117 -0.1783 0.31938 -0.29219 -0.60776 -0.36555 -0.39809 0.45816 -0.18597 -0.13608 -0.071712 0.15258 -0.3565 -0.53792 -0.26434 -0.22379 0.19733 -0.10955 0.50995 -0.2894 0.43875 0.26864 -0.065157 -0.31994 -0.079283 0.2344 0.10632 0.43165 0.28889 -0.038564 -0.17903 0.25108 -0.43229 -0.60477 0.32216 -0.24376 -0.48714 0.082283 0.80704 -0.64766 0.16663 0.48725 0.68114 -0.044009 -0.24687 0.17394 0.19079 0.10344 -0.043148 0.1201 -0.42406 -0.21978 0.49312 0.046789 0.25229 0.43288 -0.14403 -0.14507 0.35699 0.21249 -0.0094156 -0.64324 -0.27957 -0.042713 0.014571 -0.1434 0.48489 -0.32225 -0.57838 0.0080932 0.064869 0.42222 0.28605 0.29818 -0.26456 0.46466 -0.35083 0.1494 -0.56802
apse 0.24725 -0.051097 -1.0629 -0.4738 0.3707 0.89191 -0.77418 -0.2126 -0.39541 0.43769 -0.74997 0.79221 0.30124 0.1251 0.041471 -0.19691 -0.42892 0.27685 0.1575 -0.71887 -0.15105 0.18499 0.43986 -0.44901 0.4654 0.27724 -0.00089374 -0.15076 -0.34642 0.098663 0.72871 0.99552 0.42448 -0.13192 0.30308 -0.056094 -0.21053 -0.35556 0.62954 -0.047805 -0.039983 -0.26498 -0.60602 0.39139 0.046515 0.27251 0.013445 -0.56861 0.047041 -1.1487 -0.078281 0.96697 0.30138 0.065011 0.0012439 -0.12992 0.25845 0.2801 0.095101 -0.34329 0.53961 -0.4371 0.26234 0.41791 -0.26016 -0.2258 0.33913 -0.1041 0.61754 -0.21069 -0.45872 -0.57748 -0.3494 -0.5533 0.46558 0.19936 -0.22064 -0.46346 0.0096181 0.23559 -0.29681 1.1359 -0.5892 0.40941 0.33209 0.44821 -0.42722 -0.40894 0.50644 0.20207 0.37685 -0.31306 0.088004 0.20025 -0.14928 0.023017 0.19274 -0.12075 0.44757 0.0072776 -0.26072 0.35226 -0.40957 0.1862 -0.27744 0.14974 0.054367 0.024065 0.18867 -0.47365 -0.95383 0.091086 -0.36163 0.051766 -0.073417 -0.52534 -0.76953 -0.56849 -0.62459 0.33345 0.11513 -0.26913 0.23231 0.49147 0.54823 -0.62026 -0.034415 0.55996 -0.16952 0.20953 -0.12215 -0.18035 -0.25018 0.70725 0.13363 -0.31593 0.78951 0.14355 0.069894 0.11552 0.017521 0.16965 -0.8211 -0.38184 -0.36867 -0.48937 -0.24028 0.30047 0.28423 -0.12322 -0.90261 -0.03576 0.65138 0.0014397 -0.65673 0.65652 -0.14523 0.5682 -0.25618 0.57142 -0.33193 0.42605 0.3824 0.16752 0.32373 0.38367 -0.47193 0.30605 0.61801 -0.42495 0.32572 0.33946 0.57098 -0.022798 -0.33217 1.3364 -0.19386 0.49701 -0.56579 -1.6464 -0.5659 0.51264 0.26266 -0.52373 0.77121 -0.43544 -0.19175 -0.36982 -0.027435 0.49266 -0.0056895 0.13664 -0.19181 0.53711 0.27928 0.99022 -0.32025 -0.023575 0.21804 0.40651 -0.11722 -0.64245 -0.25502 -0.66391 0.50034 0.48557 -0.49332 -0.10563 0.23558 -0.032108 0.65147 0.67261 0.45297 -0.45815 -0.053738 -0.47748 0.23405 -0.088099 -0.55505 0.48307 0.76286 -0.117 -0.1783 0.31938 -0.29219 -0.60776 -0.36555 -0.39809 0.45816 -0.18597 -0.13608 -0.071712 0.15258 -0.3565 -0.53792 -0.26434 -0.22379 0.19733 -0.10955 0.50995 -0.2894 0.43875 0.26864 -0.065157 -0.31994 -0.079283 0.2344 0.10632 0.43165 0.28889 -0.038564 -0.17903 0.25108 -0.43229 -0.60477 0.32216 -0.24376 -0.48714 0.082283 0.80704 -0.64766 0.16663 0.48725 0.68114 -0.044009 -0.24687 0.17394 0.19079 0.10344 -0.043148 0.1201 -0.42406 -0.21978 0.49312 0.046789 0.25229 0.43288 -0.14403 -0.14507 0.35699 0.21249 -0.0094156 -0.64324 -0.27957 -0.042713 0.014571 -0.1434 0.48489 -0.32225 -0.57838 0.0080932 0.064869 0.42222 0.28605 0.29818 -0.26456 0.46466 -0.35083 0.1494 -0.56802
aquarium 0.41207 0.27615 -0.46792 -0.17514 0.2075 0.23416 0.57375 -0.67979 -0.041528 0.42906 0.4088 -0.148 0.0090594 0.095178 0.22836 -0.23905 -0.11819 -0.42395 -0.45278 0.50173 0.15131 0.16408 -0.19031 0.25994 -0.033532 0.15129 0.08859 0.092099 -0.44799 0.33393 0.61785 0.031551 -0.39578 -0.10555 0.47196 0.17961 0.067873 0.018051 -0.35499 -0.40002 -0.54571 0.35727 -0.1584 0.68896 -0.61485 0.24406 0.73653 0.12501 -0.21122 0.29784 -0.34551 0.2294 -0.063313 -0.16817 0.10041 0.76857 0.063718 0.58965 -0.26137 -0.010505 0.038121 -0.34439 0.72714 0.072769 0.0034805 0.29759 0.14049 -0.17775 0.068832 -0.29732 -0.039453 0.24056 0.77912 0.028432 -0.17025 0.15847 -0.11367 0.073098 0.5561 -0.18714 -0.26932 0.12511 -0.59592 -0.45064 0.41025 0.69143 0.13735 -0.58862 -0.048768 -0.99772 0.02637 -0.27936 -0.21376 -0.16582 0.33621 0.50438 0.35779 0.26694 -0.21794 -0.4877 0.28691 0.19492 0.58528 -0.20429 0.70383 -0.07944 0.20685 0.14147 -0.033057 0.83785 0.026868 0.16422 -0.37641 -0.090613 0.11057 -0.38435 -0.15211 0.19935 -0.083696 0.84988 -0.3997 0.025468 0.011025 0.72743 -0.27176 0.35798 -0.30813 -0.32333 0.51207 -0.18544 0.40284 -0.14748 0.4544 -0.2815 -0.36799 0.60207 0.49164 -0.38874 -0.3179 0.51496 0.45985 -0.14713 0.018911 -0.18474 0.48576 -0.48827 -0.026454 -0.41711 -0.27056 0.14444 -0.0422 -0.29778 0.54991 -0.47139 0.11354 0.25506 -0.3966 -0.026876 -0.1071 0.33521 -0.2978 0.23928 0.33537 -0.11875 0.35365 -0.84937 0.99483 0.17289 -0.14162 0.065603 -0.23328 -0.28064 -0.21543 0.78711 0.61967 0.146 -0.19751 -0.4037 0.63254 -0.50467 0.14629 0.089738 0.026695 -0.18209 0.41352 -0.0063692 1.0724 0.0082812 0.81749 -0.15372 -0.17427 0.096201 -0.36063 -0.65563 -0.54113 0.62072 0.38017 0.41303 -0.21275 0.05123 0.21186 0.086741 -0.36388 -0.65599 0.097159 0.7136 0.25575 -0.38446 0.058501 -0.017436 0.22437 -0.30902 0.44935 -0.018057 0.69935 0.46522 0.067676 0.25072 0.31338 -0.57916 1.4202 -0.38289 -0.69126 -0.023064 0.04167 0.30585 -0.18153 -0.66837 0.38256 0.048193 0.041642 -0.10352 0.74604 -0.37333 0.38286 -0.48437 -0.014495 -0.055135 -0.49084 0.30541 -0.8516 -0.23347 -0.28959 -0.035133 -0.95063 -0.23664 0.60073 -0.041049 -0.31679 -0.12534 0.29235 -0.073672 0.070345 0.23491 0.097551 0.1778 0.17516 -0.67039 0.68107 -0.55724 -0.48033 -0.10902 -0.37071 -0.58117 0.24879 -0.034473 0.059182 0.50652 -0.12108 -0.19532 0.30667 0.48741 0.28545 -0.27918 -0.10151 -0.063224 -0.77664 0.36286 -0.33161 0.056443 -0.28998 0.32942 0.23023 -0.3589 -0.17246 -0.1085 -0.77473 -0.00015539 0.46036 -0.10089 0.13921 0.16166 -0.56128 -0.51172 0.12011 -0.19889 0.30225 0.28142 0.0085353 0.22289
aquatic_theater 0.149595 0.523303 0.052145000000000004 -0.1294845 0.40935999999999995 0.18652005000000002 0.1542 -0.1326255 0.181375 -0.115345 0.3051495 0.05995 -0.08557100000000001 0.307927 -0.0050050000000000025 -0.24505900000000003 0.0200235 0.436815 0.10841499999999998 0.40236 -0.420405 0.3455975 0.2489175 0.2879585 0.023464999999999993 0.34979 0.023395 -0.281987 -0.30657 0.961865 0.37124999999999997 -0.18507999999999997 -0.115859 -0.07444999999999999 0.0047800000000000065 -0.1851255 0.38135 0.2044255 0.18199 -0.080023 -0.53592 0.1377285 -0.20060999999999998 0.2977235 0.286625 -0.18676 0.167935 0.33037500000000003 0.2052805 0.34986049999999996 0.148695 -0.07851500000000003 -0.262175 -0.3785415 0.13718 -0.10531999999999997 0.215753 0.233415 0.25984 -0.11997750000000001 -0.11679149999999999 -0.2430455 0.459491 -0.1882674 -0.40739099999999995 0.18562 0.047577999999999995 0.4381 0.041822 -0.007945999999999998 -0.0850505 0.28507 0.44532000000000005 -0.1409365 -0.56922 0.04177499999999999 -0.14930135 0.121385 0.51384 0.16509999999999997 -0.14958 -0.06894700000000001 -0.286525 -0.49974 0.44674499999999995 0.043907999999999996 0.20784 -0.17428549999999998 -0.355375 -0.260285 0.22072175 -0.32754 0.4113105 0.36713850000000003 0.1336815 0.27043 0.210742 -0.126223 -0.11256549999999999 -0.646985 -0.19481 0.26583 0.14687499999999998 -0.2802295 -0.11888700000000002 0.21285700000000002 0.265295 -0.228945 0.32011 0.376965 -0.206265 0.153442 0.25497 0.29254 -0.1819235 0.008355000000000015 -0.06238500000000001 -0.24753000000000003 -0.097805 0.4925735 -0.29498850000000004 -0.108115 -0.227765 0.51402 -0.004475000000000007 -0.233095 0.036455 -0.06734500000000002 -0.1929085 0.113462 -0.109952 -0.22044000000000002 0.057582 -0.23368755 -0.0785225 -0.1645425 0.20457 -0.03747499999999998 -0.5176499999999999 0.865245 0.2567855 -0.05254350000000001 0.68713 -0.36231235 0.24236000000000002 -0.10347350000000001 -0.0498305 -0.07113349999999999 -0.647805 -0.028630000000000003 0.310523 -0.43422 -0.538135 -0.61485 0.183215 0.10261999999999999 -0.235 0.037305000000000005 -0.21073999999999998 -0.1158725 0.259215 -0.25060499999999997 0.234965 -0.35144000000000003 0.015735 -0.29761 -0.19618500000000003 -0.0897677 0.17539 0.083463 0.07485 -0.125956 -0.241498 0.513505 0.0805785 0.17207450000000002 0.035855 0.13023800000000002 0.34983 -0.47196499999999997 -0.134285 -0.0045550000000000035 -0.175085 0.13575500000000001 0.311465 0.47582500000000005 0.20564 0.009786000000000003 0.16739749999999998 -0.11812665 -0.50342 -0.03497 -0.457868 -0.2071255 0.08054650000000001 0.63547 0.22926000000000002 0.105755 -0.35407500000000003 0.2938005 0.7591720000000001 -0.0326195 -0.60877 -0.428895 0.29588000000000003 0.172858 0.269225 -0.2565605 -0.0630105 -0.08474500000000001 -0.33883 -0.219035 -0.52549 -0.40843999999999997 0.17198000000000002 0.45719000000000004 0.31418 -0.143795 -0.1430415 0.10012850000000001 0.06467999999999999 -0.12467500000000001 -0.44689 0.06299000000000002 -0.016249999999999987 -0.013965000000000005 -0.01236000000000001 -0.24312499999999998 -0.031129999999999998 0.0023100000000000065 0.374445 -0.0063 0.02479999999999999 -0.32952 0.26421 0.541655 0.46477999999999997 0.031185000000000004 -0.189938 0.09238 -0.2345585 0.15403499999999998 0.04025500000000001 0.34023000000000003 -0.81415 -0.162159 -0.11628500000000003 -0.289845 -0.5504199999999999 0.23766 0.23495 0.128709 0.029700000000000004 0.44182615000000003 0.408825 0.088736 0.5392600000000001 -0.0692165 0.794405 -0.1957 0.016450000000000006 -0.6446350000000001 0.251508 -0.463805 0.22681 0.021650000000000003 -0.18303 0.596455 0.4962 0.21445 0.28185 0.26279 -0.264825 0.223224 0.311702 -0.371105 -1.147785 0.11416950000000001 -0.1833 0.27278 -0.48099000000000003 -0.136855 0.0162826 -0.50593 -0.26068499999999994 0.08594000000000002 -0.1513 0.40018 -0.034595 -0.19568499999999997 0.162083 0.014386699999999999 -0.16612999999999997 -0.127209 0.0734775 -0.083385 -0.136186 0.1042215 -0.34441 -0.05163000000000001
aqueduct 0.61985 -0.063867 0.10683 -0.26305 -0.32467 0.8324 0.96839 -0.79682 -0.093846 0.22249 0.0032657 0.10309 0.0052726 -0.35548 0.27565 0.01695 -0.2913 0.28574 0.17631 -0.020466 -0.43331 -0.57736 -0.072805 0.15579 -0.051937 -0.76627 0.38217 -0.17788 0.030366 0.16459 0.2733 0.74231 0.16692 0.47368 0.88143 0.61155 -0.78078 0.2215 0.28298 -0.3241 -0.59725 0.17439 -0.21586 0.12849 0.14459 0.55078 0.56618 0.22304 0.87594 -0.23681 -0.88277 0.68654 -0.045956 -0.14912 0.27873 0.17108 -0.29995 0.10853 -0.20323 0.49027 0.23399 0.33393 0.20236 0.15321 0.097613 0.068879 -0.34404 0.41948 0.2815 -0.53824 0.71911 0.08106 -0.048327 -0.36597 -0.36643 -0.36623 -0.32373 -0.44404 -0.097639 -0.30611 -0.14239 -0.35271 -0.076462 -0.34545 -0.19071 -0.42565 -0.67839 -0.62288 1.1418 0.38897 0.13782 0.049401 0.84721 -0.36291 -0.89872 -0.50691 0.017374 -1.2442 -0.16369 0.50189 0.33608 0.26587 -0.62981 -0.18301 0.93248 0.043888 -0.13253 -0.59139 0.077833 -0.63945 -0.58981 -0.39928 -0.43096 0.46333 -1.0349 -0.42672 -0.27669 -0.47936 -0.38867 -0.39211 -0.13004 -0.30581 -0.29316 -0.038877 0.58243 -0.036009 -0.050067 0.047405 -0.53596 -0.054916 0.24354 0.34712 0.73151 0.8467 -0.41072 0.27824 0.11273 -0.29969 -0.88474 0.17304 0.038106 -0.15217 -0.25708 -0.40252 0.3003 -0.14522 0.23536 -0.001838 -0.3267 0.055314 0.26473 0.93108 0.013276 -0.26429 0.68647 0.031558 0.26042 -0.47399 -0.27306 0.2828 0.1067 0.027661 0.40161 -0.19348 0.28407 0.18341 -0.074858 -0.90021 -0.44131 -0.032463 0.69672 0.52508 0.48472 -0.042758 0.066382 0.60585 -0.14757 0.24386 0.45288 0.013533 -0.085312 1.0178 0.28079 -0.079274 0.39764 -0.1752 0.48842 -0.21036 0.91457 -0.13355 -0.30839 0.94631 -0.24063 -0.43646 -0.23683 -0.42864 -0.10686 -0.46634 0.17587 0.72124 0.19319 -0.081918 0.1968 -0.86748 -0.013159 0.62175 -0.43052 0.52814 0.1534 0.096909 0.30805 0.27662 1.0936 -0.75321 0.074191 -0.47989 -1.0306 -0.59463 0.35593 0.38029 0.32689 -0.75409 0.54945 0.064303 -0.19607 0.0037756 -0.30297 -0.31595 0.047715 0.39474 -0.042708 -0.30429 -0.01401 0.4295 0.0080614 -0.044859 0.60624 -0.38226 -0.37563 0.37672 -0.20088 -0.72336 0.42545 -0.26823 -0.54341 -0.48401 -0.11326 0.42363 0.11012 0.19983 0.059321 0.23601 -0.21052 0.0053515 -0.43158 -0.37047 -0.48258 -0.43657 0.62175 -0.56085 -0.12132 0.54839 0.11592 0.2674 0.17234 0.58509 0.69709 0.36889 -0.021054 0.14038 0.44552 -0.13416 0.06916 0.24488 0.016396 0.30812 0.13045 0.45377 0.3186 0.32399 0.43154 -0.031638 0.98121 -0.11965 -0.77237 0.052956 -0.24551 -0.44379 -0.71113 0.057479 -0.15999 0.12247 -0.55559 0.8226 9.0158e-05 -0.92876 0.012154 -0.87802 0.085737 0.51382
arch 0.23834 -0.37957 0.36808 -0.78334 -0.022668 0.14949 -0.015956 -0.13499 0.060803 -0.39301 -0.25954 0.35962 0.56822 -0.13028 0.55962 0.32839 -0.2231 0.16375 -0.0089323 -0.33173 0.17849 -0.37369 0.57155 0.3137 -0.50519 0.23866 -0.13103 -0.39278 -0.33838 0.40524 -0.49283 0.66701 0.53814 -0.39884 -0.074614 -0.078554 -0.22267 -0.49107 -0.022092 -0.16846 -0.28882 0.2674 -1.2403 -0.1358 -0.16998 0.26565 -0.13627 0.081745 0.17848 -0.50213 -0.14616 0.11144 -0.074035 0.065369 -0.0042907 0.5159 -0.017793 0.44869 -0.026942 0.15448 0.522 0.25568 0.18178 -0.10437 0.23594 -0.37638 0.31467 0.47436 0.48625 -0.25563 0.091301 0.066547 -0.05359 -0.12136 0.80667 -0.0295 0.03463 -0.26612 -0.82778 0.31101 0.44568 0.42316 -0.31772 -0.70423 0.59361 0.10144 0.31031 -0.16565 0.18025 0.30154 0.53446 0.46784 0.96295 0.44895 0.11608 0.5848 0.46683 -0.018518 0.2881 -0.14559 -0.093287 -0.30137 -0.14189 0.17384 0.22714 0.24885 -0.41232 0.26657 0.44558 -0.33172 -0.36302 -0.60956 -0.20832 -0.48039 -0.31097 -0.67357 -0.69368 0.20677 0.069093 0.02277 -0.32971 -0.58017 -0.31512 0.2304 -0.5727 -0.61962 0.24546 -0.24537 -0.018768 0.025182 0.068035 0.33846 -0.0073259 0.80937 0.067965 -0.072485 -0.030789 -0.34129 0.039826 0.25379 -0.11436 0.36755 -0.038406 0.045466 0.23279 0.22795 0.17526 0.054326 -0.19501 -0.44574 0.33112 0.14188 -0.71342 -0.1427 0.24469 0.10402 -0.12688 0.33198 -0.26821 0.54877 0.090226 1.0877 0.48948 0.081467 0.36204 0.48028 -0.253 -0.42454 0.38804 -0.3691 -0.1631 0.22196 0.020822 -0.44773 0.078414 0.27235 -0.67448 0.61212 -0.54532 -1.0993 0.50898 0.23834 -0.054651 0.060804 -0.079749 -0.018843 -0.3428 0.33437 0.3829 0.49514 -0.24044 0.25241 0.070678 0.37728 -0.31376 0.29764 0.60552 -0.61486 0.5632 0.63695 1.6017 -0.7567 0.073379 -0.60595 -0.14494 0.089826 -0.39961 -0.11102 -0.17405 0.42189 0.51625 0.071563 0.62014 -0.49197 0.0081321 -0.4452 -0.081964 -0.34772 -0.43346 -0.3293 0.54707 0.58886 0.50566 0.010783 -0.35059 -0.44968 -0.21894 0.38741 -0.55234 -0.23515 -0.49681 0.31075 -0.3345 0.12044 0.19575 -0.31143 -0.23357 -0.045641 0.38023 0.092269 -0.57258 -0.18522 -0.32328 -0.10326 -0.41494 0.64058 -0.40139 0.261 0.50553 -0.16553 -0.0040408 0.12451 -0.36235 -0.615 -0.41607 0.13372 0.090906 -0.5519 -0.28698 0.48064 -0.27622 0.081047 0.34327 0.29888 -0.15374 0.7242 0.43936 0.059276 0.58019 -0.043963 0.31947 -0.05407 0.62948 -0.50089 -0.46597 0.17807 -0.35502 -0.20939 0.34609 0.053136 0.28684 0.13716 0.083282 -0.59374 0.16457 0.2035 -0.35903 0.54766 0.25531 -0.23661 0.16824 0.32338 -0.15851 0.55193 -0.21447 0.63332 0.52497 0.090645 -0.4429 0.28394
archaelogical_excavation 0.3743165 0.27431 -0.0647165 -0.0505355 -0.221565 -0.26912 0.0341685 -0.867245 0.13269000000000003 -0.056205000000000005 -0.66859 0.1674606 0.67422 -0.034420000000000006 -0.31149499999999997 -0.07866699999999999 -0.106293 -0.10560499999999999 -0.28245 -0.1363 -0.429145 -0.42878499999999997 0.023923499999999993 -0.0412435 0.42896999999999996 -0.52716 -0.05587399999999999 -0.33314 0.0036350000000000132 0.43894500000000003 0.7207 0.21598850000000003 -0.044615 -0.451101 0.62364 0.2386115 -0.3911875 0.00033000000000001084 0.13136299999999998 -0.289968 0.39902 0.221209 0.52877 -0.40841 -0.38818 -0.1270485 0.210703 0.1483865 -0.210366 0.1719273 0.14398899999999998 0.0917125 -0.541225 -0.03498499999999999 -0.0783645 0.290845 -0.17172500000000002 -0.489925 -0.568345 0.26084999999999997 -0.597225 0.40245 0.011615000000000014 -0.21634 0.22076915 0.442095 0.538045 -0.384575 -0.178759 -0.11130500000000002 -0.32818600000000003 -0.00386705 0.11990635 -0.4812655 -0.417535 0.50745 0.230615 -0.08964599999999999 -0.08652500000000002 0.20509 -0.32867999999999997 -0.2051 -0.37544999999999995 -0.033198 0.45644000000000007 0.32637649999999996 0.296305 -0.08365500000000001 0.16138450000000001 0.042694 -0.04255 -0.013450999999999998 0.32248 -0.0980995 -0.243475 -0.2086 -0.349735 -0.16879 0.201821 -0.1942115 0.1218795 -0.09415499999999999 -0.321975 -0.45952950000000004 0.414335 -0.449405 0.025554999999999994 0.45026999999999995 0.8617349999999999 -0.46067499999999995 0.256445 -0.07258999999999999 -0.09642 -0.04165000000000002 -0.438875 -0.302875 0.10044499999999999 -0.04062000000000002 -0.006905000000000001 0.25738895 -0.12298300000000001 0.37955500000000003 0.061395000000000005 -0.3588305 0.25331 0.632815 -0.3184925 0.04553 -0.1434985 -0.098567 0.27684 0.27861500000000006 0.05757499999999999 -0.036629999999999996 -0.49863 0.160595 0.04383999999999999 0.41993 -0.22686499999999998 -0.1024 -0.147109 -0.248365 0.09513 -0.3893762 0.06069999999999999 -0.69735 0.008970000000000006 0.7580199999999999 -0.22371449999999998 0.03205999999999999 -0.133345 0.31446 0.15591000000000002 -0.2717065 0.309365 -0.0069149999999999975 -0.0466795 0.29248 0.08185 0.04557995 -0.1165715 0.30427 0.178975 0.41066 0.08876 0.047281500000000004 0.7141 -0.21337009999999998 0.2209 0.449585 0.230675 0.0904775 0.447075 -0.630455 -0.1755 0.924065 -0.54933 0.043068 0.24844999999999998 -0.61364 0.1591685 0.19080999999999998 0.034685 -0.06407650000000001 0.14822 -0.11399000000000004 0.56757 -0.3686255 0.105777 -0.363655 -0.04265000000000002 -0.38042000000000004 0.20155499999999998 -0.09430000000000001 0.2305585 -0.10852 -0.2770025 0.05131 0.40197499999999997 0.04419285 -0.546265 0.338345 -0.08945499999999999 0.48497999999999997 0.153495 0.0119825 -0.0607375 -0.37630949999999996 0.517685 0.016256500000000004 0.2773545 0.399445 0.031319 -0.186685 -0.43587 -0.49051500000000003 -0.664895 0.32767500000000005 -0.085513 0.20262 -0.202405 0.07452 -0.23052499999999998 0.00021999999999999797 0.37616445 0.10610205 -0.20928 -0.0038035000000000013 -0.18057 0.3062675 -0.2292535 0.05534750000000001 -0.23709000000000002 0.0573925 -0.1212235 0.25239999999999996 0.12669 -0.42812 -0.060704999999999995 -0.25062 0.202043 0.24338849999999998 0.24843200000000001 -0.49664 -0.62041 0.2095745 -0.011810000000000001 -0.049363 -0.36102650000000003 0.31628 0.577405 0.16287000000000001 0.34144 0.004624999999999997 -0.38962399999999997 0.1884275 0.24320999999999998 -0.196785 -0.630845 -0.124695 0.2686 0.409555 -0.04444250000000001 0.041045 -0.07462550000000001 0.51493 -0.009504999999999986 0.2248 -0.185341 -0.31966 0.487813 0.2872705 0.18745599999999998 0.17702 -0.062305 -0.319885 -0.16941499999999998 -0.1435 -0.3360038 0.23033 0.174083 0.11358499999999999 0.611415 -0.514995 0.24858399999999997 -0.3769535 0.4103025 -0.314494 -0.14469500000000002 0.070555 -0.48424 -0.225022 -0.3860525 0.6858949999999999 -0.267367 -0.26310500000000003 0.26085 0.12492199999999999 0.218065 -0.12990000000000002
archive -0.5235 0.20218 -0.26021 -0.011767 0.57614 -0.40048 0.040402 -0.3897 0.19804 -0.63423 -0.18135 -0.10543 0.49195 -0.19441 -0.29003 -0.74162 0.15966 -0.050894 0.2405 0.30682 0.92321 -0.55997 0.15289 0.45754 0.010028 -0.15 -0.058265 0.23581 -0.27361 0.37923 0.015289 -0.34436 -0.44308 0.61218 0.31147 -0.25922 -0.14071 0.056764 0.28586 -0.2554 -0.048787 -0.4274 0.12561 0.46203 0.18527 -0.076165 0.11452 -0.029438 -0.52079 -0.35826 0.11687 0.52168 -0.25975 -0.23154 0.37747 -0.10906 0.11359 0.034971 -0.60997 -0.050416 -0.86157 0.46455 0.052067 0.43367 0.68277 0.25178 0.12278 0.17214 0.3298 -0.12944 -0.33186 -0.16877 -0.16979 0.24724 -0.12058 0.14554 0.1719 -0.19093 0.15311 -0.016737 -0.80474 -0.0070785 -0.12144 -0.62811 -0.22353 0.359 0.047992 0.45142 0.31399 -0.76168 -0.37597 -0.27404 0.00091168 0.16452 0.4018 0.090568 0.192 0.11414 0.13747 -0.84566 0.24144 -0.16806 0.32439 -0.12031 0.064693 -0.24179 0.24462 0.12874 -0.10158 0.083765 -0.14154 0.2152 -0.51993 -0.2595 -0.58954 -0.10886 -0.082482 0.23697 0.60029 -0.40034 0.039622 0.58067 -0.17978 0.022512 0.51423 -0.01058 -0.51881 0.047509 -0.32741 0.16786 0.0039422 -0.1205 0.00029389 -0.38671 0.1595 -0.0039636 0.32768 0.49102 -0.21876 0.19291 0.15105 -0.34673 -0.0090254 0.0024689 0.87193 -0.37511 0.069456 -0.14252 -0.34852 0.26878 0.37377 0.005945 -0.1866 -0.39274 -0.32076 0.063608 0.19749 -0.056527 0.4682 -0.26087 -0.34409 0.068519 0.48162 -0.58358 -0.13955 0.3125 0.4089 0.14414 -0.40161 0.4406 0.49737 -0.52544 -0.95118 0.30857 0.19545 0.32182 0.012948 0.13583 0.72767 -0.80629 -0.32964 0.010183 0.2652 -0.34057 0.041955 -0.41307 0.26647 -0.31079 -0.24298 0.35012 0.025602 0.58387 -0.20819 -0.11685 -0.249 0.19612 0.17819 0.61125 -0.52176 0.45826 -0.33067 0.018525 0.041405 -0.27819 0.29811 0.013749 -1.0922 -0.55931 -0.20847 -0.59093 -0.044855 0.36018 -0.46746 0.6412 0.070174 0.26579 -0.73723 0.064978 0.14696 0.82839 -0.63978 -0.30207 0.015786 -0.3547 -0.069856 -0.10565 -0.017576 -0.0098726 0.10253 -0.14202 -0.36596 -0.34335 -0.091445 -0.41806 0.41329 -0.0074614 0.14999 -0.10589 -0.61551 0.072559 -0.090401 0.33006 0.47759 -0.15442 0.083763 0.31583 -0.31749 -0.069041 -0.24845 -0.25364 0.35357 -0.49477 -0.29566 -0.2959 -0.36864 0.15783 0.21355 -0.24679 0.2785 -0.1405 0.26345 0.99129 0.51145 0.62708 -0.0024125 -0.076418 -0.2712 0.2699 0.2939 -0.027425 0.058522 -0.13642 0.65373 -0.53965 -0.096976 -0.39415 -0.75804 0.15548 0.78337 0.010031 0.00044537 -0.53126 0.066734 -0.58976 0.36305 -0.26445 -0.64096 0.43401 -0.35126 0.32076 0.22808 0.12463 -0.59274 -0.058697 -0.059684 -0.063474 0.86561 -0.15927 0.013571 -0.23692
arena 0.56657 0.21642 -0.11517 -0.60307 0.83875 0.0057653 -0.082176 0.0042767 -0.33846 0.073218 0.2031 0.2967 0.5483 -0.59317 0.029747 0.40847 -0.47411 0.30097 0.32243 0.012267 0.01102 0.034075 0.31079 -0.089905 -0.11255 0.046032 -0.20674 -0.029375 -0.20717 0.27729 0.19143 -0.64575 -0.29961 -0.016324 -0.93489 0.32789 0.19611 -0.28974 0.54161 -0.3902 0.059965 -0.081541 -0.39287 0.69017 0.59481 0.39344 0.029435 0.13597 -0.011655 0.45732 -0.47202 0.46586 -0.64021 -0.75425 0.0059055 0.14457 0.23208 0.66459 0.65829 -0.045018 -0.18317 -0.40644 -0.47693 -0.29529 0.084675 -0.18139 0.10916 0.30979 0.15522 -0.35411 0.17575 0.8583 0.75713 0.22532 -0.031695 -0.13402 -0.1292 -0.1102 0.54636 -0.088209 0.25423 -0.073134 -0.39969 -0.29047 -0.070186 -0.34405 0.39685 -0.39925 -0.19053 -0.11142 0.42224 0.28896 0.62763 0.17178 -0.27475 -0.10703 0.021281 -0.034944 -0.17657 -0.50326 0.25404 -0.159 0.040375 -0.028115 -0.095671 0.075251 0.26783 0.21521 0.37299 0.50482 0.16087 -0.47681 0.24136 0.63892 -0.46815 -0.35367 0.39369 -0.024619 0.2727 0.13365 0.51255 -0.50084 0.29222 0.83797 -0.12634 -0.08676 0.44986 -0.20259 -0.078938 -0.45922 0.10019 -0.019839 0.22943 0.52699 -0.20165 -0.33842 0.27607 -0.057119 -0.11684 0.50708 -0.47758 0.30157 0.53008 0.38127 0.21292 0.091002 0.37323 0.25893 -0.55046 0.042171 0.19831 0.28853 -0.52043 -0.50262 -0.12846 -0.049288 -0.20476 0.68393 -0.42392 -0.22888 -0.20109 -0.14391 -0.20803 0.3024 0.17647 0.25611 0.045425 0.31253 -0.021371 -0.090532 0.33412 0.41703 -0.089041 -0.21719 0.011167 -0.058419 0.2716 0.12504 0.30435 -0.043043 0.66175 0.33627 0.19168 0.14025 -0.31307 0.14347 -0.049211 -0.05978 -0.3099 -0.25355 0.54802 -0.045103 0.19231 0.0035809 -0.17936 0.50239 -0.09138 0.39371 0.15266 -0.070411 1.4805 -0.28305 -0.19531 0.066977 -0.1971 -0.22673 0.48751 -0.069826 0.38788 0.2545 -0.06519 0.82724 -0.35032 -0.17015 0.064963 0.35493 0.0031763 0.099712 -0.77447 -0.50192 0.53603 0.23804 0.091972 -0.20979 0.27603 -0.16674 -0.069737 -0.14683 -0.069058 -0.26292 0.47033 0.19088 0.59004 -0.45156 0.38281 0.18414 0.14098 0.23318 -0.0015858 0.98888 -0.58966 0.14935 0.31388 -0.34934 -0.36095 0.0090835 -0.40579 -0.18149 -0.23073 0.30089 0.57311 0.69487 -0.8549 0.27332 -0.55089 -0.14953 0.54772 -0.19296 0.98973 -0.13027 -0.30274 -0.53964 0.58084 0.18659 0.11916 -0.022871 -0.054954 0.82741 0.1362 -1.0438 -0.078823 0.18215 -0.026093 -0.84152 0.62678 -0.28915 -1.8064 -0.17361 0.45843 0.50904 -0.043693 0.16861 0.045575 -0.037281 -0.095539 0.04492 -0.64815 0.55369 0.28229 -0.066076 0.55842 0.96704 -0.47129 0.34109 0.28937 0.24235 0.23314 0.078156 -0.039554 0.19416
arena 0.56657 0.21642 -0.11517 -0.60307 0.83875 0.0057653 -0.082176 0.0042767 -0.33846 0.073218 0.2031 0.2967 0.5483 -0.59317 0.029747 0.40847 -0.47411 0.30097 0.32243 0.012267 0.01102 0.034075 0.31079 -0.089905 -0.11255 0.046032 -0.20674 -0.029375 -0.20717 0.27729 0.19143 -0.64575 -0.29961 -0.016324 -0.93489 0.32789 0.19611 -0.28974 0.54161 -0.3902 0.059965 -0.081541 -0.39287 0.69017 0.59481 0.39344 0.029435 0.13597 -0.011655 0.45732 -0.47202 0.46586 -0.64021 -0.75425 0.0059055 0.14457 0.23208 0.66459 0.65829 -0.045018 -0.18317 -0.40644 -0.47693 -0.29529 0.084675 -0.18139 0.10916 0.30979 0.15522 -0.35411 0.17575 0.8583 0.75713 0.22532 -0.031695 -0.13402 -0.1292 -0.1102 0.54636 -0.088209 0.25423 -0.073134 -0.39969 -0.29047 -0.070186 -0.34405 0.39685 -0.39925 -0.19053 -0.11142 0.42224 0.28896 0.62763 0.17178 -0.27475 -0.10703 0.021281 -0.034944 -0.17657 -0.50326 0.25404 -0.159 0.040375 -0.028115 -0.095671 0.075251 0.26783 0.21521 0.37299 0.50482 0.16087 -0.47681 0.24136 0.63892 -0.46815 -0.35367 0.39369 -0.024619 0.2727 0.13365 0.51255 -0.50084 0.29222 0.83797 -0.12634 -0.08676 0.44986 -0.20259 -0.078938 -0.45922 0.10019 -0.019839 0.22943 0.52699 -0.20165 -0.33842 0.27607 -0.057119 -0.11684 0.50708 -0.47758 0.30157 0.53008 0.38127 0.21292 0.091002 0.37323 0.25893 -0.55046 0.042171 0.19831 0.28853 -0.52043 -0.50262 -0.12846 -0.049288 -0.20476 0.68393 -0.42392 -0.22888 -0.20109 -0.14391 -0.20803 0.3024 0.17647 0.25611 0.045425 0.31253 -0.021371 -0.090532 0.33412 0.41703 -0.089041 -0.21719 0.011167 -0.058419 0.2716 0.12504 0.30435 -0.043043 0.66175 0.33627 0.19168 0.14025 -0.31307 0.14347 -0.049211 -0.05978 -0.3099 -0.25355 0.54802 -0.045103 0.19231 0.0035809 -0.17936 0.50239 -0.09138 0.39371 0.15266 -0.070411 1.4805 -0.28305 -0.19531 0.066977 -0.1971 -0.22673 0.48751 -0.069826 0.38788 0.2545 -0.06519 0.82724 -0.35032 -0.17015 0.064963 0.35493 0.0031763 0.099712 -0.77447 -0.50192 0.53603 0.23804 0.091972 -0.20979 0.27603 -0.16674 -0.069737 -0.14683 -0.069058 -0.26292 0.47033 0.19088 0.59004 -0.45156 0.38281 0.18414 0.14098 0.23318 -0.0015858 0.98888 -0.58966 0.14935 0.31388 -0.34934 -0.36095 0.0090835 -0.40579 -0.18149 -0.23073 0.30089 0.57311 0.69487 -0.8549 0.27332 -0.55089 -0.14953 0.54772 -0.19296 0.98973 -0.13027 -0.30274 -0.53964 0.58084 0.18659 0.11916 -0.022871 -0.054954 0.82741 0.1362 -1.0438 -0.078823 0.18215 -0.026093 -0.84152 0.62678 -0.28915 -1.8064 -0.17361 0.45843 0.50904 -0.043693 0.16861 0.045575 -0.037281 -0.095539 0.04492 -0.64815 0.55369 0.28229 -0.066076 0.55842 0.96704 -0.47129 0.34109 0.28937 0.24235 0.23314 0.078156 -0.039554 0.19416
arena 0.56657 0.21642 -0.11517 -0.60307 0.83875 0.0057653 -0.082176 0.0042767 -0.33846 0.073218 0.2031 0.2967 0.5483 -0.59317 0.029747 0.40847 -0.47411 0.30097 0.32243 0.012267 0.01102 0.034075 0.31079 -0.089905 -0.11255 0.046032 -0.20674 -0.029375 -0.20717 0.27729 0.19143 -0.64575 -0.29961 -0.016324 -0.93489 0.32789 0.19611 -0.28974 0.54161 -0.3902 0.059965 -0.081541 -0.39287 0.69017 0.59481 0.39344 0.029435 0.13597 -0.011655 0.45732 -0.47202 0.46586 -0.64021 -0.75425 0.0059055 0.14457 0.23208 0.66459 0.65829 -0.045018 -0.18317 -0.40644 -0.47693 -0.29529 0.084675 -0.18139 0.10916 0.30979 0.15522 -0.35411 0.17575 0.8583 0.75713 0.22532 -0.031695 -0.13402 -0.1292 -0.1102 0.54636 -0.088209 0.25423 -0.073134 -0.39969 -0.29047 -0.070186 -0.34405 0.39685 -0.39925 -0.19053 -0.11142 0.42224 0.28896 0.62763 0.17178 -0.27475 -0.10703 0.021281 -0.034944 -0.17657 -0.50326 0.25404 -0.159 0.040375 -0.028115 -0.095671 0.075251 0.26783 0.21521 0.37299 0.50482 0.16087 -0.47681 0.24136 0.63892 -0.46815 -0.35367 0.39369 -0.024619 0.2727 0.13365 0.51255 -0.50084 0.29222 0.83797 -0.12634 -0.08676 0.44986 -0.20259 -0.078938 -0.45922 0.10019 -0.019839 0.22943 0.52699 -0.20165 -0.33842 0.27607 -0.057119 -0.11684 0.50708 -0.47758 0.30157 0.53008 0.38127 0.21292 0.091002 0.37323 0.25893 -0.55046 0.042171 0.19831 0.28853 -0.52043 -0.50262 -0.12846 -0.049288 -0.20476 0.68393 -0.42392 -0.22888 -0.20109 -0.14391 -0.20803 0.3024 0.17647 0.25611 0.045425 0.31253 -0.021371 -0.090532 0.33412 0.41703 -0.089041 -0.21719 0.011167 -0.058419 0.2716 0.12504 0.30435 -0.043043 0.66175 0.33627 0.19168 0.14025 -0.31307 0.14347 -0.049211 -0.05978 -0.3099 -0.25355 0.54802 -0.045103 0.19231 0.0035809 -0.17936 0.50239 -0.09138 0.39371 0.15266 -0.070411 1.4805 -0.28305 -0.19531 0.066977 -0.1971 -0.22673 0.48751 -0.069826 0.38788 0.2545 -0.06519 0.82724 -0.35032 -0.17015 0.064963 0.35493 0.0031763 0.099712 -0.77447 -0.50192 0.53603 0.23804 0.091972 -0.20979 0.27603 -0.16674 -0.069737 -0.14683 -0.069058 -0.26292 0.47033 0.19088 0.59004 -0.45156 0.38281 0.18414 0.14098 0.23318 -0.0015858 0.98888 -0.58966 0.14935 0.31388 -0.34934 -0.36095 0.0090835 -0.40579 -0.18149 -0.23073 0.30089 0.57311 0.69487 -0.8549 0.27332 -0.55089 -0.14953 0.54772 -0.19296 0.98973 -0.13027 -0.30274 -0.53964 0.58084 0.18659 0.11916 -0.022871 -0.054954 0.82741 0.1362 -1.0438 -0.078823 0.18215 -0.026093 -0.84152 0.62678 -0.28915 -1.8064 -0.17361 0.45843 0.50904 -0.043693 0.16861 0.045575 -0.037281 -0.095539 0.04492 -0.64815 0.55369 0.28229 -0.066076 0.55842 0.96704 -0.47129 0.34109 0.28937 0.24235 0.23314 0.078156 -0.039554 0.19416
armory 0.26679 0.51218 -0.57873 0.019313 -0.10233 -0.046294 0.5849 -0.35198 -0.25854 0.45019 -0.12008 0.17592 0.061781 0.14318 -0.11099 0.92471 -0.024873 -0.016218 -0.096425 -0.47801 0.71376 -0.59525 0.41176 -0.04666 0.57856 0.36904 0.35325 -0.14064 -0.63483 0.77682 0.99648 -0.33454 0.64653 0.069266 0.96973 0.24214 -0.32324 -0.022404 0.016878 -0.89846 -0.22102 -0.010608 -0.32387 0.80574 0.37522 0.48899 0.52517 -0.32105 -0.16381 -0.01575 0.055358 -0.15806 0.38943 0.28888 0.39465 -0.44488 -0.018464 0.35618 0.15507 0.10669 -0.093725 0.33345 0.36628 0.18459 0.22334 0.19525 0.084485 0.19113 0.41939 -0.42098 0.025791 0.26856 0.083386 -0.72341 -0.5042 0.39319 -0.35905 -0.14446 0.14077 -0.023573 -0.0018256 0.35681 0.35506 -0.13519 0.49682 0.11364 0.011504 -0.14533 0.21107 0.19825 0.49594 -0.023927 0.77838 -0.43243 -0.70787 -0.29539 -0.082802 -0.18148 0.2066 0.10863 -0.029984 0.39286 0.17385 0.65493 0.31626 -0.16683 -0.17309 -0.21879 0.14587 0.76252 -0.23108 0.12309 -0.38274 0.23284 -0.44404 0.12735 0.55121 0.57489 0.6381 -0.095173 -0.17906 0.31126 0.12138 -0.29049 -0.071387 0.33377 0.5212 -0.39195 -0.28493 0.30493 0.022061 -0.049643 0.23258 -0.31429 0.25523 -0.11875 0.60885 0.28416 0.22028 0.24713 -0.44558 0.041667 -0.17698 0.65809 0.63103 -0.1083 -0.038144 0.28725 -0.87425 0.32552 0.12231 0.59371 -0.12264 0.055895 0.061283 -0.057594 -0.085111 0.38374 0.021315 -0.070495 0.047875 0.25681 0.040078 -0.45708 -0.29544 -0.15944 0.6189 -0.30707 0.054683 0.69415 0.1269 0.24691 0.46586 0.044534 0.10193 0.67085 0.028765 -0.066667 0.31323 -0.25789 0.087306 0.24402 0.41555 -0.28391 -0.34429 1.0387 0.809 0.018408 0.43312 0.7358 -0.066093 -0.26525 -0.043154 0.052506 0.16189 0.17555 -0.29519 -0.43746 -0.19407 0.088854 0.092849 0.34518 0.30865 -0.20796 0.31165 0.13403 0.30261 -0.029676 -0.61886 -0.11296 -0.18677 0.61151 -0.50916 0.57869 0.17925 0.22895 -0.026887 0.30112 -0.14236 -0.12467 -0.0014769 -0.31801 0.10342 -0.035749 -0.053232 0.084904 0.1086 0.10178 0.074473 0.23571 0.11678 -0.17477 -0.043669 -0.05443 0.3852 0.25362 0.15138 -0.26299 -0.34133 0.55986 0.42321 -0.20071 0.32931 -0.1538 0.4187 -0.29718 -0.087825 0.35152 0.14836 -0.17391 0.10325 -0.29994 -0.35594 -0.1312 0.098827 -0.70706 -0.23932 -0.41136 0.23125 0.17085 -0.48483 0.2689 0.11846 -0.40632 0.05853 -0.32335 0.05916 0.72728 0.046075 0.0070623 0.27459 -0.087291 0.067728 0.15228 -0.076273 0.11633 -0.52615 0.31853 -0.34825 0.76507 -0.21033 -0.4144 0.71493 -0.27666 0.29955 0.26307 -0.95535 0.72287 0.086004 -0.15712 -0.30445 -0.41026 -0.24205 0.63177 0.10855 -0.12888 0.66672 -0.089039 0.33767 0.16347
arrival_gate 0.280845 -0.5928100000000001 0.26256 -0.319055 0.05991999999999997 -0.22661699999999999 0.1306693 0.694435 -0.07746000000000001 -0.47243999999999997 -0.28222 0.0577115 0.49701 -0.187915 0.0007495000000000002 -0.154325 0.143165 -0.24145499999999998 -0.2273275 0.224815 -0.060624999999999984 -0.25978 0.011797000000000002 -0.085924 0.03264499999999999 0.260575 0.079113 -0.044399999999999995 -0.21652949999999999 0.172379 0.287548 -0.1769715 -0.44383 0.6161449999999999 -0.34791 -0.0169205 -0.387068 -0.452625 -0.098114 -0.200905 -0.362065 -0.111345 -0.47546249999999995 0.13377 -0.353445 0.0332565 0.185946 0.28642 -0.04869 0.1319775 0.1145775 -0.29763 -0.105375 0.017199999999999993 -0.09324500000000001 0.11739000000000001 0.236045 0.099774 0.012640000000000012 0.18384699999999998 0.07182050000000001 -0.056032 0.778705 0.0489275 0.117305 -0.03220999999999999 -0.061420000000000016 -0.1645805 -0.078947 -0.31389999999999996 0.0819845 0.1943595 -0.207675 -0.137178 -0.17756 0.20166 0.36817 -0.599555 0.2094 0.178333 -0.027333299999999998 0.311565 -0.036934999999999996 0.16079000000000002 -0.09812799999999999 -0.18230000000000002 -0.145265 -0.18855999999999998 0.06495000000000001 -0.014802 0.1920425 -0.37661 -0.06108999999999998 0.20542 -0.316305 0.149815 -0.043924000000000005 -0.392505 0.04343555 -0.1261885 -0.14332499999999998 -0.09170450000000002 -0.0628 0.17074999999999999 0.095475 -0.1161385 0.38718 0.161825 -0.045221 -0.081985 0.08509 0.356708 0.062321499999999995 -0.08675205000000001 0.1109675 0.15636 0.010020000000000001 -0.186092 -0.074465 -0.42263 -0.193963 -0.2408365 0.106655 -0.1174215 0.04123 -0.148455 0.027427999999999998 -0.18378499999999998 0.05787499999999998 -0.14181 0.1935655 0.45127 0.25077 0.043529999999999985 -0.018382500000000003 0.03418499999999999 0.558155 -0.5762149999999999 -0.2751805 -0.0691045 -0.5 -0.15762099999999998 -0.44494999999999996 -0.1064291 0.146256 -0.451525 0.32298 0.10495000000000002 -0.172365 -0.16967500000000002 0.43193000000000004 -0.017585000000000017 -0.18321300000000001 -0.26332999999999995 0.75983 -0.1600705 0.126734 0.02472693 0.020894999999999983 -0.479145 0.57848 0.028527 0.1277025 -0.46201500000000006 0.26452 0.48811000000000004 0.01663500000000001 0.317225 0.0011879999999999946 0.098561 0.172985 0.199537 0.47812400000000005 -0.58584 0.151311 -0.05242525 -0.376845 -0.305961 0.1277165 -0.13455499999999998 0.012919800000000002 0.150105 -0.21261850000000002 -0.0768355 0.195938 0.07464499999999999 -0.536255 0.03563795 0.13841 0.33313000000000004 -0.1621285 0.1288845 0.23476450000000004 -0.0640125 -0.02304500000000001 -0.18025000000000002 0.045155000000000015 -0.0824145 -0.0006280000000000001 0.262375 0.87491 -0.45341 -0.0889905 0.042185 0.09585199999999999 -0.014799999999999994 0.1006385 0.020205 0.028044999999999994 -0.12694 0.017475000000000004 0.062555 -0.034934999999999994 -0.438136 -0.2659664 -0.27158 -0.27401000000000003 -0.27654 0.350715 0.258422 0.97767 0.21959299999999998 0.33199 -0.026715000000000003 0.190527 -0.583625 -0.262065 0.10062099999999999 -0.17414000000000002 -0.2939495 -0.234775 -0.32861999999999997 -0.18140299999999998 0.14631149999999998 0.2531695 0.16996 0.027870000000000006 -0.096885 0.225505 0.1995535 -0.08339000000000002 0.1245586 -0.028125000000000004 0.122575 0.058220999999999995 -0.0416431 0.1376385 0.06629199999999999 0.09888849999999999 0.010622999999999997 -0.25164949999999997 0.1042555 0.148595 0.017625000000000002 0.029307000000000007 0.33361549999999995 0.149095 -0.3572185 0.15977 0.061604500000000006 -0.179852 -0.22247 0.5235449999999999 0.085535 -0.1077125 -0.17761349999999998 -0.024567500000000006 -0.41286999999999996 -0.10531800000000001 -0.15368 0.235918 -0.11412800000000001 0.1160584 -0.24447449999999998 -0.25443000000000005 -0.06900500000000001 -1.54115 0.20340999999999998 0.018969999999999987 0.09249199999999999 -0.36993000000000004 -0.2042015 0.198455 -0.004250000000000004 -0.1988024 0.107515 0.18836999999999998 -0.10887999999999999 -0.26970500000000003 0.07272499999999998 0.43950999999999996 -0.014204000000000001 -0.06234999999999999 0.171565 0.020229999999999998 0.319275 -0.22210860000000002 -0.07562050000000001 -0.355155 0.364315
art_gallery 0.036495 0.3099 -0.31401 -0.109276 0.6414150000000001 0.09693149999999999 0.040444999999999995 -0.57229 -0.0887075 -0.721505 0.3419 -0.1243875 0.190725 0.507795 0.035710000000000006 -0.34480004999999997 -0.054125 0.018926 0.33167 0.632325 -0.18605500000000003 0.188538 0.42974999999999997 0.1947555 0.46247 0.237114 -0.175812 0.14013 -0.1646 0.73011 0.6283799999999999 0.233936 0.025854999999999996 0.83463 -0.38195 0.1767 0.009447500000000001 -0.29419 -0.048735 -0.12307499999999999 -0.251715 -0.2697125 -0.38871 0.61303 0.41034000000000004 0.262755 0.44277500000000003 0.160151 -0.39258499999999996 -0.14136 0.141335 -0.36424 0.10376999999999999 0.23867 0.23900499999999997 0.15649 -0.46370999999999996 0.105888 0.37268 -0.379335 -0.315477 0.73471 0.48697999999999997 -0.19833 0.454885 0.30466 0.1580105 -0.396695 0.1997665 -0.614295 -0.320215 -0.9770449999999999 0.41105 -0.01165828 -0.457725 0.005135999999999998 -0.39951 0.38095999999999997 0.31793499999999997 -0.39741499999999996 -0.59992 -0.28412 -0.64889 -0.66831 0.16571000000000002 0.258085 0.085776 0.227434 -0.34309999999999996 -0.09961 0.569135 -0.631035 -0.1288245 0.03938 0.19486645000000002 -0.09678049999999999 0.155005 -0.29511 0.28329499999999996 -0.57663 -0.10686469999999999 0.084189 0.316785 0.0043820000000000005 -0.2664 -0.12066299999999999 0.418815 -0.151922 0.559975 0.2294 -0.22305250000000001 -0.22962499999999997 -0.1228825 0.0288495 -0.161065 -0.082923 -0.18182500000000001 0.458325 0.0210496 -0.27003 0.0009300000000000141 0.45403 -0.4050592 -0.0649015 0.244145 -0.432655 -0.186448 -0.23189500000000002 -0.19053 0.42618500000000004 -0.1998465 -0.304865 0.155315 -0.012162 -0.594265 0.36393705 0.20977064999999998 0.706645 -0.290455 0.310915 0.015210000000000001 0.2103 0.0642625 0.17623999999999998 0.428475 -0.64488 0.30243 0.0910015 -0.580955 -0.0364655 0.50319 0.279995 0.167107 -0.38105 -0.44284 0.31389999999999996 -0.245125 -0.13921050000000001 0.096878 -0.226905 -0.070835 0.35483 0.413305 -0.130269 -0.20920450000000002 0.017358 0.5109 -0.13521850000000002 -0.053901000000000004 0.17851 0.18639 -0.414335 -0.53762 -0.20766 -0.2685247 0.370225 -0.40625500000000003 -0.173329 0.593555 -0.34776999999999997 -0.139225 0.1081405 -0.26526 0.1335785 0.172575 0.125127 -0.12111100000000001 -0.158335 0.180045 0.567755 -0.10110000000000001 0.202895 -0.238025 0.2356925 -0.214515 0.23692000000000002 -0.14828550000000001 0.54181 -0.32343246000000003 -0.1220655 1.2153 -0.124025 -0.22199549999999998 -0.535885 0.540285 -0.13864500000000002 -0.5878950000000001 0.48926000000000003 -0.36471 -0.22678500000000001 0.39777 0.07130800000000001 0.12062899999999999 -0.005870000000000014 -0.28176999999999996 0.307145 -0.02137 -0.01088 -0.424935 0.1521325 0.09676549999999999 -0.13729 -0.37787499999999996 -0.31613 -0.28284 -0.101498 -0.13798100000000002 -0.07796850000000001 0.19857999999999998 0.230055 0.09571500000000001 -0.36830999999999997 0.1265655 -0.1620445 0.457805 0.1230875 -0.14895150000000001 -0.2385535 -0.482185 -0.043115 -0.567685 -0.35223000000000004 -0.26072300000000004 0.36314 -0.7605949999999999 0.1362345 -1.004785 -0.0453065 0.0334425 0.32784650000000004 0.405175 -0.37192000000000003 -0.276615 -0.122415 0.30964 0.50526 0.08817000000000001 -0.414335 0.184035 -0.09881635 -0.1701615 -0.35018499999999997 0.37859 0.129342 -0.402565 -0.454715 -0.220502 0.712565 -0.25579 0.18253650000000002 0.096089 0.31171499999999996 0.371346 -0.643665 0.052895000000000005 0.42837000000000003 -1.144135 0.008369000000000001 0.0504655 0.050595 -0.35126 -0.38068 0.050920999999999994 -0.53571 0.18666000000000002 0.32796 -0.25442 0.47033 -0.134698 0.1530165 0.1915635 -0.45044 -0.82999 -0.0530385 0.52406 -0.136825 0.0331965 0.007639999999999994 0.410945 -0.0517285
art_school -0.22485 0.20919 -0.2044915 -0.0015765000000000015 0.44188500000000003 0.0154505 0.04184499999999999 -0.350995 -0.04442499999999999 -1.03738 0.341255 0.1826875 0.27909 0.610825 0.1188245 -0.17523 0.05355915 -0.357213 0.345295 -0.033310000000000006 -0.045936500000000005 0.014250000000000013 0.08412049999999999 0.507385 0.129795 0.109039 -0.22403499999999998 0.0678995 -0.005965000000000012 0.43553895 0.822055 0.05814 0.021484999999999997 0.78567 -0.682265 0.114492 -0.04449650000000001 -0.11404015 -0.04961 -0.17675999999999997 0.05518000000000001 -0.576355 -0.401125 0.28983000000000003 0.50295 0.31287 0.2854435 0.48697999999999997 0.027005 -0.21822000000000003 0.2500065 -0.368935 0.14685499999999999 -0.12085499999999999 0.025564000000000003 -0.020595000000000002 -0.2936505 0.161883 0.165754 -0.426345 -0.037850499999999995 0.40486700000000003 0.53782 0.07884 0.230925 -0.146195 0.0905705 -0.325625 -0.05595999999999998 -0.490975 -0.49236 -0.78676 -0.06603500000000001 -0.10348628 -0.40115500000000004 -0.06957050000000001 0.044515 0.63163 0.10186499999999998 -0.28932 -0.24151500000000004 -0.360345 -0.362135 -0.38861500000000004 0.281385 0.0976075 0.33592500000000003 -0.006014999999999993 -0.315005 0.33584 0.23018 -0.08194000000000001 -0.021587000000000002 0.11214000000000002 0.23219900000000002 -0.09644799999999999 0.21600999999999998 -0.21788000000000002 -0.37729 -0.344895 -0.254575 0.013950500000000001 0.31794500000000003 0.26694249999999997 -0.21647 -0.43949 0.155648 -0.1907335 0.29048 0.11643600000000001 -0.19163750000000002 -0.509145 0.248315 0.1440995 0.0745295 0.028423 -0.21642 0.348545 -0.0951994 -0.11438849999999999 0.2187725 0.5870249999999999 -0.3590365 -0.173915 0.22111999999999998 -0.39898500000000003 -0.2261325 -0.22159 0.19346999999999998 0.191565 -0.051088499999999995 -0.033455000000000006 0.510335 -0.21960849999999998 -0.259115 0.12812705000000002 -0.05419935 0.44840500000000005 -0.359925 0.2565095 0.40498 0.103156 0.15079 -0.562405 0.43710499999999997 -0.302835 0.31809 -0.003505000000000008 -0.16541499999999998 0.291906 0.97172 0.0924 0.48831 0.088165 -0.114545 0.245025 -0.28495000000000004 -0.220135 0.14848 -0.011079999999999993 0.48228 -0.13404000000000002 0.18734499999999998 -0.5142249999999999 -0.2231245 -0.3196265 0.27866199999999997 0.17245149999999998 -0.17144500000000001 0.013274999999999995 0.196195 -0.30814 -0.68325 0.20453 0.0909403 0.52278 -0.24369100000000002 -0.525325 0.41426 -0.022940000000000002 -0.010944000000000002 0.2047805 -0.257335 0.16134089999999998 0.1509025 0.36594499999999996 -0.48441 -0.071331 0.003493500000000002 0.31562 -0.402765 0.1342635 0.0009149999999999991 0.158485 0.038005 0.36273 -0.32020000000000004 0.189015 0.16896254 -0.1921405 1.0574 0.10655500000000001 0.0553445 -0.27488 0.162455 -0.43289500000000003 -0.366165 0.459795 -0.39547999999999994 0.02484 0.15034750000000002 0.164769 -0.24190599999999998 0.03451499999999999 -0.17321799999999998 0.18161 -0.23089500000000002 -0.06988 -0.17906149999999998 -0.15321 0.14168550000000002 0.10147999999999999 -0.38593 -0.085145 0.04886499999999999 -0.137269 -0.331895 -0.0971635 0.05310999999999999 0.1617894 0.1427245 0.07336 -0.20522 -0.287825 0.06633499999999999 0.1488825 0.5189885 -0.11202000000000001 -0.40542 0.02228999999999999 -0.07927000000000001 -0.26594 0.21808699999999998 0.06023500000000001 -1.0605 0.31733 -0.48555000000000004 -0.1141065 0.0103665 0.25694500000000003 0.41645 0.09655999999999998 -0.34807 0.045759 0.183131 0.19833399999999998 0.5485450000000001 -0.1318 0.0026700000000000057 -0.232105 -0.251125 -0.44337499999999996 0.156095 -0.360263 0.003610000000000002 -0.11709349999999999 -0.39829000000000003 0.5013625 -0.14508 0.5333399999999999 -0.463211 0.1785985 0.48244 -0.24315 0.0 0.209385 -2.0072 -0.049239000000000005 0.0185395 0.19828 -0.07724595 -0.06004000000000001 -0.201604 -0.3798 0.366745 0.652065 -0.23258 0.3872 -0.22228 -0.2024635 -0.1559865 -0.474105 -0.6388849999999999 0.19330950000000002 0.5420699999999999 -0.31555999999999995 0.11148200000000001 -0.506745 0.030459999999999987 0.052799999999999986
