class_label,0,1,2,3,4,5,6,7,8,9,10,11,12,13,14,15,16,17,18,19,20,21,22,23,24,25,26,27,28,29,30,31,32,33,34,35,36,37,38,39,40,41,42,43,44,45,46,47,48,49,50,51,52,53,54,55,56,57,58,59,60,61,62,63,64,65,66,67,68,69,70,71,72,73,74,75,76,77,78,79,80,81,82,83,84,85,86,87,88,89,90,91,92,93,94,95,96,97,98,99,100,101,102,103,104,105,106,107,108,109,110,111,112,113,114,115,116,117,118,119,120,121,122,123,124,125,126,127,128,129,130,131,132,133,134,135,136,137,138,139,140,141,142,143,144,145,146,147,148,149,150,151,152,153,154,155,156,157,158,159,160,161,162,163,164,165,166,167,168,169,170,171,172,173,174,175,176,177,178,179,180,181,182,183,184,185,186,187,188,189,190,191,192,193,194,195,196,197,198,199,200,201,202,203,204,205,206,207,208,209,210,211,212,213,214,215,216,217,218,219,220,221,222,223,224,225,226,227,228,229,230,231,232,233,234,235,236,237,238,239,240,241,242,243,244,245,246,247,248,249,250,251,252,253,254,255,256,257,258,259,260,261,262,263,264,265,266,267,268,269,270,271,272,273,274,275,276,277,278,279,280,281,282,283,284,285,286,287,288,289,290,291,292,293,294,295,296,297,298,299
abbey,0.15705,0.18207,-0.27124000000000004,0.15846,0.48200000000000004,-0.51485,0.428,0.17735,0.065197,-0.44204,-0.53897,-1.0634,0.037747,-0.23735,0.09187000000000001,-0.13738,-0.15545,-0.29799000000000003,0.5876600000000001,-0.5584600000000001,-0.40265,0.24563000000000001,-1.0598,0.22713000000000003,0.10445,-0.44553999999999994,-0.23283,-0.026135000000000002,-0.34026999999999996,1.094,0.8290799999999999,-0.52259,-0.20786999999999997,0.88461,-0.37938,0.043211,0.057023000000000004,-0.061047000000000004,0.55765,-1.0294,0.026637,-0.22791999999999998,-0.26373,0.50721,0.8586600000000001,0.34097,0.45983999999999997,0.10404000000000001,1.0912,-0.29753,-1.0061,0.39878,-0.021612,0.19202,0.57482,-0.24461,0.60142,0.41586999999999996,-0.25029,-0.64081,0.71855,-0.42394,0.15222,0.60934,0.45405,-0.32725,0.45396000000000003,-0.26875,-0.10513,0.12197999999999999,0.24886999999999998,0.12465999999999999,-0.74688,-0.083865,0.081937,0.41547,-0.17177,-0.74924,-0.50235,-0.49255,-0.8852399999999999,0.5270600000000001,-0.35866,0.52887,0.13003,0.37315,0.69111,0.84619,-0.14474,0.084662,0.16193,-0.14647000000000002,0.37185999999999997,0.38542,0.62131,-0.024638,0.12229000000000001,-0.28741,-0.67532,0.24534,-0.54586,-0.12237999999999999,-0.24629,0.054298,-0.24579,-0.24885,-0.12694,0.59797,-0.44916999999999996,-0.062159000000000006,-0.83678,-0.22898000000000002,-0.27676999999999996,0.46192,-0.57782,-0.61324,0.05145,-0.3565,0.43022,-0.6499199999999999,-0.30723,0.25539,0.19135,-0.12680999999999998,0.29644000000000004,-0.45845,-0.38488,0.25365,-0.74355,-0.52915,0.61343,0.48441999999999996,-0.22526999999999997,-0.21725,-0.37085999999999997,0.11497,-0.061342999999999995,-0.01872,-0.87577,-0.14468,0.41263,-0.34962,-0.36236,-0.10825,-0.22869,-1.0551,0.025524,0.26352,-0.29272,-0.0016919,-0.039066000000000004,0.54359,-0.26192,-0.1287,-0.10759,0.35425,0.31756,0.47215,0.19147999999999998,0.13437000000000002,0.14565999999999998,0.14356,-0.3947,-0.06048200000000001,-0.8692700000000001,0.097438,-0.29441,-0.82993,0.60547,0.061647,0.27376999999999996,0.29965,0.58377,0.27282,0.015318,0.5481,0.14659,0.46029,0.51498,-0.6692899999999999,-0.5919399999999999,0.54996,-0.44955,-0.12982,0.93966,-0.060405999999999994,-0.76965,-0.38677,-0.51085,0.7126,-0.56024,0.36062,0.27069,-0.48518,0.095826,-0.45009,-0.058602,-0.37948000000000004,-0.07254,-0.21245999999999998,0.31521,0.015175,-0.36671,-0.43341,0.13749,0.024317,0.019407,-0.071113,-0.57762,-0.11853,0.51986,0.60222,-0.19807,-1.0505,-0.20601999999999998,0.40499,0.33198,-0.065692,-0.0032232,0.66152,-0.2324,-0.35709,-0.23399999999999999,-0.31387,-0.57475,-0.26469000000000004,0.41402,-0.25095,0.48031,0.021415,-0.76194,0.19229000000000002,-0.12167,-0.11749000000000001,0.19662000000000002,0.53177,0.8847,0.36877,0.067639,0.094311,-0.5726899999999999,0.5332399999999999,1.012,-0.20143,-0.09409400000000001,-0.25499,0.25731,-0.90812,-0.11091,-0.3655,0.62305,0.38836,0.44608000000000003,-0.25403000000000003,0.27812,0.75089,0.40615,-0.7103,0.49908,-0.7799,0.23581999999999997,0.079438,0.075711,-0.097246,-0.41006000000000004,0.41873999999999995,-0.34362,0.054211,-0.064058,-0.10534,-0.37106999999999996,-0.2768,0.6751,-0.45493,0.006456699999999999,-0.13789,-0.57608,-0.7025,0.2861,0.45058000000000004,0.1139,0.1724,0.010920000000000001,-1.0074,-0.56412,0.9224,-0.19535999999999998,-0.16097,0.5221899999999999,0.27909,-0.23187,0.38561999999999996,0.40331999999999996,-0.29017,-0.18492,0.021223,0.072726,0.71773,-0.19065,0.1243
access_road,-0.30246,-0.36733000000000005,0.21213,-0.08876999999999999,-0.111955,-0.09602999999999999,0.17151750000000002,0.24066,0.241825,-1.41467,-0.59407,-0.24017,-0.08801199999999999,0.1800745,-0.190975,-0.2344595,-0.53386,-0.24559499999999998,0.201426,-0.26735,-0.347535,-0.0470846,0.14912350000000002,0.086005,-0.17411500000000002,0.18374,-0.05678300000000001,0.20696499999999995,0.10965499999999999,0.738835,0.44020249999999994,0.14541099999999998,-0.053819000000000006,0.298277,-0.38418,0.30368,-0.5681849999999999,-0.205395,0.0228795,-0.8161,-0.41999,0.096972,-0.369755,0.09717,-0.030485,0.47224499999999997,0.244632,0.37705500000000003,-0.16707,-0.41202,-0.23015100000000002,0.0530375,-0.09064,-0.1456665,0.489735,-0.029169999999999998,0.04035000000000001,-0.21723499999999998,-0.13877,-0.13026,-0.1721415,-0.13914649999999998,0.072999,0.08686,0.298998,0.231855,-0.1741865,0.33258000000000004,-0.0005729000000000003,-0.191746,-0.2368,0.1650135,0.025935000000000003,0.20199999999999999,0.04038999999999998,0.407505,-0.22565,0.0096365,-0.384635,-0.35634,0.285225,-0.19807,0.46009700000000003,-0.036551000000000014,-0.35384499999999997,-0.44329,0.098285,-0.05532999999999999,0.4139415,0.005415000000000003,-0.07933499999999999,0.07862999999999999,0.1691915,0.022079999999999992,0.215915,0.49728999999999995,-0.105324,-0.23645500000000005,0.07026000000000003,-0.2833,-0.334855,0.07217499999999999,-0.12091500000000001,-0.090105,-0.1963953,0.207129,0.34551,0.13594499999999998,-0.180353,-0.297975,-0.287015,-0.6745650000000001,0.367465,-0.36189,-0.0779855,-0.1996095,0.16142900000000002,0.20014300000000002,-0.0377045,0.12955999999999998,0.0626905,-0.0279865,0.571275,-0.5930200000000001,0.05345999999999998,-0.09145,-0.31851,0.026545499999999996,-0.10749700000000001,-0.12987,0.106682,0.12956800000000002,0.43373999999999996,0.218335,0.2024,0.100128,0.362205,-0.15899795,0.00027499999999999747,-0.1458155,-0.1372225,-0.187681,0.16950916,-0.03880999999999998,-0.627765,-0.13100599999999998,0.10947349999999999,-0.32477599999999995,-0.41985,-0.013671495,0.234816,-0.048625,0.10954499999999998,-0.1317305,0.4527,0.08859149999999999,0.17543499999999998,0.276175,-0.04026500000000001,-0.3288645,0.08558500000000001,-0.33188,-0.2184395,-0.64525,-0.38521,0.07138155,0.108982,-0.12611499999999998,0.00753999999999999,-0.034349999999999964,-0.0799995,-0.324955,0.07810499999999998,0.419305,-0.32975,-0.1818385,-0.041288500000000006,-0.23456,-0.157525,0.0038397,-0.22488200000000003,0.1229,-0.0201435,-0.06258999999999999,-0.137676,-0.2113,0.11677945,-0.155661,0.15157500000000002,0.410095,0.0393154,0.5998600000000001,-0.17674494999999998,-0.37848000000000004,-0.1916475,0.24759000000000006,-0.01424922,-0.31213425,0.3506087,0.0009300000000000004,0.754185,-0.033377000000000004,0.29446500000000003,-0.19314,-0.032754999999999986,-0.11900999999999999,-0.272165,-0.370745,0.459085,0.1728375,-0.43976499999999996,-0.17199699999999998,0.03703500000000001,-0.057165,-0.31417849999999997,-0.22399999999999998,-0.39808000000000004,0.37483,-0.00035000000000000314,-0.04422500000000002,0.3452795,-0.25864499999999996,0.31883249999999996,-0.195705,0.562655,-0.23001,-0.3327595,-0.11696,0.026347,-0.33789,-0.43293000000000004,-0.054906,0.017008000000000002,-0.12093,0.3074515,0.129805,0.0650925,0.4535,-0.40978000000000003,-0.16311199999999998,0.206137,0.28601550000000003,0.84709,-0.46073500000000006,-0.7071449999999999,0.25001,-0.0121,0.122572,0.1480685,-0.191045,0.205877,-0.055015000000000015,-0.266895,-0.275865,-0.012700000000000015,-0.30706300000000003,-0.1693485,0.009140000000000002,-0.016825,0.278154,-0.18974,-0.464445,-0.0035949999999999867,0.11686980000000001,-0.1208025,0.343495,0.5406449999999999,-0.35157,0.07544000000000001,-0.38354,-0.0454185,0.0700615,0.171955,-0.006670000000000009,0.332515,-0.029149,-2.2562,-0.145259,0.41661000000000004,0.16964500000000002,-0.02120499999999997,-0.5512050000000001,0.44177,-0.213833,-0.286975,-0.15142,0.37918,-0.39091,0.0885475,-0.135855,-0.37487,-0.114375,-0.40207,0.165257,-0.1762145,0.57616,-0.056245,0.0544785,-0.015569999999999999,-0.03754
airfield,-0.31233,-0.12677,-0.15524000000000002,-0.17197,-0.12394000000000001,-0.12228,0.071662,0.060244000000000006,-0.34378000000000003,-0.6573,0.0031444000000000003,0.2847,0.54013,0.15747,0.44098000000000004,0.23628000000000002,0.31732,0.27134,0.030255,-0.3767,-0.054975,-0.18528,0.24936,-0.5421600000000001,0.033894,-0.0075074,-0.22846,-0.23858000000000001,-0.47575,0.69391,0.25440999999999997,-0.38598000000000005,-0.14833,0.72818,1.107,0.15588,-0.6981,0.13762,0.5676899999999999,-0.29367,-0.23185999999999998,0.1974,-0.31784,-0.04331,0.55404,-0.10912000000000001,0.44655,0.43804,0.16634000000000002,0.29358,-0.12367,-0.46685,-0.14221,0.62979,-0.14296,-0.6641199999999999,0.21395,-0.26359,0.44373,0.12089000000000001,-0.3653,-0.73857,0.12843,-0.44828,0.27746,0.47617,-0.1856,0.27447,0.19549,-0.45829,-0.56248,0.44216000000000005,-0.082828,-0.62465,-0.7128,0.1327,-0.36036999999999997,0.63508,-0.08115900000000001,-0.66632,0.29978,-0.044544,-0.29633000000000004,0.11821,-0.15689,-0.38165,-0.064178,-0.17300000000000001,0.47631,-0.21702,0.46633,0.4419,0.54138,-0.35855,0.17969000000000002,0.15642999999999999,-0.37701,-0.08845599999999999,-0.45961,0.73049,0.050084,-0.55986,-0.36615,0.74617,-0.00050395,-0.15261,-0.22138000000000002,-0.10737999999999999,-0.10934,0.34299,-0.40066999999999997,-0.23529,0.07409299999999999,-0.42793000000000003,-1.1253,0.10665,-0.062711,0.32624000000000003,0.15167,0.17132,-0.18536,0.42576,0.39443,-0.37656999999999996,-0.023261,0.17387,-0.5150100000000001,0.13882,0.068064,-0.086921,0.5495,0.49404,-0.10123,-0.18528,0.06055,-0.42393000000000003,0.41673999999999994,-0.5953,-0.50116,-0.9466100000000001,-0.21719000000000002,0.21319000000000002,-0.38877,0.088261,-0.18947999999999998,0.2038,0.32564,0.40664,-0.26547,-0.14303,0.34085,-0.64876,-0.14706,-0.25023,0.82825,-0.0063583,0.69925,0.38672,0.6744899999999999,0.38065,0.22845,-0.8954,-0.058728999999999996,-0.68799,0.12928,-0.23765,-0.016502,0.17197,0.19926,0.032919,0.06991,-0.40521,1.2805,-0.39278,-0.46992,0.76705,0.61545,-0.59097,0.12395999999999999,0.056027,-0.13539,0.9009299999999999,0.15284,0.0639,0.06104,0.52722,0.075477,-0.12333,0.32041,0.17312,0.015816,0.85949,0.062921,-0.69696,0.1815,0.024252000000000003,-0.25121,-0.040612999999999996,-0.055442,-0.18054,0.13942000000000002,-0.8270700000000001,-0.43636,-0.08856599999999999,0.20653000000000002,0.8362299999999999,0.026713,-0.53498,0.23721,0.53308,-0.10440999999999999,-0.0087295,-0.48056000000000004,-0.3025,-0.18846,-0.12215,-0.48326,0.071537,-0.52942,0.079737,0.6431899999999999,-0.41202,0.7067100000000001,0.046439999999999995,-0.42761000000000005,-0.00018123,0.27851,-0.16977,-0.12667,-0.57363,1.0184,-0.17356,-0.037175,0.33955,0.26025,0.16899,-0.15950999999999999,0.33374000000000004,-0.36551,0.9769200000000001,0.14531,0.084836,0.4527,-0.56492,0.64102,0.045163999999999996,0.046199000000000004,-0.26311999999999997,0.20626,-0.1016,-0.24978000000000003,0.029133999999999997,-0.44593,-0.25658000000000003,0.34608,0.094894,-0.29727,0.056115,-0.082367,-0.63784,0.32116,0.55474,-0.27199,0.02508,-0.26968000000000003,-0.095524,-0.24425999999999998,-0.26442,0.84493,0.42451000000000005,0.93422,0.23399999999999999,-0.18372,-0.15258,-0.37838,-0.012849000000000001,-0.8771200000000001,0.21899000000000002,0.21372,0.18999000000000002,-0.78659,-0.19178,0.08345599999999999,-0.29791999999999996,0.14944000000000002,-0.6474,-0.08089400000000001,0.52894,-0.36628,0.34828000000000003,-0.05825,0.051633000000000005,-0.33786,-0.54272,-0.37535999999999997,0.6470600000000001,0.29296,-0.56916,-0.26857,-0.051541
airlock,0.50016,0.27724,0.2986,-0.094824,0.00036284,-0.064377,-0.16196,-0.072462,-0.058686,0.20481999999999997,-0.017657,0.10540999999999999,0.51185,-0.15317999999999998,-0.63318,0.3714,0.26376,-0.048846,0.061777,-0.0019376999999999999,-0.38295999999999997,-0.69588,-0.29189,-0.37777,0.70312,-0.27129000000000003,0.88134,0.22095,0.20751,0.027591,0.2529,-0.61552,0.50507,-0.42228999999999994,-0.11432,0.75337,-0.46538,0.23462,-0.31253000000000003,0.54059,-1.0362,0.81142,-0.051681,-0.13868,-0.48628999999999994,1.1135,0.24288,-0.46016999999999997,-0.80389,0.31945,-0.24986999999999998,0.2377,-0.10240999999999999,-0.43201999999999996,-0.17265999999999998,-0.33203,0.56993,0.79698,-0.13802999999999999,0.3255,-0.028605000000000002,-0.46935,0.029404000000000003,-0.40412,-0.51443,0.22546999999999998,0.32563000000000003,-0.15411,-0.18244000000000002,0.044686000000000003,0.082416,-0.30119,0.26181,-0.41168000000000005,0.255,0.22386,-0.044749000000000004,0.36095,0.43349,-0.25044,0.19845,0.098415,0.22619,0.18505,0.061028,-0.33316,-0.13498,0.4135,-0.60237,-0.4153,-0.037254,-0.46466999999999997,0.12399,0.40995,-0.34996,-0.9809200000000001,-0.54066,0.00046052,0.042702,-0.4264,-0.012812,0.021442,-0.23119,0.13793,1.0488,-0.0833,-0.26939,-0.06830800000000001,0.029394,0.05160700000000001,0.29882,1.05,-0.36884,0.19505999999999998,-1.1482,-0.12984,-0.10968,0.27838,-0.33629000000000003,0.4374,0.34462,-0.33437,-0.23611999999999997,0.19807,-0.12293,-0.46975,-0.94114,-0.15453,0.25304,0.17167000000000002,0.30753,0.06672,0.15337,-0.33261999999999997,-0.48441000000000006,0.050787,-0.11337,0.16488,-0.07367,-0.38201,0.19949,-0.60858,0.36221,0.24351,0.13535999999999998,-0.8293799999999999,-0.24698,0.15804,0.05985,-0.22654000000000002,-0.06285700000000001,0.031143,0.35049,-0.10690999999999999,0.7891100000000001,-0.20293,0.29100000000000004,0.65309,0.17606,0.43996,0.31351,0.57776,0.035722000000000004,0.84716,0.8263799999999999,-0.63434,-0.045854,-0.48155,0.40363000000000004,-0.43228999999999995,-0.21311999999999998,0.15184,0.82145,0.59802,-0.48067,0.24845,-1.1395,0.81792,-0.38548000000000004,-0.52573,0.28184000000000003,0.51385,0.059326,0.043613,0.60368,0.20526999999999998,0.67491,0.19389,-0.084401,-0.048197000000000004,-0.6821,0.12005999999999999,0.17394,0.41566000000000003,0.28679,0.37956,0.3321,0.19303,-0.30546,0.6040800000000001,-0.42708,-0.35815,0.98106,-0.080304,0.29591,0.10079,0.1078,-0.16717,0.58712,0.24301999999999999,0.35424,0.054077999999999994,-0.20334000000000002,-0.0082594,0.48943000000000003,-0.64062,0.34898,0.30471,-0.6036600000000001,-0.22055,0.5030399999999999,0.24251,-0.19146,-0.5866399999999999,-0.26663000000000003,-0.26166,-1.0251,0.069092,0.078786,-0.055566,-0.23158,-0.30177,-0.50948,-0.21497,-0.15550999999999998,0.02456,0.08081100000000001,0.087639,0.060358,-0.023191,0.5796399999999999,0.57763,-0.51689,0.11523,0.36299000000000003,-0.34523000000000004,0.47593,-0.38445999999999997,-0.15728,-0.70348,-0.57003,0.16592,-0.28897,-0.47035,-0.8013100000000001,0.5080399999999999,-0.23654,-0.67995,0.76432,0.75593,0.9472200000000001,-0.4426,-0.24783000000000002,-0.033554,0.6319,0.69644,0.07522899999999999,0.018036,0.58837,0.26215,0.14936,-0.020901,0.059883000000000006,-0.57087,-0.32045999999999997,-0.35551,0.39391,-0.18357,-0.12215,-0.1402,-0.28764,-0.36995,-0.12825,0.5877399999999999,-0.7034100000000001,0.29344000000000003,-0.6978300000000001,0.23512,0.21463000000000002,-0.62832,-0.46695,-0.094801,0.19047,0.0050036,-0.10935,-0.36611,0.11208,0.7420399999999999,-0.68102,0.6310100000000001
airplane_cabin,0.184695,0.17849,-0.3117,-0.4131705,-0.46373500000000006,-0.09177,0.0005849999999999987,0.182165,-0.136541,-0.700155,-0.49199,0.1231455,0.119395,-0.44836000000000004,-0.169185,0.35076999999999997,0.428285,-0.043945,-0.1370825,-0.12862,0.317635,0.57717,0.311595,0.32936,-0.41515,-0.17821499999999998,0.152455,-0.35354,-0.334455,0.08044000000000001,0.06329000000000001,0.030735000000000002,-0.3582,-0.24580500000000002,-0.075218,0.368335,-0.5138199999999999,-0.362165,0.0533512,0.4208,-0.650115,0.08345749999999999,0.22189499999999998,0.12905999999999998,-0.3407,0.07269125000000001,0.585195,-0.254785,0.27285000000000004,-0.23466599999999999,0.55386,-0.463025,0.094855,0.002590000000000009,-0.531145,-0.011989,0.08166799999999999,-0.198425,0.096963,0.146095,-0.26070805,-0.046261000000000004,0.36623,0.0645455,-0.28688,-0.406654,-0.29478649999999995,-0.34748,-0.0225155,0.0018350000000000035,0.17182499999999998,-0.29041,-0.0075499999999999986,0.22889450000000003,-0.26253000000000004,0.021126500000000003,-0.50622,0.306725,-0.346195,0.13488,-0.59406,0.336495,0.29939,0.13443,0.106114,-0.20515500000000003,0.18041403,0.06982000000000001,-0.63308,0.026864999999999997,0.65546,0.19377000000000005,0.1251935,0.021520000000000008,0.38509,-0.176635,-0.219584,0.22278499999999998,-0.19224,0.258,-0.4305575,0.386055,0.12696000000000002,-0.03404,0.037925,-0.317925,0.09674400000000001,0.11934000000000003,-0.256675,-0.12445550000000001,-0.563075,0.015617500000000001,0.2213185,-0.2707775,-0.55414,-0.37032,0.26003000000000004,0.500955,-0.588775,-0.116899,-0.15223,-0.47528,0.05711500000000001,0.016335000000000002,-0.268465,0.06376799999999999,0.014899999999999997,-0.35283000000000003,0.454575,-0.04095,0.304425,0.6064,0.22577766,-0.173005,0.5094449999999999,0.49798000000000003,-0.5665849999999999,0.22239499999999998,-0.8293799999999999,-0.34691,-0.0636585,-0.25866,-0.1720125,0.1211405,-0.378975,-0.371682,0.329465,0.159615,-0.268385,-0.0477983,0.6295350000000001,0.29649000000000003,0.08947000000000001,-0.22749,0.7729349999999999,0.2152495,0.20880349999999998,0.5323599999999999,-0.011789999999999995,0.002343999999999999,0.39447,-0.48078000000000004,-0.1750015,0.20289,0.1163503,0.104851,0.1309965,0.14895799999999998,0.03245500000000001,-0.002824999999999994,-0.509575,-0.03143499999999999,0.29789,0.29500000000000004,-0.403965,-0.13943,0.034275,-0.25209000000000004,0.20539749999999998,-0.42933000000000004,0.715435,0.17078500000000002,0.24204,0.15183449999999998,-0.354995,-0.55324,-0.055537,0.5146299999999999,0.06935150000000001,0.29422,0.1186,0.27731500000000003,-0.47944499999999995,-0.40166,-0.218211,-0.15644,-0.33865500000000004,0.40548,-0.45461,-0.24349,0.15065,0.03761999999999999,0.08221,-0.33482,0.439495,-0.35002500000000003,-0.02632,-0.026024999999999996,-0.25955500000000004,0.0918465,-0.27003,-0.220863,-0.2583,-0.1787,0.235825,-0.483275,-0.16137549999999998,0.254245,0.013424999999999992,0.09933499999999998,0.31667500000000004,0.24509499999999998,0.3285,-0.0800225,-0.009929999999999994,0.304206,-0.1889015,0.0114575,0.031597000000000014,-0.31924,-0.057765,-0.248689,0.049385000000000005,0.113945,0.6812050000000001,-0.254135,-0.19569,0.1084075,-0.547945,0.053592999999999995,0.68197,0.197201,-0.298505,0.1743045,0.16266999999999998,-0.636115,0.25509,-0.0654965,-0.005975000000000008,0.47626,-0.61956,-0.095251,-0.0754245,0.13108499999999998,0.30948000000000003,0.45776999999999995,-0.015569499999999997,-0.1235605,0.464755,-0.297003,0.141775045,-0.440795,0.13811700000000002,-0.15881199999999998,0.12274000000000003,0.139574,0.207575,-0.0980755,-0.073494,0.26527,0.499755,0.27838450000000003,0.010457,-0.00247,0.16472599999999998,-0.32404,-1.20425,0.26027,-0.25709,-0.28359015,-0.5632600000000001,0.204745,0.08149999999999999,-0.184775,-0.016222999999999998,-0.0988705,0.10079500000000001,0.3229265,-0.32656,-0.0715745,0.33039,-0.316805,-0.236275,-0.61139,-0.17292999999999994,0.27238,-0.50346,0.13866900000000001,-0.18786,0.428185
airport_airport,0.043207999999999996,-0.42213999999999996,-0.038633999999999995,-0.20321,0.013715,-0.33612,-0.039051,0.6853899999999999,-0.087348,-1.2703,-0.47131000000000006,-0.045159,0.51426,0.0034705999999999995,0.5854699999999999,0.15513,0.31187,0.30021,-0.016186000000000002,-0.60688,-0.30388000000000004,-0.15595,-0.12538,-0.46801,-0.49277,0.52055,-0.52476,0.44421000000000005,-0.26884,-0.21784,0.6671600000000001,-0.18537,-0.43183999999999995,0.93874,-0.36606,-0.14195,-0.49685,0.070899,-0.19283,-0.52956,-1.1079999999999999,0.20113,0.1373,0.51847,0.11728,0.38941,0.5191399999999999,0.4127,-0.3673500000000001,0.5882,-0.026619,-0.79818,-0.06644800000000001,0.131,-0.080568,0.27938,0.2465,-0.132,0.34886999999999996,-0.6484300000000001,-0.46946000000000004,-0.15985,-0.09982000000000002,0.23854,-0.17288,-0.042605000000000004,-0.2922,0.091812,0.3201,-0.31274,0.21541999999999997,-0.083214,0.5736899999999999,-0.44186000000000003,-0.0027464000000000004,-0.15883,-0.23368000000000003,0.2366,0.60033,-0.049821,-0.32664,0.014515,0.38606999999999997,0.36695,-0.2357,-0.6493800000000001,-0.11626999999999997,-0.48395,-0.017227000000000003,0.026273,-0.027936000000000002,0.32695,0.0092348,-0.23088,0.21813000000000002,-0.063861,-0.45327,-0.14737,-0.2559,0.49591,0.055601,-0.43146999999999996,-0.4747,-0.027517000000000003,-0.34304,-0.28206,0.099386,0.16622,-0.44916000000000006,0.21423,-0.05981199999999999,-0.34284000000000003,0.3684500000000001,-0.47666000000000003,0.09709,0.14687,0.34279,0.33926,-0.41736999999999996,-0.4927900000000001,-0.17448,-0.4601,0.13323,-0.39189,-0.7330800000000001,-0.4381200000000001,0.26781,-0.15749000000000002,0.38521,-0.25326,0.6544399999999999,0.21743,0.20293,0.22941,0.3837400000000001,-0.17692,0.083249,-0.80586,-0.19619,-0.64567,-0.84399,-0.1587,-0.39311,-0.12187,0.16253,-0.22152,0.8673600000000001,0.51071,-0.4993,0.047751999999999996,1.5021,-0.25493000000000005,0.46703,0.3034,0.62666,0.26650999999999997,0.67199,0.39599,0.33074000000000003,0.13052,0.65298,-0.26308000000000004,0.046993,-0.016071000000000002,0.26349,-0.25674,0.50341,0.35931,-0.31306,-0.056334,-0.35528000000000004,-0.35239000000000004,0.94829,-0.19594,-0.34413,0.26543,0.045538,-0.98335,-0.21896999999999997,0.010315000000000001,-0.13518,0.31471,-0.010855,0.17252,-0.4594200000000001,0.1788,-0.082322,-0.10848,-0.47921,0.12506,-0.046532,0.63751,-0.031577999999999995,-0.70439,-0.6217,-0.39242,-0.2828,0.049552,-0.27316,0.39079,0.28339000000000003,-0.74338,0.04934899999999999,-0.24575999999999998,0.40215,-0.25182,0.12018,-0.42723999999999995,0.67445,-0.43793000000000004,0.028363,-0.46963999999999995,-0.083094,-0.13717000000000001,0.48425,-0.17937000000000006,-0.52168,-0.047007000000000014,-0.52682,-0.25040999999999997,1.3316,0.018431,0.90217,0.3376,-0.15029,-0.042969,-0.22288000000000002,-0.07291,-0.20044,-0.2619,0.79598,0.12833,0.044289999999999996,0.087661,0.37331,-0.07875399999999999,-0.26053000000000004,0.42962,0.19341,0.31308,-0.31031,-0.12642,-0.19968,-0.6112,0.49473,-0.086872,0.23758,-0.4270200000000001,0.1685,-0.41093,-0.025845999999999997,0.26475,0.16952,0.022694,-0.11845,-0.1073,0.45298,0.16276,-0.021203,-0.6220100000000001,0.49217,0.3881800000000001,0.34221,0.15667,0.22956999999999997,-0.37771,0.7948,-0.5726100000000001,0.31864000000000003,0.38905,0.91437,0.47122,0.043896,-0.12454000000000001,-0.014188,-0.29575999999999997,-2.1919999999999997,0.0010112,0.15871,-0.054077999999999994,-0.48799,0.076633,0.25158,-0.55618,-0.21814,0.19,0.16022,0.48213999999999996,-0.34171,-0.15922,1.3129,0.26483,-0.6837,-0.44237,0.11632,0.4569300000000001,-0.11917999999999998,-0.5985699999999999,-0.43593999999999994,0.25322
airport_entrance,0.034797800000000004,-0.2882146,0.030802200000000012,-0.29785700000000004,0.038233699999999995,-0.25457699999999994,0.007227300000000009,0.4524496,-0.10213860000000001,-1.051654,-0.6523570000000001,0.08801070000000001,0.5341230000000001,0.11408042000000003,0.421259,0.172305,0.06006799999999996,0.006281999999999954,0.06099080000000001,-0.4432432,-0.23199879999999998,-0.07450299999999999,-0.056457999999999973,-0.23301999999999995,-0.448292,0.42674300000000004,-0.312882,0.356895,-0.228778,-0.007041999999999966,0.6404449999999999,-0.171474,-0.3256352,0.7933600000000001,-0.27044070000000003,-0.027457999999999986,-0.481262,-0.12156870000000003,-0.14437550000000002,-0.5730000000000001,-0.910231,0.11765170000000001,-0.0013840000000000102,0.424918,0.0010719999999999758,0.415159,0.521399,0.368,-0.285204,0.2947759999999999,-0.1387563,-0.491238,0.08512640000000005,0.041423,0.019073400000000008,0.227519,0.220949,-0.09141054,0.295221,-0.4815387999999999,-0.27240499999999995,-0.12535809999999994,0.098732,0.219856,-0.09059600000000001,-0.0926405,-0.11543399999999998,-0.04123860000000002,0.21152310000000002,-0.26948,0.06621499999999997,-0.023842799999999983,0.4429590000000001,-0.363218,-0.08814548000000001,0.005354000000000039,-0.04568499999999999,0.06604999999999997,0.55647,-0.1415517,-0.11570099999999996,0.0958045,0.218352,0.2292785,-0.1879523,-0.4006799999999999,-0.145043,-0.476063,-0.0259813,0.11316410000000003,0.06165480000000001,0.12234699999999996,0.01490996,-0.01931399999999997,0.1766925,0.043764300000000006,-0.23211,-0.25533700000000004,-0.101475,0.30232,-0.07183930000000002,-0.08654499999999997,-0.3244771,0.010012400000000005,-0.11941399999999995,-0.321333,0.1987832,0.179456,-0.273933,0.04417799999999997,-0.1340824,-0.17307599999999995,0.45686,-0.374882,-0.04655600000000003,0.15466400000000002,0.10625799999999996,0.2625842,-0.44806599999999996,-0.32437209999999994,-0.24472500000000005,-0.17694799999999994,0.07334879999999998,-0.2819478,-0.5050070999999999,-0.4601580000000001,0.09037199999999998,-0.369434,0.2812201,-0.279837,0.550976,0.24702800000000005,0.21028000000000002,0.13686029999999996,0.4294,-0.09738759999999998,0.1053803,-0.7135739999999999,-0.08327299999999997,-0.49698400000000004,-0.700581,-0.176979,-0.372203,-0.109195,0.07600699999999999,-0.284586,0.627792,0.399044,-0.390004,0.030968799999999998,1.171749,-0.09874999999999996,0.427055,-0.0051650000000000315,0.645965,0.284831,0.3759319999999999,0.332123,0.32905100000000004,0.13481,0.5727180000000001,-0.07299699999999996,0.0827041,-0.07425870000000001,0.18209124,-0.16336920000000002,0.21349,0.299601,-0.10137699999999997,-0.12256379999999999,-0.188951,-0.25249239999999995,0.939566,-0.40174,-0.17644499999999996,0.32537000000000005,-0.25282340000000003,-0.6204999999999998,-0.154581,-0.2667605,0.003225000000000033,0.2118718,-0.06998950000000001,0.08568499999999997,-0.280299,0.11563530000000001,-0.0453254,0.060576000000000026,-0.36524840000000003,0.320261,-0.01852999999999999,0.4666585,-0.0527706,-0.5528390000000001,-0.31901799999999997,-0.21074,-0.284408,-0.009053600000000007,-0.279868,0.408484,0.5149630000000001,-0.570733,-0.1333147,-0.27572399999999997,0.28420344000000003,-0.134121,-0.036489000000000035,-0.502957,0.575897,-0.396914,0.13093510000000005,-0.3512381,-0.0889398,-0.192271,0.20640499999999995,-0.31329900000000005,-0.292363,-0.047669699999999995,-0.33297799999999994,-0.112476,1.2611,0.22980470000000006,0.6667420000000001,0.23534986,-0.06639199999999999,-0.1125363,-0.34871199999999997,-0.0741697,-0.116359,-0.291306,0.5610776,0.03317599999999999,-0.03941300000000002,0.08351410000000001,0.320255,-0.014702799999999988,-0.13873299999999994,0.35026999999999997,0.179604,0.266514,-0.1978643,-0.045066,-0.10874399999999998,-0.4493149,0.03428099999999995,-0.07936,0.25031800000000004,-0.2956302,0.0015109999999999846,-0.3138692,0.05432780000000001,0.09791699999999998,0.1479113,-0.04947220000000002,-0.319282,-0.08478619999999999,0.2943781,0.06595299999999997,-0.054130099999999993,-0.3790669999999999,0.19150699999999996,0.147202,0.472629,-0.0015650000000000247,0.1829695,-0.231391,0.608704,-0.578811,0.14412999999999995,0.09409599999999996,0.7139519999999999,0.28905099999999995,0.07616520000000003,-0.13014399999999998,-0.12553060000000002,-0.1919612,-2.1659,-0.015804460000000003,0.06857499999999997,-0.0005825999999999888,-0.3366091,-0.06562190000000002,0.251235,-0.590083,-0.182701,0.30016600000000004,0.07970299999999997,0.319039,-0.187648,-0.242833,1.002895,0.2122823,-0.593298,-0.15598999999999996,0.154657,0.398592,-4.6999999999977615e-05,-0.381577,-0.3187507,0.241058
airport_terminal,-0.017425,-0.2137549,-0.05606799999999999,-0.241965,-0.0686475,-0.03642499999999999,0.0744895,0.5197400000000001,-0.073226,-1.023665,-0.5129199999999999,-0.1682345,0.26854700000000004,-0.1570147,0.5267200000000001,0.36393000000000003,-0.19753,0.22793000000000002,0.18518199999999999,-0.550535,-0.521335,-0.2498,-0.28883000000000003,-0.2559215,-0.5292749999999999,0.51498,-0.36538000000000004,0.38001,-0.22908499999999998,-0.249865,0.6593549999999999,0.29143,-0.13930499999999998,0.7462150000000001,0.03223999999999999,0.039720000000000005,-0.354725,-0.23916050000000005,-0.032264999999999995,-0.08924000000000001,-1.0989,0.24446500000000002,-0.194805,0.230008,0.16286499999999998,0.1598625,0.5907800000000001,0.39654,-0.24604,0.51439,0.0410955,-0.32255,0.023446,-0.0497,0.020991000000000003,0.204585,0.43973,0.131325,0.1551325,-0.464055,-0.29695,0.134735,0.25935,-0.155335,-0.252675,0.06074250000000001,-0.44299499999999997,0.133576,0.38998499999999997,-0.08069000000000001,0.1631,0.017813000000000002,0.75351,-0.59631,-0.0445657,-0.008275000000000005,-0.358575,0.025055000000000008,0.3392715,-0.1088055,-0.15271600000000002,0.1471025,0.162998,-0.078015,0.067255,-0.223325,-0.127685,-0.50205,-0.1035985,0.2450415,0.036517,0.28025,-0.1168176,-0.1969,0.08098549999999999,-0.011821500000000002,-0.34347,-0.0931905,0.26488,-0.040344999999999985,-0.0296395,-0.37235999999999997,-0.307305,-0.24948850000000003,-0.23873000000000003,-0.03586999999999998,0.380313,-0.063315,-0.13184,0.076399,-0.146931,-0.01685499999999998,0.46392,-0.18525,0.15594,0.054428,0.177559,0.440055,-0.4188,0.094985,-0.21866,-0.694775,-0.0033500000000000053,-0.156078,-0.26619,-0.27378,0.005144999999999983,-0.253215,0.44459,-0.22881500000000002,0.7819050000000001,0.314,0.11303800000000001,0.011620000000000005,0.39558499999999996,-0.245945,0.4481295,-0.5670850000000001,-0.382225,-0.196075,-0.76878,-0.13468,-0.34158,0.025355000000000003,0.0551705,-0.346575,0.14304500000000006,0.38282,-0.262447,0.15635100000000002,0.926385,-0.222595,0.630455,0.203665,0.512875,0.38816999999999996,0.5152,0.216246,0.108905,0.059662,0.37163,0.0072500000000000064,0.02055065,-0.1301105,0.2242,0.003179999999999989,0.08596000000000001,0.32493,-0.335505,0.116688,-0.361065,-0.34386,0.8996350000000001,-0.32448499999999997,-0.23948000000000003,0.1409345,-0.085401,-0.9346200000000001,-0.096015,-0.3796075,-0.34774,0.2599,0.11234749999999999,0.17987999999999998,-0.33575,0.29982,0.100059,-0.206485,-0.304615,0.27276,0.10585400000000003,0.7682450000000001,0.20711100000000002,-0.378869,-0.46073500000000006,-0.14996700000000002,-0.374215,0.006606499999999998,-0.574345,0.40736,0.439085,-0.649265,0.057955499999999986,-0.47976,0.29273499999999997,-0.02084,0.05364,-0.2600635,0.8174250000000001,-0.381245,0.0821515,-0.496335,-0.007614000000000003,-0.013139999999999992,0.28144800000000003,-0.19376,-0.14920999999999998,-0.0885135,-0.42234,-0.25313,1.00474,-0.13107950000000002,0.674945,0.398825,-0.008645,-0.2116545,-0.11796199999999998,-0.0742485,-0.1993,-0.209725,0.6355350000000001,0.06584275,-0.134905,0.11849549999999999,0.2697,0.007664999999999998,0.04274,0.5213749999999999,-0.13660999999999998,0.09501,-0.388075,-0.31883,-0.07029550000000001,-0.537845,0.12966,-0.27019099999999996,0.27771500000000005,-0.6577500000000001,0.19695,-0.388715,-0.194218,0.313665,-0.009399999999999992,0.242457,-0.1929,-0.141215,0.297425,0.197165,0.025771500000000003,-0.207885,0.21506550000000002,0.105305,0.113195,-0.03171,0.371845,-0.1713585,0.5519449999999999,-0.6351899999999999,0.284055,0.36039,0.836925,0.32184500000000005,0.132613,-0.26,-0.091974,-0.460135,-1.8265,0.0330506,-0.06543500000000001,-0.02209175,-0.666185,-0.3606535,0.08504450000000002,-0.46951000000000004,0.046949999999999985,0.23417,-0.008010000000000003,0.429075,-0.4350350000000001,-0.07733495,0.8088,0.07545,-0.63226,-0.31779,0.207645,0.531875,-0.14400000000000002,-0.915285,-0.138325,0.103993
airport_ticket_counter,0.063114,0.2904,0.0779415,-0.263735,0.24975125,-0.030915,0.19872975000000004,0.2633225,0.121118,-1.3593725,-0.151645,0.11940275,0.2941125,-0.19063785,0.4458,0.0543715,0.30445875,-0.013973750000000007,-0.33029225,-0.2593185,0.07037,-0.1280775,0.16874250000000002,-0.48033000000000003,-0.27182249999999997,0.29450550000000003,-0.0309025,0.09754700000000001,-0.21249250000000003,-0.20753500000000005,0.10828749999999998,-0.3413275,-0.0928775,0.014372500000000009,-0.92769,0.061995500000000016,-0.49951,-0.27846525,-0.2214425,-0.2627335,-0.5374275000000001,-0.0292875,0.250665,0.320875,0.131885,-0.09354,0.3367060000000001,-0.32473,-0.13454325,0.20623,0.07130175,-0.443745,0.0199835,-0.15539750000000002,-0.0770745,0.06268750000000001,-0.2039075,0.23531745,-0.07583800000000003,-0.07378499999999999,0.07661000000000001,-0.233225,-0.0835225,-0.0220425,-0.31582,0.11836125,-0.25485749999999996,-0.202012,0.0205925,-0.11275,0.374745,-0.01957175,0.3824225,-0.22096375,0.33840590000000004,-0.23683,0.003077499999999983,0.0444138,0.021952750000000017,0.06205025,-0.2129145,0.22013675,0.34719750000000005,0.07489499999999999,0.04504725,-0.418745,-0.1803255,-0.10685500000000003,-0.31836175,-0.013461749999999995,0.07495149999999999,0.01971325,0.2427112,-0.1125945,0.04312750000000001,0.33163475,-0.37023,0.0397385,0.06303999999999997,0.14107699999999998,-0.25826225,-0.07393475000000001,-0.271742,-0.19661675,-0.12274249999999999,-0.31064899999999995,-0.246261,0.0466,-0.006532499999999997,0.0013689999999999952,0.1025492,-0.38081,0.14397449999999998,0.10989500000000002,0.17206,0.11356500000000001,-0.0868325,0.24499825,-0.3443775,-0.41755,0.2074775,-0.19279625,-0.0460225,-0.25951599999999997,-0.38245,-0.106771,0.447585,0.09374775,0.2546525,-0.052639999999999985,0.21281500000000006,0.010064500000000004,-0.1935325,-0.06928500000000001,0.15761,-0.02729249999999999,0.21494725,0.016252500000000003,0.015752500000000003,0.21796,-0.30727,-0.2495,-0.3315775,0.09613149999999998,-0.2957175,0.4143375,-0.0495925,0.09151025,-0.09135500000000002,-0.1923385,0.7178439999999999,0.0343705,0.4696,-0.24163,-0.10827,0.131135625,0.04153449999999997,0.23231,0.06631849999999999,-0.0908535,0.34570500000000004,0.018653000000000003,0.13160325,0.34669475000000005,0.27713899999999997,0.02884,-0.22214250000000002,0.07669000000000001,0.29034000000000004,-0.03610225,0.06272775,-0.24398,0.038443000000000005,-0.558775,-0.39052725,-0.2786375,-0.166105275,-0.08745482499999999,-0.134705,-0.25321625000000003,-0.1294375,-0.02379000000000001,-0.18577625,0.12199000000000002,-0.058921,0.11345,-0.03516799999999999,0.2445,-0.2820535,0.14088,0.1380445,0.4514075,-0.24544349999999998,-0.25935685,-0.1963575,-0.138175,-0.4925875,-0.16513200000000006,-0.0929495,0.26419000000000004,0.1887725,-0.1926875,-0.110569,0.1231905,0.056854999999999996,-0.1485575,-0.1652175,-0.2226225,0.20168,-0.05842500000000001,-0.15246625,-0.20261,0.01844200000000001,0.228465,-0.160665,-0.23353800000000002,-0.19955,0.04945225,-0.163435,0.4799575,0.3075675,0.24949775,-0.123155,-0.1101165,-0.024529,-0.10679225000000002,-0.253415,0.0240575,0.035634,-0.12181050000000003,0.2097325,-0.133023,0.2647325,0.05805275,-0.0048124999999999965,0.0045015000000000055,-0.1821275,0.1459925,0.1917175,0.19356275,-0.4215125,0.023495,-0.19775,-0.228096,-0.19324000000000002,-0.272413,0.37435749999999995,-0.39661,-0.1064755,0.112175,0.08070000000000001,-0.062067,0.23917249999999998,0.388861,-0.011299999999999977,-0.17367749999999998,0.09586275,-0.17213,-0.03551825,-0.06559999999999999,-0.06580750000000002,0.1553425,0.283475,0.0840635,0.1833905,-0.080574,0.0581325,0.15287,0.294875,0.2407835,0.4770625,-0.13684249999999998,-0.244667,-0.0871615,-0.1186495,0.032915,-1.912275,0.310528025,0.25422225,0.07822799999999999,-0.07323724999999999,-0.22286925,0.2521025,0.011492500000000004,0.11602250000000006,0.100185,0.18567570300000005,-0.004677499999999986,-0.08532499999999997,-0.021738275,0.39266,0.1302421,-0.3707,0.08256250000000001,-0.07176510000000001,0.371165,-0.07937749999999999,-0.404915,-0.4426295,-0.031997499999999984
alcove,-0.2214,0.11822,-0.43148000000000003,-0.19572,0.2706,0.5372399999999999,-0.48481,-0.74526,-0.061610000000000005,0.52171,-0.71432,0.9280200000000001,0.19211,-0.30445,-0.18622,0.53977,-0.36758,-0.46224,-0.12705999999999998,-0.27813000000000004,-0.5555,0.38232,-0.13239,-0.070559,0.2167,-0.13360999999999998,0.47348999999999997,-0.0075468,0.29702,-0.20881,0.52558,0.016846,0.063851,0.45114,0.6054,0.48855,-0.19685,-0.18988,-0.45761,-0.22041999999999998,0.23317,-0.074514,-0.75076,0.12477,0.004667,0.74622,0.51645,-0.06532,-0.026614999999999996,0.072482,-0.42066000000000003,0.26173,0.29093,-0.052599,0.20149,-0.23203000000000001,0.12235,0.21029,0.26137,0.4912,0.34219,-0.26056,0.37878,0.4852,-0.046073,-0.084915,0.27531,0.127,0.06869,-0.06274199999999999,-0.25592,-0.077488,0.33252,-0.87019,-0.39061999999999997,0.18155,-0.49595,0.13238,0.24361,-0.10475999999999999,0.34495,0.22780999999999998,-0.09125499999999999,0.05202999999999999,0.35754,0.36064,0.022394999999999998,0.0772,0.18608,-0.032395,0.20681,0.3369,0.59538,0.53081,-0.077453,0.29729,0.8299,0.26883,0.64957,0.20094,0.35644000000000003,-0.44811000000000006,-0.29678000000000004,0.13993,-0.10429000000000001,-0.22582,0.18919,-0.04282,0.34701,-0.58367,-0.083758,-0.15789,-0.30741999999999997,-0.075279,-0.32556999999999997,0.064177,-0.1399,-0.15517999999999998,-0.49801000000000006,0.11915,-0.057982000000000006,0.33291,0.18233,0.49185,0.068414,-0.43991,-0.28804,-0.54778,-0.06313300000000001,-0.71505,0.24295999999999998,-0.60446,0.41023000000000004,-0.44265,0.17852,0.11344000000000001,0.024902,-0.09212000000000001,-0.53938,-0.45941000000000004,-0.058739,-0.085412,0.12654,-0.30506,-0.037547000000000004,-0.5360199999999999,0.11198,-0.6226,0.37431,-0.54908,-0.47173999999999994,0.19044,0.016702,-0.20281,-0.14411,0.36249000000000003,0.64594,0.58227,-0.18733,0.036231,0.13946,0.11168,-0.021863999999999998,0.39247,0.68657,-0.16077,0.72173,0.01756,0.21639,-0.21838000000000002,-0.53605,-0.063658,0.70026,-0.7541100000000001,-0.73834,0.13760999999999998,-0.54818,0.50903,-0.40576999999999996,-0.88156,0.35226999999999997,-0.099965,0.55565,-0.31790999999999997,0.42491,-0.17218,0.41613999999999995,0.33386,0.28405,0.41515,0.38831,-0.38837,-0.1082,0.15504,0.36196,0.13133,-0.64777,0.19749,-1.2334,-0.45756,-0.18361,0.26237,0.075377,0.10687,-0.2375,0.29521,-0.49628,-0.08095,0.19788,-0.062077999999999994,0.05586,0.059306,0.4984,0.20457999999999998,-0.019791,0.4067,-0.41577,-0.40825,-0.32125,0.31285999999999997,0.13464,0.12119,-0.72954,0.015969999999999998,0.34434000000000003,-0.50064,-0.32403000000000004,0.065171,0.1603,-0.59316,-0.071228,-0.35128000000000004,-0.12785,0.14414000000000002,0.20290999999999998,-0.31723,-0.066985,0.0032656,-0.51527,-0.63332,0.5766100000000001,0.057217,-0.98265,0.14956,-0.7144699999999999,0.00032097,0.24625,0.3752,-0.643,-0.47396000000000005,0.22905999999999999,-0.20975,0.51245,-0.6087899999999999,-0.29739,0.69395,0.46636000000000005,-0.45514,-0.21256999999999998,0.24821,0.50465,-0.14332,0.41618999999999995,0.09085599999999999,-0.2815,0.21051999999999998,0.64608,0.20304,-0.074522,0.24094000000000002,-0.28071,0.056782000000000006,-0.13341,-0.2215,-0.23021999999999998,0.43349,0.56653,0.66001,-0.78351,-0.054746,-0.62721,0.37799999999999995,-0.24925999999999998,-0.35615,-0.1497,-0.019022,-0.12907000000000002,0.14865,-0.2479,-0.17177,-0.074291,0.25506,0.34360999999999997,-0.20893,-0.15473,0.26349,-0.030612999999999998,0.25488,-0.078408,-0.22883
alley,0.3273,-0.2172,0.014705000000000001,0.054467999999999996,0.35799000000000003,0.074777,0.14201,-0.33409,0.19938,0.40700000000000003,0.11685999999999999,-0.033274,-0.56776,-0.24165,-0.26316999999999996,0.3453,-0.051042000000000004,0.55404,0.21356,0.11928,0.16699999999999998,0.17667,0.13902,0.29641999999999996,-0.068352,0.027298000000000003,-0.27599,-0.39205999999999996,0.4254,0.27457,0.26091,-0.19125,0.16985,0.28362,-0.43876000000000004,0.24950999999999998,-0.50178,0.46868999999999994,-0.5292,0.043993,0.21625999999999998,0.53871,-0.20951,0.61525,0.43408,-0.056527999999999995,0.75466,0.35369,-0.34667,-0.096761,0.017871,-0.23544,0.1056,0.098968,0.42057,-0.29427,-0.23178,0.39335,0.65885,-0.46381999999999995,-0.50859,-0.79633,0.014417,-0.035764,0.72744,0.025733,0.20734,-0.10859,0.058133000000000004,-0.19217,-0.45408999999999994,0.16102,0.16694,-0.26954,-0.5191100000000001,0.061912,-0.4266,-0.13330999999999998,0.30487,-0.58152,0.43948999999999994,0.012629999999999999,0.53181,0.12445999999999999,0.053735000000000005,-0.45647,-0.034079000000000005,0.24272,-0.027651,-0.25629,-0.040451999999999995,0.06567200000000001,0.022157,0.32116999999999996,-0.50969,0.92399,0.36391,-0.08884700000000001,0.14806,-0.34265,-0.34008,0.037647,0.28406,0.12865,0.49201999999999996,-0.18184,0.60582,-0.92366,0.13183,0.34163000000000004,-0.70733,0.070257,0.5844,0.354,0.43867,0.18051,-0.031469,-0.5965,-0.61637,-0.011414,0.20023,-0.10067999999999999,0.65727,-0.20729,0.36976,-0.012206,-0.13963,-0.1377,-0.10097,0.16297,-0.035816,-0.33887,0.19827999999999998,-0.053561000000000004,0.29843000000000003,-0.20588,0.24527,0.26658000000000004,-0.46328,0.0075713,0.13039,0.035249,-0.16322,-0.078264,-0.88655,0.39153000000000004,-0.22841999999999998,0.19594,-0.69389,0.21815,-0.51467,0.15115,-0.20751,-0.5949,0.29836,0.5573600000000001,0.081674,0.7389,0.54084,0.23519,0.53385,-0.1567,-0.29085,-0.5773,-0.25409,0.43001999999999996,0.0536,0.04578,-0.17859,-0.35101,-0.16477999999999998,0.026897000000000004,0.62385,-0.31644,0.019535,-0.28914,-0.68589,0.18592999999999998,-0.22616,-0.58909,-0.27305999999999997,-0.082585,0.28362,0.24928000000000003,-0.027877999999999997,0.029457,0.45563000000000003,0.14249,0.38009,-0.25349,0.15195999999999998,-0.1809,-0.45663000000000004,-0.058819,-0.26961999999999997,0.13597,-0.46136000000000005,-0.59509,-0.48471000000000003,-0.029711,0.96924,-0.22379000000000002,0.26854,-0.30086999999999997,0.024484,0.42961000000000005,-0.3043,-0.41716000000000003,0.13885,0.088527,-0.16222999999999999,-0.035854000000000004,0.086864,0.14673,-0.26053000000000004,0.34839000000000003,-0.1943,-0.16619,-0.34867,-0.12972,-0.1049,-0.25206999999999996,-0.066151,-0.34701,-0.21288,-0.07370499999999999,-0.20238,-0.45497,0.068301,-0.24689,-0.11475,0.012164,-0.2761,0.19347,-0.39105999999999996,0.16527,-0.12315,-0.28948,-1.0356,-0.19442,0.53393,-0.21641999999999997,-0.43346999999999997,0.29596999999999996,-0.6851,-0.12342,-0.053594,0.17387,-0.26184,0.050526,-0.043344,-0.29586999999999997,-0.35984,-0.2662,0.9240700000000001,-0.50757,0.14049,0.35838000000000003,0.39764,0.28096,0.077842,-0.16892000000000001,0.19392,-0.58327,-0.026791000000000002,-0.22998000000000002,-0.35278000000000004,-0.023515,-0.25296,-0.6967800000000001,0.06740499999999999,0.23046,0.11108,-0.1973,-0.17672000000000002,-0.41985,-0.72918,0.012319,-1.0083,0.48691999999999996,-0.67985,-0.37773,-0.5151399999999999,0.06704600000000001,0.3529,0.82819,0.40606,-0.2493,-0.47707,-0.59129,0.30101,-0.042172,0.09754199999999999,0.8939799999999999,0.038709,0.11918,0.19330999999999998,-0.14590999999999998,-0.2257,0.28081999999999996
amphitheater,-0.035769,-0.029526,-0.41041000000000005,-0.29138000000000003,0.24703000000000003,0.26006999999999997,0.052061,-0.64241,0.1514,0.9329999999999999,-0.48162,0.87884,0.18575,0.089798,-0.046669,0.29773,-0.39583,-0.25836,0.6912699999999999,-0.047398,-0.53069,-0.18822,-0.011812000000000001,-0.061752,0.26964,-0.070811,-0.32997,0.04149,-0.1454,0.7069300000000001,0.41312,0.31858000000000003,-0.072286,0.15233,0.5242899999999999,0.05729600000000001,-0.53332,-0.67278,0.5784100000000001,-0.23279,0.030364,0.15004,-0.31239,0.11785,0.65253,0.17728,0.8688100000000001,0.00061112,0.71655,-0.27557,-0.28159,0.037557,-0.22689,-0.17287,0.66601,-0.16085,-0.026330000000000003,0.048768,0.51574,0.16215,-0.47913,0.036478,0.34763,0.26493,-0.55984,0.15892,0.30789,0.48803,-0.47397,-0.32045999999999997,-0.070898,0.33908,0.7336199999999999,0.059797,-0.03952,-0.48977,-0.18491,-0.032411,0.38672,-0.40195,-0.08836000000000001,-0.27918000000000004,-0.43456000000000006,-0.025781000000000002,0.06130700000000001,0.66186,-0.013642,0.33158000000000004,0.38094,0.15815,0.16391,0.26483,0.24186999999999997,0.63657,-0.082756,-0.10128,0.68279,-0.11682000000000001,-0.58962,0.076417,0.20531999999999997,0.15838,0.036713,-0.23523000000000002,0.7145699999999999,0.38291,-0.42583999999999994,0.025882,-0.228,-0.8910100000000001,-0.080919,-0.12618,0.11194000000000001,0.29972,-0.8502799999999999,-0.41601000000000005,0.00022596,0.15755999999999998,-0.027147000000000004,0.35555,-0.2435,-0.0049387,-0.077123,0.42483000000000004,-0.29751,-0.29277,0.16135,-0.36302,-0.68899,-0.57521,-0.033936,-0.10995,0.33364,-0.093027,0.092231,-0.38027,-0.037804000000000004,0.14077,-0.013825,0.28201,-0.30716,-0.25671,0.26677,0.011165000000000001,0.37425,0.058242999999999996,-0.06477999999999999,-0.08959299999999999,-0.083069,-0.2707,-0.071521,0.1362,0.24261999999999997,-0.54604,0.032760000000000004,0.17834,-0.09707,0.4756,0.38256,-0.20219,0.50574,-0.28656,0.21073000000000003,0.26235,-0.20999,-0.093878,0.20609,0.33200999999999997,0.49626000000000003,-0.73641,-0.22519,1.0872,0.8359700000000001,0.44648999999999994,-0.00046432,0.38394,0.25404,0.30217,0.37456,-0.5716600000000001,0.19422999999999999,0.65782,0.57534,-0.54276,0.34093,0.0026323,0.12435999999999998,0.075025,-0.10031,0.39991,0.43956999999999996,-0.13579000000000002,-0.21251,-0.70128,-0.19125999999999999,0.4546,0.15565,0.214,-0.61993,0.35115999999999997,0.27357,-0.015976,-0.19203,-0.26352,-0.31471,0.13369,0.16408,-0.19605,0.11632999999999999,-0.10062,0.1239,0.9394,-0.18805999999999998,-0.62173,-0.84462,0.6644800000000001,0.039758999999999996,-0.33339,-0.6179399999999999,-0.41833000000000004,0.9938600000000001,0.20016,-0.2719,-0.07447999999999999,-0.40201,-0.099136,0.18805,-0.47067,-0.00074687,-0.84226,-0.11174,0.11533,0.44872,0.067478,0.27031,0.58197,0.012858000000000001,-0.25594,-0.17874,0.5817,0.31790999999999997,0.34524,-0.045869,0.1326,-0.98787,-0.18497,-0.50851,-0.01325,-0.26664,0.20708000000000001,0.71987,0.29227,-0.28695,-0.27992,-0.55837,0.12132000000000001,0.044237,-0.7331300000000001,0.44473999999999997,-0.42473,-0.12569,0.032701999999999995,0.53786,0.085575,0.10355999999999999,-0.28881,0.7299100000000001,0.77841,0.47703,-0.51047,0.36269,0.045009,-0.16669,-0.2121,0.8335799999999999,-0.5512199999999999,-0.46258999999999995,0.37128,-0.10469,0.35311,-0.40663,-0.52705,-0.022609,-0.2033,-0.49518,-0.14313,-0.48983999999999994,0.0040925,-0.012806,0.10885,0.5503100000000001,-0.040951,-0.5546,0.20013,-0.39276,-0.39666999999999997,0.016856,0.20205,-0.33992,-0.13775
amusement_arcade,0.1662995,-0.24942899999999998,0.24553000000000003,-0.38424,-0.0578325,0.80898,0.4177865,-0.555675,-0.12584499999999998,0.1397,-0.1636265,-0.45736400000000005,0.380015,-0.13283000000000006,0.41353999999999996,0.336565,-0.505695,0.035945000000000005,0.17668499999999998,0.142381,0.277495,0.21459,-0.080223,0.20655549999999998,0.244715,0.578735,-0.31547,0.11968,-0.231055,0.28267,0.32776500000000003,0.385485,0.30462350000000005,-0.187347,0.142515,0.2871065,0.122145,-0.05880800000000001,-0.22707500000000005,0.078075,0.11112500000000003,0.44478500000000004,-0.06367500000000001,0.559475,0.4383,0.09114,0.90711,-0.722895,0.199185,0.18202,-0.33878,0.208765,-0.1824655,0.45432,-0.161225,0.0932265,0.105029,0.34525,0.19543500000000005,0.1889835,-0.03969195,-0.040234999999999986,0.25208,-0.37988,0.12173199999999999,0.15977,-0.0202155,-0.07890899999999999,0.32647000000000004,-0.09139349999999999,0.1613275,0.311706,-0.1181,-0.486595,-0.0353335,0.125344,-0.007530500000000002,-0.194045,0.502545,-0.3682755,0.345615,0.2884305,0.43189799999999995,-0.596075,0.488885,-0.243445,0.147503,-0.13578500000000002,0.118026,-0.129691,0.07609450000000001,-0.12552599999999994,0.33510500000000004,0.32038,-0.170785,0.23374,0.32821500000000003,0.19084,0.21622550000000001,-0.8890450000000001,-0.073715,0.19893,-0.255145,-0.05368049999999999,0.101791,0.10653,-0.24736,-0.351795,0.20029349999999999,-0.2923555,-0.23880900000000002,-0.35367,0.1727395,0.133799,0.398785,-0.3799572,-0.176346,0.15049500000000002,-0.23162,0.854175,0.0510815,-0.42331,0.12105,-0.1552425,-0.088273,-0.06049000000000001,-0.32642000000000004,0.31781,-0.372235,0.106745,-0.16614,0.34907,0.5296350000000001,0.02707,-0.015565000000000025,0.415945,0.38497,-0.66824,0.336595,0.6235674999999999,0.14475,-0.20718499999999998,-0.479663,0.49393000000000004,0.648705,-0.1493846,0.246243,0.16678099999999998,-0.363045,0.175224,-0.2509595,0.1954225,-0.51603,-0.1692205,-0.0965,0.15924100000000002,-0.42972,0.64682,0.303705,-0.005945499999999999,0.333084,0.11341,-0.5808949999999999,-0.17495899999999998,0.42467,0.3565305,0.146815,0.570285,-0.0884255,-0.004194,-0.319975,0.0389335,-0.33784000000000003,0.383395,0.28039000000000003,0.511775,-0.1850238,0.047807999999999996,0.061616999999999984,-0.5178649999999999,-0.1822355,0.35141999999999995,-0.10028,0.1316745,0.404855,-0.040785,0.36632,-0.43690500000000004,0.17635499999999998,-0.18428,-0.226345,-0.334873,-0.0592755,-0.15315569999999998,-0.47795,0.40305,-0.443355,-0.13308799999999998,-0.496705,0.34452,0.5951500000000001,-0.04327000000000002,-0.071681,-0.25959499999999996,0.29107500000000003,0.39329,0.08352499999999999,-0.08238,0.259245,-0.088397,-0.142875,-0.3481,-0.1906315,-0.20973,-0.3138685,0.116017,-0.261305,0.1782615,-0.08364484999999999,0.0749215,-0.208321365,-0.5998600000000001,-0.747135,-0.09800299999999999,-0.2501975,0.044161,-0.013114999999999995,-0.275445,0.085833,-0.15485100000000002,-0.046610000000000006,-0.30981000000000003,-0.365635,-0.3743800000000001,0.5435099999999999,-0.15808,0.661125,0.65789,-0.18904,0.30504499999999996,-0.19616,-0.38347600000000004,-0.11431600000000001,-0.1613555,-0.33382,-0.356925,-0.362821,-0.003360000000000002,-0.158276,-0.089067,-0.220729,0.15852,0.18774,0.14998499999999998,-0.16281099999999998,-0.047115,-0.14309305,0.13957000000000006,0.073765,-0.68801,-0.513305,-0.731325,0.18243499999999999,-0.29303,0.1064155,-0.459045,-0.3151075,0.2669245,0.25601999999999997,-0.2017435,0.016880000000000006,0.17736,0.446565,-0.5476650000000001,0.15038,-0.1902325,-1.2666499999999998,0.711015,-0.45491499999999996,-0.213491,0.2301505,0.45593500000000003,-0.671495,-0.313635,-0.223883,-0.252345,-0.34954050000000003,-0.207292,0.002705000000000013,-0.8459450000000001,0.442475,0.45638500000000004,-0.649365,0.420361,0.30375100000000005,-0.04690999999999998,-0.43706999999999996,0.283055,0.267465,-0.627625
amusement_park,0.2014795,-0.11952,-0.113265,-0.2150475,-0.157063,0.357554495,0.5431349999999999,-0.2130875,-0.103285,-0.08057500000000001,0.0921185,-0.06801399999999999,0.13683900000000002,0.42146,0.031065000000000013,0.335895,-0.250195,0.12053435,0.39305999999999996,0.119161,0.10736,0.1051278,-0.1260663,0.458375,-0.14401,0.699695,-0.522775,0.29834000000000005,-0.38115,0.344815,0.738635,0.387445,0.1842335,0.173943,-0.016319999999999998,0.3104785,-0.293455,-0.022652000000000002,-0.354265,-0.45236000000000004,0.00037500000000000033,0.33623499999999995,0.040995,0.9929,0.08845800000000001,-0.23973000000000003,0.91721,-0.13789500000000002,0.587715,0.40712,-0.5841350000000001,-0.33071500000000004,0.0148395,0.31709499999999996,0.28935,0.23262,0.44208500000000006,0.32488449999999996,0.07393000000000001,0.09608,0.03681405,-0.129959,0.31209499999999996,0.055930000000000014,0.313102,-0.118325,-0.088519,-0.06428899999999999,0.17294500000000002,-0.29627000000000003,-0.1243975,0.48376499999999995,0.113095,0.07551000000000002,-0.330888,0.30127000000000004,-0.003578000000000005,-0.152205,0.37263,-0.2732655,0.2402995,-0.2155645,0.171408,-0.377015,0.34143,-0.15344999999999998,0.060426000000000014,-0.11024,-0.016233,0.254364,-0.027277000000000003,-0.32853499999999997,0.558335,0.199185,-0.618795,0.114985,0.82855,-0.15271500000000002,-0.1708045,-0.428885,-0.17301,0.25823,-0.224545,-0.037083,-0.039215000000000014,0.198795,-0.08247,-0.156643,0.009779500000000005,-0.0873505,-0.258364,-0.65462,0.19122,0.2686,0.29777,0.006685300000000001,-0.180676,0.34419,0.032742999999999994,0.6456905000000001,-0.1869635,-0.268235,0.040399999999999985,-0.1233825,-0.247435,0.14973999999999998,-0.082571,-0.0871,-0.47259,-0.153165,0.0570053,0.453975,0.40836999999999996,0.246515,-0.27271999999999996,0.59014,0.5392100000000001,-0.44001,0.24980500000000003,0.1861325,0.1049,-0.57165,0.012192,0.29583950000000003,0.36232800000000004,-0.1523246,0.32295799999999997,0.0812875,-0.5576749999999999,-0.019895,0.3651955,0.40699,-0.6559149999999999,0.017259,0.37072,-0.19733399999999998,-0.554595,0.6355,0.03109999999999999,0.102702,0.3471485,-0.40099,-0.008355000000000001,-0.131629,0.234495,-0.3310995,0.17747249999999998,0.39516,0.054934999999999984,-0.0010834999999999994,-0.198588,0.10595999999999998,-0.353725,0.2516105,0.148615,0.397455,0.0767562,-0.236692,0.16088,-0.0658145,-0.012583999999999998,0.38467,-0.27562,-0.3413055,0.04961299999999999,0.14339000000000002,-0.09711,-0.35752500000000004,0.17847000000000002,0.154065,0.10607,-0.15166000000000002,-0.021083,-0.47839,-0.92358,0.64403,0.02549499999999999,-0.473855,-0.45936000000000005,0.459895,0.8898649999999999,0.0005049999999999916,-0.02642650000000001,-0.5960949999999999,0.253875,0.44201999999999997,0.36386999999999997,0.209115,-0.037279000000000014,-0.39916999999999997,-0.2126349,-0.31498000000000004,-0.09489149999999999,-0.5005149999999999,-0.0959985,0.105485,-0.25382,0.16601149999999998,0.07310515,-0.04767500000000001,0.341963635,-0.53463,-0.48958500000000005,-0.23235300000000003,0.018897500000000005,-0.15836,0.17879,-0.27094,-0.12632700000000002,-0.08500550000000001,-0.008684999999999998,-0.180845,-0.14747000000000002,-0.2673225,0.419735,0.06462999999999999,0.221725,0.271915,-0.112845,0.39294,0.005394999999999997,0.02303400000000001,0.117435,-0.17520750000000002,-0.49213500000000004,-0.5365300000000001,0.11726400000000001,-0.301415,-0.051435000000000015,-0.281075,-0.247705,0.0710345,0.442845,-0.232785,0.152814,-0.37783,0.0029031,-0.44293000000000005,-0.24835500000000002,-0.630745,-0.34166,-0.73721,0.0730975,-0.26964499999999997,-0.07508500000000001,-0.2938095,-0.042013,0.557825,0.424375,0.10958150000000001,0.25008,0.0017134999999999993,0.313799,-0.5465,0.6234350000000001,0.038250000000000006,-1.83625,0.757655,0.13543500000000006,0.171379,-0.14641949999999998,0.182774,-0.16175500000000004,-0.527385,-0.6885899999999999,-0.329935,0.1173845,-0.302145,0.02311500000000001,-0.41175500000000004,0.4941100000000001,0.09921999999999996,-0.7818649999999999,0.166686,0.113996,-0.44536000000000003,-0.15163500000000002,0.32331,0.342175,-0.03403999999999999
anechoic_chamber,-0.02372000000000002,0.343445,-0.11529,-0.4264750000000001,-0.003314999999999985,-0.65845,0.34652000000000005,0.016805,-0.378785,0.028490000000000012,0.09234500000000001,0.12376,0.122155,-0.120177,-0.075615,0.0374035,-0.01274,0.3835205,-0.21644499999999997,0.034425,0.027705499999999997,-0.4302025,0.14459,0.41698,-0.2216015,-0.276715,0.4344,0.28323800000000005,0.04645500000000001,-0.0825895,0.184877,0.08224450000000001,-0.0915065,-0.28741714999999995,0.3823615,0.269487,0.002535000000000009,-0.31085999999999997,0.174515,0.393345,-0.037725,0.040092,0.07183500000000001,0.097815,0.027230000000000004,0.500855,-0.5706450000000001,0.136303,-0.09438300000000001,-0.228555,-0.512355,0.15597,-0.48730500000000004,0.712145,0.1049625,-0.289535,-0.45109,-0.12021949999999999,0.447665,0.353405,-0.15207500000000002,-0.49426,0.037479999999999965,-0.18518,0.011020499999999999,-0.542285,0.16265300000000002,0.0821085,-0.12025899999999999,0.153765,0.16083999999999998,-0.22231599999999999,0.05739,-0.23801,0.031517500000000004,0.22099549999999998,0.28513249999999996,0.14984,0.4638415,0.028800000000000006,0.2545435,0.1571997,-0.07507499999999999,-0.302785,0.011470000000000008,0.46051,0.119494,0.083125,-0.280005,-0.2303155,0.26371500000000003,-0.31247800000000003,-0.53,0.2473,0.47308500000000003,0.13616699999999998,-0.045245,-0.14199499999999998,0.58157,-0.465765,-0.12199549999999999,-0.29106000000000004,-0.6092949999999999,-0.4287045,0.235475,0.153035,0.012775000000000009,-0.378795,0.011034999999999994,-0.070965,0.642455,0.150167,0.046818500000000006,0.534125,-0.56838,-0.0741155,-0.03866999999999998,-0.21983,0.143235,-0.05709499999999997,0.1367225,0.13508399999999998,-0.35081999999999997,-0.22582,-0.005219999999999996,-0.01837,0.101832,-0.24095,-0.176145,0.41353500000000004,0.13926225,-0.244535,-0.094325,-0.26498499999999997,-0.5043300000000001,-0.216887,-0.76207,-0.253069,0.0487025,-0.23775949999999998,0.403555,-0.189845,-0.493215,-0.21380549999999998,0.139515,-0.6683049999999999,0.4229585,-0.29291500000000004,-0.085075,0.101759,-0.08508000000000003,0.035364999999999994,-0.37054499999999996,-0.63012,0.20089500000000002,0.381419,-0.43146,0.21977,-0.093333,-0.717805,-0.027659,0.5470149999999999,-0.2502665,0.07643199999999999,0.204787,-0.566045,0.10888,-0.30604499999999996,-0.156263,-0.141785,-0.05685499999999999,0.577575,0.37576,0.3047685,0.16806,0.6033850000000001,-0.384065,0.415295,-0.1607055,-0.1524915,0.009360000000000007,-0.4235870000000001,0.31732,0.065475,0.14917,-0.271786,0.28007000000000004,0.52073,-0.590525,-0.260755,0.35666,-0.189345,0.351515,0.110787131,0.140704,0.558055,0.37258,0.23704,-0.2528905,-0.08009999999999999,-0.01809,1.06365,-0.22946,-0.323335,-0.13383,0.24966149999999998,0.14401750000000002,-0.358699,0.0866002,-0.326314,0.527375,0.3348,-0.24066125,-0.306185,0.29063,0.27954,-0.17400500000000002,-0.7797000000000001,-0.589145,0.14317675,0.280605,0.25177000000000005,-0.197576,-0.45352,-0.1873695,0.2015045,-0.63383,-0.40139,0.098557,-0.5419649999999999,-0.03504455,0.101698,0.454105,0.17427954999999998,0.12810499999999994,-0.256375,-0.1608105,-0.10347750000000001,-0.07171999999999999,-0.153113,0.0854043,0.46088500000000004,-0.1405335,0.48933999999999994,0.093365,0.51763,0.31801999999999997,0.6063000000000001,-0.62228,0.013761999999999995,0.22453499999999998,-0.335275,0.7708349999999999,-0.274015,-0.606205,-0.056854999999999996,0.199575,-0.376363,0.18582295,-0.06465500000000003,-0.032563999999999996,-0.2857935,0.5756,0.0998375,0.137824,-0.068124,-0.230855,0.345525,0.2183125,-0.482095,0.069367,0.028848,0.4846,-0.155478,0.195875,-0.28956750000000003,-0.103155,0.301545,-0.235865,0.351605,-0.4552350000000001,-0.0735635,-0.8503099999999999,-0.0157565,-0.0588605,0.24568,0.07934350000000001,0.18136,-0.26243500000000003,-0.210918,-0.27981,-0.03964499999999999,0.392679,0.05697499999999999,-0.111695,-0.17423,0.260588,-0.0990635,-0.2525485,0.42087
apartment_building_outdoor,0.01185750000000002,0.1919495,-0.4602585999999999,-0.341764,0.12128349999999995,0.41293450000000004,0.044667499999999985,0.022575000000000026,-0.17926485,-1.028751,0.07204574999999999,-0.07106599999999992,0.30309060000000004,0.3166745,0.015168450000000003,0.020708799999999968,-0.18515375,0.07979585,0.19362830000000006,0.05859125,0.0134333,0.04222115,0.25579559,0.21690839999999997,0.13402470000000002,-0.1382557,-0.033617550000000024,0.039220000000000005,-0.36510490000000007,0.257867,0.09034000000000003,0.34715050000000003,-0.14264949999999998,0.32335949999999997,-0.21816845000000004,0.28589315,-0.222014,-0.3667565,0.15027944999999998,-0.1163462,-0.2087002,0.14687650000000002,-0.5386635000000001,0.40726446,-0.037031500000000016,0.11455400000000003,0.5979860000000001,0.27895349999999997,0.08789319500000004,-0.07870700000000001,-0.134145,0.04402128000000001,0.0364813,-0.16892125000000002,0.5359619999999999,0.2559155,0.08674099999999997,-0.04624800000000001,0.012782000000000071,-0.002001499999999934,-0.03008150000000001,-0.032120990000000016,0.2975665,0.05083499999999997,-0.024972050000000023,-0.06370189999999999,0.12009899999999996,0.07579250000000003,-0.10376150000000003,-0.4194645,-0.14595450000000001,-0.23016570000000006,-0.2738745,0.10569799999999996,-0.5334075,0.12924349999999996,-0.2636675,0.008983999999999999,0.29834700000000003,-0.029355500000000038,0.13584145,-0.03738017500000003,-0.11097400000000003,0.11982199999999997,0.21825875,-0.009731250000000009,0.08220050000000001,-0.250157,-0.09854149999999999,0.01818095000000001,0.451624,0.07858216999999998,0.2967335,0.4232615,0.1302577,-0.2124785,-0.028511999999999982,-0.2555387,0.116555,-0.581222,-0.4281335,0.3572285,-0.152402,-0.07060455,-0.032667449999999994,0.04141184000000001,0.3512615,-0.024305869999999983,0.0661204,-0.2729861,-0.509568,-0.1458898,-0.014577699999999971,0.1119856,-0.3859326000000001,0.025164099999999967,-0.030155,0.15895150000000002,-0.1264894,0.01861335000000001,0.3406361,0.14519235000000005,0.3149075,0.238193,0.05727700000000002,-0.18622549999999996,0.07115890000000001,-0.5308430000000001,-0.12811485000000006,-0.3693978,0.1615655,0.478333,0.08892389999999999,-0.0179189,0.2478621,-0.05202915000000004,-0.34944699999999995,-0.06609259999999999,-0.26498449999999996,-0.08451919999999992,-0.04704700000000002,-0.06123210000000001,0.37060575,0.7491779999999999,-0.18096913,-0.21733699999999995,0.014374899999999994,0.3363575,-0.36703143,-0.09629680000000003,0.13379379999999996,0.23227350000000002,-0.1151223,-0.04952275,-0.02184490000000001,0.2525684,-0.3507156,0.31217549999999994,-0.08098150000000001,0.179225825,0.5720529999999999,0.192941,0.178555,-0.14631415,0.043815,0.0534328,0.1344825,-0.08512285,0.42471450000000005,0.16077249999999998,-0.07242789999999998,-0.1871705,-0.0905155,0.01844750000000002,-0.1602675,0.455728,-0.1988105,-0.08042849999999999,0.03479554999999998,-0.436032,0.02541200000000001,-0.23336249999999994,0.091119,-0.14220280000000002,-0.26863950000000003,0.5128835,0.28920205000000004,0.3411105,-0.05329015,0.4373145,0.6442649999999999,-0.21729949999999998,-0.6603005,-0.1621684,-0.16651549999999998,0.05054880000000002,-0.52154,0.335766,-0.23224405000000006,0.0993741,0.5004435,-0.41979690000000003,-0.16432685000000002,0.07720450000000001,-0.12636405,-0.15065349999999994,-0.049866550000000016,-0.16649585,-0.186944,0.13370305000000002,-0.1590705,0.5027655,-0.4645255,-0.4868779999999999,-0.028803500000000024,0.33963000000000004,-0.06093600000000001,-0.09865700000000004,0.045527285,-0.04213740000000002,0.6605894999999999,-0.345435,-0.16301645000000006,0.11081649999999997,-0.096221555,0.0391125,-0.06321399999999999,-0.0468025,0.04327465000000004,-0.05989930000000001,0.12494135,0.012013000000000024,-0.010394499999999944,0.003724649999999968,0.417389,0.09472799999999999,0.3081128,0.280948,-0.23605550000000006,0.050516399999999975,0.31694979999999995,0.025661200000000026,0.057952499999999935,0.06367939,-0.24977400000000005,-0.036718,0.12895099999999998,-0.220027,-0.15692319999999998,0.025362850000000003,0.4907020000000001,-0.17114900000000002,0.06786049999999999,-0.11347550000000002,0.4951074999999999,0.0284585,0.13347935,-0.08117100000000005,0.23774510000000001,-0.01312694999999997,-0.20772739999999998,-0.06681300000000001,0.2987043500000001,-0.3950545,0.06351499999999999,-0.23062615000000006,0.025719749999999982,0.30021850000000005,0.3633019900000001,-0.243911,-0.151379,0.11580680000000006,0.06478000000000002,-0.2539665,0.07063765000000002,0.030988499999999974,-2.1312849999999997,0.637953,-0.26032350000000004,0.23430475000000006,-0.27604490000000004,-0.1395925000000001,0.01565849999999995,-0.241137,-0.287646,0.883726,-0.2938285,0.632003,-0.08911405,-0.2323288,-0.17273139999999998,-0.02676599999999996,-0.21198100000000006,0.1585736,0.33020249999999995,0.3153365,0.35220165000000003,0.02517570000000004,0.1409575,0.277532
apse_indoor,0.36240500000000003,0.17997110000000005,-0.786405,-0.34196740000000003,0.334355,0.8816709999999999,-0.4477289999999999,-0.052739,-0.201193,0.261362,-0.385071,0.7659269999999999,0.2331268,0.014006999999999964,-0.022840300000000008,-0.15290179999999998,-0.407728,0.385327,0.06526799999999999,-0.5621200000000001,-0.06785099999999998,0.07349199999999999,0.348405,-0.2953587,0.482203,0.158719,-0.082612618,-0.07525899999999999,-0.30637,0.1800401,0.4529709999999999,0.7489169999999999,0.2891533,-0.09517228,0.028330999999999967,0.02532120000000001,-0.210035,-0.344142,0.371939,0.12626250000000006,-0.1740911,-0.17980519999999994,-0.51773,0.347818,0.19687350000000006,0.35470999999999997,0.20017250000000006,-0.235613,0.1230607,-0.8173817999999999,-0.012454699999999992,0.797728,0.14950199999999994,-0.10047530000000003,0.13073773,0.196594,0.146277,0.11946199999999997,0.3819307,-0.018767999999999924,0.26714399999999994,-0.348633,0.059221999999999976,0.11377599999999995,-0.240909,-0.233783,0.14640699999999995,0.010875000000000024,0.32840899999999995,-0.376821,-0.252731,-0.452401,-0.291758,-0.637753,0.200197,0.094492,-0.237335,-0.43972700000000003,0.15508567,0.06221999999999996,0.0024760000000000337,0.6089379999999999,-0.4248839999999999,0.07868099999999995,0.309635,0.24355,-0.14383999999999994,-0.483859,0.31298200000000004,0.10405699999999997,0.4481930000000001,-0.14072199999999996,0.25370780000000004,0.13238010000000003,0.08620800000000005,0.041368,0.235415,-0.024719999999999975,0.19323900000000002,-0.21287068000000006,-0.373424,0.09853499999999997,-0.2739286,0.1207874,-0.16494029999999998,0.23777200000000004,0.0427585,-0.004132600000000004,0.00823799999999997,-0.211774,-0.6079060000000001,-0.08497080000000003,-0.200524,0.0729592,-0.19528689999999999,-0.456016,-0.433584,-0.241406,-0.4523591,0.369978,0.09827330000000001,0.07634400000000008,0.400886,0.34778020000000004,0.45256899999999994,-0.21619000000000002,0.05560450000000002,0.392265937,-0.227465,0.22896100000000003,-0.20044100000000006,0.0035830000000000033,-0.1935289,0.576537,0.0667942,-0.301221,0.623223,0.08124719999999999,-0.07922220000000002,0.04154899999999999,-0.0759563,0.056702999999999976,-0.33010500000000004,-0.193524,-0.224832,-0.413836,-0.12958599999999998,0.33473600000000003,0.15837699999999996,0.06646100000000002,-0.6334486500000001,-0.17190300000000006,0.2355529999999999,0.06352479,-0.4661982,0.585,-0.46418100000000007,0.44984700000000005,-0.224584,0.40228249,-0.03699399999999994,0.337292,0.19032799999999994,0.05447999999999999,0.34417800000000004,0.2861232,-0.139836,0.219224,0.53992,-0.404967,0.2029735,0.30471099999999995,0.39881471,0.11972540000000002,-0.148507,1.026566,0.12746400000000008,0.33039450000000004,-0.44659399999999994,-1.185171,-0.3021129999999999,0.398679,0.20710599999999998,-0.310367,0.3923039999999999,-0.25005799999999995,0.13697500000000007,-0.08712099999999998,-0.003653099999999996,0.18658499999999992,-0.00442569,0.029278999999999982,-0.29839400000000005,0.27249499999999993,0.016773999999999928,0.8184069999999999,-0.300162,0.2812565000000001,0.08274599999999997,0.369811,0.21373699999999998,-0.39936,-0.4448900000000001,-0.6068859999999999,0.316281,0.402794,-0.44673900000000005,-0.232785,0.059122999999999974,0.1150534,0.45772082,0.579499,0.21292499999999992,-0.568616,0.04486540000000002,-0.3547953,0.086015,-0.17101029999999998,-0.475154,0.11004999999999997,0.809204,-0.3764580000000001,-0.32029,0.04145999999999997,-0.31990100000000005,-0.363404,-0.361635,-0.213563,0.3298989,-0.1528578,0.048636000000000026,0.012549600000000015,0.372171,-0.36180100000000004,-0.3305929999999999,-0.25766500000000003,0.01983700000000005,0.36896599999999996,0.022762000000000032,0.464596,-0.356162,0.30999492,0.196484,-0.13588590000000006,-0.2489246,0.02678290000000002,0.011370999999999964,0.08906339999999999,0.19494699999999995,0.12319999999999998,0.044849200000000006,-0.31601900000000005,0.0008349999999999748,-0.409145,-0.36993,-0.011809000000000071,-0.025282,-0.47441700000000003,0.23646109999999998,0.6695439999999999,-0.596885,-0.13357700000000006,0.3864800000000001,0.4220359999999999,0.033861700000000015,-0.17732160000000002,0.052617,0.4848230000000001,0.3171390000000001,-0.1579886,0.180274,-0.253048,-0.21794699999999997,0.30556,0.1197883,0.012349999999999972,-0.19522400000000006,0.10618500000000004,-0.28066399999999997,0.497849,0.13392839999999998,-0.17156092000000006,-0.5303859999999999,-0.06102899999999994,-0.19259210000000002,0.13283370000000003,-0.30882,0.37719600000000003,-0.391235,-0.455032,0.005234169999999999,0.35398830000000003,0.05026799999999995,0.234204,0.35741500000000004,-0.24008,0.543656,-0.16740999999999995,0.07983299999999999,-0.3744255
apse_outdoor,0.398912,0.07324910000000001,-0.7732041000000001,-0.355162,0.21911899999999995,0.8044689999999999,-0.5891789999999999,-0.03237499999999999,-0.316489,0.210305,-0.5304978,0.7179599999999999,0.2390476,0.189306,0.0159857,-0.260834,-0.4110700000000001,0.281098,0.174078,-0.4951483,-0.12801780000000001,0.1134325,0.340668,-0.28071599999999997,0.431524,0.08685099999999997,-0.10932761800000003,-0.040531,-0.2382124,0.33302810000000005,0.5714079999999999,0.7171319999999999,0.343567,-0.137587,-0.016846000000000028,0.0061602000000000115,-0.183479,-0.38405700000000004,0.3815359999999999,-0.07530450000000001,-0.003665299999999993,-0.020041999999999977,-0.529658,0.27577996,-0.025096500000000008,0.283604,0.3104015000000001,-0.343826,0.18224770000000004,-0.8469780000000001,-0.12621469999999999,0.8408800000000001,0.1952868,-0.08373230000000002,0.05887273000000001,0.11937700000000005,0.04271099999999997,0.10395799999999998,0.3279367,-0.01558499999999993,0.286896,-0.353004,0.22404200000000002,0.15827799999999995,-0.287478,-0.13930189999999998,0.13400799999999993,0.030387000000000025,0.20751799999999992,-0.234633,-0.246044,-0.465778,-0.196262,-0.458971,0.18025299999999994,0.067927,-0.191522,-0.286829,0.09266467,0.006557999999999953,-0.08445799999999999,0.6528549999999999,-0.5284469999999999,0.09448199999999997,0.30898400000000004,0.229177,-0.225341,-0.3711100000000001,0.310843,0.232592,0.30952399999999997,-0.2456782,0.1047788,0.250806,-0.02029199999999999,0.0899929,0.266195,-0.07099769999999997,0.249702,-0.22154968000000005,-0.298763,0.356742,-0.335032,0.06793699999999997,-0.14219400000000001,0.16207000000000002,-0.005338100000000011,0.08765150000000001,0.169215,-0.4917550000000001,-0.7795300000000001,0.014179199999999998,-0.186175,0.05451280000000001,-0.30662890000000004,-0.532822,-0.450855,-0.287477,-0.4633679,0.37396799999999997,0.09166010000000001,0.014292000000000056,0.281213,0.386887,0.475534,-0.336715,0.036479500000000005,0.21148599999999995,-0.347708,0.1530997,-0.060022999999999986,-0.04700299999999999,-0.1933336,0.48870329999999995,0.153094,-0.347538,0.4738439999999999,0.12645150000000002,-0.005971200000000017,0.20147,-0.03811430000000001,0.07728599999999998,-0.342612,-0.12759299999999996,-0.25582503,-0.239317,-0.18062620000000001,0.26753000000000005,0.20081557,-0.149557,-0.674772,-0.05850300000000001,0.3516439999999999,-0.010652310000000002,-0.4702719,0.43869840000000004,-0.367965,0.478275,-0.2027332,0.43005699999999997,-0.02818299999999993,0.33282199999999995,0.230327,0.1132203,0.257805,0.253308,-0.143421,0.17901199999999998,0.550501,-0.347235,0.2385856,0.33112,0.300704,0.09091640000000002,-0.35485,1.042118,0.04460400000000003,0.390717,-0.44123,-1.24365,-0.34695999999999994,0.450534,0.256417,-0.41124499999999997,0.432603,-0.19227199999999994,0.055492000000000034,-0.13354899999999995,-0.034205700000000006,0.3033449999999999,0.04573035000000001,0.011680999999999985,-0.3776930000000001,0.3268249999999999,0.15662199999999998,0.784048,-0.327717,0.2394635,0.02480399999999996,0.35635599999999995,0.15125900000000006,-0.4753734,-0.29033000000000003,-0.411931,0.3545811,0.4247570000000001,-0.45456,-0.08634270000000001,0.12634099999999998,0.010734400000000012,0.4215829999999999,0.558076,0.1524719999999999,-0.521528,-0.15446960000000004,-0.3462195,0.096662,-0.1991623,-0.3635867,0.26535999999999993,0.819332,-0.19824600000000006,-0.319324,0.03143999999999997,-0.28334299999999996,-0.4040204,-0.203235,-0.283952,0.457458,-0.183051,-0.05828399999999999,0.060297600000000014,0.314913,-0.374968,-0.21188299999999996,-0.12806800000000002,-0.14151470000000002,0.205922,-0.180374,0.3272089,-0.2089532,0.42553199999999997,0.04006399999999996,-0.16322190000000006,-0.422933,-0.0101411,0.009600999999999943,0.03307199999999999,0.26229699999999995,0.2146943,0.15090520000000002,-0.28604,0.03018999999999997,-0.386087,-0.30937800000000004,0.189623,-0.067162,-0.506232,0.0650747,0.6340779999999999,-0.4451429,-0.122267,0.5212340000000001,0.431054,-0.0672233,-0.270642,0.06749400000000001,0.408407,0.333156,-0.1490036,0.156229,-0.17314899999999994,-0.09375599999999998,0.223969,0.1294303,0.08914099999999997,-0.3144140000000002,0.16142100000000004,-0.31152500000000005,0.389045,0.053330999999999976,-0.2849549200000001,-0.553984,-0.257874,-0.23549810000000004,0.0734697,-0.236334,0.489924,-0.2429051,-0.3793498,-0.08029976000000003,0.24420329999999998,0.07612499999999994,0.260019,0.242419,-0.231227,0.492461,-0.09605799999999996,0.05733899999999999,-0.407754
aquarium,0.41207,0.27615,-0.46792,-0.17514000000000002,0.2075,0.23415999999999998,0.57375,-0.67979,-0.041527999999999995,0.42906000000000005,0.4088,-0.14800000000000002,0.009059399999999999,0.095178,0.22835999999999998,-0.23905,-0.11819,-0.42395,-0.45278,0.50173,0.15131,0.16408,-0.19030999999999998,0.25994,-0.033532,0.15129,0.08859,0.092099,-0.44798999999999994,0.33393,0.61785,0.031550999999999996,-0.39578,-0.10555,0.47196000000000005,0.17961,0.067873,0.018050999999999998,-0.35499,-0.40002,-0.54571,0.35727,-0.1584,0.68896,-0.61485,0.24406,0.73653,0.12500999999999998,-0.21122,0.29784,-0.34551,0.2294,-0.063313,-0.16817000000000001,0.10041,0.76857,0.063718,0.58965,-0.26137,-0.010505,0.038120999999999995,-0.34439000000000003,0.72714,0.072769,0.0034805,0.29759,0.14049,-0.17775,0.068832,-0.29732,-0.039452999999999995,0.24056,0.77912,0.028432,-0.17025,0.15847,-0.11367000000000001,0.073098,0.5561,-0.18714,-0.26932,0.12511,-0.59592,-0.45064,0.41025,0.69143,0.13735,-0.58862,-0.048768,-0.99772,0.026369999999999998,-0.27936,-0.21375999999999998,-0.16582,0.33621,0.50438,0.35779,0.26694,-0.21794000000000002,-0.4877,0.28691,0.19492,0.58528,-0.20429,0.7038300000000001,-0.07944,0.20685,0.14147,-0.033056999999999996,0.83785,0.026868,0.16422,-0.37640999999999997,-0.090613,0.11057,-0.38435,-0.15211,0.19935,-0.083696,0.84988,-0.3997,0.025468,0.011025,0.72743,-0.27176,0.35798,-0.30813,-0.32333,0.51207,-0.18544000000000002,0.40284000000000003,-0.14748,0.4544,-0.2815,-0.36799,0.60207,0.49163999999999997,-0.38874000000000003,-0.3179,0.5149600000000001,0.45985,-0.14712999999999998,0.018911,-0.18474000000000002,0.48576,-0.48827,-0.026454000000000002,-0.41711000000000004,-0.27055999999999997,0.14444,-0.0422,-0.29778000000000004,0.54991,-0.47139,0.11354000000000002,0.25506,-0.3966,-0.026876,-0.1071,0.33521,-0.2978,0.23928000000000002,0.33537,-0.11875,0.35365,-0.8493700000000001,0.9948299999999999,0.17289000000000002,-0.14162,0.065603,-0.23328000000000002,-0.28064,-0.21543,0.7871100000000001,0.6196699999999999,0.146,-0.19751,-0.4037,0.63254,-0.50467,0.14629,0.089738,0.026695,-0.18209,0.41352,-0.0063692,1.0724,0.0082812,0.8174899999999999,-0.15372,-0.17427,0.096201,-0.36063,-0.65563,-0.54113,0.6207199999999999,0.38017,0.41303,-0.21275,0.05123,0.21186,0.086741,-0.36388000000000004,-0.65599,0.09715900000000001,0.7136,0.25575,-0.38445999999999997,0.058501,-0.017436,0.22436999999999999,-0.30901999999999996,0.44935,-0.018057,0.69935,0.46521999999999997,0.067676,0.25072,0.31338,-0.57916,1.4202,-0.38289,-0.69126,-0.023063999999999998,0.04167,0.30585,-0.18153,-0.66837,0.38256,0.048193,0.041642,-0.10352,0.7460399999999999,-0.37333,0.38286,-0.48436999999999997,-0.014495,-0.055135,-0.49083999999999994,0.30541,-0.8516,-0.23346999999999998,-0.28959,-0.035133,-0.95063,-0.23664000000000002,0.60073,-0.041049,-0.31679,-0.12534,0.29235,-0.073672,0.070345,0.23490999999999998,0.097551,0.1778,0.17515999999999998,-0.6703899999999999,0.68107,-0.55724,-0.48033000000000003,-0.10902,-0.37071,-0.58117,0.24879,-0.034473000000000004,0.059182000000000005,0.50652,-0.12108,-0.19532,0.30667,0.48741,0.28545,-0.27918000000000004,-0.10151,-0.063224,-0.77664,0.36286,-0.33161,0.05644299999999999,-0.28998,0.32942,0.23023000000000002,-0.3589,-0.17246,-0.1085,-0.77473,-0.00015539,0.46036000000000005,-0.10089,0.13921,0.16166,-0.56128,-0.51172,0.12011,-0.19889,0.30225,0.28142,0.0085353,0.22289
aquatic_theater,0.149595,0.523303,0.052145,-0.1294845,0.40936,0.18652005,0.1542,-0.1326255,0.181375,-0.115345,0.30514949999999996,0.05995,-0.08557100000000001,0.307927,-0.0050050000000000025,-0.24505900000000005,0.0200235,0.43681499999999995,0.10841499999999997,0.40236,-0.42040500000000003,0.3455975,0.2489175,0.2879585,0.023464999999999996,0.34979,0.023395,-0.281987,-0.30657,0.961865,0.37125,-0.18508,-0.11585899999999999,-0.07444999999999999,0.004780000000000007,-0.1851255,0.38135,0.2044255,0.18199,-0.080023,-0.53592,0.1377285,-0.20061,0.29772350000000003,0.286625,-0.18675999999999998,0.167935,0.33037500000000003,0.20528049999999998,0.3498605,0.148695,-0.07851500000000003,-0.262175,-0.3785415,0.13718,-0.10531999999999997,0.21575300000000003,0.233415,0.25984,-0.1199775,-0.1167915,-0.2430455,0.459491,-0.1882674,-0.407391,0.18562,0.047578,0.4381,0.041822000000000005,-0.007945999999999998,-0.0850505,0.28507,0.4453200000000001,-0.1409365,-0.56922,0.041774999999999986,-0.14930135,0.12138499999999999,0.51384,0.16509999999999994,-0.14958,-0.06894700000000001,-0.286525,-0.49973999999999996,0.446745,0.043908,0.20784,-0.17428549999999998,-0.355375,-0.260285,0.22072175,-0.32754,0.41131049999999997,0.3671385,0.1336815,0.27043,0.210742,-0.126223,-0.1125655,-0.646985,-0.19480999999999998,0.26583,0.14687499999999998,-0.2802295,-0.11888700000000002,0.212857,0.265295,-0.22894499999999998,0.32011,0.376965,-0.206265,0.153442,0.25497,0.29254,-0.1819235,0.008355000000000015,-0.06238500000000001,-0.24753000000000006,-0.09780499999999999,0.49257349999999994,-0.29498850000000004,-0.108115,-0.227765,0.51402,-0.004475000000000007,-0.23309499999999997,0.036455,-0.06734500000000003,-0.1929085,0.113462,-0.109952,-0.22044,0.05758200000000001,-0.23368755,-0.07852250000000001,-0.1645425,0.20457,-0.03747499999999998,-0.5176499999999999,0.865245,0.2567855,-0.052543500000000014,0.68713,-0.36231235,0.24236,-0.1034735,-0.0498305,-0.07113349999999999,-0.647805,-0.028630000000000006,0.310523,-0.43422,-0.538135,-0.61485,0.18321500000000002,0.10262,-0.235,0.037305000000000005,-0.21074,-0.11587249999999999,0.25921500000000003,-0.250605,0.234965,-0.35144000000000003,0.015735,-0.29761,-0.19618500000000005,-0.0897677,0.17539000000000002,0.083463,0.07485,-0.12595599999999998,-0.241498,0.513505,0.0805785,0.17207450000000002,0.035855,0.13023800000000002,0.34983000000000003,-0.471965,-0.134285,-0.0045550000000000035,-0.175085,0.135755,0.311465,0.4758250000000001,0.20564000000000002,0.009786000000000005,0.16739749999999998,-0.11812665,-0.50342,-0.03497,-0.45786800000000005,-0.20712550000000002,0.08054650000000001,0.63547,0.22926,0.105755,-0.35407500000000003,0.2938005,0.7591720000000001,-0.0326195,-0.60877,-0.42889499999999997,0.29588000000000003,0.17285799999999998,0.269225,-0.2565605,-0.0630105,-0.08474500000000001,-0.33883,-0.21903499999999998,-0.52549,-0.40844,0.17198000000000002,0.45719,0.31418,-0.143795,-0.1430415,0.1001285,0.06467999999999999,-0.124675,-0.44688999999999995,0.06299000000000002,-0.016249999999999987,-0.013965000000000005,-0.01236000000000001,-0.243125,-0.03113,0.0023100000000000065,0.374445,-0.0063,0.024799999999999992,-0.32952,0.26421,0.541655,0.46478,0.031185000000000008,-0.18993800000000002,0.09237999999999999,-0.2345585,0.15403499999999998,0.04025500000000001,0.34023000000000003,-0.81415,-0.162159,-0.11628500000000005,-0.28984499999999996,-0.5504199999999999,0.23765999999999998,0.23495,0.128709,0.029700000000000008,0.44182615,0.408825,0.088736,0.5392600000000001,-0.0692165,0.794405,-0.1957,0.016450000000000006,-0.6446350000000001,0.251508,-0.463805,0.22680999999999998,0.021650000000000003,-0.18303,0.5964550000000001,0.4962,0.21445,0.28185,0.26279,-0.264825,0.22322399999999998,0.311702,-0.371105,-1.147785,0.1141695,-0.1833,0.27278,-0.48099,-0.136855,0.016282599999999998,-0.50593,-0.26068499999999994,0.08594000000000003,-0.1513,0.40018000000000004,-0.034595,-0.195685,0.162083,0.0143867,-0.16612999999999994,-0.127209,0.0734775,-0.083385,-0.136186,0.1042215,-0.34441,-0.05163000000000001
aqueduct,0.61985,-0.063867,0.10683,-0.26305,-0.32466999999999996,0.8324,0.96839,-0.79682,-0.093846,0.22249000000000002,0.0032657,0.10309000000000001,0.0052726000000000006,-0.35548,0.27565,0.01695,-0.2913,0.28574,0.17631,-0.020465999999999998,-0.43331000000000003,-0.57736,-0.072805,0.15579,-0.051937,-0.76627,0.38216999999999995,-0.17787999999999998,0.030366000000000004,0.16459000000000001,0.2733,0.74231,0.16692,0.47368000000000005,0.8814299999999999,0.61155,-0.78078,0.2215,0.28298,-0.3241,-0.59725,0.17439000000000002,-0.21586,0.12849000000000002,0.14459,0.55078,0.56618,0.22304000000000002,0.8759399999999999,-0.23681,-0.88277,0.6865399999999999,-0.045956,-0.14912,0.27873000000000003,0.17107999999999998,-0.29995,0.10853,-0.20323,0.49027,0.23399,0.33393,0.20235999999999998,0.15320999999999999,0.097613,0.068879,-0.34404,0.41948,0.2815,-0.5382399999999999,0.71911,0.08106000000000001,-0.048326999999999995,-0.36596999999999996,-0.36643000000000003,-0.36623,-0.32373,-0.44404,-0.097639,-0.30611,-0.14239000000000002,-0.35270999999999997,-0.076462,-0.34545,-0.19071,-0.42565,-0.6783899999999999,-0.62288,1.1418,0.38897,0.13782,0.049401,0.84721,-0.36291,-0.8987200000000001,-0.5069100000000001,0.017374,-1.2442,-0.16369,0.50189,0.33608000000000005,0.26587,-0.62981,-0.18300999999999998,0.93248,0.043887999999999996,-0.13253,-0.59139,0.077833,-0.63945,-0.5898100000000001,-0.39928,-0.43096,0.46333,-1.0349,-0.42672,-0.27669,-0.47936000000000006,-0.38866999999999996,-0.39211,-0.13004000000000002,-0.30580999999999997,-0.29316,-0.038876999999999995,0.58243,-0.036009,-0.050067,0.047405,-0.53596,-0.054916,0.24354,0.34712,0.73151,0.8467,-0.41072,0.27824,0.11273,-0.29969,-0.88474,0.17304,0.038106,-0.15217,-0.25708000000000003,-0.40252,0.3003,-0.14522000000000002,0.23535999999999999,-0.001838,-0.3267,0.055314,0.26473,0.9310799999999999,0.013276,-0.26429,0.68647,0.031557999999999996,0.26042,-0.47398999999999997,-0.27305999999999997,0.2828,0.1067,0.027661,0.40160999999999997,-0.19347999999999999,0.28407,0.18341,-0.07485800000000001,-0.9002100000000001,-0.44131000000000004,-0.032463,0.69672,0.52508,0.48472,-0.042758,0.06638200000000001,0.60585,-0.14757,0.24386,0.45288,0.013533000000000002,-0.085312,1.0178,0.28079,-0.079274,0.39764,-0.1752,0.48841999999999997,-0.21036,0.9145700000000001,-0.13355,-0.30839,0.94631,-0.24063,-0.43646,-0.23683,-0.42863999999999997,-0.10686,-0.46634,0.17587,0.72124,0.19319,-0.08191799999999999,0.1968,-0.8674799999999999,-0.013159,0.62175,-0.43051999999999996,0.5281399999999999,0.1534,0.09690900000000001,0.30805,0.27662,1.0936,-0.75321,0.074191,-0.47989,-1.0306,-0.59463,0.35593,0.38029,0.32689,-0.7540899999999999,0.54945,0.064303,-0.19607,0.0037756,-0.30296999999999996,-0.31595,0.047715,0.39474000000000004,-0.042707999999999996,-0.30429,-0.01401,0.4295,0.0080614,-0.044858999999999996,0.60624,-0.38226,-0.37563,0.37672,-0.20088,-0.72336,0.42545,-0.26823,-0.5434100000000001,-0.48401000000000005,-0.11325999999999999,0.42363,0.11012000000000001,0.19983,0.059321000000000006,0.23601,-0.21051999999999998,0.0053515,-0.43158,-0.37046999999999997,-0.48258,-0.43656999999999996,0.62175,-0.56085,-0.12132000000000001,0.5483899999999999,0.11592000000000001,0.2674,0.17234000000000002,0.58509,0.69709,0.36889,-0.021054,0.14038,0.44551999999999997,-0.13416,0.06916,0.24488000000000001,0.016396,0.30812,0.13045,0.45377,0.3186,0.32399,0.43154,-0.031638,0.98121,-0.11965,-0.77237,0.052955999999999996,-0.24550999999999998,-0.44378999999999996,-0.71113,0.057478999999999995,-0.15999000000000002,0.12247000000000001,-0.5555899999999999,0.8226,9.015799999999999e-05,-0.92876,0.012154,-0.87802,0.085737,0.5138199999999999
arch,0.23834,-0.37956999999999996,0.36808,-0.7833399999999999,-0.022668,0.14949,-0.015956,-0.13499,0.060802999999999996,-0.39300999999999997,-0.25954,0.35962,0.56822,-0.13028,0.55962,0.32839,-0.2231,0.16375,-0.008932299999999999,-0.33173,0.17849,-0.37369,0.57155,0.3137,-0.5051899999999999,0.23865999999999998,-0.13103,-0.39278,-0.33838,0.40524,-0.49283000000000005,0.66701,0.53814,-0.39884000000000003,-0.074614,-0.078554,-0.22266999999999998,-0.49107,-0.022091999999999997,-0.16846,-0.28881999999999997,0.2674,-1.2403,-0.1358,-0.16998,0.26565,-0.13627,0.081745,0.17848,-0.50213,-0.14615999999999998,0.11144000000000001,-0.074035,0.06536900000000001,-0.0042907,0.5159,-0.017793,0.44869,-0.026942,0.15448,0.522,0.25568,0.18178,-0.10437,0.23594,-0.37638,0.31467,0.47436000000000006,0.48625,-0.25563,0.091301,0.06654700000000001,-0.05359,-0.12136,0.80667,-0.0295,0.03463,-0.26611999999999997,-0.82778,0.31101,0.44568,0.42316000000000004,-0.31772,-0.70423,0.5936100000000001,0.10144,0.31031,-0.16565,0.18025,0.30154000000000003,0.53446,0.46784,0.96295,0.44895,0.11607999999999999,0.5848,0.46683,-0.018518,0.2881,-0.14559,-0.093287,-0.30136999999999997,-0.14189000000000002,0.17384000000000002,0.22714,0.24885,-0.41231999999999996,0.26657,0.44558000000000003,-0.33171999999999996,-0.36302,-0.60956,-0.20831999999999998,-0.48039,-0.31096999999999997,-0.67357,-0.69368,0.20676999999999998,0.069093,0.02277,-0.32971,-0.58017,-0.31511999999999996,0.2304,-0.5727,-0.61962,0.24545999999999998,-0.24536999999999998,-0.018768,0.025182,0.068035,0.33846,-0.0073259,0.80937,0.067965,-0.07248500000000001,-0.030788999999999997,-0.34129,0.039826,0.25379,-0.11435999999999999,0.36755,-0.038406,0.045466,0.23279,0.22795,0.17526,0.054326,-0.19501,-0.44573999999999997,0.33111999999999997,0.14188,-0.7134199999999999,-0.1427,0.24469000000000002,0.10402,-0.12688,0.33198,-0.26821,0.54877,0.090226,1.0877,0.48948,0.081467,0.36204000000000003,0.48028000000000004,-0.253,-0.42454,0.38804,-0.3691,-0.1631,0.22196,0.020822,-0.44773,0.078414,0.27235,-0.67448,0.61212,-0.54532,-1.0993,0.50898,0.23834,-0.054651,0.060804,-0.079749,-0.018843000000000002,-0.3428,0.33437,0.3829,0.49513999999999997,-0.24044000000000001,0.25240999999999997,0.07067799999999999,0.37728,-0.31376,0.29764,0.60552,-0.6148600000000001,0.5632,0.63695,1.6017,-0.7567,0.073379,-0.60595,-0.14494,0.089826,-0.39960999999999997,-0.11102000000000001,-0.17405,0.42189,0.51625,0.071563,0.6201399999999999,-0.49196999999999996,0.0081321,-0.4452,-0.081964,-0.34772,-0.43346,-0.3293,0.54707,0.58886,0.50566,0.010783,-0.35059,-0.44968,-0.21894,0.38741,-0.5523399999999999,-0.23515,-0.49681000000000003,0.31075,-0.3345,0.12044,0.19575,-0.31143000000000004,-0.23356999999999997,-0.045641,0.38023,0.092269,-0.57258,-0.18522,-0.32328,-0.10325999999999999,-0.41494,0.64058,-0.40139,0.261,0.50553,-0.16552999999999998,-0.0040408,0.12451,-0.36235,-0.615,-0.41607,0.13372,0.090906,-0.5519,-0.28698,0.48063999999999996,-0.27621999999999997,0.08104700000000001,0.34326999999999996,0.29888000000000003,-0.15374000000000002,0.7242,0.43936000000000003,0.059276,0.58019,-0.043963,0.31947,-0.05407000000000001,0.62948,-0.50089,-0.46597,0.17807,-0.35502,-0.20939000000000002,0.34609,0.053136,0.28684,0.13716,0.08328200000000001,-0.5937399999999999,0.16457,0.2035,-0.35903,0.54766,0.25531,-0.23661,0.16824,0.32338,-0.15850999999999998,0.55193,-0.21447,0.63332,0.5249699999999999,0.090645,-0.4429,0.28394
archaelogical_excavation,0.3743165,0.27431,-0.0647165,-0.050535500000000004,-0.221565,-0.26911999999999997,0.0341685,-0.867245,0.13269000000000006,-0.056205000000000005,-0.66859,0.1674606,0.6742199999999999,-0.034420000000000006,-0.311495,-0.07866699999999999,-0.10629300000000001,-0.105605,-0.28245,-0.1363,-0.429145,-0.428785,0.023923499999999997,-0.0412435,0.42897,-0.5271600000000001,-0.055873999999999986,-0.33314,0.0036350000000000132,0.438945,0.7207,0.21598850000000006,-0.044614999999999995,-0.45110100000000003,0.62364,0.23861149999999998,-0.3911875,0.00033000000000001084,0.13136299999999998,-0.289968,0.39902,0.22120900000000002,0.52877,-0.40841,-0.38818,-0.12704849999999998,0.21070300000000003,0.1483865,-0.210366,0.17192729999999998,0.14398899999999998,0.0917125,-0.541225,-0.03498499999999999,-0.0783645,0.29084499999999996,-0.17172500000000002,-0.489925,-0.568345,0.26085,-0.597225,0.40245,0.011615000000000014,-0.21634,0.22076915,0.44209499999999996,0.538045,-0.384575,-0.178759,-0.11130500000000003,-0.32818600000000003,-0.00386705,0.11990635,-0.48126549999999996,-0.41753500000000004,0.50745,0.23061500000000001,-0.08964599999999999,-0.08652500000000002,0.20509000000000002,-0.32868,-0.2051,-0.37545,-0.033198000000000005,0.4564400000000001,0.3263765,0.29630500000000004,-0.08365500000000001,0.1613845,0.042694,-0.04255,-0.013450999999999998,0.32248000000000004,-0.0980995,-0.243475,-0.2086,-0.349735,-0.16879,0.201821,-0.1942115,0.1218795,-0.094155,-0.321975,-0.4595295,0.414335,-0.449405,0.025554999999999998,0.45027,0.8617349999999999,-0.460675,0.256445,-0.07258999999999999,-0.09642,-0.04165000000000002,-0.438875,-0.302875,0.100445,-0.04062000000000002,-0.0069050000000000005,0.25738895,-0.122983,0.379555,0.06139500000000001,-0.3588305,0.25331,0.632815,-0.3184925,0.04553,-0.1434985,-0.098567,0.27684000000000003,0.2786150000000001,0.05757499999999999,-0.03663,-0.49863,0.16059500000000002,0.04383999999999999,0.41993,-0.226865,-0.1024,-0.147109,-0.248365,0.09512999999999999,-0.3893762,0.06069999999999999,-0.69735,0.008970000000000006,0.7580199999999999,-0.2237145,0.032059999999999984,-0.133345,0.31446,0.15591000000000002,-0.2717065,0.309365,-0.0069149999999999975,-0.0466795,0.29248,0.08185,0.04557995,-0.1165715,0.30427,0.178975,0.41066,0.08876,0.0472815,0.7141,-0.2133701,0.2209,0.449585,0.230675,0.0904775,0.447075,-0.630455,-0.1755,0.9240649999999999,-0.54933,0.043068,0.24845,-0.61364,0.1591685,0.19081,0.034685,-0.06407650000000001,0.14822000000000002,-0.11399000000000005,0.56757,-0.3686255,0.105777,-0.363655,-0.04265000000000002,-0.38042,0.201555,-0.0943,0.2305585,-0.10852,-0.2770025,0.05131,0.401975,0.04419285,-0.546265,0.338345,-0.08945499999999999,0.48498,0.153495,0.0119825,-0.0607375,-0.3763095,0.5176850000000001,0.016256500000000004,0.2773545,0.399445,0.031319,-0.186685,-0.43587,-0.490515,-0.664895,0.32767500000000005,-0.085513,0.20262,-0.202405,0.07452,-0.230525,0.000219999999999998,0.37616445,0.10610205,-0.20928000000000002,-0.003803500000000001,-0.18057,0.3062675,-0.2292535,0.055347500000000015,-0.23709,0.05739249999999999,-0.12122349999999998,0.2524,0.12669,-0.42812,-0.060705,-0.25062,0.202043,0.2433885,0.248432,-0.49663999999999997,-0.62041,0.2095745,-0.01181,-0.049363,-0.3610265,0.31628,0.5774050000000001,0.16287,0.34144,0.004624999999999997,-0.389624,0.1884275,0.24321,-0.196785,-0.630845,-0.124695,0.2686,0.409555,-0.04444250000000001,0.041045,-0.07462550000000001,0.51493,-0.009504999999999986,0.2248,-0.185341,-0.31966,0.487813,0.2872705,0.187456,0.17702,-0.06230499999999999,-0.319885,-0.16941499999999998,-0.1435,-0.3360038,0.23033,0.174083,0.113585,0.6114149999999999,-0.514995,0.248584,-0.3769535,0.41030249999999996,-0.314494,-0.14469500000000002,0.07055499999999999,-0.48423999999999995,-0.22502199999999997,-0.3860525,0.6858949999999999,-0.267367,-0.26310500000000003,0.26085,0.124922,0.218065,-0.12990000000000002
archive,-0.5235,0.20218,-0.26021,-0.011767,0.57614,-0.40048,0.040402,-0.3897,0.19804000000000002,-0.6342300000000001,-0.18135,-0.10543,0.49195,-0.19441,-0.29003,-0.74162,0.15966,-0.050894,0.2405,0.30682,0.9232100000000001,-0.55997,0.15289,0.45753999999999995,0.010028,-0.15,-0.058265,0.23581,-0.27360999999999996,0.37923,0.015288999999999999,-0.34436,-0.44308000000000003,0.6121800000000001,0.31146999999999997,-0.25922,-0.14071,0.056764,0.28586,-0.2554,-0.048787,-0.4274,0.12561,0.46203,0.18527000000000002,-0.076165,0.11452000000000001,-0.029438,-0.52079,-0.35825999999999997,0.11687,0.52168,-0.25975,-0.23154,0.37746999999999997,-0.10905999999999999,0.11359000000000001,0.034970999999999995,-0.60997,-0.050416,-0.8615700000000001,0.46455,0.052066999999999995,0.43367,0.68277,0.25178,0.12278,0.17214000000000002,0.3298,-0.12944,-0.33186,-0.16877,-0.16979,0.24724000000000002,-0.12057999999999999,0.14554,0.1719,-0.19093,0.15311,-0.016737000000000002,-0.80474,-0.0070785,-0.12144,-0.6281100000000001,-0.22353,0.359,0.047992,0.45142,0.31399,-0.76168,-0.37596999999999997,-0.27404,0.00091168,0.16452,0.4018,0.090568,0.192,0.11414,0.13747,-0.8456600000000001,0.24144000000000002,-0.16806,0.32439,-0.12030999999999999,0.064693,-0.24179,0.24461999999999998,0.12874000000000002,-0.10157999999999999,0.08376499999999999,-0.14154,0.2152,-0.51993,-0.2595,-0.58954,-0.10885999999999998,-0.082482,0.23697,0.60029,-0.40034000000000003,0.039622000000000004,0.58067,-0.17978,0.022512,0.51423,-0.010579999999999999,-0.51881,0.047508999999999996,-0.32741,0.16785999999999998,0.0039422,-0.1205,0.00029389,-0.38671,0.1595,-0.003963599999999999,0.32768,0.49101999999999996,-0.21875999999999998,0.19291,0.15105,-0.34673000000000004,-0.0090254,0.0024689,0.8719299999999999,-0.37511,0.06945599999999999,-0.14252,-0.34852,0.26878,0.37377,0.005945000000000001,-0.1866,-0.39274000000000003,-0.32076,0.063608,0.19749,-0.056527,0.4682,-0.26087,-0.34409,0.06851900000000001,0.48162,-0.58358,-0.13955,0.3125,0.4089,0.14414000000000002,-0.40160999999999997,0.4406,0.49737,-0.52544,-0.9511799999999999,0.30856999999999996,0.19545,0.32182,0.012948,0.13583,0.7276699999999999,-0.80629,-0.32964,0.010183,0.2652,-0.34057,0.041955,-0.41307,0.26647,-0.31079,-0.24298000000000003,0.35012,0.025602,0.58387,-0.20819000000000001,-0.11685,-0.249,0.19612000000000002,0.17819000000000002,0.61125,-0.52176,0.45826000000000006,-0.33066999999999996,0.018525,0.041405000000000004,-0.27819,0.29811,0.013749,-1.0922,-0.5593100000000001,-0.20847,-0.5909300000000001,-0.044855,0.36018,-0.46746000000000004,0.6412,0.070174,0.26579,-0.73723,0.064978,0.14695999999999998,0.82839,-0.63978,-0.30207,0.015786,-0.3547,-0.069856,-0.10565,-0.017575999999999998,-0.0098726,0.10253,-0.14202,-0.36596,-0.34335,-0.091445,-0.41806000000000004,0.41329,-0.007461399999999999,0.14999,-0.10589000000000001,-0.61551,0.072559,-0.090401,0.33005999999999996,0.47758999999999996,-0.15442,0.083763,0.31583,-0.31749,-0.06904099999999999,-0.24845,-0.25364000000000003,0.35357,-0.49477,-0.29566,-0.2959,-0.36864,0.15783,0.21355,-0.24679,0.2785,-0.1405,0.26345,0.99129,0.51145,0.62708,-0.0024125,-0.076418,-0.2712,0.2699,0.2939,-0.027425,0.058522000000000005,-0.13642,0.65373,-0.53965,-0.09697599999999999,-0.39415,-0.7580399999999999,0.15548,0.78337,0.010031,0.00044537,-0.5312600000000001,0.066734,-0.5897600000000001,0.36305,-0.26445,-0.6409600000000001,0.43401000000000006,-0.35126,0.32076,0.22808,0.12462999999999999,-0.5927399999999999,-0.058697000000000006,-0.059684,-0.063474,0.86561,-0.15927,0.013571000000000001,-0.23692
arena_basketball,0.43945100000000004,0.305709,0.10638300000000003,-0.40113940000000003,0.5599881999999999,0.20932571000000005,-0.1157052,0.05753369000000001,-0.11814599999999995,0.1240506,0.04486499999999997,0.34321199999999996,0.4045202,-0.448099,-0.005845600000000006,0.4006340000000001,-0.3500567,0.013155999999999972,0.25474250000000004,-0.1791201,0.073357,0.0661735,0.150134,0.01944650000000002,-0.042772999999999985,-0.002853600000000005,-0.30467500000000003,-0.0326828,0.04045600000000005,0.19686912,0.226929,-0.590382,-0.2318148,0.07207519999999999,-1.1919629999999999,0.48086599999999996,0.2841,-0.241329,0.551093,-0.30089479999999996,0.19608850000000005,-0.2882017000000001,-0.404453,0.4049959999999999,0.5335529999999999,0.20921,0.1309085,0.222067,-0.007069979999999998,0.2968665,-0.395421,0.49561099999999997,-0.600463,-0.647342,-0.054231150000000006,0.17630700000000002,0.14045549999999998,0.669792,0.7104,-0.1305186,-0.1234349,-0.245214,-0.35855390000000004,-0.35015700000000005,-0.012652500000000004,-0.231586,-0.07264900000000002,0.343108,0.04240199999999997,-0.369437,0.215212,0.6173439000000001,0.42374300000000004,0.12986479999999995,-0.2623125000000001,-0.133609,0.012463000000000002,-0.07438147,0.49048800000000004,-0.1211253,0.286045,-0.0407679,-0.21886799999999995,-0.320266,-0.09161319999999999,-0.202477,0.329569,-0.363004,-0.07382699999999998,0.051420000000000014,0.25559899999999997,0.356526,0.35375100000000004,0.1390968,-0.23537800000000003,-0.08367260000000001,0.003749599999999999,-0.0157284,-0.1135586,-0.538222,0.12897299999999998,-0.03815999999999999,0.0399328,0.04011250000000001,0.00553730000000001,0.15750470000000005,0.374201,-0.038695000000000035,0.394059,0.514891,0.028641999999999987,-0.399473,0.1864978,0.32761299999999993,-0.2388,-0.192912,0.368496,-0.14574130000000002,0.250899,0.158406,0.46084200000000003,-0.2741779999999999,0.352799,0.5973331000000001,-0.16340500000000002,0.12081000000000006,0.26873800000000003,-0.02979299999999997,-0.07441909999999999,-0.244441,-0.08584300000000003,-0.030699599999999997,0.11348,0.33544,-0.08388199999999997,-0.31105700000000003,0.2033905,0.03317770000000002,-0.3498020000000001,0.428381,-0.300175,0.15706599999999998,0.5675920000000001,0.220275,0.05857899999999998,0.06856889999999999,0.31498200000000004,0.07804199999999997,-0.458033,0.07273769999999999,0.26321799999999995,0.11163499999999996,-0.455078,-0.3594398999999999,-0.08345969999999997,-0.13086760000000006,-0.24720999999999999,0.648749,-0.192533,-0.03887799999999998,-0.05398499999999995,-0.021780000000000008,-0.1584946,0.2205996,0.12071845,0.03478199999999995,-0.05143150000000001,0.400427,-0.11213569999999999,-0.1207594,0.30922599999999995,0.40574099999999996,-0.5231587000000001,-0.046465999999999966,-0.004893500000000002,0.03699570000000002,0.272791,0.0718233,0.314145,-0.034739,0.5392539999999999,0.19681500000000002,0.153352,0.0837426,-0.22128113,0.01460499999999998,-0.15184070000000002,0.017233000000000012,-0.44580299999999995,-0.2056277,0.481126,0.0014879000000000073,0.19828900000000002,-0.13499537000000006,-0.125518274,0.388408,0.061242000000000026,0.2960153,0.167489,0.020204300000000012,1.6509599999999998,-0.1699755,-0.16018960000000002,0.065606,-0.207657,-0.27461599999999997,0.35216020000000003,-0.0556849,0.28072420000000003,0.285337,-0.061703399999999985,0.844532,-0.46066899999999994,-0.024010999999999973,-0.043010900000000005,0.32646000000000003,-0.02712559,0.02385339999999999,-0.6478189999999999,-0.6271880000000001,0.446846,0.07831099999999999,0.15553840000000002,-0.247344,0.263562,-0.147015,-0.1188299,-0.05929299999999998,-0.17573260000000002,-0.191478,0.45641899999999996,0.14774869999999998,0.6323160000000001,-0.555552,0.09871599999999994,0.07683599999999997,0.142978,0.25805300000000003,-0.0020805,0.7713439999999999,-0.253348,0.253726,0.2230469,-0.32255,-0.17720299999999994,-0.06295055000000001,-0.53401,-0.1082555,-0.224475,0.1825739,0.458462,0.5105269,-0.709865,0.2001914,-0.464616,-0.29124700000000003,0.588238,-0.107676,0.6838793999999999,-0.122962,-0.4008160000000001,-0.4755,0.530266,0.05224999999999999,0.217407,-0.08401970000000003,-0.2313708,0.716104,-0.09247800000000003,-0.887692,-0.1109491,0.044903,0.06686890000000001,-0.7702310000000001,0.7568060000000001,-0.26322399999999996,-1.72429,-0.213144,0.17508299999999996,0.5264010000000001,-0.07142710000000001,0.00120099999999998,0.04061569999999999,0.1137933,0.061405700000000014,0.0477259,-0.560733,0.436384,0.11248399999999996,-0.20915320000000004,0.4588080000000001,0.740213,-0.43353500000000006,0.39011,0.33649700000000005,0.04915899999999998,0.28330900000000003,-0.17419080000000006,-0.020222,0.06052799999999998
