airport 0.043208 -0.42214 -0.038634 -0.20321 0.013715 -0.33612 -0.039051 0.68539 -0.087348 -1.2703 -0.47131 -0.045159 0.51426 0.0034706 0.58547 0.15513 0.31187 0.30021 -0.016186 -0.60688 -0.30388 -0.15595 -0.12538 -0.46801 -0.49277 0.52055 -0.52476 0.44421 -0.26884 -0.21784 0.66716 -0.18537 -0.43184 0.93874 -0.36606 -0.14195 -0.49685 0.070899 -0.19283 -0.52956 -1.108 0.20113 0.1373 0.51847 0.11728 0.38941 0.51914 0.4127 -0.36735 0.5882 -0.026619 -0.79818 -0.066448 0.131 -0.080568 0.27938 0.2465 -0.132 0.34887 -0.64843 -0.46946 -0.15985 -0.09982 0.23854 -0.17288 -0.042605 -0.2922 0.091812 0.3201 -0.31274 0.21542 -0.083214 0.57369 -0.44186 -0.0027464 -0.15883 -0.23368 0.2366 0.60033 -0.049821 -0.32664 0.014515 0.38607 0.36695 -0.2357 -0.64938 -0.11627 -0.48395 -0.017227 0.026273 -0.027936 0.32695 0.0092348 -0.23088 0.21813 -0.063861 -0.45327 -0.14737 -0.2559 0.49591 0.055601 -0.43147 -0.4747 -0.027517 -0.34304 -0.28206 0.099386 0.16622 -0.44916 0.21423 -0.059812 -0.34284 0.36845 -0.47666 0.09709 0.14687 0.34279 0.33926 -0.41737 -0.49279 -0.17448 -0.4601 0.13323 -0.39189 -0.73308 -0.43812 0.26781 -0.15749 0.38521 -0.25326 0.65444 0.21743 0.20293 0.22941 0.38374 -0.17692 0.083249 -0.80586 -0.19619 -0.64567 -0.84399 -0.1587 -0.39311 -0.12187 0.16253 -0.22152 0.86736 0.51071 -0.4993 0.047752 1.5021 -0.25493 0.46703 0.3034 0.62666 0.26651 0.67199 0.39599 0.33074 0.13052 0.65298 -0.26308 0.046993 -0.016071 0.26349 -0.25674 0.50341 0.35931 -0.31306 -0.056334 -0.35528 -0.35239 0.94829 -0.19594 -0.34413 0.26543 0.045538 -0.98335 -0.21897 0.010315 -0.13518 0.31471 -0.010855 0.17252 -0.45942 0.1788 -0.082322 -0.10848 -0.47921 0.12506 -0.046532 0.63751 -0.031578 -0.70439 -0.6217 -0.39242 -0.2828 0.049552 -0.27316 0.39079 0.28339 -0.74338 0.049349 -0.24576 0.40215 -0.25182 0.12018 -0.42724 0.67445 -0.43793 0.028363 -0.46964 -0.083094 -0.13717 0.48425 -0.17937 -0.52168 -0.047007 -0.52682 -0.25041 1.3316 0.018431 0.90217 0.3376 -0.15029 -0.042969 -0.22288 -0.07291 -0.20044 -0.2619 0.79598 0.12833 0.04429 0.087661 0.37331 -0.078754 -0.26053 0.42962 0.19341 0.31308 -0.31031 -0.12642 -0.19968 -0.6112 0.49473 -0.086872 0.23758 -0.42702 0.1685 -0.41093 -0.025846 0.26475 0.16952 0.022694 -0.11845 -0.1073 0.45298 0.16276 -0.021203 -0.62201 0.49217 0.38818 0.34221 0.15667 0.22957 -0.37771 0.7948 -0.57261 0.31864 0.38905 0.91437 0.47122 0.043896 -0.12454 -0.014188 -0.29576 -2.192 0.0010112 0.15871 -0.054078 -0.48799 0.076633 0.25158 -0.55618 -0.21814 0.19 0.16022 0.48214 -0.34171 -0.15922 1.3129 0.26483 -0.6837 -0.44237 0.11632 0.45693 -0.11918 -0.59857 -0.43594 0.25322
entrance 0.015174 0.024278 0.19282 -0.5187 0.095444 -0.06431 0.11521 -0.091078 -0.13665 -0.54148 -1.0748 0.39874 0.58047 0.37217 0.0381 0.21238 -0.52747 -0.67955 0.24107 -0.061424 -0.064276 0.11554 0.10436 0.31529 -0.34451 0.20786 0.1815 0.15316 -0.1353 0.48482 0.57811 -0.13905 -0.077824 0.45414 -0.047329 0.23969 -0.44489 -0.57066 -0.031315 -0.67436 -0.44877 -0.077131 -0.32498 0.20663 -0.27008 0.47524 0.52667 0.2637 -0.09353 -0.38988 -0.40041 0.22496 0.4388 -0.16759 0.25157 0.10651 0.16133 0.0032982 0.17004 -0.092126 0.18739 -0.044877 0.56202 0.17626 0.1014 -0.20939 0.29702 -0.35169 -0.041823 -0.16854 -0.28193 0.11469 0.13792 -0.17972 -0.28741 0.38845 0.39297 -0.3319 0.45413 -0.35559 0.37649 0.28548 -0.17299 -0.091955 -0.076541 0.17962 -0.21218 -0.45766 -0.046408 0.31591 0.2707 -0.35506 0.028152 0.47434 0.080005 0.29489 0.28393 -0.50726 0.25885 -0.14939 -0.3692 0.71828 0.026043 0.097581 0.40238 -0.41297 0.43071 0.21034 0.13493 -0.35261 -0.30738 0.22304 0.66315 -0.1374 -0.38173 0.17285 -0.44565 0.083674 -0.51969 0.068603 -0.40863 0.48374 -0.066374 -0.025416 0.027163 -0.51158 -0.32365 -0.86397 0.038577 -0.34185 0.30956 0.31609 0.22743 -0.079089 0.53594 0.088188 0.15702 -0.49824 0.1802 -0.15005 -0.36596 -0.21963 -0.32342 -0.07962 -0.12588 -0.43174 0.0688 0.13849 -0.13498 -0.008192 0.40093 0.26567 0.33378 -0.72515 0.69101 0.32758 -0.31487 0.1831 0.32511 0.14482 0.38544 0.37053 0.16603 -0.21003 -0.0078392 0.054496 -0.46299 0.16028 0.39255 -0.2771 0.19915 -0.019398 0.91921 -0.88194 0.21482 0.46523 -0.949 0.22615 -0.00434 -0.91327 0.32617 -0.028084 -0.20797 -0.11693 0.13765 -0.031749 0.041 0.45504 -0.099338 0.77573 0.046808 0.068005 -0.10222 -0.19922 0.38724 0.21318 -0.28816 -0.1458 -0.29552 0.44977 1.0553 -0.16789 -0.55953 -0.34564 0.0089948 0.14051 -0.40205 -0.67963 0.34594 -0.30121 0.37027 -0.074967 -0.10258 -0.32084 -0.4419 -0.6258 0.24271 -0.049216 0.11932 0.20937 1.0966 0.72301 0.11741 -0.0032338 0.12937 -0.27486 -0.64232 -0.077109 0.07983 -0.35992 0.012972 -0.18885 -0.23472 0.073838 0.19646 0.13475 0.14546 0.16512 0.14739 0.15786 0.064509 0.14476 0.10344 -0.071583 -1.0401 -0.061832 0.28004 0.010946 -0.38813 -0.087394 0.2414 -0.29136 0.097491 -0.21786 -0.78789 -0.032254 -0.075693 -0.15993 -0.13096 0.1878 -0.51004 -0.41508 0.77694 -0.37078 0.074235 0.11002 0.17448 -0.59328 -0.26306 -0.59413 0.24631 -0.13601 0.15146 -0.14322 -0.38533 0.050236 -2.105 -0.055041 -0.14174 0.12424 0.016613 -0.39755 0.25043 -0.66919 -0.10001 0.55722 -0.10817 -0.06153 0.17183 -0.43793 0.27955 0.089671 -0.38236 0.51223 0.24411 0.26247 0.27793 0.12474 -0.045309 0.21268
outdoor 0.75279 0.36339 -0.097247 -0.07834 -0.13457 0.60044 -0.15751 0.38815 -0.13234 -0.32026 -0.018396 0.54471 0.093932 0.33912 -0.04348 -0.40999 -0.36942 0.29101 0.21276 0.026869 -0.074276 -0.053535 0.10922 0.11197 0.35248 -0.35739 -0.36234 0.21667 0.014272 0.87988 0.20437 0.06756 0.15477 -0.15081 -0.76334 0.15142 -0.12036 -0.45055 -0.19714 -0.13947 0.081076 0.55148 -0.35148 0.0060232 -0.19219 0.30949 1.0033 0.18067 0.49773 -0.14296 -0.23806 0.54667 -0.052264 -0.4308 0.19334 0.70107 -0.46068 -0.30704 0.87122 0.74906 -0.30277 -0.15678 0.13468 -0.44753 -0.35122 0.062527 -0.34461 0.34419 -0.7492 -0.2905 0.2502 -0.20514 0.16106 -0.23887 -0.48551 -0.23875 -0.12358 0.12531 0.28644 -0.52785 0.41103 -0.47425 -0.38669 -0.64035 0.25507 -0.2819 0.24571 -0.28284 -0.14555 0.30381 0.15243 -0.088454 0.14392 0.36877 0.28068 0.24627 0.43759 0.045091 -0.21199 -0.75548 -0.38753 0.3672 -0.16111 -0.20801 0.17338 0.19084 -0.14465 0.23602 0.12382 -0.534 -0.37283 -0.16527 0.22322 0.060922 -0.85079 -0.55028 0.29272 0.36822 -0.087183 0.46851 0.036897 0.67561 0.39532 0.14286 0.30591 0.32489 0.2019 -0.60162 -0.76348 0.021429 0.08494 0.26414 -0.060692 -0.021239 0.19851 -0.42129 -0.26271 0.086555 -0.18299 0.40202 -0.16793 -0.13823 0.77386 0.46565 0.0074799 0.34414 -0.041434 0.19067 0.0061819 -0.21101 -0.14315 -0.11157 -0.34774 -0.038867 -0.035203 -0.069552 -0.88768 0.26845 -0.078024 0.10021 0.68056 0.11529 -0.12451 -0.013479 0.10398 -0.05087 0.6231 -0.11741 0.39298 -0.1659 0.035272 0.31166 -0.32994 0.35625 -0.40777 0.35546 0.60102 0.1427 -0.15059 -0.3039 0.1639 0.30562 0.24185 -0.14878 -0.35748 0.37512 0.63239 0.41775 -0.050004 -0.13839 0.16571 -0.27989 -0.81142 -0.16384 -0.12958 0.30298 -0.34514 0.85322 -0.42608 0.23933 0.77771 -0.085528 -0.37272 0.17602 0.014477 0.28286 -0.36412 -0.041339 -0.12855 0.1107 -0.11482 0.29083 -0.54869 -0.66941 -0.38951 -0.039945 -0.22391 -0.45831 0.083161 -0.24263 0.9511 -0.38782 -0.64838 -0.64042 -0.2627 0.071372 0.1755 -0.01763 0.45582 -0.17624 0.12324 0.36832 0.69369 -0.41806 0.54887 0.1899 0.050461 0.22597 -0.34563 -0.099187 -0.021244 0.39469 -0.49328 -0.39204 -0.66325 0.15119 -0.51493 -0.13784 -0.13286 0.041571 0.593 -0.53573 -0.48522 -0.27828 0.37987 -0.11963 0.3449 -0.55078 0.024922 0.2305 0.027397 -0.79636 0.60053 -0.15248 -0.12139 -0.32611 -0.18088 0.91618 0.86916 -0.396 0.24053 0.41231 0.2003 -0.40405 0.32226 -0.29154 -2.0581 0.87414 -0.69992 0.46384 -0.31804 -0.92788 -0.34572 -0.20725 -0.68533 0.2109 -0.45318 0.50167 -0.057767 0.085054 -0.28655 0.66265 -0.73143 0.19928 0.11231 -0.15345 0.55733 0.49841 -0.15747 -0.0338
indoor 0.6311 0.71913 -0.14125 -0.034358 0.24955 0.85778 0.31399 0.32027 0.25198 -0.15007 0.46636 0.7046 0.074196 -0.24521 -0.1729 -0.050216 -0.35828 0.63844 -0.14994 -0.19637 0.12628 -0.18667 0.13501 0.063161 0.52141 -0.11783 -0.27329 0.10091 -0.21292 0.36992 -0.19042 0.17351 -0.026609 -0.0094276 -0.61275 0.21529 -0.20888 -0.3175 -0.22913 0.53242 -0.48701 0.018936 -0.31172 0.24615 0.54771 0.54651 0.63587 0.54138 0.30044 -0.044306 0.14114 0.40283 -0.20488 -0.48661 0.43289 0.95846 -0.11546 -0.25536 1.0512 0.73845 -0.36861 -0.14221 -0.41472 -0.59587 -0.19599 -0.25241 -0.30328 0.27915 -0.34623 -0.76446 0.22791 -0.16055 -0.15726 -0.83481 -0.41903 -0.1502 -0.27629 -0.38435 0.49451 -0.34231 0.70081 -0.62064 -0.04148 -0.69302 0.25724 -0.23399 0.51738 -0.65867 -0.13842 -0.12464 0.61466 0.2614 0.64035 -0.025983 0.63568 0.084187 0.33499 0.19935 -0.4002 -0.72655 -0.6364 -0.49349 0.042568 -0.031842 0.097559 0.44318 0.015672 -0.069927 -0.41277 0.39927 0.19925 -0.49577 0.17539 0.12241 -0.47965 -0.29426 0.35029 0.52179 -0.050487 0.45521 0.058941 0.88245 0.79423 0.012504 0.22936 0.72664 0.26565 0.00097979 -0.36267 0.2743 -0.38312 0.43276 -0.061343 0.27154 -0.089156 -0.2669 0.23522 -0.064126 -0.42716 -0.13105 -0.29407 -0.20684 0.81555 0.24588 0.11079 -0.23759 0.1287 0.41469 -0.13528 0.50905 -0.0054055 -0.48957 -0.73471 0.20839 -0.021624 0.41812 -1.2084 0.17369 -0.15086 0.0076283 0.65119 0.13019 -0.25784 -0.20928 0.39189 0.058514 0.63505 0.01663 0.35771 -0.35834 -0.083435 0.22363 -0.0029043 0.45228 0.28004 0.30362 0.87722 -0.058375 -0.16847 -0.10897 0.31339 0.13277 0.07748 0.18748 -0.49181 0.1825 0.904 0.57251 0.051838 -0.52759 -0.0014768 -0.22123 -0.54709 -0.34494 -0.59574 0.41751 -0.25329 0.99253 -0.23294 0.28418 0.98597 0.16785 -0.88792 -0.47383 -0.11319 0.20965 -0.33805 -0.52948 -0.35261 0.45843 0.0056394 0.36224 -0.34718 -0.82637 0.27494 -0.068531 -0.2594 -0.36447 -0.28873 -0.76033 0.91734 -0.98186 -0.6516 -0.60702 -0.38456 0.20676 -0.3525 0.217 0.030623 -0.075596 0.47964 0.20916 0.88455 -0.37417 0.15317 -0.24209 0.5883 0.76945 0.33149 0.35877 -0.51194 0.0095664 0.02812 -0.30092 -0.083222 0.27427 -0.50903 0.048798 -0.35736 -0.26341 0.23948 -0.63566 -0.58307 -0.35514 0.17803 -0.79107 0.4845 -0.44473 0.59621 0.34872 -0.47841 -0.83406 0.15135 -0.18254 0.21556 -0.015042 -0.23047 1.1709 0.81577 -0.42595 0.32068 0.14598 -0.21367 -0.13208 0.29012 -0.54751 -1.6608 0.69002 -0.59705 0.82652 -0.049382 -0.5499 -0.26706 0.4489 -0.54231 0.40878 -0.6948 0.12591 -0.5522 -0.16722 -0.0014369 1.0286 -0.81762 0.11323 0.49563 -0.18296 0.72798 0.26057 -0.08249 0.077295
outdoor 0.75279 0.36339 -0.097247 -0.07834 -0.13457 0.60044 -0.15751 0.38815 -0.13234 -0.32026 -0.018396 0.54471 0.093932 0.33912 -0.04348 -0.40999 -0.36942 0.29101 0.21276 0.026869 -0.074276 -0.053535 0.10922 0.11197 0.35248 -0.35739 -0.36234 0.21667 0.014272 0.87988 0.20437 0.06756 0.15477 -0.15081 -0.76334 0.15142 -0.12036 -0.45055 -0.19714 -0.13947 0.081076 0.55148 -0.35148 0.0060232 -0.19219 0.30949 1.0033 0.18067 0.49773 -0.14296 -0.23806 0.54667 -0.052264 -0.4308 0.19334 0.70107 -0.46068 -0.30704 0.87122 0.74906 -0.30277 -0.15678 0.13468 -0.44753 -0.35122 0.062527 -0.34461 0.34419 -0.7492 -0.2905 0.2502 -0.20514 0.16106 -0.23887 -0.48551 -0.23875 -0.12358 0.12531 0.28644 -0.52785 0.41103 -0.47425 -0.38669 -0.64035 0.25507 -0.2819 0.24571 -0.28284 -0.14555 0.30381 0.15243 -0.088454 0.14392 0.36877 0.28068 0.24627 0.43759 0.045091 -0.21199 -0.75548 -0.38753 0.3672 -0.16111 -0.20801 0.17338 0.19084 -0.14465 0.23602 0.12382 -0.534 -0.37283 -0.16527 0.22322 0.060922 -0.85079 -0.55028 0.29272 0.36822 -0.087183 0.46851 0.036897 0.67561 0.39532 0.14286 0.30591 0.32489 0.2019 -0.60162 -0.76348 0.021429 0.08494 0.26414 -0.060692 -0.021239 0.19851 -0.42129 -0.26271 0.086555 -0.18299 0.40202 -0.16793 -0.13823 0.77386 0.46565 0.0074799 0.34414 -0.041434 0.19067 0.0061819 -0.21101 -0.14315 -0.11157 -0.34774 -0.038867 -0.035203 -0.069552 -0.88768 0.26845 -0.078024 0.10021 0.68056 0.11529 -0.12451 -0.013479 0.10398 -0.05087 0.6231 -0.11741 0.39298 -0.1659 0.035272 0.31166 -0.32994 0.35625 -0.40777 0.35546 0.60102 0.1427 -0.15059 -0.3039 0.1639 0.30562 0.24185 -0.14878 -0.35748 0.37512 0.63239 0.41775 -0.050004 -0.13839 0.16571 -0.27989 -0.81142 -0.16384 -0.12958 0.30298 -0.34514 0.85322 -0.42608 0.23933 0.77771 -0.085528 -0.37272 0.17602 0.014477 0.28286 -0.36412 -0.041339 -0.12855 0.1107 -0.11482 0.29083 -0.54869 -0.66941 -0.38951 -0.039945 -0.22391 -0.45831 0.083161 -0.24263 0.9511 -0.38782 -0.64838 -0.64042 -0.2627 0.071372 0.1755 -0.01763 0.45582 -0.17624 0.12324 0.36832 0.69369 -0.41806 0.54887 0.1899 0.050461 0.22597 -0.34563 -0.099187 -0.021244 0.39469 -0.49328 -0.39204 -0.66325 0.15119 -0.51493 -0.13784 -0.13286 0.041571 0.593 -0.53573 -0.48522 -0.27828 0.37987 -0.11963 0.3449 -0.55078 0.024922 0.2305 0.027397 -0.79636 0.60053 -0.15248 -0.12139 -0.32611 -0.18088 0.91618 0.86916 -0.396 0.24053 0.41231 0.2003 -0.40405 0.32226 -0.29154 -2.0581 0.87414 -0.69992 0.46384 -0.31804 -0.92788 -0.34572 -0.20725 -0.68533 0.2109 -0.45318 0.50167 -0.057767 0.085054 -0.28655 0.66265 -0.73143 0.19928 0.11231 -0.15345 0.55733 0.49841 -0.15747 -0.0338
basketball 0.14284 0.51405 0.62334 0.070032 -0.090456 0.6843 -0.19394 0.1818 0.39592 0.24266 -0.32435 0.45174 0.069034 -0.1096 -0.088895 0.38235 -0.060599 -0.65841 0.096805 -0.62569 0.21881 0.14107 -0.22473 0.2746 0.12004 -0.11692 -0.53319 -0.040401 0.61825 0.0092204 0.30976 -0.46119 -0.073626 0.27834 -1.7918 0.83781 0.48941 -0.12837 0.57322 -0.092516 0.51371 -0.77041 -0.43148 -0.26041 0.39062 -0.22066 0.36768 0.42296 0.0036284 -0.077525 -0.21669 0.56503 -0.50772 -0.39789 -0.19455 0.25036 -0.073335 0.68193 0.83199 -0.33002 0.015947 0.13098 -0.082343 -0.47818 -0.23975 -0.34871 -0.49687 0.42085 -0.22084 -0.4052 0.30729 0.055113 -0.35416 -0.092864 -0.80042 -0.13265 0.34301 0.0091951 0.36012 -0.19793 0.36028 0.034753 0.20305 -0.38979 -0.14161 0.12786 0.17258 -0.27843 0.19848 0.43138 -0.13323 0.51418 -0.2853 0.062836 -0.14351 -0.029172 -0.037157 0.029108 0.033468 -0.6198 -0.16285 0.2438 0.038901 0.19931 0.24169 0.34943 0.6224 -0.63114 0.44322 0.53839 -0.27989 -0.21902 0.058486 -0.39877 0.29635 0.18219 0.30971 -0.42836 0.20003 0.21617 0.34019 0.2547 0.49415 0.035847 -0.24989 0.60514 -0.15388 0.3734 -0.063875 0.25671 -0.51992 -0.056041 -0.15707 -0.11151 0.19091 -0.24721 0.033805 0.24387 -0.89338 0.24475 0.11377 -0.18011 0.65512 -0.15538 -0.30155 0.016225 0.17907 -0.34403 -0.24237 0.14406 0.41467 -0.30112 -0.30259 -0.025353 0.021541 -0.32122 -0.34626 0.56666 0.34737 0.40446 0.28926 0.26319 -0.042912 0.029732 -0.0093685 -0.48165 -0.27743 0.60552 -0.32392 -0.19129 0.25114 0.3794 -1.5361 0.35189 -0.042368 0.25963 0.27557 -0.052349 0.337 -0.015363 0.25343 -0.12858 0.06392 -0.048108 -0.0071071 -0.28608 -0.39131 0.19693 -0.76291 -0.093809 0.32504 0.1102 0.21224 -0.45834 0.00011242 0.12245 0.41736 0.068061 0.20209 0.23164 2.0487 0.093865 -0.078242 0.062407 -0.23229 -0.38635 0.036344 -0.022689 0.030694 0.35729 -0.053568 0.88488 -0.71815 0.31698 -0.29495 0.26003 -0.09783 -0.15315 -0.3523 -0.91948 0.23875 -0.29439 0.30386 -0.33497 0.23447 -0.10099 -0.23338 0.14496 -0.42464 -0.02478 0.42396 0.047109 0.73096 -0.7982 -0.56417 -0.17354 0.14764 0.31609 -0.0032348 0.26376 0.53138 0.49727 0.011103 -0.26004 0.25154 -0.23103 -0.83319 0.062625 -0.20988 -0.093497 0.19095 0.080393 -0.37145 0.029558 -0.26331 -0.62192 0.68278 0.09132 -0.029772 -0.10591 -0.62966 -0.32584 0.41226 -0.26121 0.44665 -0.2267 -0.64301 0.45639 -0.62606 -0.52344 -0.18591 -0.27534 0.28378 -0.60389 1.0602 -0.20273 -1.5327 -0.30539 -0.48606 0.56691 -0.13614 -0.38942 0.029044 0.4663 0.42761 0.054273 -0.35676 0.16267 -0.28373 -0.543 0.22638 0.21095 -0.34544 0.50449 0.44646 -0.40162 0.40037 -0.763 0.024886 -0.25128
hockey 0.088442 0.58762 0.2799 -0.14311 0.088067 0.43575 -0.42861 0.48688 -0.75241 0.055416 0.21063 -0.10595 -0.25768 -0.12049 -0.18076 0.94186 0.0028379 -0.27828 -0.15919 0.3388 -0.17867 -0.21473 -0.14898 0.35902 0.15432 0.085445 -0.24602 0.082582 -0.048045 -0.068998 0.28769 -0.42246 0.2712 -0.021251 -1.5682 0.60101 0.46692 0.53458 0.40322 -0.057716 -0.12901 -0.18808 0.14591 0.24527 0.44206 0.066245 0.30484 0.32777 -0.26501 0.11707 -0.51854 0.40638 -0.50741 -0.72567 0.0044083 0.70868 0.1079 0.40599 1.2553 -0.020717 -0.067428 0.42332 -0.39169 -1.3791 -0.42679 -0.29529 -0.53843 0.42637 -0.095177 -0.2662 0.35789 0.27072 -0.80906 0.33851 -0.59039 -0.49544 -0.17114 -0.21361 0.32352 -0.090868 0.15289 0.19354 -0.027817 -0.89172 -0.40832 -0.17714 -0.057225 -0.2352 -0.45146 0.65161 5.6297e-05 0.67477 0.35441 -0.12576 0.51706 0.41798 0.049852 -0.4303 -0.20264 -0.40932 0.4728 0.14712 -0.28311 -0.053005 0.069244 -0.044368 0.73316 -0.21175 -0.16662 1.1244 -0.036089 -0.19316 -0.34313 -0.056396 0.20948 -0.44617 0.68054 0.063256 -0.17849 0.23864 0.065524 0.2573 0.25947 0.24628 -0.10372 0.83294 0.10548 -0.0042726 0.22731 -0.095595 -0.16651 0.053345 -0.2782 -0.72387 0.80674 -0.055304 0.31593 0.43898 -0.63901 0.1224 0.38746 0.48797 -0.062258 0.12626 0.49169 0.1519 0.55993 -0.2397 -0.32768 -0.014442 0.49457 -0.45099 -0.14925 -0.036278 0.37547 -0.64006 -0.31155 0.094936 0.41068 0.2012 0.18297 0.3433 -0.23122 -0.035722 0.33834 0.43341 0.13088 0.58693 -0.13491 -0.47362 -0.12903 -0.17788 -1.4522 0.23084 0.0056523 0.39466 0.023215 0.11206 -0.021744 0.70474 -0.095963 -0.19982 0.48396 -0.20229 0.32819 -0.19214 0.0089633 -0.24069 -0.10738 -0.48616 0.294 0.10021 0.53833 0.0062468 -0.28104 0.26033 0.34399 0.06916 0.82214 0.53041 1.7805 0.12814 0.20249 -0.45311 -0.42619 -0.33265 0.66183 -0.24492 0.026167 0.19534 0.17997 0.74441 -0.26168 0.45299 -0.49703 -0.37129 -0.26774 -0.063504 -0.38483 -0.83421 -0.052048 -0.12147 0.39142 -0.84315 0.035818 0.020078 -0.415 0.23638 0.1265 -0.088236 0.39227 0.26329 0.57028 -0.91455 -0.10206 -0.066412 0.039595 0.56057 0.27016 0.55431 0.38846 0.1939 0.47008 -0.057243 0.2693 -0.49985 -0.47112 0.44874 -0.36982 -0.25963 0.80256 -0.063215 -0.25124 0.30314 -0.24827 -0.31667 0.82466 -0.073395 0.35472 0.19435 -0.60485 -0.0064587 0.10259 0.39459 0.27274 -0.048128 -0.21142 0.54924 -0.59547 -0.13354 0.11878 -0.060787 0.48047 -0.3002 1.2089 0.11068 -1.1334 -0.31707 0.042611 0.097722 0.095802 -0.052231 -0.44319 -0.081786 0.37511 0.16372 -0.05608 0.061956 -0.12139 -0.11544 -0.042006 0.45015 -0.49744 0.40085 0.068811 -0.2113 0.91099 -0.13763 0.38635 -0.46242
performance 0.24121 0.44767 0.13056 -0.51345 -0.096234 -0.087865 -0.0031766 -0.023512 -0.62372 -1.6573 0.32479 0.77313 -0.36077 0.024331 -0.077045 -0.064909 0.33773 0.36349 0.37159 -0.4465 -0.26952 0.32683 0.070974 0.14198 -0.15096 0.25786 -0.16598 -0.25453 0.32504 0.11971 -0.11946 -0.15296 0.083149 -0.18644 -1.4836 0.12909 -0.098885 0.62652 0.32737 -0.52936 -0.41984 -0.074127 -0.31441 0.017924 0.34679 0.65427 -0.58925 0.32031 -0.24489 0.20867 0.30005 -0.080241 -0.10365 -0.020486 -0.0071113 0.22348 0.18066 -0.1518 -0.030989 0.29398 -0.11018 -0.091034 0.41735 -0.0061528 0.079664 0.24113 0.17715 -0.1855 0.4093 0.69257 -0.38984 0.34033 0.2149 -0.29016 -0.30878 0.17003 0.035677 0.090249 0.10948 0.34129 -0.40237 0.046946 0.2967 -0.52076 0.53912 0.3661 -0.09314 -0.18658 -0.042049 0.10718 0.36555 0.43698 0.067557 -0.31503 0.01971 0.024289 -0.11507 -0.46579 -0.48492 -0.49275 -0.13623 0.32098 0.2016 -0.59875 0.064111 0.0054669 -0.015814 0.45794 -0.19107 -0.27397 0.41174 -0.19782 0.26672 0.22447 -0.13273 0.0042446 0.35392 -0.17491 -0.51708 -0.2841 0.089047 0.20293 0.10876 0.0048478 0.16668 -0.43225 -0.073083 -0.0052571 -0.48849 0.41092 -0.42598 0.33 -0.25144 -0.17747 -0.12848 0.15829 -0.31985 -0.00070193 0.18856 1.0598 0.31347 -0.12525 0.44395 -0.45398 0.16646 -0.35079 -0.25943 -0.01789 -0.12214 -0.12098 0.27887 -0.46563 0.13443 -0.33002 0.029084 0.14644 0.060632 0.53197 0.038813 -0.24457 -0.064221 -0.80508 -0.10819 -0.60119 -0.29737 0.56822 -0.68165 -0.059642 0.16967 0.53232 0.39503 0.10645 -0.51054 0.056263 0.10883 -0.20781 0.21658 -0.1138 0.048731 0.66009 -0.014548 0.077609 0.10978 0.13417 0.032164 -0.077263 0.17391 -0.021981 -0.62996 0.3755 -0.61454 -0.22304 -0.60922 -0.1065 -0.030253 -0.27292 0.058479 0.30789 0.023551 -0.71418 1.1753 -0.040002 -0.0078035 -0.39652 -0.27806 0.011066 -0.16632 0.13814 -0.65555 -0.60999 -0.06231 0.20008 -0.51881 -0.68884 0.19042 -0.054339 0.24945 -0.21332 -0.14257 -0.14467 -0.50522 0.13383 -0.25655 0.48151 -0.31014 0.32076 -0.10044 -0.25589 -0.41752 0.38991 0.062742 0.081678 -0.10272 -0.44976 0.39615 0.67508 -0.3472 0.1425 0.17823 0.44554 0.26742 -0.15965 0.098096 0.079963 -0.65514 -0.12728 -0.17766 -0.15188 0.0075965 0.57658 0.28015 -0.25768 -0.20412 0.14454 0.039044 -0.2727 0.054865 0.11142 0.25057 0.060058 -0.29361 -0.1355 0.018805 0.25391 0.13685 0.19055 -0.016448 -0.085238 0.12387 -0.48867 0.3486 0.19113 -0.2733 0.2992 -0.22174 -0.016181 -1.3315 -0.16207 -0.045637 0.019419 -0.56521 0.272 -0.054856 0.55006 -0.028083 0.50919 -0.60669 -0.010532 -0.083372 -0.036996 0.043419 0.0065493 -0.67045 0.40652 0.30339 0.43664 -0.2792 -0.42125 -0.22093 -0.033884
outdoor 0.75279 0.36339 -0.097247 -0.07834 -0.13457 0.60044 -0.15751 0.38815 -0.13234 -0.32026 -0.018396 0.54471 0.093932 0.33912 -0.04348 -0.40999 -0.36942 0.29101 0.21276 0.026869 -0.074276 -0.053535 0.10922 0.11197 0.35248 -0.35739 -0.36234 0.21667 0.014272 0.87988 0.20437 0.06756 0.15477 -0.15081 -0.76334 0.15142 -0.12036 -0.45055 -0.19714 -0.13947 0.081076 0.55148 -0.35148 0.0060232 -0.19219 0.30949 1.0033 0.18067 0.49773 -0.14296 -0.23806 0.54667 -0.052264 -0.4308 0.19334 0.70107 -0.46068 -0.30704 0.87122 0.74906 -0.30277 -0.15678 0.13468 -0.44753 -0.35122 0.062527 -0.34461 0.34419 -0.7492 -0.2905 0.2502 -0.20514 0.16106 -0.23887 -0.48551 -0.23875 -0.12358 0.12531 0.28644 -0.52785 0.41103 -0.47425 -0.38669 -0.64035 0.25507 -0.2819 0.24571 -0.28284 -0.14555 0.30381 0.15243 -0.088454 0.14392 0.36877 0.28068 0.24627 0.43759 0.045091 -0.21199 -0.75548 -0.38753 0.3672 -0.16111 -0.20801 0.17338 0.19084 -0.14465 0.23602 0.12382 -0.534 -0.37283 -0.16527 0.22322 0.060922 -0.85079 -0.55028 0.29272 0.36822 -0.087183 0.46851 0.036897 0.67561 0.39532 0.14286 0.30591 0.32489 0.2019 -0.60162 -0.76348 0.021429 0.08494 0.26414 -0.060692 -0.021239 0.19851 -0.42129 -0.26271 0.086555 -0.18299 0.40202 -0.16793 -0.13823 0.77386 0.46565 0.0074799 0.34414 -0.041434 0.19067 0.0061819 -0.21101 -0.14315 -0.11157 -0.34774 -0.038867 -0.035203 -0.069552 -0.88768 0.26845 -0.078024 0.10021 0.68056 0.11529 -0.12451 -0.013479 0.10398 -0.05087 0.6231 -0.11741 0.39298 -0.1659 0.035272 0.31166 -0.32994 0.35625 -0.40777 0.35546 0.60102 0.1427 -0.15059 -0.3039 0.1639 0.30562 0.24185 -0.14878 -0.35748 0.37512 0.63239 0.41775 -0.050004 -0.13839 0.16571 -0.27989 -0.81142 -0.16384 -0.12958 0.30298 -0.34514 0.85322 -0.42608 0.23933 0.77771 -0.085528 -0.37272 0.17602 0.014477 0.28286 -0.36412 -0.041339 -0.12855 0.1107 -0.11482 0.29083 -0.54869 -0.66941 -0.38951 -0.039945 -0.22391 -0.45831 0.083161 -0.24263 0.9511 -0.38782 -0.64838 -0.64042 -0.2627 0.071372 0.1755 -0.01763 0.45582 -0.17624 0.12324 0.36832 0.69369 -0.41806 0.54887 0.1899 0.050461 0.22597 -0.34563 -0.099187 -0.021244 0.39469 -0.49328 -0.39204 -0.66325 0.15119 -0.51493 -0.13784 -0.13286 0.041571 0.593 -0.53573 -0.48522 -0.27828 0.37987 -0.11963 0.3449 -0.55078 0.024922 0.2305 0.027397 -0.79636 0.60053 -0.15248 -0.12139 -0.32611 -0.18088 0.91618 0.86916 -0.396 0.24053 0.41231 0.2003 -0.40405 0.32226 -0.29154 -2.0581 0.87414 -0.69992 0.46384 -0.31804 -0.92788 -0.34572 -0.20725 -0.68533 0.2109 -0.45318 0.50167 -0.057767 0.085054 -0.28655 0.66265 -0.73143 0.19928 0.11231 -0.15345 0.55733 0.49841 -0.15747 -0.0338
outdoor 0.75279 0.36339 -0.097247 -0.07834 -0.13457 0.60044 -0.15751 0.38815 -0.13234 -0.32026 -0.018396 0.54471 0.093932 0.33912 -0.04348 -0.40999 -0.36942 0.29101 0.21276 0.026869 -0.074276 -0.053535 0.10922 0.11197 0.35248 -0.35739 -0.36234 0.21667 0.014272 0.87988 0.20437 0.06756 0.15477 -0.15081 -0.76334 0.15142 -0.12036 -0.45055 -0.19714 -0.13947 0.081076 0.55148 -0.35148 0.0060232 -0.19219 0.30949 1.0033 0.18067 0.49773 -0.14296 -0.23806 0.54667 -0.052264 -0.4308 0.19334 0.70107 -0.46068 -0.30704 0.87122 0.74906 -0.30277 -0.15678 0.13468 -0.44753 -0.35122 0.062527 -0.34461 0.34419 -0.7492 -0.2905 0.2502 -0.20514 0.16106 -0.23887 -0.48551 -0.23875 -0.12358 0.12531 0.28644 -0.52785 0.41103 -0.47425 -0.38669 -0.64035 0.25507 -0.2819 0.24571 -0.28284 -0.14555 0.30381 0.15243 -0.088454 0.14392 0.36877 0.28068 0.24627 0.43759 0.045091 -0.21199 -0.75548 -0.38753 0.3672 -0.16111 -0.20801 0.17338 0.19084 -0.14465 0.23602 0.12382 -0.534 -0.37283 -0.16527 0.22322 0.060922 -0.85079 -0.55028 0.29272 0.36822 -0.087183 0.46851 0.036897 0.67561 0.39532 0.14286 0.30591 0.32489 0.2019 -0.60162 -0.76348 0.021429 0.08494 0.26414 -0.060692 -0.021239 0.19851 -0.42129 -0.26271 0.086555 -0.18299 0.40202 -0.16793 -0.13823 0.77386 0.46565 0.0074799 0.34414 -0.041434 0.19067 0.0061819 -0.21101 -0.14315 -0.11157 -0.34774 -0.038867 -0.035203 -0.069552 -0.88768 0.26845 -0.078024 0.10021 0.68056 0.11529 -0.12451 -0.013479 0.10398 -0.05087 0.6231 -0.11741 0.39298 -0.1659 0.035272 0.31166 -0.32994 0.35625 -0.40777 0.35546 0.60102 0.1427 -0.15059 -0.3039 0.1639 0.30562 0.24185 -0.14878 -0.35748 0.37512 0.63239 0.41775 -0.050004 -0.13839 0.16571 -0.27989 -0.81142 -0.16384 -0.12958 0.30298 -0.34514 0.85322 -0.42608 0.23933 0.77771 -0.085528 -0.37272 0.17602 0.014477 0.28286 -0.36412 -0.041339 -0.12855 0.1107 -0.11482 0.29083 -0.54869 -0.66941 -0.38951 -0.039945 -0.22391 -0.45831 0.083161 -0.24263 0.9511 -0.38782 -0.64838 -0.64042 -0.2627 0.071372 0.1755 -0.01763 0.45582 -0.17624 0.12324 0.36832 0.69369 -0.41806 0.54887 0.1899 0.050461 0.22597 -0.34563 -0.099187 -0.021244 0.39469 -0.49328 -0.39204 -0.66325 0.15119 -0.51493 -0.13784 -0.13286 0.041571 0.593 -0.53573 -0.48522 -0.27828 0.37987 -0.11963 0.3449 -0.55078 0.024922 0.2305 0.027397 -0.79636 0.60053 -0.15248 -0.12139 -0.32611 -0.18088 0.91618 0.86916 -0.396 0.24053 0.41231 0.2003 -0.40405 0.32226 -0.29154 -2.0581 0.87414 -0.69992 0.46384 -0.31804 -0.92788 -0.34572 -0.20725 -0.68533 0.2109 -0.45318 0.50167 -0.057767 0.085054 -0.28655 0.66265 -0.73143 0.19928 0.11231 -0.15345 0.55733 0.49841 -0.15747 -0.0338
home -0.1983 0.40716 -0.35536 0.21121 -0.05896 -0.088234 -0.28863 0.14117 -0.14903 -1.0593 0.14889 -0.16319 0.061986 -0.19785 0.19931 0.36496 -0.45092 -0.21204 0.48291 -0.15234 0.10777 -0.10228 0.30922 -0.27739 -0.38627 0.02252 0.0067976 0.37815 -0.27808 0.18975 -0.036539 0.49382 -0.061208 0.30564 -0.93696 0.091373 -0.23215 -0.0081814 -0.37219 -0.35673 0.39495 -0.12964 0.14677 0.088976 0.14622 -0.0721 0.31897 0.27413 0.32191 -0.062372 -0.25841 -0.15186 -0.075243 0.099557 0.20346 -0.29497 -0.032037 0.017923 -0.25803 0.10793 0.049323 -0.10468 0.36978 0.32162 0.2573 -0.47928 -0.1455 -0.18733 0.55747 -0.50641 -0.34361 -0.081824 -0.16849 0.22494 -0.091593 0.32407 0.18916 -0.15349 -0.044654 -0.15019 -0.15568 0.45117 -0.09011 -0.38433 -0.10292 0.0076696 -0.26223 -0.22896 0.36114 -0.24896 0.27088 0.23643 -0.021821 0.21445 0.19839 0.087242 -0.063541 -0.16118 -0.15871 -0.56914 0.24388 -0.028324 0.39616 0.24777 -0.048133 -0.25546 0.8645 0.037257 -0.20696 0.33698 0.12399 -0.44804 -0.24976 -0.26574 0.044308 0.0053254 0.096682 0.18463 0.17613 -0.32732 0.20284 0.0056082 0.1829 0.093318 0.27172 0.16885 0.069147 -0.69635 0.19023 -0.052584 0.20616 0.4105 0.1126 0.1141 0.080536 -0.010125 0.18354 -0.24139 -0.24682 0.50051 0.048283 -0.10197 0.20282 0.71709 -0.3134 -0.15725 0.069224 0.028989 -0.57178 -0.05946 0.6025 -0.23411 -0.18521 0.0040437 0.32983 0.032313 -0.31659 0.015222 -0.14453 -0.14217 0.075666 -0.08857 -0.13184 -0.33063 0.48716 0.2909 -0.014505 -0.20999 0.084561 0.16904 -0.35539 -0.2018 -0.7432 0.58285 -0.12803 0.29141 -0.048742 -0.087548 0.16185 0.93982 0.1261 -0.1107 0.70147 0.28809 -0.048765 0.61992 0.10523 0.071436 0.085017 0.43027 -0.19245 0.13762 0.03992 -0.27666 -0.31117 0.12534 0.24069 -0.19712 -0.01221 -0.068888 1.08 -0.13378 -0.0013797 -0.068186 0.19849 -0.1379 0.19624 -0.18301 -0.81459 0.014563 -0.43191 0.1996 -0.37939 0.1088 0.44005 0.45649 -0.33157 0.0021032 0.11117 0.31493 0.76884 -0.31496 -0.40646 0.0046402 -0.1224 -0.13 0.14574 0.21266 0.25608 -0.30335 -0.35895 0.25336 -0.28337 -0.11714 0.52904 0.08476 0.14735 0.52752 -0.0044442 0.24385 0.19018 0.13905 0.23856 0.32796 0.018582 -0.24964 0.042878 0.30035 -0.044609 0.26962 0.45599 0.53246 0.10431 0.002077 0.66318 0.15691 -0.057955 -0.25993 -0.083596 -0.056345 -0.37043 -0.73199 -0.066975 -0.10071 -0.50281 0.03855 0.079121 -0.11577 0.709 -0.067501 -0.37662 -0.034533 -0.32652 -0.46898 0.070496 -0.31134 -2.4728 0.5021 -0.12366 -0.025709 -0.56774 0.57203 -0.095044 0.371 -0.55956 0.69811 0.17625 0.11302 0.14476 -0.033079 -0.2878 -0.20431 0.039642 -0.42869 -0.12811 -0.021456 0.44757 -0.27073 -0.2235 0.6075
public -0.31421 -0.34531 0.097655 0.014985 0.44757 0.31028 0.11966 -0.042191 0.043028 -2.1155 -0.18147 0.72196 -0.30351 0.42214 0.12892 0.49131 -0.078027 -0.36165 0.5353 -0.16164 0.2277 -0.10024 0.48461 0.16601 -0.035782 0.040921 -0.13854 -0.095308 0.21595 0.47577 0.024781 0.066465 0.031595 0.26667 -1.06 0.027373 -0.42908 -0.17529 0.082048 -0.56424 0.036246 0.094295 -0.18236 0.57137 -0.15991 0.19015 -0.11214 0.13872 -0.25262 0.13103 -0.50951 0.089522 -0.039417 -0.13862 0.46188 -0.20396 0.01659 0.32767 -0.0992 0.30049 -0.125 -0.050921 -0.037722 0.12096 -0.38003 -0.42531 0.39981 -0.49131 -0.17264 -0.1337 -0.54298 0.30453 0.66013 -0.55174 0.18366 -0.00061879 0.17108 0.88063 -0.24221 -0.00081865 -0.33256 -0.4079 0.18467 -0.083554 0.33625 0.21076 0.20651 -0.12247 -0.14218 0.24908 -0.36043 -0.13757 0.076131 0.032044 -0.12184 -0.11691 0.058193 -0.0513 -0.29788 -0.17272 -0.18685 -0.252 -0.51762 -0.4047 0.14847 0.10517 -0.28957 0.15006 -0.076392 0.046271 -0.37249 -0.32725 -0.033828 -0.22519 0.20432 -0.024937 0.17884 0.024768 0.12663 -0.33811 -0.43431 0.58472 -0.0057465 0.026449 0.018188 -0.54867 -0.4008 0.09411 -0.37312 -0.027347 0.47699 0.17505 0.61032 -0.0846 -0.20537 -0.1323 0.17622 -0.19272 0.21573 0.10499 -0.19824 -0.1442 0.68433 0.75273 -0.09268 -0.45769 0.5833 -0.2012 0.25059 0.11521 1.182 0.19127 0.21508 0.47979 -0.28123 0.45402 0.21994 -0.047864 0.058381 -0.37622 0.1691 0.26693 0.048744 0.16322 0.043411 -0.42245 0.19772 -0.038788 -0.29371 0.2625 0.22585 0.31817 -0.81435 0.23925 0.070576 0.16046 -0.11788 -0.5165 0.5912 0.58319 -0.20242 0.37868 0.095838 -0.061858 -0.75906 0.38599 0.21587 -0.20431 -0.065323 0.033559 -0.094904 -0.40808 -0.46776 -0.073012 0.10222 0.28734 0.1473 -0.4409 -0.1177 -0.37958 0.28384 0.29831 -0.038334 -0.45877 0.011979 -0.23937 -0.21411 -0.0090788 0.34489 -0.26054 0.28201 -0.10709 -0.37383 -0.31609 0.23965 0.31241 0.031101 0.061152 0.042659 0.17942 0.17871 0.27501 -0.27647 -0.29796 0.34054 -0.17114 -0.53844 -0.46322 0.28966 -0.22293 0.39834 -0.19262 0.016775 -0.35319 -0.033071 0.17433 0.097608 0.14071 -0.58729 -0.098439 -0.065676 -0.093075 0.5406 -0.48047 -0.88401 0.47278 -0.11545 -0.30112 0.24067 -0.0039463 0.47762 -0.3682 0.63211 -0.20769 0.1298 -0.11647 0.11778 -0.087901 0.17388 -0.30988 -0.074152 0.0057077 0.49907 -0.12973 0.071167 -0.27699 0.095051 0.20644 -0.043934 0.21674 0.43437 0.53293 0.061146 -0.18019 0.12161 -0.075662 -2.4567 0.15553 1.0289 0.11978 0.013653 -0.21662 0.012329 -0.21801 -0.070454 0.053351 -0.28623 0.42074 0.5323 0.20642 -0.010145 -0.1343 -0.35679 0.25326 0.46751 -0.047791 0.085516 -0.30421 -0.14943 -0.31942
indoor 0.6311 0.71913 -0.14125 -0.034358 0.24955 0.85778 0.31399 0.32027 0.25198 -0.15007 0.46636 0.7046 0.074196 -0.24521 -0.1729 -0.050216 -0.35828 0.63844 -0.14994 -0.19637 0.12628 -0.18667 0.13501 0.063161 0.52141 -0.11783 -0.27329 0.10091 -0.21292 0.36992 -0.19042 0.17351 -0.026609 -0.0094276 -0.61275 0.21529 -0.20888 -0.3175 -0.22913 0.53242 -0.48701 0.018936 -0.31172 0.24615 0.54771 0.54651 0.63587 0.54138 0.30044 -0.044306 0.14114 0.40283 -0.20488 -0.48661 0.43289 0.95846 -0.11546 -0.25536 1.0512 0.73845 -0.36861 -0.14221 -0.41472 -0.59587 -0.19599 -0.25241 -0.30328 0.27915 -0.34623 -0.76446 0.22791 -0.16055 -0.15726 -0.83481 -0.41903 -0.1502 -0.27629 -0.38435 0.49451 -0.34231 0.70081 -0.62064 -0.04148 -0.69302 0.25724 -0.23399 0.51738 -0.65867 -0.13842 -0.12464 0.61466 0.2614 0.64035 -0.025983 0.63568 0.084187 0.33499 0.19935 -0.4002 -0.72655 -0.6364 -0.49349 0.042568 -0.031842 0.097559 0.44318 0.015672 -0.069927 -0.41277 0.39927 0.19925 -0.49577 0.17539 0.12241 -0.47965 -0.29426 0.35029 0.52179 -0.050487 0.45521 0.058941 0.88245 0.79423 0.012504 0.22936 0.72664 0.26565 0.00097979 -0.36267 0.2743 -0.38312 0.43276 -0.061343 0.27154 -0.089156 -0.2669 0.23522 -0.064126 -0.42716 -0.13105 -0.29407 -0.20684 0.81555 0.24588 0.11079 -0.23759 0.1287 0.41469 -0.13528 0.50905 -0.0054055 -0.48957 -0.73471 0.20839 -0.021624 0.41812 -1.2084 0.17369 -0.15086 0.0076283 0.65119 0.13019 -0.25784 -0.20928 0.39189 0.058514 0.63505 0.01663 0.35771 -0.35834 -0.083435 0.22363 -0.0029043 0.45228 0.28004 0.30362 0.87722 -0.058375 -0.16847 -0.10897 0.31339 0.13277 0.07748 0.18748 -0.49181 0.1825 0.904 0.57251 0.051838 -0.52759 -0.0014768 -0.22123 -0.54709 -0.34494 -0.59574 0.41751 -0.25329 0.99253 -0.23294 0.28418 0.98597 0.16785 -0.88792 -0.47383 -0.11319 0.20965 -0.33805 -0.52948 -0.35261 0.45843 0.0056394 0.36224 -0.34718 -0.82637 0.27494 -0.068531 -0.2594 -0.36447 -0.28873 -0.76033 0.91734 -0.98186 -0.6516 -0.60702 -0.38456 0.20676 -0.3525 0.217 0.030623 -0.075596 0.47964 0.20916 0.88455 -0.37417 0.15317 -0.24209 0.5883 0.76945 0.33149 0.35877 -0.51194 0.0095664 0.02812 -0.30092 -0.083222 0.27427 -0.50903 0.048798 -0.35736 -0.26341 0.23948 -0.63566 -0.58307 -0.35514 0.17803 -0.79107 0.4845 -0.44473 0.59621 0.34872 -0.47841 -0.83406 0.15135 -0.18254 0.21556 -0.015042 -0.23047 1.1709 0.81577 -0.42595 0.32068 0.14598 -0.21367 -0.13208 0.29012 -0.54751 -1.6608 0.69002 -0.59705 0.82652 -0.049382 -0.5499 -0.26706 0.4489 -0.54231 0.40878 -0.6948 0.12591 -0.5522 -0.16722 -0.0014369 1.0286 -0.81762 0.11323 0.49563 -0.18296 0.72798 0.26057 -0.08249 0.077295
indoor 0.6311 0.71913 -0.14125 -0.034358 0.24955 0.85778 0.31399 0.32027 0.25198 -0.15007 0.46636 0.7046 0.074196 -0.24521 -0.1729 -0.050216 -0.35828 0.63844 -0.14994 -0.19637 0.12628 -0.18667 0.13501 0.063161 0.52141 -0.11783 -0.27329 0.10091 -0.21292 0.36992 -0.19042 0.17351 -0.026609 -0.0094276 -0.61275 0.21529 -0.20888 -0.3175 -0.22913 0.53242 -0.48701 0.018936 -0.31172 0.24615 0.54771 0.54651 0.63587 0.54138 0.30044 -0.044306 0.14114 0.40283 -0.20488 -0.48661 0.43289 0.95846 -0.11546 -0.25536 1.0512 0.73845 -0.36861 -0.14221 -0.41472 -0.59587 -0.19599 -0.25241 -0.30328 0.27915 -0.34623 -0.76446 0.22791 -0.16055 -0.15726 -0.83481 -0.41903 -0.1502 -0.27629 -0.38435 0.49451 -0.34231 0.70081 -0.62064 -0.04148 -0.69302 0.25724 -0.23399 0.51738 -0.65867 -0.13842 -0.12464 0.61466 0.2614 0.64035 -0.025983 0.63568 0.084187 0.33499 0.19935 -0.4002 -0.72655 -0.6364 -0.49349 0.042568 -0.031842 0.097559 0.44318 0.015672 -0.069927 -0.41277 0.39927 0.19925 -0.49577 0.17539 0.12241 -0.47965 -0.29426 0.35029 0.52179 -0.050487 0.45521 0.058941 0.88245 0.79423 0.012504 0.22936 0.72664 0.26565 0.00097979 -0.36267 0.2743 -0.38312 0.43276 -0.061343 0.27154 -0.089156 -0.2669 0.23522 -0.064126 -0.42716 -0.13105 -0.29407 -0.20684 0.81555 0.24588 0.11079 -0.23759 0.1287 0.41469 -0.13528 0.50905 -0.0054055 -0.48957 -0.73471 0.20839 -0.021624 0.41812 -1.2084 0.17369 -0.15086 0.0076283 0.65119 0.13019 -0.25784 -0.20928 0.39189 0.058514 0.63505 0.01663 0.35771 -0.35834 -0.083435 0.22363 -0.0029043 0.45228 0.28004 0.30362 0.87722 -0.058375 -0.16847 -0.10897 0.31339 0.13277 0.07748 0.18748 -0.49181 0.1825 0.904 0.57251 0.051838 -0.52759 -0.0014768 -0.22123 -0.54709 -0.34494 -0.59574 0.41751 -0.25329 0.99253 -0.23294 0.28418 0.98597 0.16785 -0.88792 -0.47383 -0.11319 0.20965 -0.33805 -0.52948 -0.35261 0.45843 0.0056394 0.36224 -0.34718 -0.82637 0.27494 -0.068531 -0.2594 -0.36447 -0.28873 -0.76033 0.91734 -0.98186 -0.6516 -0.60702 -0.38456 0.20676 -0.3525 0.217 0.030623 -0.075596 0.47964 0.20916 0.88455 -0.37417 0.15317 -0.24209 0.5883 0.76945 0.33149 0.35877 -0.51194 0.0095664 0.02812 -0.30092 -0.083222 0.27427 -0.50903 0.048798 -0.35736 -0.26341 0.23948 -0.63566 -0.58307 -0.35514 0.17803 -0.79107 0.4845 -0.44473 0.59621 0.34872 -0.47841 -0.83406 0.15135 -0.18254 0.21556 -0.015042 -0.23047 1.1709 0.81577 -0.42595 0.32068 0.14598 -0.21367 -0.13208 0.29012 -0.54751 -1.6608 0.69002 -0.59705 0.82652 -0.049382 -0.5499 -0.26706 0.4489 -0.54231 0.40878 -0.6948 0.12591 -0.5522 -0.16722 -0.0014369 1.0286 -0.81762 0.11323 0.49563 -0.18296 0.72798 0.26057 -0.08249 0.077295
outdoor 0.75279 0.36339 -0.097247 -0.07834 -0.13457 0.60044 -0.15751 0.38815 -0.13234 -0.32026 -0.018396 0.54471 0.093932 0.33912 -0.04348 -0.40999 -0.36942 0.29101 0.21276 0.026869 -0.074276 -0.053535 0.10922 0.11197 0.35248 -0.35739 -0.36234 0.21667 0.014272 0.87988 0.20437 0.06756 0.15477 -0.15081 -0.76334 0.15142 -0.12036 -0.45055 -0.19714 -0.13947 0.081076 0.55148 -0.35148 0.0060232 -0.19219 0.30949 1.0033 0.18067 0.49773 -0.14296 -0.23806 0.54667 -0.052264 -0.4308 0.19334 0.70107 -0.46068 -0.30704 0.87122 0.74906 -0.30277 -0.15678 0.13468 -0.44753 -0.35122 0.062527 -0.34461 0.34419 -0.7492 -0.2905 0.2502 -0.20514 0.16106 -0.23887 -0.48551 -0.23875 -0.12358 0.12531 0.28644 -0.52785 0.41103 -0.47425 -0.38669 -0.64035 0.25507 -0.2819 0.24571 -0.28284 -0.14555 0.30381 0.15243 -0.088454 0.14392 0.36877 0.28068 0.24627 0.43759 0.045091 -0.21199 -0.75548 -0.38753 0.3672 -0.16111 -0.20801 0.17338 0.19084 -0.14465 0.23602 0.12382 -0.534 -0.37283 -0.16527 0.22322 0.060922 -0.85079 -0.55028 0.29272 0.36822 -0.087183 0.46851 0.036897 0.67561 0.39532 0.14286 0.30591 0.32489 0.2019 -0.60162 -0.76348 0.021429 0.08494 0.26414 -0.060692 -0.021239 0.19851 -0.42129 -0.26271 0.086555 -0.18299 0.40202 -0.16793 -0.13823 0.77386 0.46565 0.0074799 0.34414 -0.041434 0.19067 0.0061819 -0.21101 -0.14315 -0.11157 -0.34774 -0.038867 -0.035203 -0.069552 -0.88768 0.26845 -0.078024 0.10021 0.68056 0.11529 -0.12451 -0.013479 0.10398 -0.05087 0.6231 -0.11741 0.39298 -0.1659 0.035272 0.31166 -0.32994 0.35625 -0.40777 0.35546 0.60102 0.1427 -0.15059 -0.3039 0.1639 0.30562 0.24185 -0.14878 -0.35748 0.37512 0.63239 0.41775 -0.050004 -0.13839 0.16571 -0.27989 -0.81142 -0.16384 -0.12958 0.30298 -0.34514 0.85322 -0.42608 0.23933 0.77771 -0.085528 -0.37272 0.17602 0.014477 0.28286 -0.36412 -0.041339 -0.12855 0.1107 -0.11482 0.29083 -0.54869 -0.66941 -0.38951 -0.039945 -0.22391 -0.45831 0.083161 -0.24263 0.9511 -0.38782 -0.64838 -0.64042 -0.2627 0.071372 0.1755 -0.01763 0.45582 -0.17624 0.12324 0.36832 0.69369 -0.41806 0.54887 0.1899 0.050461 0.22597 -0.34563 -0.099187 -0.021244 0.39469 -0.49328 -0.39204 -0.66325 0.15119 -0.51493 -0.13784 -0.13286 0.041571 0.593 -0.53573 -0.48522 -0.27828 0.37987 -0.11963 0.3449 -0.55078 0.024922 0.2305 0.027397 -0.79636 0.60053 -0.15248 -0.12139 -0.32611 -0.18088 0.91618 0.86916 -0.396 0.24053 0.41231 0.2003 -0.40405 0.32226 -0.29154 -2.0581 0.87414 -0.69992 0.46384 -0.31804 -0.92788 -0.34572 -0.20725 -0.68533 0.2109 -0.45318 0.50167 -0.057767 0.085054 -0.28655 0.66265 -0.73143 0.19928 0.11231 -0.15345 0.55733 0.49841 -0.15747 -0.0338
kitchen 0.1883 0.24958 0.043344 -0.72107 0.29341 0.32433 -0.27131 -0.39779 0.13071 -0.77898 -0.072166 0.013103 0.54325 0.28507 0.055205 -0.033791 -0.012879 0.019831 0.1739 0.27636 0.079885 0.41577 -0.061058 -0.042344 0.141 -0.27894 -0.042941 0.1564 0.55578 -0.11274 -0.03282 0.6267 -0.41617 0.24959 -0.65095 0.85969 -0.25023 -0.15289 -0.2181 -0.25116 0.24252 -0.12786 -0.052368 -0.10831 0.13926 0.18058 0.35781 -0.1701 0.10246 -0.17611 0.2052 -0.027307 0.59104 -0.13442 -0.46667 -0.27374 0.008256 -0.050164 -0.016307 0.02368 0.046658 -0.40543 0.24638 0.64126 -0.53631 -0.82519 0.11849 0.25954 -0.7239 -0.56148 0.075758 -0.59977 -0.2243 0.17745 -0.58811 0.27497 -0.3549 0.24112 -0.33877 -0.73274 -0.056707 0.54672 0.16752 -0.20334 0.47152 -0.26157 -0.18311 0.321 -0.15699 -0.53857 0.41248 -0.19425 0.40087 -0.19089 -0.30071 -0.51831 0.048405 -0.3117 0.29871 -0.60712 -0.28698 0.094147 -0.019967 -0.44453 0.14036 -0.74576 0.51608 0.18179 -0.17442 0.6548 -0.21054 0.071179 0.024987 -0.67367 -0.57773 -0.31142 -0.55635 -0.15489 -0.7103 -0.28067 -0.1022 0.44198 -0.2356 0.11968 -0.10657 0.063841 -0.072053 -0.24407 -0.016788 0.23189 0.60175 0.025885 0.52771 -0.058661 0.40078 -0.27812 0.17431 0.50494 -0.30543 0.12939 0.28321 0.10249 0.40663 -0.21074 -0.12332 0.9233 0.3731 0.24754 0.02584 -0.40382 -0.31343 0.5834 0.32653 0.0058325 -0.16295 0.24397 -0.65223 0.35878 -0.12147 -0.022434 0.65176 0.56269 0.37908 0.0050124 0.1935 0.42976 0.2274 0.006584 0.44219 0.19606 -0.40253 0.23023 -0.19646 0.19768 -0.71009 0.40065 -0.21589 0.24966 0.58263 -0.78469 -0.11862 -0.14042 0.21551 0.16972 -0.00096993 0.21197 0.62278 0.7247 0.31137 0.0025022 0.51758 0.62619 -0.91535 0.019061 -0.4207 0.3685 -0.54857 0.24742 -0.85943 0.054293 0.35326 0.043697 0.22726 0.38113 0.3151 -0.19861 0.51179 -0.48445 -0.39417 -0.30737 -0.451 -0.20222 -0.3848 -0.081889 0.44203 0.32191 0.14636 -0.45375 0.11099 0.1429 0.26471 0.25345 -0.26487 -0.075713 0.081684 -0.37598 -0.11632 0.13998 0.029877 -0.31175 -0.0047389 -0.4506 -0.5668 -0.035315 0.30409 0.53399 0.12283 0.051637 -0.94923 -0.07886 0.41762 -0.1673 -0.30164 0.3058 -0.18288 -0.08072 0.058217 0.23405 -0.25604 -0.13062 0.251 -0.22323 0.31011 0.044982 0.31177 0.14235 -0.10218 -0.22227 0.2648 0.57581 0.012673 -0.52591 -0.23756 -0.61487 -0.17152 0.267 -0.0059939 0.53286 0.40994 -0.38351 -0.24498 -0.044872 0.2382 -0.27054 0.20662 0.19022 -1.561 0.93489 -1.1179 -0.31668 -0.057899 0.42117 -0.13406 -0.20153 0.28548 0.4457 0.18589 -0.015685 -0.13609 -0.25452 -0.20412 -0.10949 -0.28141 0.18595 0.14252 0.0065661 0.21782 -0.064853 -0.17102 0.62589
shop 0.027142 0.42758 -0.31736 -0.40976 -0.30447 0.35045 0.38316 0.0083649 -0.05649 -0.87254 0.0085287 -0.4198 0.50269 0.31049 0.23312 -0.066865 0.18448 -0.21899 -0.35357 0.45349 0.4331 0.60332 0.17353 0.34372 -0.33161 0.096418 -0.26188 0.039158 -0.016325 -0.45356 0.28514 0.082073 0.10683 0.25106 -0.73201 0.33693 -0.60961 -0.50856 -0.31768 -0.255 -0.27187 -0.057311 -0.12154 0.32972 -0.055571 -0.041771 0.95122 -0.48755 -0.00035934 0.082624 0.095942 -0.41799 0.38046 0.63652 0.17889 0.25129 -0.32339 0.084695 -0.082532 -0.31826 0.47175 -0.33502 -0.067729 -0.17403 0.28252 -0.45913 0.16613 -0.27318 0.1416 -0.33378 -0.28474 -0.2944 0.20379 0.33515 0.049197 -0.178 -0.54319 -0.65946 0.012423 -0.45846 0.11297 0.3294 -0.18892 -0.10904 0.1091 -0.17465 -0.15105 0.21173 -0.20148 0.10565 0.1974 -0.32708 -0.13399 -0.33273 0.50804 0.37843 0.22092 -0.55865 0.1691 -0.67507 0.10956 -0.049834 -0.30621 -0.58191 0.082537 -0.59632 0.6821 -0.10981 0.26931 0.45132 -0.52479 -0.065586 -0.10124 0.44589 0.64346 -0.007817 -0.23041 0.41325 -0.23489 0.18347 0.43424 0.72195 0.6954 -0.35528 -0.10461 0.030404 0.094492 0.13585 0.43137 0.11707 0.17601 0.27851 0.29976 -0.013293 -0.34785 0.13322 0.20321 -0.067745 0.16328 -0.14489 0.14468 -0.2829 0.10654 0.01508 -0.15107 0.24899 -0.31537 0.40861 0.026839 -0.43882 -0.14119 0.28796 0.34828 -0.69319 -0.18908 -0.35525 -0.55898 -0.21105 0.29426 0.033415 1.0278 -0.32513 -0.1052 -0.17047 -0.1561 0.13193 0.78696 -0.2195 0.85062 -0.03402 -0.67859 -0.12542 -0.14485 -0.19857 -0.29059 0.69173 -0.6128 -0.20203 0.32388 -0.11938 -0.026962 0.021941 -0.46361 0.06107 0.67298 -0.10294 0.7079 0.40254 0.67553 0.13657 0.13228 -0.0090175 -0.22019 -0.10265 -0.19394 -0.23754 -0.95763 -0.05125 -0.74183 0.13036 0.68514 -0.055834 0.2543 0.3761 0.031877 -0.21295 -0.10312 -0.32035 0.0058088 -0.20381 -0.11695 -0.038497 0.098348 -0.11502 -0.27896 0.28747 0.30624 0.086581 -0.19821 0.15494 0.19196 -0.26562 -0.69902 -0.18373 0.036172 -0.091489 -0.044748 0.028852 0.40993 0.57101 0.37092 -0.11036 -0.1197 -0.11536 0.91879 0.30783 0.46039 -0.17386 -0.81121 0.12049 -0.069172 -0.26231 -0.37726 -0.023983 -0.26358 -0.25259 0.059246 0.031765 0.088898 0.16753 0.70487 0.21528 -0.061823 0.074902 0.73853 0.22248 -0.52364 0.33758 0.28418 -0.24899 0.01587 -0.22746 -0.19874 -0.11458 -0.085032 -0.47188 -0.25636 0.20692 -0.065381 -0.49796 -0.51255 0.59673 0.62251 -0.436 -0.31769 -0.15434 -1.7612 0.26085 -0.62384 0.34033 -0.17256 0.069336 -0.21046 -0.51879 0.30072 0.65874 0.24182 0.0062086 0.14221 0.31172 -0.17116 -0.49877 -0.60621 0.3086 -0.36129 0.053684 0.16843 0.0052517 -0.17989 0.57408
exterior 0.50453 -0.31691 -0.47391 -0.70505 -0.72357 0.16798 -0.22298 0.063151 0.051719 -1.1384 -0.339 0.44675 0.23958 0.1782 -0.10257 -0.25554 -0.16412 0.29708 -0.17276 -0.26084 -0.45712 0.28282 0.50577 0.13466 -0.36846 -0.3411 -0.032106 0.34514 -0.30537 0.31866 0.43862 0.67504 -0.69107 -0.0069591 0.5448 0.54294 0.12249 -0.68384 -0.011846 0.29675 -0.17469 -0.033286 -0.27837 -0.14611 0.089875 0.34862 0.15741 -0.34186 -0.46012 -0.37815 -0.74317 0.4539 0.56954 -0.13094 0.46942 0.372 -0.1308 -0.29332 0.11874 -0.16857 0.19377 0.094637 0.11593 -0.12597 -0.09819 -0.010144 0.25167 -0.44878 0.99852 -0.47336 -0.67271 0.044935 0.52728 0.48318 0.11434 0.20862 -0.10172 -0.13951 -0.054491 -0.74683 -0.20979 0.39869 0.089336 -0.14466 -0.036444 0.42192 0.13403 -0.061605 -0.20092 0.26467 -0.0032049 -0.010999 0.21028 0.35536 -0.2241 -0.46963 -0.22846 -0.73496 0.26864 -0.61268 -0.64056 0.52541 0.013478 0.032839 0.26851 0.16679 -0.57568 0.60561 -0.26425 -0.44599 -0.098256 0.0074369 -0.14088 -0.68541 -0.4607 -0.18577 -0.31828 0.26145 -0.60466 0.49611 0.42412 -0.22346 0.054084 0.93945 -0.19231 -0.1675 -0.34524 0.15424 -0.0078161 0.037512 0.25583 0.53766 0.16614 0.25573 -0.16811 -0.088015 -0.55034 0.075294 -0.20363 0.049339 0.23635 0.4149 -0.37113 -0.12174 0.20654 -0.41178 0.027865 -0.093009 0.053536 -0.35785 0.21483 -0.21881 -0.22769 -0.73375 0.52561 0.069682 -0.15055 0.17875 -0.38341 0.14549 -0.14134 0.23821 -0.37434 -0.022019 0.17244 0.32689 -0.33958 -0.070068 0.72365 -0.1559 -0.090383 -0.50098 0.34348 0.13364 0.16384 0.69209 -0.041466 -0.45585 -0.44335 -1.4281 -0.46319 0.26196 -0.10288 -0.067139 -0.39704 -0.12813 0.93115 -0.26061 0.068819 0.36017 0.19444 0.13013 -0.41335 -0.037372 0.092858 -0.070001 -0.33645 0.60145 -0.31237 -0.078339 0.62728 -0.57233 0.042031 -0.077445 0.29543 -0.027926 -0.14792 0.26234 -0.17631 0.022944 0.87988 0.3324 -0.1488 -0.75906 0.24202 0.132 1.221 -0.3971 -0.070221 -0.22139 0.075872 0.059253 0.27209 0.12261 -0.17463 -0.082712 -0.18885 0.29709 -0.18917 -0.775 -0.094205 -0.097553 0.12127 -0.31187 0.31499 -0.52405 0.42327 -0.11317 -0.41593 0.69159 0.36022 -0.068453 -0.061684 0.43872 -0.5291 -0.070561 0.018626 -0.30685 -0.0035915 0.20118 0.32316 -0.53631 0.0048385 -0.085559 -0.40415 0.31828 -0.060773 -0.1933 -0.15215 0.1286 -0.4172 -0.15431 0.11665 -0.12841 -0.056473 -0.27821 0.50748 -0.15325 0.30502 -0.22941 0.41401 -0.08109 -0.28069 -0.34502 -0.4445 0.84753 -0.59412 0.45007 -0.52417 0.36027 0.50579 0.079284 -0.14878 0.09972 0.34964 0.51527 -0.17456 -0.0053387 0.26582 -0.18704 -0.009097 0.38367 -0.20266 0.023356 0.29593 0.27512 0.22402 0.18533 0.0063674 0.20795
interior 0.63926 0.28355 -0.42303 -0.082483 -0.53707 0.23665 -0.18534 0.45616 -0.32761 -1.9193 -0.54361 0.37262 -0.59952 0.94557 -0.21509 0.014107 -0.062942 0.24717 0.45256 0.71103 0.14126 0.57821 0.79343 -0.21942 -0.64949 -0.35386 0.25898 0.4344 -0.53218 0.067354 0.87487 0.96969 -0.61364 -0.24076 0.13316 -0.12569 0.40067 -0.48312 0.21207 0.20392 -0.157 0.18579 -0.39922 -0.17825 -0.3964 -0.46685 -0.33939 0.00025824 -0.4584 -0.64385 -0.73185 0.34521 0.071167 -0.37547 -0.050287 0.2377 -0.051234 -0.28351 0.28804 -0.30153 -0.043741 0.2829 0.25518 -0.62161 -0.33875 -0.66965 0.13294 -0.85097 0.34228 0.18168 -0.12155 -0.57631 0.45743 0.012106 0.282 0.22352 0.031172 -0.086158 -0.22313 0.021303 0.40146 0.57022 -0.4165 0.38167 0.28764 0.26878 -0.2754 -0.33435 -0.29345 -0.060547 -0.32808 -0.11747 0.32834 0.34597 -0.049944 0.13052 -0.019378 -0.22008 0.33047 -0.18366 -0.45141 0.07186 0.0034637 -0.15349 0.23332 0.014592 -0.16811 0.6936 -0.324 -0.079365 0.11019 0.11973 0.0058677 -0.79759 -0.41388 0.20029 -0.34756 0.10455 -0.078802 0.029865 0.29343 0.32392 -0.13803 0.10232 -0.34855 0.13772 -0.1013 0.48275 -0.44893 0.37575 0.16621 0.036026 0.47237 0.2907 0.050273 -0.3903 -0.52933 0.048224 -0.39234 0.071767 0.64268 0.27429 -0.42767 0.39732 0.26393 -0.35194 0.1842 0.02634 -0.55067 -0.013851 1.3476 0.14113 0.21998 -0.78599 0.3625 -0.040266 -0.14377 -0.013284 -0.0576 -0.11619 -0.25426 0.23573 0.27849 0.016989 0.025263 0.018199 -0.025065 -0.15702 0.43425 -0.08444 -0.25795 -0.51562 -0.35144 0.084249 -0.29893 0.83131 -0.049335 -0.22168 -0.62249 -0.705 0.096739 0.48262 0.038925 0.23083 0.064089 -0.26402 0.018861 -0.037701 -0.16459 0.70085 0.26863 -0.21548 -0.48905 0.23205 0.47885 0.34198 0.038065 0.54149 0.093294 0.59621 -0.033626 -0.63157 -0.080449 -0.13389 0.20119 -0.44121 -0.35132 -0.28781 0.20439 -0.23145 0.668 0.24372 0.53938 -0.52497 0.3027 -0.089639 0.83525 -0.11302 0.27664 0.015181 0.63007 -0.44189 -0.40244 0.3473 -0.016482 0.19497 0.27725 0.10393 -0.042875 -0.26952 -0.11605 -0.45184 0.14007 -0.51696 0.96945 -0.53515 -0.16583 -0.20361 0.23566 -0.027642 0.31151 0.24128 0.44018 0.32931 1.376 0.29585 0.25838 -0.068452 -0.026303 0.58515 -0.16027 -0.69497 0.55652 -0.055346 0.4739 0.34215 -0.14504 0.38683 -0.18588 0.045354 -0.57133 -0.41947 0.17317 -0.080183 0.095858 -0.60204 -0.03133 0.80014 0.27476 -0.47611 0.35881 0.094897 -0.8229 -0.27113 -0.37485 0.59124 -1.3391 0.57607 -0.13209 0.027229 0.66287 0.52266 0.40135 -0.13889 -0.10182 0.068107 -0.19997 0.63599 -0.17331 -0.20897 -0.061473 -0.15624 0.48245 0.068836 0.67201 0.99321 -0.1833 0.25906 -0.73266 0.5958
indoor 0.6311 0.71913 -0.14125 -0.034358 0.24955 0.85778 0.31399 0.32027 0.25198 -0.15007 0.46636 0.7046 0.074196 -0.24521 -0.1729 -0.050216 -0.35828 0.63844 -0.14994 -0.19637 0.12628 -0.18667 0.13501 0.063161 0.52141 -0.11783 -0.27329 0.10091 -0.21292 0.36992 -0.19042 0.17351 -0.026609 -0.0094276 -0.61275 0.21529 -0.20888 -0.3175 -0.22913 0.53242 -0.48701 0.018936 -0.31172 0.24615 0.54771 0.54651 0.63587 0.54138 0.30044 -0.044306 0.14114 0.40283 -0.20488 -0.48661 0.43289 0.95846 -0.11546 -0.25536 1.0512 0.73845 -0.36861 -0.14221 -0.41472 -0.59587 -0.19599 -0.25241 -0.30328 0.27915 -0.34623 -0.76446 0.22791 -0.16055 -0.15726 -0.83481 -0.41903 -0.1502 -0.27629 -0.38435 0.49451 -0.34231 0.70081 -0.62064 -0.04148 -0.69302 0.25724 -0.23399 0.51738 -0.65867 -0.13842 -0.12464 0.61466 0.2614 0.64035 -0.025983 0.63568 0.084187 0.33499 0.19935 -0.4002 -0.72655 -0.6364 -0.49349 0.042568 -0.031842 0.097559 0.44318 0.015672 -0.069927 -0.41277 0.39927 0.19925 -0.49577 0.17539 0.12241 -0.47965 -0.29426 0.35029 0.52179 -0.050487 0.45521 0.058941 0.88245 0.79423 0.012504 0.22936 0.72664 0.26565 0.00097979 -0.36267 0.2743 -0.38312 0.43276 -0.061343 0.27154 -0.089156 -0.2669 0.23522 -0.064126 -0.42716 -0.13105 -0.29407 -0.20684 0.81555 0.24588 0.11079 -0.23759 0.1287 0.41469 -0.13528 0.50905 -0.0054055 -0.48957 -0.73471 0.20839 -0.021624 0.41812 -1.2084 0.17369 -0.15086 0.0076283 0.65119 0.13019 -0.25784 -0.20928 0.39189 0.058514 0.63505 0.01663 0.35771 -0.35834 -0.083435 0.22363 -0.0029043 0.45228 0.28004 0.30362 0.87722 -0.058375 -0.16847 -0.10897 0.31339 0.13277 0.07748 0.18748 -0.49181 0.1825 0.904 0.57251 0.051838 -0.52759 -0.0014768 -0.22123 -0.54709 -0.34494 -0.59574 0.41751 -0.25329 0.99253 -0.23294 0.28418 0.98597 0.16785 -0.88792 -0.47383 -0.11319 0.20965 -0.33805 -0.52948 -0.35261 0.45843 0.0056394 0.36224 -0.34718 -0.82637 0.27494 -0.068531 -0.2594 -0.36447 -0.28873 -0.76033 0.91734 -0.98186 -0.6516 -0.60702 -0.38456 0.20676 -0.3525 0.217 0.030623 -0.075596 0.47964 0.20916 0.88455 -0.37417 0.15317 -0.24209 0.5883 0.76945 0.33149 0.35877 -0.51194 0.0095664 0.02812 -0.30092 -0.083222 0.27427 -0.50903 0.048798 -0.35736 -0.26341 0.23948 -0.63566 -0.58307 -0.35514 0.17803 -0.79107 0.4845 -0.44473 0.59621 0.34872 -0.47841 -0.83406 0.15135 -0.18254 0.21556 -0.015042 -0.23047 1.1709 0.81577 -0.42595 0.32068 0.14598 -0.21367 -0.13208 0.29012 -0.54751 -1.6608 0.69002 -0.59705 0.82652 -0.049382 -0.5499 -0.26706 0.4489 -0.54231 0.40878 -0.6948 0.12591 -0.5522 -0.16722 -0.0014369 1.0286 -0.81762 0.11323 0.49563 -0.18296 0.72798 0.26057 -0.08249 0.077295
outdoor 0.75279 0.36339 -0.097247 -0.07834 -0.13457 0.60044 -0.15751 0.38815 -0.13234 -0.32026 -0.018396 0.54471 0.093932 0.33912 -0.04348 -0.40999 -0.36942 0.29101 0.21276 0.026869 -0.074276 -0.053535 0.10922 0.11197 0.35248 -0.35739 -0.36234 0.21667 0.014272 0.87988 0.20437 0.06756 0.15477 -0.15081 -0.76334 0.15142 -0.12036 -0.45055 -0.19714 -0.13947 0.081076 0.55148 -0.35148 0.0060232 -0.19219 0.30949 1.0033 0.18067 0.49773 -0.14296 -0.23806 0.54667 -0.052264 -0.4308 0.19334 0.70107 -0.46068 -0.30704 0.87122 0.74906 -0.30277 -0.15678 0.13468 -0.44753 -0.35122 0.062527 -0.34461 0.34419 -0.7492 -0.2905 0.2502 -0.20514 0.16106 -0.23887 -0.48551 -0.23875 -0.12358 0.12531 0.28644 -0.52785 0.41103 -0.47425 -0.38669 -0.64035 0.25507 -0.2819 0.24571 -0.28284 -0.14555 0.30381 0.15243 -0.088454 0.14392 0.36877 0.28068 0.24627 0.43759 0.045091 -0.21199 -0.75548 -0.38753 0.3672 -0.16111 -0.20801 0.17338 0.19084 -0.14465 0.23602 0.12382 -0.534 -0.37283 -0.16527 0.22322 0.060922 -0.85079 -0.55028 0.29272 0.36822 -0.087183 0.46851 0.036897 0.67561 0.39532 0.14286 0.30591 0.32489 0.2019 -0.60162 -0.76348 0.021429 0.08494 0.26414 -0.060692 -0.021239 0.19851 -0.42129 -0.26271 0.086555 -0.18299 0.40202 -0.16793 -0.13823 0.77386 0.46565 0.0074799 0.34414 -0.041434 0.19067 0.0061819 -0.21101 -0.14315 -0.11157 -0.34774 -0.038867 -0.035203 -0.069552 -0.88768 0.26845 -0.078024 0.10021 0.68056 0.11529 -0.12451 -0.013479 0.10398 -0.05087 0.6231 -0.11741 0.39298 -0.1659 0.035272 0.31166 -0.32994 0.35625 -0.40777 0.35546 0.60102 0.1427 -0.15059 -0.3039 0.1639 0.30562 0.24185 -0.14878 -0.35748 0.37512 0.63239 0.41775 -0.050004 -0.13839 0.16571 -0.27989 -0.81142 -0.16384 -0.12958 0.30298 -0.34514 0.85322 -0.42608 0.23933 0.77771 -0.085528 -0.37272 0.17602 0.014477 0.28286 -0.36412 -0.041339 -0.12855 0.1107 -0.11482 0.29083 -0.54869 -0.66941 -0.38951 -0.039945 -0.22391 -0.45831 0.083161 -0.24263 0.9511 -0.38782 -0.64838 -0.64042 -0.2627 0.071372 0.1755 -0.01763 0.45582 -0.17624 0.12324 0.36832 0.69369 -0.41806 0.54887 0.1899 0.050461 0.22597 -0.34563 -0.099187 -0.021244 0.39469 -0.49328 -0.39204 -0.66325 0.15119 -0.51493 -0.13784 -0.13286 0.041571 0.593 -0.53573 -0.48522 -0.27828 0.37987 -0.11963 0.3449 -0.55078 0.024922 0.2305 0.027397 -0.79636 0.60053 -0.15248 -0.12139 -0.32611 -0.18088 0.91618 0.86916 -0.396 0.24053 0.41231 0.2003 -0.40405 0.32226 -0.29154 -2.0581 0.87414 -0.69992 0.46384 -0.31804 -0.92788 -0.34572 -0.20725 -0.68533 0.2109 -0.45318 0.50167 -0.057767 0.085054 -0.28655 0.66265 -0.73143 0.19928 0.11231 -0.15345 0.55733 0.49841 -0.15747 -0.0338
indoor 0.6311 0.71913 -0.14125 -0.034358 0.24955 0.85778 0.31399 0.32027 0.25198 -0.15007 0.46636 0.7046 0.074196 -0.24521 -0.1729 -0.050216 -0.35828 0.63844 -0.14994 -0.19637 0.12628 -0.18667 0.13501 0.063161 0.52141 -0.11783 -0.27329 0.10091 -0.21292 0.36992 -0.19042 0.17351 -0.026609 -0.0094276 -0.61275 0.21529 -0.20888 -0.3175 -0.22913 0.53242 -0.48701 0.018936 -0.31172 0.24615 0.54771 0.54651 0.63587 0.54138 0.30044 -0.044306 0.14114 0.40283 -0.20488 -0.48661 0.43289 0.95846 -0.11546 -0.25536 1.0512 0.73845 -0.36861 -0.14221 -0.41472 -0.59587 -0.19599 -0.25241 -0.30328 0.27915 -0.34623 -0.76446 0.22791 -0.16055 -0.15726 -0.83481 -0.41903 -0.1502 -0.27629 -0.38435 0.49451 -0.34231 0.70081 -0.62064 -0.04148 -0.69302 0.25724 -0.23399 0.51738 -0.65867 -0.13842 -0.12464 0.61466 0.2614 0.64035 -0.025983 0.63568 0.084187 0.33499 0.19935 -0.4002 -0.72655 -0.6364 -0.49349 0.042568 -0.031842 0.097559 0.44318 0.015672 -0.069927 -0.41277 0.39927 0.19925 -0.49577 0.17539 0.12241 -0.47965 -0.29426 0.35029 0.52179 -0.050487 0.45521 0.058941 0.88245 0.79423 0.012504 0.22936 0.72664 0.26565 0.00097979 -0.36267 0.2743 -0.38312 0.43276 -0.061343 0.27154 -0.089156 -0.2669 0.23522 -0.064126 -0.42716 -0.13105 -0.29407 -0.20684 0.81555 0.24588 0.11079 -0.23759 0.1287 0.41469 -0.13528 0.50905 -0.0054055 -0.48957 -0.73471 0.20839 -0.021624 0.41812 -1.2084 0.17369 -0.15086 0.0076283 0.65119 0.13019 -0.25784 -0.20928 0.39189 0.058514 0.63505 0.01663 0.35771 -0.35834 -0.083435 0.22363 -0.0029043 0.45228 0.28004 0.30362 0.87722 -0.058375 -0.16847 -0.10897 0.31339 0.13277 0.07748 0.18748 -0.49181 0.1825 0.904 0.57251 0.051838 -0.52759 -0.0014768 -0.22123 -0.54709 -0.34494 -0.59574 0.41751 -0.25329 0.99253 -0.23294 0.28418 0.98597 0.16785 -0.88792 -0.47383 -0.11319 0.20965 -0.33805 -0.52948 -0.35261 0.45843 0.0056394 0.36224 -0.34718 -0.82637 0.27494 -0.068531 -0.2594 -0.36447 -0.28873 -0.76033 0.91734 -0.98186 -0.6516 -0.60702 -0.38456 0.20676 -0.3525 0.217 0.030623 -0.075596 0.47964 0.20916 0.88455 -0.37417 0.15317 -0.24209 0.5883 0.76945 0.33149 0.35877 -0.51194 0.0095664 0.02812 -0.30092 -0.083222 0.27427 -0.50903 0.048798 -0.35736 -0.26341 0.23948 -0.63566 -0.58307 -0.35514 0.17803 -0.79107 0.4845 -0.44473 0.59621 0.34872 -0.47841 -0.83406 0.15135 -0.18254 0.21556 -0.015042 -0.23047 1.1709 0.81577 -0.42595 0.32068 0.14598 -0.21367 -0.13208 0.29012 -0.54751 -1.6608 0.69002 -0.59705 0.82652 -0.049382 -0.5499 -0.26706 0.4489 -0.54231 0.40878 -0.6948 0.12591 -0.5522 -0.16722 -0.0014369 1.0286 -0.81762 0.11323 0.49563 -0.18296 0.72798 0.26057 -0.08249 0.077295
outdoor 0.75279 0.36339 -0.097247 -0.07834 -0.13457 0.60044 -0.15751 0.38815 -0.13234 -0.32026 -0.018396 0.54471 0.093932 0.33912 -0.04348 -0.40999 -0.36942 0.29101 0.21276 0.026869 -0.074276 -0.053535 0.10922 0.11197 0.35248 -0.35739 -0.36234 0.21667 0.014272 0.87988 0.20437 0.06756 0.15477 -0.15081 -0.76334 0.15142 -0.12036 -0.45055 -0.19714 -0.13947 0.081076 0.55148 -0.35148 0.0060232 -0.19219 0.30949 1.0033 0.18067 0.49773 -0.14296 -0.23806 0.54667 -0.052264 -0.4308 0.19334 0.70107 -0.46068 -0.30704 0.87122 0.74906 -0.30277 -0.15678 0.13468 -0.44753 -0.35122 0.062527 -0.34461 0.34419 -0.7492 -0.2905 0.2502 -0.20514 0.16106 -0.23887 -0.48551 -0.23875 -0.12358 0.12531 0.28644 -0.52785 0.41103 -0.47425 -0.38669 -0.64035 0.25507 -0.2819 0.24571 -0.28284 -0.14555 0.30381 0.15243 -0.088454 0.14392 0.36877 0.28068 0.24627 0.43759 0.045091 -0.21199 -0.75548 -0.38753 0.3672 -0.16111 -0.20801 0.17338 0.19084 -0.14465 0.23602 0.12382 -0.534 -0.37283 -0.16527 0.22322 0.060922 -0.85079 -0.55028 0.29272 0.36822 -0.087183 0.46851 0.036897 0.67561 0.39532 0.14286 0.30591 0.32489 0.2019 -0.60162 -0.76348 0.021429 0.08494 0.26414 -0.060692 -0.021239 0.19851 -0.42129 -0.26271 0.086555 -0.18299 0.40202 -0.16793 -0.13823 0.77386 0.46565 0.0074799 0.34414 -0.041434 0.19067 0.0061819 -0.21101 -0.14315 -0.11157 -0.34774 -0.038867 -0.035203 -0.069552 -0.88768 0.26845 -0.078024 0.10021 0.68056 0.11529 -0.12451 -0.013479 0.10398 -0.05087 0.6231 -0.11741 0.39298 -0.1659 0.035272 0.31166 -0.32994 0.35625 -0.40777 0.35546 0.60102 0.1427 -0.15059 -0.3039 0.1639 0.30562 0.24185 -0.14878 -0.35748 0.37512 0.63239 0.41775 -0.050004 -0.13839 0.16571 -0.27989 -0.81142 -0.16384 -0.12958 0.30298 -0.34514 0.85322 -0.42608 0.23933 0.77771 -0.085528 -0.37272 0.17602 0.014477 0.28286 -0.36412 -0.041339 -0.12855 0.1107 -0.11482 0.29083 -0.54869 -0.66941 -0.38951 -0.039945 -0.22391 -0.45831 0.083161 -0.24263 0.9511 -0.38782 -0.64838 -0.64042 -0.2627 0.071372 0.1755 -0.01763 0.45582 -0.17624 0.12324 0.36832 0.69369 -0.41806 0.54887 0.1899 0.050461 0.22597 -0.34563 -0.099187 -0.021244 0.39469 -0.49328 -0.39204 -0.66325 0.15119 -0.51493 -0.13784 -0.13286 0.041571 0.593 -0.53573 -0.48522 -0.27828 0.37987 -0.11963 0.3449 -0.55078 0.024922 0.2305 0.027397 -0.79636 0.60053 -0.15248 -0.12139 -0.32611 -0.18088 0.91618 0.86916 -0.396 0.24053 0.41231 0.2003 -0.40405 0.32226 -0.29154 -2.0581 0.87414 -0.69992 0.46384 -0.31804 -0.92788 -0.34572 -0.20725 -0.68533 0.2109 -0.45318 0.50167 -0.057767 0.085054 -0.28655 0.66265 -0.73143 0.19928 0.11231 -0.15345 0.55733 0.49841 -0.15747 -0.0338
indoor 0.6311 0.71913 -0.14125 -0.034358 0.24955 0.85778 0.31399 0.32027 0.25198 -0.15007 0.46636 0.7046 0.074196 -0.24521 -0.1729 -0.050216 -0.35828 0.63844 -0.14994 -0.19637 0.12628 -0.18667 0.13501 0.063161 0.52141 -0.11783 -0.27329 0.10091 -0.21292 0.36992 -0.19042 0.17351 -0.026609 -0.0094276 -0.61275 0.21529 -0.20888 -0.3175 -0.22913 0.53242 -0.48701 0.018936 -0.31172 0.24615 0.54771 0.54651 0.63587 0.54138 0.30044 -0.044306 0.14114 0.40283 -0.20488 -0.48661 0.43289 0.95846 -0.11546 -0.25536 1.0512 0.73845 -0.36861 -0.14221 -0.41472 -0.59587 -0.19599 -0.25241 -0.30328 0.27915 -0.34623 -0.76446 0.22791 -0.16055 -0.15726 -0.83481 -0.41903 -0.1502 -0.27629 -0.38435 0.49451 -0.34231 0.70081 -0.62064 -0.04148 -0.69302 0.25724 -0.23399 0.51738 -0.65867 -0.13842 -0.12464 0.61466 0.2614 0.64035 -0.025983 0.63568 0.084187 0.33499 0.19935 -0.4002 -0.72655 -0.6364 -0.49349 0.042568 -0.031842 0.097559 0.44318 0.015672 -0.069927 -0.41277 0.39927 0.19925 -0.49577 0.17539 0.12241 -0.47965 -0.29426 0.35029 0.52179 -0.050487 0.45521 0.058941 0.88245 0.79423 0.012504 0.22936 0.72664 0.26565 0.00097979 -0.36267 0.2743 -0.38312 0.43276 -0.061343 0.27154 -0.089156 -0.2669 0.23522 -0.064126 -0.42716 -0.13105 -0.29407 -0.20684 0.81555 0.24588 0.11079 -0.23759 0.1287 0.41469 -0.13528 0.50905 -0.0054055 -0.48957 -0.73471 0.20839 -0.021624 0.41812 -1.2084 0.17369 -0.15086 0.0076283 0.65119 0.13019 -0.25784 -0.20928 0.39189 0.058514 0.63505 0.01663 0.35771 -0.35834 -0.083435 0.22363 -0.0029043 0.45228 0.28004 0.30362 0.87722 -0.058375 -0.16847 -0.10897 0.31339 0.13277 0.07748 0.18748 -0.49181 0.1825 0.904 0.57251 0.051838 -0.52759 -0.0014768 -0.22123 -0.54709 -0.34494 -0.59574 0.41751 -0.25329 0.99253 -0.23294 0.28418 0.98597 0.16785 -0.88792 -0.47383 -0.11319 0.20965 -0.33805 -0.52948 -0.35261 0.45843 0.0056394 0.36224 -0.34718 -0.82637 0.27494 -0.068531 -0.2594 -0.36447 -0.28873 -0.76033 0.91734 -0.98186 -0.6516 -0.60702 -0.38456 0.20676 -0.3525 0.217 0.030623 -0.075596 0.47964 0.20916 0.88455 -0.37417 0.15317 -0.24209 0.5883 0.76945 0.33149 0.35877 -0.51194 0.0095664 0.02812 -0.30092 -0.083222 0.27427 -0.50903 0.048798 -0.35736 -0.26341 0.23948 -0.63566 -0.58307 -0.35514 0.17803 -0.79107 0.4845 -0.44473 0.59621 0.34872 -0.47841 -0.83406 0.15135 -0.18254 0.21556 -0.015042 -0.23047 1.1709 0.81577 -0.42595 0.32068 0.14598 -0.21367 -0.13208 0.29012 -0.54751 -1.6608 0.69002 -0.59705 0.82652 -0.049382 -0.5499 -0.26706 0.4489 -0.54231 0.40878 -0.6948 0.12591 -0.5522 -0.16722 -0.0014369 1.0286 -0.81762 0.11323 0.49563 -0.18296 0.72798 0.26057 -0.08249 0.077295
outdoor 0.75279 0.36339 -0.097247 -0.07834 -0.13457 0.60044 -0.15751 0.38815 -0.13234 -0.32026 -0.018396 0.54471 0.093932 0.33912 -0.04348 -0.40999 -0.36942 0.29101 0.21276 0.026869 -0.074276 -0.053535 0.10922 0.11197 0.35248 -0.35739 -0.36234 0.21667 0.014272 0.87988 0.20437 0.06756 0.15477 -0.15081 -0.76334 0.15142 -0.12036 -0.45055 -0.19714 -0.13947 0.081076 0.55148 -0.35148 0.0060232 -0.19219 0.30949 1.0033 0.18067 0.49773 -0.14296 -0.23806 0.54667 -0.052264 -0.4308 0.19334 0.70107 -0.46068 -0.30704 0.87122 0.74906 -0.30277 -0.15678 0.13468 -0.44753 -0.35122 0.062527 -0.34461 0.34419 -0.7492 -0.2905 0.2502 -0.20514 0.16106 -0.23887 -0.48551 -0.23875 -0.12358 0.12531 0.28644 -0.52785 0.41103 -0.47425 -0.38669 -0.64035 0.25507 -0.2819 0.24571 -0.28284 -0.14555 0.30381 0.15243 -0.088454 0.14392 0.36877 0.28068 0.24627 0.43759 0.045091 -0.21199 -0.75548 -0.38753 0.3672 -0.16111 -0.20801 0.17338 0.19084 -0.14465 0.23602 0.12382 -0.534 -0.37283 -0.16527 0.22322 0.060922 -0.85079 -0.55028 0.29272 0.36822 -0.087183 0.46851 0.036897 0.67561 0.39532 0.14286 0.30591 0.32489 0.2019 -0.60162 -0.76348 0.021429 0.08494 0.26414 -0.060692 -0.021239 0.19851 -0.42129 -0.26271 0.086555 -0.18299 0.40202 -0.16793 -0.13823 0.77386 0.46565 0.0074799 0.34414 -0.041434 0.19067 0.0061819 -0.21101 -0.14315 -0.11157 -0.34774 -0.038867 -0.035203 -0.069552 -0.88768 0.26845 -0.078024 0.10021 0.68056 0.11529 -0.12451 -0.013479 0.10398 -0.05087 0.6231 -0.11741 0.39298 -0.1659 0.035272 0.31166 -0.32994 0.35625 -0.40777 0.35546 0.60102 0.1427 -0.15059 -0.3039 0.1639 0.30562 0.24185 -0.14878 -0.35748 0.37512 0.63239 0.41775 -0.050004 -0.13839 0.16571 -0.27989 -0.81142 -0.16384 -0.12958 0.30298 -0.34514 0.85322 -0.42608 0.23933 0.77771 -0.085528 -0.37272 0.17602 0.014477 0.28286 -0.36412 -0.041339 -0.12855 0.1107 -0.11482 0.29083 -0.54869 -0.66941 -0.38951 -0.039945 -0.22391 -0.45831 0.083161 -0.24263 0.9511 -0.38782 -0.64838 -0.64042 -0.2627 0.071372 0.1755 -0.01763 0.45582 -0.17624 0.12324 0.36832 0.69369 -0.41806 0.54887 0.1899 0.050461 0.22597 -0.34563 -0.099187 -0.021244 0.39469 -0.49328 -0.39204 -0.66325 0.15119 -0.51493 -0.13784 -0.13286 0.041571 0.593 -0.53573 -0.48522 -0.27828 0.37987 -0.11963 0.3449 -0.55078 0.024922 0.2305 0.027397 -0.79636 0.60053 -0.15248 -0.12139 -0.32611 -0.18088 0.91618 0.86916 -0.396 0.24053 0.41231 0.2003 -0.40405 0.32226 -0.29154 -2.0581 0.87414 -0.69992 0.46384 -0.31804 -0.92788 -0.34572 -0.20725 -0.68533 0.2109 -0.45318 0.50167 -0.057767 0.085054 -0.28655 0.66265 -0.73143 0.19928 0.11231 -0.15345 0.55733 0.49841 -0.15747 -0.0338
indoor 0.6311 0.71913 -0.14125 -0.034358 0.24955 0.85778 0.31399 0.32027 0.25198 -0.15007 0.46636 0.7046 0.074196 -0.24521 -0.1729 -0.050216 -0.35828 0.63844 -0.14994 -0.19637 0.12628 -0.18667 0.13501 0.063161 0.52141 -0.11783 -0.27329 0.10091 -0.21292 0.36992 -0.19042 0.17351 -0.026609 -0.0094276 -0.61275 0.21529 -0.20888 -0.3175 -0.22913 0.53242 -0.48701 0.018936 -0.31172 0.24615 0.54771 0.54651 0.63587 0.54138 0.30044 -0.044306 0.14114 0.40283 -0.20488 -0.48661 0.43289 0.95846 -0.11546 -0.25536 1.0512 0.73845 -0.36861 -0.14221 -0.41472 -0.59587 -0.19599 -0.25241 -0.30328 0.27915 -0.34623 -0.76446 0.22791 -0.16055 -0.15726 -0.83481 -0.41903 -0.1502 -0.27629 -0.38435 0.49451 -0.34231 0.70081 -0.62064 -0.04148 -0.69302 0.25724 -0.23399 0.51738 -0.65867 -0.13842 -0.12464 0.61466 0.2614 0.64035 -0.025983 0.63568 0.084187 0.33499 0.19935 -0.4002 -0.72655 -0.6364 -0.49349 0.042568 -0.031842 0.097559 0.44318 0.015672 -0.069927 -0.41277 0.39927 0.19925 -0.49577 0.17539 0.12241 -0.47965 -0.29426 0.35029 0.52179 -0.050487 0.45521 0.058941 0.88245 0.79423 0.012504 0.22936 0.72664 0.26565 0.00097979 -0.36267 0.2743 -0.38312 0.43276 -0.061343 0.27154 -0.089156 -0.2669 0.23522 -0.064126 -0.42716 -0.13105 -0.29407 -0.20684 0.81555 0.24588 0.11079 -0.23759 0.1287 0.41469 -0.13528 0.50905 -0.0054055 -0.48957 -0.73471 0.20839 -0.021624 0.41812 -1.2084 0.17369 -0.15086 0.0076283 0.65119 0.13019 -0.25784 -0.20928 0.39189 0.058514 0.63505 0.01663 0.35771 -0.35834 -0.083435 0.22363 -0.0029043 0.45228 0.28004 0.30362 0.87722 -0.058375 -0.16847 -0.10897 0.31339 0.13277 0.07748 0.18748 -0.49181 0.1825 0.904 0.57251 0.051838 -0.52759 -0.0014768 -0.22123 -0.54709 -0.34494 -0.59574 0.41751 -0.25329 0.99253 -0.23294 0.28418 0.98597 0.16785 -0.88792 -0.47383 -0.11319 0.20965 -0.33805 -0.52948 -0.35261 0.45843 0.0056394 0.36224 -0.34718 -0.82637 0.27494 -0.068531 -0.2594 -0.36447 -0.28873 -0.76033 0.91734 -0.98186 -0.6516 -0.60702 -0.38456 0.20676 -0.3525 0.217 0.030623 -0.075596 0.47964 0.20916 0.88455 -0.37417 0.15317 -0.24209 0.5883 0.76945 0.33149 0.35877 -0.51194 0.0095664 0.02812 -0.30092 -0.083222 0.27427 -0.50903 0.048798 -0.35736 -0.26341 0.23948 -0.63566 -0.58307 -0.35514 0.17803 -0.79107 0.4845 -0.44473 0.59621 0.34872 -0.47841 -0.83406 0.15135 -0.18254 0.21556 -0.015042 -0.23047 1.1709 0.81577 -0.42595 0.32068 0.14598 -0.21367 -0.13208 0.29012 -0.54751 -1.6608 0.69002 -0.59705 0.82652 -0.049382 -0.5499 -0.26706 0.4489 -0.54231 0.40878 -0.6948 0.12591 -0.5522 -0.16722 -0.0014369 1.0286 -0.81762 0.11323 0.49563 -0.18296 0.72798 0.26057 -0.08249 0.077295
outdoor 0.75279 0.36339 -0.097247 -0.07834 -0.13457 0.60044 -0.15751 0.38815 -0.13234 -0.32026 -0.018396 0.54471 0.093932 0.33912 -0.04348 -0.40999 -0.36942 0.29101 0.21276 0.026869 -0.074276 -0.053535 0.10922 0.11197 0.35248 -0.35739 -0.36234 0.21667 0.014272 0.87988 0.20437 0.06756 0.15477 -0.15081 -0.76334 0.15142 -0.12036 -0.45055 -0.19714 -0.13947 0.081076 0.55148 -0.35148 0.0060232 -0.19219 0.30949 1.0033 0.18067 0.49773 -0.14296 -0.23806 0.54667 -0.052264 -0.4308 0.19334 0.70107 -0.46068 -0.30704 0.87122 0.74906 -0.30277 -0.15678 0.13468 -0.44753 -0.35122 0.062527 -0.34461 0.34419 -0.7492 -0.2905 0.2502 -0.20514 0.16106 -0.23887 -0.48551 -0.23875 -0.12358 0.12531 0.28644 -0.52785 0.41103 -0.47425 -0.38669 -0.64035 0.25507 -0.2819 0.24571 -0.28284 -0.14555 0.30381 0.15243 -0.088454 0.14392 0.36877 0.28068 0.24627 0.43759 0.045091 -0.21199 -0.75548 -0.38753 0.3672 -0.16111 -0.20801 0.17338 0.19084 -0.14465 0.23602 0.12382 -0.534 -0.37283 -0.16527 0.22322 0.060922 -0.85079 -0.55028 0.29272 0.36822 -0.087183 0.46851 0.036897 0.67561 0.39532 0.14286 0.30591 0.32489 0.2019 -0.60162 -0.76348 0.021429 0.08494 0.26414 -0.060692 -0.021239 0.19851 -0.42129 -0.26271 0.086555 -0.18299 0.40202 -0.16793 -0.13823 0.77386 0.46565 0.0074799 0.34414 -0.041434 0.19067 0.0061819 -0.21101 -0.14315 -0.11157 -0.34774 -0.038867 -0.035203 -0.069552 -0.88768 0.26845 -0.078024 0.10021 0.68056 0.11529 -0.12451 -0.013479 0.10398 -0.05087 0.6231 -0.11741 0.39298 -0.1659 0.035272 0.31166 -0.32994 0.35625 -0.40777 0.35546 0.60102 0.1427 -0.15059 -0.3039 0.1639 0.30562 0.24185 -0.14878 -0.35748 0.37512 0.63239 0.41775 -0.050004 -0.13839 0.16571 -0.27989 -0.81142 -0.16384 -0.12958 0.30298 -0.34514 0.85322 -0.42608 0.23933 0.77771 -0.085528 -0.37272 0.17602 0.014477 0.28286 -0.36412 -0.041339 -0.12855 0.1107 -0.11482 0.29083 -0.54869 -0.66941 -0.38951 -0.039945 -0.22391 -0.45831 0.083161 -0.24263 0.9511 -0.38782 -0.64838 -0.64042 -0.2627 0.071372 0.1755 -0.01763 0.45582 -0.17624 0.12324 0.36832 0.69369 -0.41806 0.54887 0.1899 0.050461 0.22597 -0.34563 -0.099187 -0.021244 0.39469 -0.49328 -0.39204 -0.66325 0.15119 -0.51493 -0.13784 -0.13286 0.041571 0.593 -0.53573 -0.48522 -0.27828 0.37987 -0.11963 0.3449 -0.55078 0.024922 0.2305 0.027397 -0.79636 0.60053 -0.15248 -0.12139 -0.32611 -0.18088 0.91618 0.86916 -0.396 0.24053 0.41231 0.2003 -0.40405 0.32226 -0.29154 -2.0581 0.87414 -0.69992 0.46384 -0.31804 -0.92788 -0.34572 -0.20725 -0.68533 0.2109 -0.45318 0.50167 -0.057767 0.085054 -0.28655 0.66265 -0.73143 0.19928 0.11231 -0.15345 0.55733 0.49841 -0.15747 -0.0338
indoor 0.6311 0.71913 -0.14125 -0.034358 0.24955 0.85778 0.31399 0.32027 0.25198 -0.15007 0.46636 0.7046 0.074196 -0.24521 -0.1729 -0.050216 -0.35828 0.63844 -0.14994 -0.19637 0.12628 -0.18667 0.13501 0.063161 0.52141 -0.11783 -0.27329 0.10091 -0.21292 0.36992 -0.19042 0.17351 -0.026609 -0.0094276 -0.61275 0.21529 -0.20888 -0.3175 -0.22913 0.53242 -0.48701 0.018936 -0.31172 0.24615 0.54771 0.54651 0.63587 0.54138 0.30044 -0.044306 0.14114 0.40283 -0.20488 -0.48661 0.43289 0.95846 -0.11546 -0.25536 1.0512 0.73845 -0.36861 -0.14221 -0.41472 -0.59587 -0.19599 -0.25241 -0.30328 0.27915 -0.34623 -0.76446 0.22791 -0.16055 -0.15726 -0.83481 -0.41903 -0.1502 -0.27629 -0.38435 0.49451 -0.34231 0.70081 -0.62064 -0.04148 -0.69302 0.25724 -0.23399 0.51738 -0.65867 -0.13842 -0.12464 0.61466 0.2614 0.64035 -0.025983 0.63568 0.084187 0.33499 0.19935 -0.4002 -0.72655 -0.6364 -0.49349 0.042568 -0.031842 0.097559 0.44318 0.015672 -0.069927 -0.41277 0.39927 0.19925 -0.49577 0.17539 0.12241 -0.47965 -0.29426 0.35029 0.52179 -0.050487 0.45521 0.058941 0.88245 0.79423 0.012504 0.22936 0.72664 0.26565 0.00097979 -0.36267 0.2743 -0.38312 0.43276 -0.061343 0.27154 -0.089156 -0.2669 0.23522 -0.064126 -0.42716 -0.13105 -0.29407 -0.20684 0.81555 0.24588 0.11079 -0.23759 0.1287 0.41469 -0.13528 0.50905 -0.0054055 -0.48957 -0.73471 0.20839 -0.021624 0.41812 -1.2084 0.17369 -0.15086 0.0076283 0.65119 0.13019 -0.25784 -0.20928 0.39189 0.058514 0.63505 0.01663 0.35771 -0.35834 -0.083435 0.22363 -0.0029043 0.45228 0.28004 0.30362 0.87722 -0.058375 -0.16847 -0.10897 0.31339 0.13277 0.07748 0.18748 -0.49181 0.1825 0.904 0.57251 0.051838 -0.52759 -0.0014768 -0.22123 -0.54709 -0.34494 -0.59574 0.41751 -0.25329 0.99253 -0.23294 0.28418 0.98597 0.16785 -0.88792 -0.47383 -0.11319 0.20965 -0.33805 -0.52948 -0.35261 0.45843 0.0056394 0.36224 -0.34718 -0.82637 0.27494 -0.068531 -0.2594 -0.36447 -0.28873 -0.76033 0.91734 -0.98186 -0.6516 -0.60702 -0.38456 0.20676 -0.3525 0.217 0.030623 -0.075596 0.47964 0.20916 0.88455 -0.37417 0.15317 -0.24209 0.5883 0.76945 0.33149 0.35877 -0.51194 0.0095664 0.02812 -0.30092 -0.083222 0.27427 -0.50903 0.048798 -0.35736 -0.26341 0.23948 -0.63566 -0.58307 -0.35514 0.17803 -0.79107 0.4845 -0.44473 0.59621 0.34872 -0.47841 -0.83406 0.15135 -0.18254 0.21556 -0.015042 -0.23047 1.1709 0.81577 -0.42595 0.32068 0.14598 -0.21367 -0.13208 0.29012 -0.54751 -1.6608 0.69002 -0.59705 0.82652 -0.049382 -0.5499 -0.26706 0.4489 -0.54231 0.40878 -0.6948 0.12591 -0.5522 -0.16722 -0.0014369 1.0286 -0.81762 0.11323 0.49563 -0.18296 0.72798 0.26057 -0.08249 0.077295
outdoor 0.75279 0.36339 -0.097247 -0.07834 -0.13457 0.60044 -0.15751 0.38815 -0.13234 -0.32026 -0.018396 0.54471 0.093932 0.33912 -0.04348 -0.40999 -0.36942 0.29101 0.21276 0.026869 -0.074276 -0.053535 0.10922 0.11197 0.35248 -0.35739 -0.36234 0.21667 0.014272 0.87988 0.20437 0.06756 0.15477 -0.15081 -0.76334 0.15142 -0.12036 -0.45055 -0.19714 -0.13947 0.081076 0.55148 -0.35148 0.0060232 -0.19219 0.30949 1.0033 0.18067 0.49773 -0.14296 -0.23806 0.54667 -0.052264 -0.4308 0.19334 0.70107 -0.46068 -0.30704 0.87122 0.74906 -0.30277 -0.15678 0.13468 -0.44753 -0.35122 0.062527 -0.34461 0.34419 -0.7492 -0.2905 0.2502 -0.20514 0.16106 -0.23887 -0.48551 -0.23875 -0.12358 0.12531 0.28644 -0.52785 0.41103 -0.47425 -0.38669 -0.64035 0.25507 -0.2819 0.24571 -0.28284 -0.14555 0.30381 0.15243 -0.088454 0.14392 0.36877 0.28068 0.24627 0.43759 0.045091 -0.21199 -0.75548 -0.38753 0.3672 -0.16111 -0.20801 0.17338 0.19084 -0.14465 0.23602 0.12382 -0.534 -0.37283 -0.16527 0.22322 0.060922 -0.85079 -0.55028 0.29272 0.36822 -0.087183 0.46851 0.036897 0.67561 0.39532 0.14286 0.30591 0.32489 0.2019 -0.60162 -0.76348 0.021429 0.08494 0.26414 -0.060692 -0.021239 0.19851 -0.42129 -0.26271 0.086555 -0.18299 0.40202 -0.16793 -0.13823 0.77386 0.46565 0.0074799 0.34414 -0.041434 0.19067 0.0061819 -0.21101 -0.14315 -0.11157 -0.34774 -0.038867 -0.035203 -0.069552 -0.88768 0.26845 -0.078024 0.10021 0.68056 0.11529 -0.12451 -0.013479 0.10398 -0.05087 0.6231 -0.11741 0.39298 -0.1659 0.035272 0.31166 -0.32994 0.35625 -0.40777 0.35546 0.60102 0.1427 -0.15059 -0.3039 0.1639 0.30562 0.24185 -0.14878 -0.35748 0.37512 0.63239 0.41775 -0.050004 -0.13839 0.16571 -0.27989 -0.81142 -0.16384 -0.12958 0.30298 -0.34514 0.85322 -0.42608 0.23933 0.77771 -0.085528 -0.37272 0.17602 0.014477 0.28286 -0.36412 -0.041339 -0.12855 0.1107 -0.11482 0.29083 -0.54869 -0.66941 -0.38951 -0.039945 -0.22391 -0.45831 0.083161 -0.24263 0.9511 -0.38782 -0.64838 -0.64042 -0.2627 0.071372 0.1755 -0.01763 0.45582 -0.17624 0.12324 0.36832 0.69369 -0.41806 0.54887 0.1899 0.050461 0.22597 -0.34563 -0.099187 -0.021244 0.39469 -0.49328 -0.39204 -0.66325 0.15119 -0.51493 -0.13784 -0.13286 0.041571 0.593 -0.53573 -0.48522 -0.27828 0.37987 -0.11963 0.3449 -0.55078 0.024922 0.2305 0.027397 -0.79636 0.60053 -0.15248 -0.12139 -0.32611 -0.18088 0.91618 0.86916 -0.396 0.24053 0.41231 0.2003 -0.40405 0.32226 -0.29154 -2.0581 0.87414 -0.69992 0.46384 -0.31804 -0.92788 -0.34572 -0.20725 -0.68533 0.2109 -0.45318 0.50167 -0.057767 0.085054 -0.28655 0.66265 -0.73143 0.19928 0.11231 -0.15345 0.55733 0.49841 -0.15747 -0.0338
indoor 0.6311 0.71913 -0.14125 -0.034358 0.24955 0.85778 0.31399 0.32027 0.25198 -0.15007 0.46636 0.7046 0.074196 -0.24521 -0.1729 -0.050216 -0.35828 0.63844 -0.14994 -0.19637 0.12628 -0.18667 0.13501 0.063161 0.52141 -0.11783 -0.27329 0.10091 -0.21292 0.36992 -0.19042 0.17351 -0.026609 -0.0094276 -0.61275 0.21529 -0.20888 -0.3175 -0.22913 0.53242 -0.48701 0.018936 -0.31172 0.24615 0.54771 0.54651 0.63587 0.54138 0.30044 -0.044306 0.14114 0.40283 -0.20488 -0.48661 0.43289 0.95846 -0.11546 -0.25536 1.0512 0.73845 -0.36861 -0.14221 -0.41472 -0.59587 -0.19599 -0.25241 -0.30328 0.27915 -0.34623 -0.76446 0.22791 -0.16055 -0.15726 -0.83481 -0.41903 -0.1502 -0.27629 -0.38435 0.49451 -0.34231 0.70081 -0.62064 -0.04148 -0.69302 0.25724 -0.23399 0.51738 -0.65867 -0.13842 -0.12464 0.61466 0.2614 0.64035 -0.025983 0.63568 0.084187 0.33499 0.19935 -0.4002 -0.72655 -0.6364 -0.49349 0.042568 -0.031842 0.097559 0.44318 0.015672 -0.069927 -0.41277 0.39927 0.19925 -0.49577 0.17539 0.12241 -0.47965 -0.29426 0.35029 0.52179 -0.050487 0.45521 0.058941 0.88245 0.79423 0.012504 0.22936 0.72664 0.26565 0.00097979 -0.36267 0.2743 -0.38312 0.43276 -0.061343 0.27154 -0.089156 -0.2669 0.23522 -0.064126 -0.42716 -0.13105 -0.29407 -0.20684 0.81555 0.24588 0.11079 -0.23759 0.1287 0.41469 -0.13528 0.50905 -0.0054055 -0.48957 -0.73471 0.20839 -0.021624 0.41812 -1.2084 0.17369 -0.15086 0.0076283 0.65119 0.13019 -0.25784 -0.20928 0.39189 0.058514 0.63505 0.01663 0.35771 -0.35834 -0.083435 0.22363 -0.0029043 0.45228 0.28004 0.30362 0.87722 -0.058375 -0.16847 -0.10897 0.31339 0.13277 0.07748 0.18748 -0.49181 0.1825 0.904 0.57251 0.051838 -0.52759 -0.0014768 -0.22123 -0.54709 -0.34494 -0.59574 0.41751 -0.25329 0.99253 -0.23294 0.28418 0.98597 0.16785 -0.88792 -0.47383 -0.11319 0.20965 -0.33805 -0.52948 -0.35261 0.45843 0.0056394 0.36224 -0.34718 -0.82637 0.27494 -0.068531 -0.2594 -0.36447 -0.28873 -0.76033 0.91734 -0.98186 -0.6516 -0.60702 -0.38456 0.20676 -0.3525 0.217 0.030623 -0.075596 0.47964 0.20916 0.88455 -0.37417 0.15317 -0.24209 0.5883 0.76945 0.33149 0.35877 -0.51194 0.0095664 0.02812 -0.30092 -0.083222 0.27427 -0.50903 0.048798 -0.35736 -0.26341 0.23948 -0.63566 -0.58307 -0.35514 0.17803 -0.79107 0.4845 -0.44473 0.59621 0.34872 -0.47841 -0.83406 0.15135 -0.18254 0.21556 -0.015042 -0.23047 1.1709 0.81577 -0.42595 0.32068 0.14598 -0.21367 -0.13208 0.29012 -0.54751 -1.6608 0.69002 -0.59705 0.82652 -0.049382 -0.5499 -0.26706 0.4489 -0.54231 0.40878 -0.6948 0.12591 -0.5522 -0.16722 -0.0014369 1.0286 -0.81762 0.11323 0.49563 -0.18296 0.72798 0.26057 -0.08249 0.077295
outdoor 0.75279 0.36339 -0.097247 -0.07834 -0.13457 0.60044 -0.15751 0.38815 -0.13234 -0.32026 -0.018396 0.54471 0.093932 0.33912 -0.04348 -0.40999 -0.36942 0.29101 0.21276 0.026869 -0.074276 -0.053535 0.10922 0.11197 0.35248 -0.35739 -0.36234 0.21667 0.014272 0.87988 0.20437 0.06756 0.15477 -0.15081 -0.76334 0.15142 -0.12036 -0.45055 -0.19714 -0.13947 0.081076 0.55148 -0.35148 0.0060232 -0.19219 0.30949 1.0033 0.18067 0.49773 -0.14296 -0.23806 0.54667 -0.052264 -0.4308 0.19334 0.70107 -0.46068 -0.30704 0.87122 0.74906 -0.30277 -0.15678 0.13468 -0.44753 -0.35122 0.062527 -0.34461 0.34419 -0.7492 -0.2905 0.2502 -0.20514 0.16106 -0.23887 -0.48551 -0.23875 -0.12358 0.12531 0.28644 -0.52785 0.41103 -0.47425 -0.38669 -0.64035 0.25507 -0.2819 0.24571 -0.28284 -0.14555 0.30381 0.15243 -0.088454 0.14392 0.36877 0.28068 0.24627 0.43759 0.045091 -0.21199 -0.75548 -0.38753 0.3672 -0.16111 -0.20801 0.17338 0.19084 -0.14465 0.23602 0.12382 -0.534 -0.37283 -0.16527 0.22322 0.060922 -0.85079 -0.55028 0.29272 0.36822 -0.087183 0.46851 0.036897 0.67561 0.39532 0.14286 0.30591 0.32489 0.2019 -0.60162 -0.76348 0.021429 0.08494 0.26414 -0.060692 -0.021239 0.19851 -0.42129 -0.26271 0.086555 -0.18299 0.40202 -0.16793 -0.13823 0.77386 0.46565 0.0074799 0.34414 -0.041434 0.19067 0.0061819 -0.21101 -0.14315 -0.11157 -0.34774 -0.038867 -0.035203 -0.069552 -0.88768 0.26845 -0.078024 0.10021 0.68056 0.11529 -0.12451 -0.013479 0.10398 -0.05087 0.6231 -0.11741 0.39298 -0.1659 0.035272 0.31166 -0.32994 0.35625 -0.40777 0.35546 0.60102 0.1427 -0.15059 -0.3039 0.1639 0.30562 0.24185 -0.14878 -0.35748 0.37512 0.63239 0.41775 -0.050004 -0.13839 0.16571 -0.27989 -0.81142 -0.16384 -0.12958 0.30298 -0.34514 0.85322 -0.42608 0.23933 0.77771 -0.085528 -0.37272 0.17602 0.014477 0.28286 -0.36412 -0.041339 -0.12855 0.1107 -0.11482 0.29083 -0.54869 -0.66941 -0.38951 -0.039945 -0.22391 -0.45831 0.083161 -0.24263 0.9511 -0.38782 -0.64838 -0.64042 -0.2627 0.071372 0.1755 -0.01763 0.45582 -0.17624 0.12324 0.36832 0.69369 -0.41806 0.54887 0.1899 0.050461 0.22597 -0.34563 -0.099187 -0.021244 0.39469 -0.49328 -0.39204 -0.66325 0.15119 -0.51493 -0.13784 -0.13286 0.041571 0.593 -0.53573 -0.48522 -0.27828 0.37987 -0.11963 0.3449 -0.55078 0.024922 0.2305 0.027397 -0.79636 0.60053 -0.15248 -0.12139 -0.32611 -0.18088 0.91618 0.86916 -0.396 0.24053 0.41231 0.2003 -0.40405 0.32226 -0.29154 -2.0581 0.87414 -0.69992 0.46384 -0.31804 -0.92788 -0.34572 -0.20725 -0.68533 0.2109 -0.45318 0.50167 -0.057767 0.085054 -0.28655 0.66265 -0.73143 0.19928 0.11231 -0.15345 0.55733 0.49841 -0.15747 -0.0338
outdoor 0.75279 0.36339 -0.097247 -0.07834 -0.13457 0.60044 -0.15751 0.38815 -0.13234 -0.32026 -0.018396 0.54471 0.093932 0.33912 -0.04348 -0.40999 -0.36942 0.29101 0.21276 0.026869 -0.074276 -0.053535 0.10922 0.11197 0.35248 -0.35739 -0.36234 0.21667 0.014272 0.87988 0.20437 0.06756 0.15477 -0.15081 -0.76334 0.15142 -0.12036 -0.45055 -0.19714 -0.13947 0.081076 0.55148 -0.35148 0.0060232 -0.19219 0.30949 1.0033 0.18067 0.49773 -0.14296 -0.23806 0.54667 -0.052264 -0.4308 0.19334 0.70107 -0.46068 -0.30704 0.87122 0.74906 -0.30277 -0.15678 0.13468 -0.44753 -0.35122 0.062527 -0.34461 0.34419 -0.7492 -0.2905 0.2502 -0.20514 0.16106 -0.23887 -0.48551 -0.23875 -0.12358 0.12531 0.28644 -0.52785 0.41103 -0.47425 -0.38669 -0.64035 0.25507 -0.2819 0.24571 -0.28284 -0.14555 0.30381 0.15243 -0.088454 0.14392 0.36877 0.28068 0.24627 0.43759 0.045091 -0.21199 -0.75548 -0.38753 0.3672 -0.16111 -0.20801 0.17338 0.19084 -0.14465 0.23602 0.12382 -0.534 -0.37283 -0.16527 0.22322 0.060922 -0.85079 -0.55028 0.29272 0.36822 -0.087183 0.46851 0.036897 0.67561 0.39532 0.14286 0.30591 0.32489 0.2019 -0.60162 -0.76348 0.021429 0.08494 0.26414 -0.060692 -0.021239 0.19851 -0.42129 -0.26271 0.086555 -0.18299 0.40202 -0.16793 -0.13823 0.77386 0.46565 0.0074799 0.34414 -0.041434 0.19067 0.0061819 -0.21101 -0.14315 -0.11157 -0.34774 -0.038867 -0.035203 -0.069552 -0.88768 0.26845 -0.078024 0.10021 0.68056 0.11529 -0.12451 -0.013479 0.10398 -0.05087 0.6231 -0.11741 0.39298 -0.1659 0.035272 0.31166 -0.32994 0.35625 -0.40777 0.35546 0.60102 0.1427 -0.15059 -0.3039 0.1639 0.30562 0.24185 -0.14878 -0.35748 0.37512 0.63239 0.41775 -0.050004 -0.13839 0.16571 -0.27989 -0.81142 -0.16384 -0.12958 0.30298 -0.34514 0.85322 -0.42608 0.23933 0.77771 -0.085528 -0.37272 0.17602 0.014477 0.28286 -0.36412 -0.041339 -0.12855 0.1107 -0.11482 0.29083 -0.54869 -0.66941 -0.38951 -0.039945 -0.22391 -0.45831 0.083161 -0.24263 0.9511 -0.38782 -0.64838 -0.64042 -0.2627 0.071372 0.1755 -0.01763 0.45582 -0.17624 0.12324 0.36832 0.69369 -0.41806 0.54887 0.1899 0.050461 0.22597 -0.34563 -0.099187 -0.021244 0.39469 -0.49328 -0.39204 -0.66325 0.15119 -0.51493 -0.13784 -0.13286 0.041571 0.593 -0.53573 -0.48522 -0.27828 0.37987 -0.11963 0.3449 -0.55078 0.024922 0.2305 0.027397 -0.79636 0.60053 -0.15248 -0.12139 -0.32611 -0.18088 0.91618 0.86916 -0.396 0.24053 0.41231 0.2003 -0.40405 0.32226 -0.29154 -2.0581 0.87414 -0.69992 0.46384 -0.31804 -0.92788 -0.34572 -0.20725 -0.68533 0.2109 -0.45318 0.50167 -0.057767 0.085054 -0.28655 0.66265 -0.73143 0.19928 0.11231 -0.15345 0.55733 0.49841 -0.15747 -0.0338
indoor 0.6311 0.71913 -0.14125 -0.034358 0.24955 0.85778 0.31399 0.32027 0.25198 -0.15007 0.46636 0.7046 0.074196 -0.24521 -0.1729 -0.050216 -0.35828 0.63844 -0.14994 -0.19637 0.12628 -0.18667 0.13501 0.063161 0.52141 -0.11783 -0.27329 0.10091 -0.21292 0.36992 -0.19042 0.17351 -0.026609 -0.0094276 -0.61275 0.21529 -0.20888 -0.3175 -0.22913 0.53242 -0.48701 0.018936 -0.31172 0.24615 0.54771 0.54651 0.63587 0.54138 0.30044 -0.044306 0.14114 0.40283 -0.20488 -0.48661 0.43289 0.95846 -0.11546 -0.25536 1.0512 0.73845 -0.36861 -0.14221 -0.41472 -0.59587 -0.19599 -0.25241 -0.30328 0.27915 -0.34623 -0.76446 0.22791 -0.16055 -0.15726 -0.83481 -0.41903 -0.1502 -0.27629 -0.38435 0.49451 -0.34231 0.70081 -0.62064 -0.04148 -0.69302 0.25724 -0.23399 0.51738 -0.65867 -0.13842 -0.12464 0.61466 0.2614 0.64035 -0.025983 0.63568 0.084187 0.33499 0.19935 -0.4002 -0.72655 -0.6364 -0.49349 0.042568 -0.031842 0.097559 0.44318 0.015672 -0.069927 -0.41277 0.39927 0.19925 -0.49577 0.17539 0.12241 -0.47965 -0.29426 0.35029 0.52179 -0.050487 0.45521 0.058941 0.88245 0.79423 0.012504 0.22936 0.72664 0.26565 0.00097979 -0.36267 0.2743 -0.38312 0.43276 -0.061343 0.27154 -0.089156 -0.2669 0.23522 -0.064126 -0.42716 -0.13105 -0.29407 -0.20684 0.81555 0.24588 0.11079 -0.23759 0.1287 0.41469 -0.13528 0.50905 -0.0054055 -0.48957 -0.73471 0.20839 -0.021624 0.41812 -1.2084 0.17369 -0.15086 0.0076283 0.65119 0.13019 -0.25784 -0.20928 0.39189 0.058514 0.63505 0.01663 0.35771 -0.35834 -0.083435 0.22363 -0.0029043 0.45228 0.28004 0.30362 0.87722 -0.058375 -0.16847 -0.10897 0.31339 0.13277 0.07748 0.18748 -0.49181 0.1825 0.904 0.57251 0.051838 -0.52759 -0.0014768 -0.22123 -0.54709 -0.34494 -0.59574 0.41751 -0.25329 0.99253 -0.23294 0.28418 0.98597 0.16785 -0.88792 -0.47383 -0.11319 0.20965 -0.33805 -0.52948 -0.35261 0.45843 0.0056394 0.36224 -0.34718 -0.82637 0.27494 -0.068531 -0.2594 -0.36447 -0.28873 -0.76033 0.91734 -0.98186 -0.6516 -0.60702 -0.38456 0.20676 -0.3525 0.217 0.030623 -0.075596 0.47964 0.20916 0.88455 -0.37417 0.15317 -0.24209 0.5883 0.76945 0.33149 0.35877 -0.51194 0.0095664 0.02812 -0.30092 -0.083222 0.27427 -0.50903 0.048798 -0.35736 -0.26341 0.23948 -0.63566 -0.58307 -0.35514 0.17803 -0.79107 0.4845 -0.44473 0.59621 0.34872 -0.47841 -0.83406 0.15135 -0.18254 0.21556 -0.015042 -0.23047 1.1709 0.81577 -0.42595 0.32068 0.14598 -0.21367 -0.13208 0.29012 -0.54751 -1.6608 0.69002 -0.59705 0.82652 -0.049382 -0.5499 -0.26706 0.4489 -0.54231 0.40878 -0.6948 0.12591 -0.5522 -0.16722 -0.0014369 1.0286 -0.81762 0.11323 0.49563 -0.18296 0.72798 0.26057 -0.08249 0.077295
indoor 0.6311 0.71913 -0.14125 -0.034358 0.24955 0.85778 0.31399 0.32027 0.25198 -0.15007 0.46636 0.7046 0.074196 -0.24521 -0.1729 -0.050216 -0.35828 0.63844 -0.14994 -0.19637 0.12628 -0.18667 0.13501 0.063161 0.52141 -0.11783 -0.27329 0.10091 -0.21292 0.36992 -0.19042 0.17351 -0.026609 -0.0094276 -0.61275 0.21529 -0.20888 -0.3175 -0.22913 0.53242 -0.48701 0.018936 -0.31172 0.24615 0.54771 0.54651 0.63587 0.54138 0.30044 -0.044306 0.14114 0.40283 -0.20488 -0.48661 0.43289 0.95846 -0.11546 -0.25536 1.0512 0.73845 -0.36861 -0.14221 -0.41472 -0.59587 -0.19599 -0.25241 -0.30328 0.27915 -0.34623 -0.76446 0.22791 -0.16055 -0.15726 -0.83481 -0.41903 -0.1502 -0.27629 -0.38435 0.49451 -0.34231 0.70081 -0.62064 -0.04148 -0.69302 0.25724 -0.23399 0.51738 -0.65867 -0.13842 -0.12464 0.61466 0.2614 0.64035 -0.025983 0.63568 0.084187 0.33499 0.19935 -0.4002 -0.72655 -0.6364 -0.49349 0.042568 -0.031842 0.097559 0.44318 0.015672 -0.069927 -0.41277 0.39927 0.19925 -0.49577 0.17539 0.12241 -0.47965 -0.29426 0.35029 0.52179 -0.050487 0.45521 0.058941 0.88245 0.79423 0.012504 0.22936 0.72664 0.26565 0.00097979 -0.36267 0.2743 -0.38312 0.43276 -0.061343 0.27154 -0.089156 -0.2669 0.23522 -0.064126 -0.42716 -0.13105 -0.29407 -0.20684 0.81555 0.24588 0.11079 -0.23759 0.1287 0.41469 -0.13528 0.50905 -0.0054055 -0.48957 -0.73471 0.20839 -0.021624 0.41812 -1.2084 0.17369 -0.15086 0.0076283 0.65119 0.13019 -0.25784 -0.20928 0.39189 0.058514 0.63505 0.01663 0.35771 -0.35834 -0.083435 0.22363 -0.0029043 0.45228 0.28004 0.30362 0.87722 -0.058375 -0.16847 -0.10897 0.31339 0.13277 0.07748 0.18748 -0.49181 0.1825 0.904 0.57251 0.051838 -0.52759 -0.0014768 -0.22123 -0.54709 -0.34494 -0.59574 0.41751 -0.25329 0.99253 -0.23294 0.28418 0.98597 0.16785 -0.88792 -0.47383 -0.11319 0.20965 -0.33805 -0.52948 -0.35261 0.45843 0.0056394 0.36224 -0.34718 -0.82637 0.27494 -0.068531 -0.2594 -0.36447 -0.28873 -0.76033 0.91734 -0.98186 -0.6516 -0.60702 -0.38456 0.20676 -0.3525 0.217 0.030623 -0.075596 0.47964 0.20916 0.88455 -0.37417 0.15317 -0.24209 0.5883 0.76945 0.33149 0.35877 -0.51194 0.0095664 0.02812 -0.30092 -0.083222 0.27427 -0.50903 0.048798 -0.35736 -0.26341 0.23948 -0.63566 -0.58307 -0.35514 0.17803 -0.79107 0.4845 -0.44473 0.59621 0.34872 -0.47841 -0.83406 0.15135 -0.18254 0.21556 -0.015042 -0.23047 1.1709 0.81577 -0.42595 0.32068 0.14598 -0.21367 -0.13208 0.29012 -0.54751 -1.6608 0.69002 -0.59705 0.82652 -0.049382 -0.5499 -0.26706 0.4489 -0.54231 0.40878 -0.6948 0.12591 -0.5522 -0.16722 -0.0014369 1.0286 -0.81762 0.11323 0.49563 -0.18296 0.72798 0.26057 -0.08249 0.077295
outdoor 0.75279 0.36339 -0.097247 -0.07834 -0.13457 0.60044 -0.15751 0.38815 -0.13234 -0.32026 -0.018396 0.54471 0.093932 0.33912 -0.04348 -0.40999 -0.36942 0.29101 0.21276 0.026869 -0.074276 -0.053535 0.10922 0.11197 0.35248 -0.35739 -0.36234 0.21667 0.014272 0.87988 0.20437 0.06756 0.15477 -0.15081 -0.76334 0.15142 -0.12036 -0.45055 -0.19714 -0.13947 0.081076 0.55148 -0.35148 0.0060232 -0.19219 0.30949 1.0033 0.18067 0.49773 -0.14296 -0.23806 0.54667 -0.052264 -0.4308 0.19334 0.70107 -0.46068 -0.30704 0.87122 0.74906 -0.30277 -0.15678 0.13468 -0.44753 -0.35122 0.062527 -0.34461 0.34419 -0.7492 -0.2905 0.2502 -0.20514 0.16106 -0.23887 -0.48551 -0.23875 -0.12358 0.12531 0.28644 -0.52785 0.41103 -0.47425 -0.38669 -0.64035 0.25507 -0.2819 0.24571 -0.28284 -0.14555 0.30381 0.15243 -0.088454 0.14392 0.36877 0.28068 0.24627 0.43759 0.045091 -0.21199 -0.75548 -0.38753 0.3672 -0.16111 -0.20801 0.17338 0.19084 -0.14465 0.23602 0.12382 -0.534 -0.37283 -0.16527 0.22322 0.060922 -0.85079 -0.55028 0.29272 0.36822 -0.087183 0.46851 0.036897 0.67561 0.39532 0.14286 0.30591 0.32489 0.2019 -0.60162 -0.76348 0.021429 0.08494 0.26414 -0.060692 -0.021239 0.19851 -0.42129 -0.26271 0.086555 -0.18299 0.40202 -0.16793 -0.13823 0.77386 0.46565 0.0074799 0.34414 -0.041434 0.19067 0.0061819 -0.21101 -0.14315 -0.11157 -0.34774 -0.038867 -0.035203 -0.069552 -0.88768 0.26845 -0.078024 0.10021 0.68056 0.11529 -0.12451 -0.013479 0.10398 -0.05087 0.6231 -0.11741 0.39298 -0.1659 0.035272 0.31166 -0.32994 0.35625 -0.40777 0.35546 0.60102 0.1427 -0.15059 -0.3039 0.1639 0.30562 0.24185 -0.14878 -0.35748 0.37512 0.63239 0.41775 -0.050004 -0.13839 0.16571 -0.27989 -0.81142 -0.16384 -0.12958 0.30298 -0.34514 0.85322 -0.42608 0.23933 0.77771 -0.085528 -0.37272 0.17602 0.014477 0.28286 -0.36412 -0.041339 -0.12855 0.1107 -0.11482 0.29083 -0.54869 -0.66941 -0.38951 -0.039945 -0.22391 -0.45831 0.083161 -0.24263 0.9511 -0.38782 -0.64838 -0.64042 -0.2627 0.071372 0.1755 -0.01763 0.45582 -0.17624 0.12324 0.36832 0.69369 -0.41806 0.54887 0.1899 0.050461 0.22597 -0.34563 -0.099187 -0.021244 0.39469 -0.49328 -0.39204 -0.66325 0.15119 -0.51493 -0.13784 -0.13286 0.041571 0.593 -0.53573 -0.48522 -0.27828 0.37987 -0.11963 0.3449 -0.55078 0.024922 0.2305 0.027397 -0.79636 0.60053 -0.15248 -0.12139 -0.32611 -0.18088 0.91618 0.86916 -0.396 0.24053 0.41231 0.2003 -0.40405 0.32226 -0.29154 -2.0581 0.87414 -0.69992 0.46384 -0.31804 -0.92788 -0.34572 -0.20725 -0.68533 0.2109 -0.45318 0.50167 -0.057767 0.085054 -0.28655 0.66265 -0.73143 0.19928 0.11231 -0.15345 0.55733 0.49841 -0.15747 -0.0338
indoor 0.6311 0.71913 -0.14125 -0.034358 0.24955 0.85778 0.31399 0.32027 0.25198 -0.15007 0.46636 0.7046 0.074196 -0.24521 -0.1729 -0.050216 -0.35828 0.63844 -0.14994 -0.19637 0.12628 -0.18667 0.13501 0.063161 0.52141 -0.11783 -0.27329 0.10091 -0.21292 0.36992 -0.19042 0.17351 -0.026609 -0.0094276 -0.61275 0.21529 -0.20888 -0.3175 -0.22913 0.53242 -0.48701 0.018936 -0.31172 0.24615 0.54771 0.54651 0.63587 0.54138 0.30044 -0.044306 0.14114 0.40283 -0.20488 -0.48661 0.43289 0.95846 -0.11546 -0.25536 1.0512 0.73845 -0.36861 -0.14221 -0.41472 -0.59587 -0.19599 -0.25241 -0.30328 0.27915 -0.34623 -0.76446 0.22791 -0.16055 -0.15726 -0.83481 -0.41903 -0.1502 -0.27629 -0.38435 0.49451 -0.34231 0.70081 -0.62064 -0.04148 -0.69302 0.25724 -0.23399 0.51738 -0.65867 -0.13842 -0.12464 0.61466 0.2614 0.64035 -0.025983 0.63568 0.084187 0.33499 0.19935 -0.4002 -0.72655 -0.6364 -0.49349 0.042568 -0.031842 0.097559 0.44318 0.015672 -0.069927 -0.41277 0.39927 0.19925 -0.49577 0.17539 0.12241 -0.47965 -0.29426 0.35029 0.52179 -0.050487 0.45521 0.058941 0.88245 0.79423 0.012504 0.22936 0.72664 0.26565 0.00097979 -0.36267 0.2743 -0.38312 0.43276 -0.061343 0.27154 -0.089156 -0.2669 0.23522 -0.064126 -0.42716 -0.13105 -0.29407 -0.20684 0.81555 0.24588 0.11079 -0.23759 0.1287 0.41469 -0.13528 0.50905 -0.0054055 -0.48957 -0.73471 0.20839 -0.021624 0.41812 -1.2084 0.17369 -0.15086 0.0076283 0.65119 0.13019 -0.25784 -0.20928 0.39189 0.058514 0.63505 0.01663 0.35771 -0.35834 -0.083435 0.22363 -0.0029043 0.45228 0.28004 0.30362 0.87722 -0.058375 -0.16847 -0.10897 0.31339 0.13277 0.07748 0.18748 -0.49181 0.1825 0.904 0.57251 0.051838 -0.52759 -0.0014768 -0.22123 -0.54709 -0.34494 -0.59574 0.41751 -0.25329 0.99253 -0.23294 0.28418 0.98597 0.16785 -0.88792 -0.47383 -0.11319 0.20965 -0.33805 -0.52948 -0.35261 0.45843 0.0056394 0.36224 -0.34718 -0.82637 0.27494 -0.068531 -0.2594 -0.36447 -0.28873 -0.76033 0.91734 -0.98186 -0.6516 -0.60702 -0.38456 0.20676 -0.3525 0.217 0.030623 -0.075596 0.47964 0.20916 0.88455 -0.37417 0.15317 -0.24209 0.5883 0.76945 0.33149 0.35877 -0.51194 0.0095664 0.02812 -0.30092 -0.083222 0.27427 -0.50903 0.048798 -0.35736 -0.26341 0.23948 -0.63566 -0.58307 -0.35514 0.17803 -0.79107 0.4845 -0.44473 0.59621 0.34872 -0.47841 -0.83406 0.15135 -0.18254 0.21556 -0.015042 -0.23047 1.1709 0.81577 -0.42595 0.32068 0.14598 -0.21367 -0.13208 0.29012 -0.54751 -1.6608 0.69002 -0.59705 0.82652 -0.049382 -0.5499 -0.26706 0.4489 -0.54231 0.40878 -0.6948 0.12591 -0.5522 -0.16722 -0.0014369 1.0286 -0.81762 0.11323 0.49563 -0.18296 0.72798 0.26057 -0.08249 0.077295
outdoor 0.75279 0.36339 -0.097247 -0.07834 -0.13457 0.60044 -0.15751 0.38815 -0.13234 -0.32026 -0.018396 0.54471 0.093932 0.33912 -0.04348 -0.40999 -0.36942 0.29101 0.21276 0.026869 -0.074276 -0.053535 0.10922 0.11197 0.35248 -0.35739 -0.36234 0.21667 0.014272 0.87988 0.20437 0.06756 0.15477 -0.15081 -0.76334 0.15142 -0.12036 -0.45055 -0.19714 -0.13947 0.081076 0.55148 -0.35148 0.0060232 -0.19219 0.30949 1.0033 0.18067 0.49773 -0.14296 -0.23806 0.54667 -0.052264 -0.4308 0.19334 0.70107 -0.46068 -0.30704 0.87122 0.74906 -0.30277 -0.15678 0.13468 -0.44753 -0.35122 0.062527 -0.34461 0.34419 -0.7492 -0.2905 0.2502 -0.20514 0.16106 -0.23887 -0.48551 -0.23875 -0.12358 0.12531 0.28644 -0.52785 0.41103 -0.47425 -0.38669 -0.64035 0.25507 -0.2819 0.24571 -0.28284 -0.14555 0.30381 0.15243 -0.088454 0.14392 0.36877 0.28068 0.24627 0.43759 0.045091 -0.21199 -0.75548 -0.38753 0.3672 -0.16111 -0.20801 0.17338 0.19084 -0.14465 0.23602 0.12382 -0.534 -0.37283 -0.16527 0.22322 0.060922 -0.85079 -0.55028 0.29272 0.36822 -0.087183 0.46851 0.036897 0.67561 0.39532 0.14286 0.30591 0.32489 0.2019 -0.60162 -0.76348 0.021429 0.08494 0.26414 -0.060692 -0.021239 0.19851 -0.42129 -0.26271 0.086555 -0.18299 0.40202 -0.16793 -0.13823 0.77386 0.46565 0.0074799 0.34414 -0.041434 0.19067 0.0061819 -0.21101 -0.14315 -0.11157 -0.34774 -0.038867 -0.035203 -0.069552 -0.88768 0.26845 -0.078024 0.10021 0.68056 0.11529 -0.12451 -0.013479 0.10398 -0.05087 0.6231 -0.11741 0.39298 -0.1659 0.035272 0.31166 -0.32994 0.35625 -0.40777 0.35546 0.60102 0.1427 -0.15059 -0.3039 0.1639 0.30562 0.24185 -0.14878 -0.35748 0.37512 0.63239 0.41775 -0.050004 -0.13839 0.16571 -0.27989 -0.81142 -0.16384 -0.12958 0.30298 -0.34514 0.85322 -0.42608 0.23933 0.77771 -0.085528 -0.37272 0.17602 0.014477 0.28286 -0.36412 -0.041339 -0.12855 0.1107 -0.11482 0.29083 -0.54869 -0.66941 -0.38951 -0.039945 -0.22391 -0.45831 0.083161 -0.24263 0.9511 -0.38782 -0.64838 -0.64042 -0.2627 0.071372 0.1755 -0.01763 0.45582 -0.17624 0.12324 0.36832 0.69369 -0.41806 0.54887 0.1899 0.050461 0.22597 -0.34563 -0.099187 -0.021244 0.39469 -0.49328 -0.39204 -0.66325 0.15119 -0.51493 -0.13784 -0.13286 0.041571 0.593 -0.53573 -0.48522 -0.27828 0.37987 -0.11963 0.3449 -0.55078 0.024922 0.2305 0.027397 -0.79636 0.60053 -0.15248 -0.12139 -0.32611 -0.18088 0.91618 0.86916 -0.396 0.24053 0.41231 0.2003 -0.40405 0.32226 -0.29154 -2.0581 0.87414 -0.69992 0.46384 -0.31804 -0.92788 -0.34572 -0.20725 -0.68533 0.2109 -0.45318 0.50167 -0.057767 0.085054 -0.28655 0.66265 -0.73143 0.19928 0.11231 -0.15345 0.55733 0.49841 -0.15747 -0.0338
outdoor 0.75279 0.36339 -0.097247 -0.07834 -0.13457 0.60044 -0.15751 0.38815 -0.13234 -0.32026 -0.018396 0.54471 0.093932 0.33912 -0.04348 -0.40999 -0.36942 0.29101 0.21276 0.026869 -0.074276 -0.053535 0.10922 0.11197 0.35248 -0.35739 -0.36234 0.21667 0.014272 0.87988 0.20437 0.06756 0.15477 -0.15081 -0.76334 0.15142 -0.12036 -0.45055 -0.19714 -0.13947 0.081076 0.55148 -0.35148 0.0060232 -0.19219 0.30949 1.0033 0.18067 0.49773 -0.14296 -0.23806 0.54667 -0.052264 -0.4308 0.19334 0.70107 -0.46068 -0.30704 0.87122 0.74906 -0.30277 -0.15678 0.13468 -0.44753 -0.35122 0.062527 -0.34461 0.34419 -0.7492 -0.2905 0.2502 -0.20514 0.16106 -0.23887 -0.48551 -0.23875 -0.12358 0.12531 0.28644 -0.52785 0.41103 -0.47425 -0.38669 -0.64035 0.25507 -0.2819 0.24571 -0.28284 -0.14555 0.30381 0.15243 -0.088454 0.14392 0.36877 0.28068 0.24627 0.43759 0.045091 -0.21199 -0.75548 -0.38753 0.3672 -0.16111 -0.20801 0.17338 0.19084 -0.14465 0.23602 0.12382 -0.534 -0.37283 -0.16527 0.22322 0.060922 -0.85079 -0.55028 0.29272 0.36822 -0.087183 0.46851 0.036897 0.67561 0.39532 0.14286 0.30591 0.32489 0.2019 -0.60162 -0.76348 0.021429 0.08494 0.26414 -0.060692 -0.021239 0.19851 -0.42129 -0.26271 0.086555 -0.18299 0.40202 -0.16793 -0.13823 0.77386 0.46565 0.0074799 0.34414 -0.041434 0.19067 0.0061819 -0.21101 -0.14315 -0.11157 -0.34774 -0.038867 -0.035203 -0.069552 -0.88768 0.26845 -0.078024 0.10021 0.68056 0.11529 -0.12451 -0.013479 0.10398 -0.05087 0.6231 -0.11741 0.39298 -0.1659 0.035272 0.31166 -0.32994 0.35625 -0.40777 0.35546 0.60102 0.1427 -0.15059 -0.3039 0.1639 0.30562 0.24185 -0.14878 -0.35748 0.37512 0.63239 0.41775 -0.050004 -0.13839 0.16571 -0.27989 -0.81142 -0.16384 -0.12958 0.30298 -0.34514 0.85322 -0.42608 0.23933 0.77771 -0.085528 -0.37272 0.17602 0.014477 0.28286 -0.36412 -0.041339 -0.12855 0.1107 -0.11482 0.29083 -0.54869 -0.66941 -0.38951 -0.039945 -0.22391 -0.45831 0.083161 -0.24263 0.9511 -0.38782 -0.64838 -0.64042 -0.2627 0.071372 0.1755 -0.01763 0.45582 -0.17624 0.12324 0.36832 0.69369 -0.41806 0.54887 0.1899 0.050461 0.22597 -0.34563 -0.099187 -0.021244 0.39469 -0.49328 -0.39204 -0.66325 0.15119 -0.51493 -0.13784 -0.13286 0.041571 0.593 -0.53573 -0.48522 -0.27828 0.37987 -0.11963 0.3449 -0.55078 0.024922 0.2305 0.027397 -0.79636 0.60053 -0.15248 -0.12139 -0.32611 -0.18088 0.91618 0.86916 -0.396 0.24053 0.41231 0.2003 -0.40405 0.32226 -0.29154 -2.0581 0.87414 -0.69992 0.46384 -0.31804 -0.92788 -0.34572 -0.20725 -0.68533 0.2109 -0.45318 0.50167 -0.057767 0.085054 -0.28655 0.66265 -0.73143 0.19928 0.11231 -0.15345 0.55733 0.49841 -0.15747 -0.0338
