class_name,0,1,2,3,4,5,6,7,8,9,10,11,12,13,14,15,16,17,18,19,20,21,22,23,24,25,26,27,28,29,30,31,32,33,34,35,36,37,38,39,40,41,42,43,44,45,46,47,48,49,50,51,52,53,54,55,56,57,58,59,60,61,62,63,64,65,66,67,68,69,70,71,72,73,74,75,76,77,78,79,80,81,82,83,84,85,86,87,88,89,90,91,92,93,94,95,96,97,98,99,100,101,102,103,104,105,106,107,108,109,110,111,112,113,114,115,116,117,118,119,120,121,122,123,124,125,126,127,128,129,130,131,132,133,134,135,136,137,138,139,140,141,142,143,144,145,146,147,148,149,150,151,152,153,154,155,156,157,158,159,160,161,162,163,164,165,166,167,168,169,170,171,172,173,174,175,176,177,178,179,180,181,182,183,184,185,186,187,188,189,190,191,192,193,194,195,196,197,198,199,200,201,202,203,204,205,206,207,208,209,210,211,212,213,214,215,216,217,218,219,220,221,222,223,224,225,226,227,228,229,230,231,232,233,234,235,236,237,238,239,240,241,242,243,244,245,246,247,248,249,250,251,252,253,254,255,256,257,258,259,260,261,262,263,264,265,266,267,268,269,270,271,272,273,274,275,276,277,278,279,280,281,282,283,284,285,286,287,288,289,290,291,292,293,294,295,296,297,298,299
black+footed+albatross,0.09391875,0.26710175,-0.014640399999999991,0.17787999999999998,0.10748250000000001,0.0883485,-0.28855050000000004,0.20559465000000002,-0.30153,-0.213804,0.2029275,0.137412,0.130105,-0.15291,0.30341425,0.3801528,0.2578275,0.4797775,-0.1328225,0.5330375,0.08235999999999999,0.040365000000000005,0.08819000000000002,-0.17115000000000002,-0.343115,-0.011091500000000004,0.189476,-0.015139,0.24341,0.026199499999999997,0.1970755,-0.1264587,-0.3959325,-0.15435100000000002,-0.23723,0.14067000000000002,0.04078999999999999,0.204455,-0.009070500000000002,0.446365,-0.004784999999999998,-0.09526249999999999,0.21859575,-0.51780125,0.0877925,0.1824925,0.357695,-0.31515275,0.023884999999999997,0.2707775,0.16021675000000002,-0.175449,0.23614000000000002,0.23317025,-0.012827499999999992,-0.453395,-0.3165675,0.0604745,-0.13884950000000001,0.521555,-0.1124075,-0.383375,0.2292755,0.0845485,-0.06463225,0.2350525,0.31662075,-0.048358750000000006,0.150065,-0.148882,0.24168550000000003,0.3160275,-0.09537925,0.1174025,-0.07760499999999998,0.22195,-0.098196,0.052044999999999994,0.50074,0.2628125,-0.133219125,0.091725,0.3183925,-0.2178475,0.19834000000000002,-0.007242500000000013,0.27484,0.144555,-0.1551325,-0.0389375,-0.026170000000000013,-0.28241249999999996,-0.07069,-0.005188499999999999,0.10307250000000001,-0.16019075,0.25598750000000003,0.16890424999999998,-0.3984925,0.2205475,0.2360255,0.27210500000000004,0.124486,0.24772,-0.3505225,-0.14033675,0.12761,-0.22258875,-0.082379,0.21896750000000004,-0.04697224999999999,0.40000749999999996,-0.56633,-0.20082499999999998,0.054365,-0.3198555,-0.06460300000000001,0.23852299999999999,-0.0948775,0.14945000000000003,-0.41110250000000004,-0.42983000000000005,0.228815,0.2104065,0.29769125,-0.1376875,-0.448785,0.289748,0.15702525,-0.3371775,0.08242,-0.24223999999999998,-0.25804075,0.08603224999999998,-0.09365525,0.03399899999999999,0.07152624999999999,0.08692350000000001,-0.26672975,-0.13704,-0.001247749999999992,0.331371,-0.3602475,0.1817025,-0.1277285,-0.1599725,-0.076379,-0.09309250000000001,0.0781225,0.191245,0.07273349999999998,0.18833999999999998,-0.13013025,-0.09616750000000002,0.3307735,-0.09650075000000001,0.049453399999999995,-0.15689500000000003,0.27526249999999997,0.06412750000000002,-0.2442315,0.027677999999999994,0.217112,0.06316249999999998,-0.33334225,-0.230268,-0.37678449999999997,0.52059,-0.13314225000000002,-0.19260649999999996,-0.13487,-0.119933,-0.2544095,0.4386775,0.074605,-0.72158,-0.23278249999999998,0.2560425,0.05845205,-0.10914000000000001,0.329805,0.063546,0.3897975,0.23861325,0.07203675000000001,-0.6655625000000001,0.4227675,0.2635025,-0.026541500000000006,0.33519699999999997,-0.15676449999999997,-0.26453,0.316285,0.07915550000000002,0.23999950000000003,-0.003972500000000004,0.09240999999999999,-0.3313025,-0.02156225,-0.338348,0.8626725000000001,0.17507024999999998,-0.2188485,-0.39924,0.24187975,0.31522,0.055847499999999994,-0.12197749999999999,0.14941500000000002,0.392705,0.45452499999999996,-0.1840825,0.016907500000000006,-0.026695250000000004,0.40267775000000006,0.18257105,0.33235849999999995,-0.25672625,-0.20852974999999999,-0.2009475,0.4872375,0.18038135,-0.06251000000000001,-0.1408975,-0.08430125,-0.08962999999999999,0.10172424999999999,-0.28464,-0.1043175,0.031285,0.1796525,0.017329999999999998,-0.2165975,0.3972975,-0.009507500000000002,0.47374499999999997,-0.3732725,0.274929675,-0.14116325000000002,-0.16743449999999999,-0.2677775,-0.1190175,-0.1441375,0.19728825,-0.555295,-0.12545499999999998,0.15895550000000003,0.05577499999999999,0.3381725,-0.011355000000000004,-0.5124775,0.0858225,-0.127002,-0.41345275,0.32685600000000004,0.038983000000000004,-0.4480425,-0.04961500000000001,0.4571575,-0.155715,0.17005749999999997,0.30554499999999996,-0.059272500000000006,-0.215923,-0.1116995,0.12983,-0.014533249999999998,-0.0955525,-0.3400015,0.39671875,-0.06540000000000001,0.1780575,0.088508,0.13907,-0.6090249999999999,-0.42367249999999995,-0.10044825000000002,0.48328400000000005,-0.3355975,-0.0642125,-0.4514625,0.5832725000000001,0.00811075,-0.12833250000000002,-0.26552,0.4359375,-0.08922705,0.20019,0.0231179,-0.3094725,-0.20888500000000004,0.2115125,-0.10576999999999999,0.23281725,-0.354215,-0.1758,0.04074,0.15587425000000002,-0.050012749999999995,-0.45713000000000004
laysan+albatross,0.29650499999999996,0.08672099999999999,-0.1930029,0.1754925,0.2808575,0.21122000000000002,-0.54862,-0.059835,-0.5769500000000001,0.2072735,0.123251,0.0947745,0.44218,-0.46674000000000004,0.511255,0.378325,0.113914,0.7700400000000001,-0.17398,0.56281,-0.018380000000000007,-0.11211,-0.30913999999999997,-0.43881000000000003,-0.408605,-0.0243265,-0.0761115,0.029908499999999998,0.61993,-0.1513755,0.2652705,-0.13903800000000002,-0.45244,-0.18662900000000002,0.337605,0.07466,-0.162335,0.2665275,-0.072994,0.14347500000000002,-0.0919055,-0.339995,0.49092,-0.8854,-0.01693,0.336055,0.533385,-0.28508,-0.06831499999999999,0.295262,0.16446149999999998,-0.282175,0.08306000000000001,0.53737,0.35679,-0.383695,-0.20133600000000001,-0.009205000000000019,-0.0429555,0.5195150000000001,-0.6318400000000001,-0.59101,-0.1544995,0.23500500000000002,-0.026990000000000007,0.557495,0.0726115,0.38288500000000003,0.048839499999999994,0.27361800000000003,-0.142432,0.832765,-0.013958,0.074065,-0.20392849999999998,0.50307,-0.424365,0.252745,0.22575499999999998,0.2287055,-0.37155499999999997,0.21021,0.017616000000000007,-0.5484899999999999,0.07469,0.32444,0.202175,0.20021499999999998,-0.236205,-0.094203,-0.269785,-0.50881,-0.1984015,-0.49851999999999996,0.24577000000000002,-0.061516,0.41781,-0.12983499999999998,-0.7187049999999999,0.5682550000000001,-0.047134999999999996,0.312975,0.3175475,0.32820499999999997,-0.011265000000000011,-0.34304,-0.1845,-0.506805,0.0785685,0.684555,-0.039135,0.44945500000000005,-0.579639,-0.125705,-0.1088495,-0.551265,-0.0192525,0.50333,-0.005214000000000003,0.7201850000000001,-0.28147500000000003,-0.226411,0.045655,0.25552245,0.2709125,0.11256000000000002,-0.44932,0.07009,0.092236,-0.17726,-0.04354,-0.474635,0.165415,-0.11399550000000001,-0.010344999999999993,0.021879999999999997,0.45167999999999997,0.1175135,0.038404999999999995,-0.39537,-0.370705,0.39611,-0.77537,0.2933705,0.05374199999999999,-0.38593999999999995,-0.30930725,-0.098915,0.22895500000000002,0.003030000000000005,-0.200254,0.451325,-0.265825,0.22464499999999998,0.02721365,-0.30769500000000005,0.06669649999999999,0.22468,-0.160005,0.010035000000000016,-0.20831550000000001,-0.14638,0.02409735,0.49859,-0.343205,-0.17975549999999998,-0.59901,0.52886,-0.354345,-0.1282415,-0.295715,-0.07323500000000001,0.417198,0.473475,0.497965,-0.482543,0.03844,0.19663,0.168824,0.10525499999999999,0.396725,0.0542835,0.224945,-0.08107500000000001,0.0544405,-0.23932549999999997,0.490485,0.4625,-0.005163,0.2454495,-0.236894,-0.2182545,0.10684,-0.167259,-0.124108,-0.10872000000000001,-0.03994500000000001,-0.647485,-0.027174,-0.40127999999999997,0.20674900000000002,0.55397,-0.428355,-0.23065999999999998,0.21430100000000002,0.531425,0.124515,-0.23835499999999998,0.776355,0.38106,0.568525,0.18522999999999998,0.37251,-0.1542755,0.613375,0.2783,-0.0427655,-0.2009245,-0.21292499999999998,-0.28217000000000003,0.175473,0.48274,0.152475,-0.512965,0.12544999999999998,-0.109925,0.299725,-0.05547000000000002,-0.256295,-0.0344875,-0.00904000000000002,0.077645,-0.31427,0.7784800000000001,-0.06542499999999998,0.12571,-0.077135,0.65562,0.299251,-0.34602,-0.31906500000000004,-0.1927315,-0.309745,-0.0007649999999999879,-0.378335,-0.341635,0.0879455,0.219595,0.7591300000000001,-0.264235,-0.635365,0.139628,0.07099,-0.3182255,0.100516,-0.00766,-0.12946000000000002,0.170785,0.7874099999999999,-0.42954000000000003,0.267325,0.2074845,-0.1430125,-0.32617,0.21703799999999998,0.309595,0.51383,-0.41616000000000003,-0.03708499999999999,-0.023749999999999993,-0.1520265,0.40657,0.23495,0.0258865,-0.34390785,-0.30601,0.834615,0.072194,-0.5118750000000001,-0.0663585,-0.385685,0.651455,-0.07284650000000001,-0.549455,-0.589645,-0.17415999999999998,0.13375795000000001,0.058575000000000016,-0.2552071,-0.337505,-0.18357,0.52172,0.02928,0.524234,-0.747395,-0.586675,-0.099768,0.17440350000000002,0.262564,-0.70208
sooty+albatross,0.122435,0.24746,0.0786121,0.036885,-0.025412500000000005,0.137046,-0.27844,0.481085,-0.44022000000000006,0.0398785,0.036755,0.020093,-0.18846000000000002,-0.163978,0.39587,0.324365,-0.0508,0.234635,-0.04715000000000001,0.643195,0.17716349999999997,-0.219225,-0.163445,0.13202999999999998,-0.089815,0.1058535,0.36753349999999996,-0.1577515,0.42700499999999997,-0.004077500000000001,0.26514550000000003,-0.28656000000000004,-0.382975,-0.187929,0.5106850000000001,0.42984,-0.47044,0.5008349999999999,-0.195328,0.38495999999999997,-0.29512499999999997,0.007005000000000011,0.343235,-0.572755,-0.02094,0.124,0.21785,-0.12143499999999999,-0.07267499999999999,0.13234500000000002,0.2905815,-0.45114999999999994,0.361815,0.159435,0.16556,-0.04070499999999999,-0.14984645000000002,-0.330315,-0.1382645,0.38201,-0.433425,-0.434565,0.2963505,0.156176,0.0748325,0.713445,0.017984999999999987,0.42906,0.068375,-0.041557,0.10040299999999999,0.273058,-0.2260435,0.138984,-0.56549,0.421595,-0.74386,-0.06347,0.49653,0.22524550000000002,-0.32411,0.06046,0.30551,-0.3611,-0.10325,0.30129,0.36971000000000004,0.07186155,-0.1917915,-0.174828,-0.291995,-0.336035,-0.07284500000000001,0.1351,-0.27503999999999995,-0.1849365,0.48356,0.17408,-0.11096,0.37784,0.274015,0.42878499999999997,-0.1871925,0.7863,0.023229999999999987,-0.05176,-0.096719,-0.432575,-0.0902215,0.23968500000000004,-0.32549,0.28154,-0.94539,-0.1473708,0.027069999999999997,-0.63073,0.0038489999999999983,0.304415,-0.089344,0.33753,-0.253515,-0.343595,0.145232,0.36997,0.15639999999999998,0.143245,-0.67047,-0.0026984999999999995,0.1224685,-0.17362,-0.19008499999999998,-0.37689,-0.10450499999999999,-0.1061745,0.08385000000000001,0.04077499999999999,0.393505,0.1584835,-0.281615,-0.368325,-0.038355,0.06778500000000001,-0.15137,0.24868999999999997,0.387867,-0.61892,-0.07757225,0.037474499999999994,0.079544,-0.027870000000000006,-0.10678399999999999,0.41298999999999997,-0.288305,0.1372255,0.08976600000000001,-0.30152500000000004,0.007796999999999999,-0.199825,-0.08603500000000001,0.1438605,-0.19025065000000002,0.26668,0.276232,0.12230999999999999,-0.334785,0.05293450000000001,-0.2166182,0.34212,-0.045726,0.0317485,-0.18324400000000002,-0.327145,0.038217999999999995,0.50134,0.19923000000000002,-0.315925,0.118322,0.252795,0.0859985,-0.0468975,0.30147,0.1306235,0.22470500000000002,0.043664999999999995,-0.05814899999999999,-0.14587,0.9247350000000001,0.1282345,0.00754275,0.45194,-0.104945,-0.47261,0.1553655,0.004369499999999998,0.245072,-0.24766,0.2188695,-0.340275,-0.07829900000000001,-0.2349715,0.23887570000000002,0.37668999999999997,-0.26476,-0.180065,0.28478800000000004,0.493275,0.348935,-0.60539,0.2650515,0.271941,0.38786499999999996,0.10869499999999999,-0.071055,-0.105347875,0.64319,0.0561877,0.3797395,0.0226405,-0.2827599,-0.24798499999999998,0.127425,0.204635,-0.135045,-0.25714000000000004,-0.200555,0.24499,0.55392,-0.09418500000000002,0.044070000000000005,0.2499025,0.30433499999999997,-0.18867499999999998,-0.578615,0.500965,0.191315,0.36619999999999997,-0.05999499999999999,0.28038,-0.152339,-0.30581,-0.335465,-0.2395,-0.28994000000000003,0.42125999999999997,-0.197786,-0.25454,0.1750655,0.11796500000000001,0.2254805,-0.36654,-0.57803,-0.301965,-0.228645,-0.372151,0.14516600000000002,0.299455,-0.37616,0.09122949999999999,0.58857,-0.13546999999999998,0.07390499999999998,0.29325,0.050665,-0.04259,-0.018563999999999997,0.27544500000000005,0.38300500000000004,-0.068927,-0.31423999999999996,0.24643500000000002,0.0663475,0.32306999999999997,0.1150455,0.169485,-0.75668,-0.54297,0.7419899999999999,-0.045537,-0.250845,0.050839499999999996,-0.357445,0.578755,-0.2866865,-0.42079,-0.45621,0.59822,-0.06750205,0.33699500000000004,-0.1676271,-0.32937,-0.701895,0.62662,0.11363999999999999,0.142584,-0.336515,-0.39287000000000005,0.15791499999999997,0.28117000000000003,0.005406999999999999,-0.62818
groove+billed+ani,0.1504923,0.137871,-0.2506375,0.385005,0.4552275,-0.2928525,0.25339500000000004,0.039493749999999994,-0.42382,0.0037325000000000066,-0.15442750000000002,0.15013675,0.10538035,0.0850165,-0.023506,0.24747365,-0.17814825,0.10807375,0.22843875,0.053014,-0.0708375,0.478,-0.24299125,0.0007064999999999988,0.1468045,-0.10622999999999999,0.245035,-0.21848599999999999,-0.2466,0.200516,-0.296269,0.1837845,0.053959999999999994,0.20070375,0.006884749999999995,0.1818565,-0.096489,-0.010967250000000005,-0.19396750000000001,-0.12792000000000003,-0.043356500000000006,-0.15406,0.057995875,-6.550000000000306e-05,0.08097325000000001,0.29902975,0.27300525,-0.052936999999999984,-0.27197499999999997,0.020302999999999988,0.05209000000000001,0.32127625,0.07705999999999999,-0.1256975,-0.2420275,-0.38625325,-0.16953975,-0.33307825,0.39836,0.17036500000000002,-0.11936250000000001,0.14675249999999998,-0.025371999999999992,0.07965275000000001,0.34133,0.14990575,0.436493,0.07985875,0.3641465,0.29865,-0.04260649999999999,-0.03450500000000001,-0.0242825,-0.17739325,0.15037150000000002,0.06352550000000001,-0.1299785,0.022504999999999994,0.22096025,0.001952499999999996,0.127635,0.256119,0.228351,-0.17019499999999999,0.10135750000000002,0.290495,-0.1406015,0.17951625,-0.106098925,-0.025705000000000006,-0.0005350000000000077,0.22001,0.14140125,0.05298499999999999,-0.10605799999999999,-0.09544327500000001,-0.061914925,-0.0692075,0.1775425,0.30124975000000004,-0.009413749999999999,-0.12575999999999998,0.13526275,-0.22175250000000002,0.2207975,0.160835525,0.1257005,-0.162098,-0.0614455,-0.22449275,0.2195425,0.2030675,-0.28717475000000003,0.1912775,0.0342655,-0.1957535,-0.1205975,-0.090013625,0.37807999999999997,0.09833924999999999,-0.2994475,-0.382895,0.17371750000000002,0.032165,0.45265999999999995,-0.1162425,-0.11592475000000002,0.2170625,0.2645405,0.06623000000000001,0.09216225,-0.133855,0.171522,-0.129695,-0.3464775,0.050177500000000014,0.20776874999999997,-0.040146,0.0243555,-0.17551025,-0.1297895,0.20973250000000002,0.34737525,-0.23604925,0.36594125,0.18042824999999998,-0.12716950000000002,-0.0672975,0.099154,0.19920775000000002,0.201225,0.11294500000000002,-0.05845675,0.15896849999999998,-0.361285,0.008544999999999997,0.3564325,0.33164249999999995,0.2045525,-0.2673225,0.04024749999999999,0.029764999999999986,-0.512925,0.07641250000000001,-0.06414500000000001,0.184473,-0.06825,0.1017315,0.42746249999999997,-0.0888775,0.05699749999999999,0.276525,0.12884249999999997,0.004857500000000001,0.228344,0.3309625,0.020361500000000005,-0.24502975000000002,-0.005234749999999996,-0.036698499999999995,0.21442250000000002,0.32719825,-0.26990175,0.1289875,-0.16374312500000002,-0.518677,-0.1410554,-0.1504905,0.19383475,0.6146875,0.27546675,0.02005999999999999,0.0347625,0.4361075,0.31152,0.32345,0.151017,0.08812875,-0.09679000000000001,0.09746250000000001,0.311105,-0.18095775,0.48412374999999996,0.31196250000000003,-0.1398975,0.2206255,-0.30063025,-0.05556375,-0.274571,-0.19059199999999998,-0.155871,0.0038124999999999964,0.29222000000000004,0.26928475,0.317865,-0.08412000000000003,0.24688074999999998,-0.0146405975,-0.231887,0.23401,-0.1446525,0.3274525,0.13684000000000002,0.21539799999999998,-0.02230349999999999,-0.13076500000000002,0.06510500000000001,-0.1546155,0.089613,0.078202,0.19214025,-0.2662145,0.2766,-0.21124849999999998,0.12677250000000004,-0.3013025,0.20732750000000003,-0.21910925,0.33340749999999997,0.0034709999999999984,-0.048335,-0.022952500000000015,0.08959800000000001,-0.014593750000000003,0.12665499999999996,0.234209,0.30141249999999997,0.19726499999999997,-0.1285075,0.08894750000000001,0.346965875,-0.030437500000000006,-0.16902200000000003,0.10804649999999999,-0.1460925,-0.23935374999999998,0.021144000000000003,0.18792999999999999,0.1375815,-0.19333000000000003,0.18975475,0.187035,0.22644,0.05940575000000001,-0.03413250000000001,0.09383500000000002,-0.051320750000000005,0.02908,0.2017335,0.01142325000000001,0.238145,-0.30783,0.0399375,-0.32656199999999996,0.155149,0.018503749999999992,0.06350750000000005,-0.26189675,-0.2508825,-0.25860525,-0.13574999999999998,0.03858,-0.12446850000000001,0.1658975,-0.36146999999999996,-0.1328055,-0.1028175,0.04250609999999999,-0.004992500000000011,-0.073328,0.1709205,-0.220991,-0.08262675,0.07122500000000001,-0.32430175,0.040962499999999985,0.07287200000000002,0.30204,-0.457468,-0.260685
crested+auklet,0.18714999999999998,0.20101,0.03409999999999999,-0.024392999999999998,-0.153091,0.11884499999999999,0.206775,-0.05847999999999999,-0.13582,0.6950099999999999,-0.017324999999999993,-0.0427965,0.19082949999999999,0.353255,0.53297,0.17900999999999997,0.06740499999999999,0.165645,0.0031100000000000017,0.48423499999999997,-0.0992995,0.010540000000000008,0.27128,-0.6530149999999999,-0.26173,0.5606150000000001,0.260425,0.166765,0.16456500000000002,0.7443949999999999,0.004747999999999995,0.045615,-0.6467799999999999,-0.45975449999999995,0.7659699999999999,0.24332700000000002,0.2128965,-0.3277965,-0.25465499999999996,0.30488000000000004,0.046435000000000004,0.26079949999999996,0.31361,-0.170452,-0.317395,-0.27079,-0.035154500000000005,0.405665,-0.2412245,-0.1950405,0.56696,-0.594735,0.138917,0.10010499999999999,0.39842,-0.13935000000000003,-0.57148,0.28230500000000003,-0.0030314999999999995,0.08616499999999999,-0.29653,-0.40501,-0.03151499999999999,-0.249095,0.12642499999999998,0.19288499999999997,0.1459965,0.485665,-0.24933,0.04416500000000001,0.09482,0.2019045,-0.337685,-0.15128,-0.04935500000000001,0.44199,-0.16993,0.06158000000000001,0.433795,-0.10882,-0.29188,0.531695,0.018735,-0.23254399999999997,0.020409999999999984,0.426145,-0.444235,0.092857,0.050123,-0.53929,0.11770915,-0.188755,-0.140687,0.317384,0.13483,0.1508275,0.643125,-0.1438885,-0.31327499999999997,0.54875,0.016144999999999993,0.44294500000000003,-0.21454499999999999,-0.30541,-0.14769,-0.39083999999999997,-0.0097695,-0.240595,0.358578,-0.009759999999999991,-0.211975,-0.049657,-0.43511099999999997,0.09742449999999998,0.29412099999999997,-0.07496,0.2014065,0.175845,-0.06356999999999999,0.051100000000000007,0.2044185,-0.21952500000000003,-0.351105,0.0894315,-0.3125755,0.10695500000000001,-0.22018500000000002,0.565722,0.06653500000000001,-0.551495,-0.16891500000000004,0.239,0.030495999999999995,-0.11255250000000001,0.448045,-0.008875000000000008,-0.370435,-0.311225,0.0943525,0.129615,-0.173054,-0.011015000000000011,-0.46670500000000004,-0.0597645,0.38259,-0.39519499999999996,0.70496,-0.20026,0.0889335,0.64927,-0.48341999999999996,0.2802365,-0.107774,0.091585,-0.2643415,0.18853999999999999,-0.0004977,-0.45747399999999994,-0.444205,0.44213,-0.32594999999999996,0.008739999999999998,-0.316344,0.187745,-0.17336000000000001,-0.2439595,-0.282575,0.007557500000000002,0.031845,-0.483695,-0.151145,0.172,0.12736999999999998,0.36791,-0.10323399999999999,-0.693115,0.1400655,-0.156935,0.068341,-0.1679345,0.24695499999999998,-0.011459999999999998,-0.21869550000000001,0.063751,0.248875,-0.17632999999999996,0.7666949999999999,0.307815,-0.31681,-0.07822,0.097232,-0.30950500000000003,0.0768285,-0.13609000000000002,-0.125149,0.05493500000000001,0.322525,-0.18713000000000002,-0.23287799999999997,0.044621499999999995,0.1066,-0.0817505,-0.6651549999999999,-0.215486,0.020824999999999982,0.173865,0.5257149999999999,0.281505,-0.010137000000000004,0.50114,-0.03593305,-0.1627383,-0.210445,-0.776885,0.287841,-0.042495000000000005,-0.140209,-0.132957,0.521235,-0.183367,0.04469000000000001,0.612765,-0.09156,-0.5954425,-0.251105,-0.38368,-0.31428,-0.216555,-0.03301000000000001,0.27945,-0.504285,0.1058575,-0.26436000000000004,0.125144,-0.471965,0.1051,-0.0320735,0.159743,0.217236,-0.47292999999999996,-0.04401000000000001,0.132945,-0.8360749999999999,0.313045,0.3529075,-0.2012455,-0.09355050000000001,0.29336999999999996,-0.486015,-0.0156625,-0.2881135,0.366035,-0.014674999999999994,-0.12567,-0.6463300000000001,0.212835,0.0458975,0.1635885,-0.1557665,0.137449,-0.102793,0.37261500000000003,0.1559325,-0.36043000000000003,-0.68546,0.20415499999999998,0.376495,-0.10714800000000001,0.10322,-0.0872075,-0.316214,-0.165835,-0.160825,0.12672,0.12550999999999998,0.08320500000000002,0.58204,-0.29677,-0.719085,-0.284415,0.07944000000000001,-0.22497,0.5199849999999999,0.056876499999999997,-1.155005,-0.007575000000000005,0.10286000000000001,-0.0108485,0.14363499999999998,-0.30275,-0.1347,-0.170442,0.204475,-0.21903285,-0.30715,-0.400515,-0.1065315,0.450815,0.44695,-0.16013500000000003
least+auklet,-0.09624999999999999,0.24493499999999999,-0.134987107,-0.054768,-0.21015499999999998,-0.1415975,0.32394999999999996,0.179145,-0.26256,-0.14834999999999998,0.091728,0.11911,0.2266535,0.45393000000000006,0.1088275,-0.1861435,-0.280745,0.165525,-0.301845,0.09986999999999999,-0.10463449999999999,0.14860500000000001,0.159298,-0.28572349999999996,-0.20100449999999997,0.46631500000000004,0.154515,0.09707099999999999,0.262115,0.297015,0.054879000000000004,0.381455,-0.437005,-0.628575,0.27121499999999993,-0.051923,0.50166,0.038818500000000006,-0.009469999999999978,0.060357,0.571325,-0.10707549999999999,0.031244999999999995,-0.038808999999999996,-0.1959495,-0.23985499999999998,-0.04126250000000001,-0.1032625,-0.39964,-0.10394,0.314711,-0.38204,0.17985,0.21544549999999998,0.5217305,-0.231765,-0.29215199999999997,0.12046100000000001,0.09523649999999999,-0.292015,-0.39282,-0.14590850000000002,-0.231929,-0.16108,0.191745,0.19851499999999997,0.24773499999999998,0.1369426,-0.25621499999999997,0.33342499999999997,-0.028829999999999995,-0.0787755,-0.2824375,-0.0887045,0.109024,0.282167,0.290195,0.001674999999999996,0.25357999999999997,0.17779,-0.0131955,0.248905,-0.16216554000000002,0.10080000000000003,-0.2767265,0.2264285,-0.553555,-0.137403,0.015759000000000002,-0.264725,0.1163047,0.04215000000000001,-0.35567499999999996,0.13378400000000001,0.40134000000000003,0.285385,0.16633,-0.1621885,-0.20886,0.08811500000000001,-0.09739500000000001,0.26714,0.015889999999999987,-0.30286,-0.3019655,-0.024185000000000012,0.2774575,-0.24644499999999997,0.2262,-0.059730000000000005,-0.320695,-0.19486199999999998,-0.067632,-0.0013950000000000073,-0.105794,-0.06703,-0.0381835,0.1276315,-0.10958999999999999,0.09430000000000001,-0.15083649999999998,0.0736907,-0.231385,0.505495,-0.1299205,0.32394999999999996,0.08123999999999999,0.175172,0.129685,-0.51108,-0.08757,0.34179000000000004,0.053170999999999996,0.18698250000000002,0.170045,0.061784,-0.209495,-0.073370695,0.2352875,0.129465,-0.372354,0.23819,-0.246616,0.219227,-0.35179499999999997,-0.1641735,0.375875,0.22273500000000002,-0.1056,0.6084849999999999,-0.21338,-0.0250535,0.0016015000000000005,0.1698805,-0.22628500000000001,-0.05115,-0.074854,-0.007264,-0.154561,0.24204950000000003,-0.112698,0.24706915,-0.088294,0.179635,-0.08164979,-0.15454,-0.18070599999999998,0.0944815,0.089938,-0.150868,0.293925,-0.029655,-0.13498000000000002,0.285035,0.124086,-0.33681,-0.1137795,0.24058000000000002,0.121613,0.11641499999999999,0.129295,-0.33349,-0.291035,-0.13123649999999998,0.24033500000000002,0.21634000000000003,0.17712,0.17799500000000001,-0.167536,-0.149642,-0.0016299999999999995,-0.182313,0.1581735,-0.028519000000000003,0.09503500000000001,0.0020600000000000063,0.11498350000000002,-0.1105025,0.030322999999999996,-0.043619200000000004,0.21754999999999997,-0.02608,-0.0835815,-0.158975,0.15969049999999999,-0.04571000000000001,0.4845595,0.220715,0.042125499999999996,-0.034304999999999995,0.08553695,-0.13843329999999998,-0.053309999999999996,-0.562446,0.0274455,-0.16669,-0.123914,0.0432335,0.34903,0.08537299999999999,-0.02523499999999998,0.41739,-0.0589965,0.16500749999999997,-0.178814,-0.241443,-0.25302399999999997,-0.35257,-0.1870315,-0.025789999999999993,-0.14024999999999999,0.24180999999999997,-0.29879,0.045935000000000004,-0.29064,0.260266,0.1594625,0.177418,-0.178449,-0.380945,0.19894499999999998,-0.123382,-0.14780499999999996,0.017845,0.26209,-0.23618050000000002,0.2805245,0.510115,-0.330395,0.060414999999999996,-0.24251850000000003,0.09026,-0.212172,0.023250000000000007,-0.27387,0.1056565,0.027119,0.28013499999999997,-0.135295,-0.012847154999999999,0.15113200000000002,0.358715,-0.0944325,-0.2254915,-0.23572500000000002,0.13423949999999998,0.433885,0.109042,0.60793,0.048156,0.06878100000000001,-0.005154999999999993,-0.2252085,0.102065,0.08624499999999999,-0.042294,-0.9913150000000001,-0.29401,-0.4290445,-0.123625,0.335985,-0.132317,0.764,0.016055,-0.58633,0.282845,0.10621,-0.0658255,-0.17239100000000002,-0.03623449999999999,-0.012020000000000003,-0.328807,0.256635,-0.2637095,0.008374999999999994,-0.07642,-0.2337515,0.12593000000000001,-0.060755,-0.003548500000000003
parakeet+auklet,0.19247999999999998,0.42272000000000004,-0.183218,-0.2766175,-0.11063835,-0.41197500000000004,0.197185,0.080248,-0.2081285,0.78889,0.21965,-0.34697,0.30418,0.26922,0.402505,-0.301885,-0.12306349999999999,-0.04654,-0.68762,0.25664349999999997,0.10124050000000001,0.124999,-0.269785,-0.37971499999999997,-0.328705,0.37066,0.277175,0.17825,0.337495,0.45806,0.09976399999999999,0.152229,-0.24324149999999997,-0.592285,0.806265,0.361402,0.06812499999999999,-0.0654415,-0.313875,-0.04599,0.039745,0.07770450000000001,0.23167500000000002,-0.264082,-0.22070499999999998,-0.103465,0.17625,0.034155000000000005,-0.185765,-0.48329,0.374326,-0.4233,0.32961,0.0028699999999999837,0.588155,-0.48145000000000004,-0.48311499999999996,0.18030000000000002,0.2932765,-0.22896,-0.15946,0.03824499999999997,-0.452945,0.48900499999999997,0.49631,0.22070999999999996,0.32643,0.256115,0.188975,0.374015,-0.1564515,0.1671095,-0.20464849999999998,-0.02051,0.23146,0.382205,0.24040999999999998,-0.20377,0.36588149999999997,0.299995,-0.26122,0.8359749999999999,-0.36675500000000005,-0.57128,-0.381315,0.276065,-0.079845,0.074702,-0.23788700000000002,-0.699145,-0.017055,-0.31007,0.18150500000000003,0.0639255,0.306405,0.432215,0.444895,-0.1418905,-0.35023,0.26373,0.020279999999999992,0.45011,-0.19387500000000002,-0.301365,-0.530395,-0.503495,-0.019437499999999996,-0.453955,0.11790500000000001,0.19555499999999998,0.026785000000000003,-0.142667,-0.144236,0.193355,0.25956599999999996,-0.40674,-0.08991850000000001,0.07524,-0.048235,0.616435,0.28849349999999996,-0.11950500000000001,-0.09207050000000001,-0.04933499999999999,0.0908145,0.097965,-0.122535,0.024549,-0.27161,-0.740165,-0.145885,0.0812685,0.203406,-0.2239675,0.22046,-0.017259999999999998,0.20644,-0.19308999999999998,-0.1798875,0.120208,0.136206,0.249425,-0.52662,0.08653200000000001,0.008495000000000003,-0.016859999999999986,0.093085,0.39289,0.287985,0.15207500000000002,-0.6020399999999999,0.011016999999999999,-0.549079,0.49906,-0.37961,-0.081724,-0.139759,-0.181489,-0.109531,0.532195,-0.267185,0.41129499999999997,0.10151600000000001,0.20564,-0.098844,-0.302145,-0.276305,0.1070515,0.123814,-0.50401,0.157955,0.16219499999999998,0.19661499999999998,0.337345,-0.023839000000000003,-0.92214,0.013915500000000004,-0.06989,0.534853,-0.32521500000000003,0.318785,-0.25543,-0.412935,0.0749075,-0.09717499999999998,-0.03465499999999999,0.419165,0.337425,-0.196029,-0.09554,-0.21622499999999997,-0.16976950000000002,-0.0933165,0.05664,-0.46292,0.5158750000000001,0.3197,-0.069055,-0.18834299999999998,-0.2573085,-0.207545,0.1469995,-0.221385,-0.26749,0.23454999999999998,0.047665,0.546655,-0.05864,0.15726749999999998,0.406555,0.41335695,0.0692967,-0.404975,-1.026,0.23417600000000002,-0.26656,-0.148244,-0.17124699999999998,0.46512,-0.094782,0.013285000000000019,0.3665245,-0.21873499999999998,0.061232499999999995,0.018189999999999984,-0.5609649999999999,-0.34652,-0.37043000000000004,-0.060355000000000006,0.137555,-0.596695,0.20609,-0.411315,0.442325,-0.7247250000000001,-0.03558999999999998,0.0805875,-0.066037,0.162401,-0.36099,-0.0876,-0.42117499999999997,-0.65508,0.302985,0.74715,0.0857945,0.049608,0.18794499999999997,-0.357475,0.141484,-0.38837849999999996,0.64019,-0.03695999999999999,0.19657000000000002,-0.656015,0.261075,0.344342,0.430705,-0.142715,0.004163499999999999,-0.123673,0.2142,-0.061567500000000004,-0.5145,-0.1098605,0.11158573499999999,0.38886000000000004,0.394102,0.289305,-0.0776925,-0.080234,-0.149905,-0.419105,0.0355495,-0.0677885,-0.08374174999999999,0.608295,0.07307500000000003,-0.668555,0.007515000000000008,-0.05616499999999999,0.08513000000000001,0.08122499999999999,0.21925499999999998,-0.7762450000000001,0.237065,-0.00038499999999999646,-0.21152149999999997,-0.12105250000000001,-0.24249500000000002,0.5017400000000001,0.180533,0.361675,-0.2555775,-0.44601,-0.324705,0.2953685,0.932945,0.14395999999999998,0.050749999999999997
rhinoceros+auklet,0.24295,0.079524,-0.42508999999999997,-0.0569885,0.04558000000000001,-0.136861,0.351255,0.110745,-0.49656,0.7587349999999999,-0.06851,-0.0051140000000000005,0.06864999999999999,0.35075,0.25433,-0.383805,-0.17495,0.28935,-0.36556999999999995,0.2932305,0.0869955,0.4427,0.50502,-0.2309405,-0.57382,0.36857,0.2635,0.030424999999999994,-0.055865,0.6446000000000001,-0.284976,0.1055572,-0.48989499999999997,-0.6037,0.915505,-0.213833,0.443885,0.3426885,-0.45871999999999996,0.108221,0.353485,0.28873449999999995,0.31102,-0.291647,-0.270355,-0.4064,0.02942999999999999,-0.150105,-0.645535,-0.327365,0.874685,-0.46048,0.0861765,0.3255,0.66896,-0.480325,-0.204985,0.410465,-0.09637849999999999,0.09706499999999998,-0.64621,-0.35062000000000004,-0.203115,0.024374499999999997,0.40869,0.33163099999999995,0.1471515,0.25664,0.14453,0.05865000000000001,0.03524500000000001,-0.02569195,-0.43154000000000003,0.07082999999999999,0.359475,0.476485,0.35705,-0.233605,0.45237,0.24825,-0.24572,0.47759999999999997,0.024194999999999994,-0.447245,-0.14322500000000002,0.156545,-0.54305,0.041831999999999994,-0.0488435,-0.34251200000000004,0.287705,-0.3795,-0.1500125,0.328724,0.500105,0.40364500000000003,0.431575,-0.40979,-0.362815,0.378525,0.09295999999999999,0.462495,0.153175,-0.19814500000000002,-0.69979,-0.26041000000000003,0.1274525,-0.17487329999999998,0.6448750000000001,-0.002579999999999999,0.082065,0.332908,-0.5051760000000001,0.03621999999999999,0.196246,-0.359545,0.1674615,0.20070500000000002,-0.22689399999999998,-0.027895000000000003,-0.24811650000000002,-0.17071999999999998,-0.30946,0.06382,-0.12960549999999998,0.170958,-0.0627758,0.13084199999999999,-0.18484,-0.804055,0.17879499999999998,-0.050455,-0.206674,0.1109675,0.287145965,0.058512465,-0.037290000000000004,-0.194855,0.033706,0.46911,0.068326,0.10258049999999999,-0.175282,-0.155423,0.39503,-0.252425,0.52284,0.18127,0.0847605,0.273085,-0.5568,0.2542515,-0.107094,0.007480000000000014,-0.50038,-0.21162,0.0237775,0.005444499999999998,-0.17509,0.30132000000000003,-0.29592,0.321915,0.0047805,0.145245,-0.275065,-0.29869,-0.42364,0.2045715,-0.03878000000000001,-0.56945,0.46653,-0.0020050000000000068,0.31723999999999997,0.27807,-0.179154,-0.551985,0.09294050000000001,0.038601500000000004,0.349773,-0.1706615,0.235825,-0.015875,-0.4002,0.1405335,0.27033,-0.03416499999999997,0.36307,0.24467499999999998,-0.064835,-0.112222,0.27151000000000003,-0.1032185,0.11745350000000002,0.07433000000000001,-0.34114,0.50393,0.35908,0.16850500000000002,0.0758325,0.2843915,0.17292000000000002,0.0480655,-0.207285,-0.31567,0.473925,0.21585,0.66639,-0.009649999999999992,-0.10103250000000001,0.08851300000000001,-0.03639805,-0.0943433,-0.198825,-0.8304199999999999,0.280451,-0.32093000000000005,-0.198359,0.091808,0.330048,0.327158,-0.317025,0.413435,-0.0349015,-0.23281249999999998,-0.324545,-0.714005,-0.2591895,-0.207665,-0.139238,0.0838648,-0.00789999999999999,-0.034845,-0.33338500000000004,0.289915,-0.264245,0.25369600000000003,-0.1737125,-0.167327,0.178936,-0.3216005,-0.196365,0.01952000000000001,-0.526095,0.47884499999999997,0.09637499999999999,-0.1923805,0.0583645,0.29894,-0.103715,-0.111656,-0.2730985,0.04716000000000001,-0.41389,-0.14225,-0.5328550000000001,-0.045345,-0.043453,0.57196,-0.07730500000000001,0.024248,-0.169148,0.1422545,0.055177500000000004,-0.12430000000000001,-0.286755,0.1354715,0.310931,0.541632,0.1249,0.3509325,-0.040364000000000004,0.148265,-0.486345,0.14773,-0.29012499999999997,-0.095996,0.358755,-0.07826,-0.56271,-0.29496500000000003,-0.025164999999999993,-0.06765,0.5201549999999999,0.30229,-0.892585,-0.105245,-0.09148499999999998,0.1496385,-0.075565,-0.439555,0.1033965,-0.115257,0.02932,-0.305465,-0.490395,-0.255335,0.2191385,0.465785,0.26715,0.0827215
brewer+blackbird,-0.24199,0.29408999999999996,-0.31797,-0.21487124999999999,-0.06677,0.08966500000000002,0.05098000000000001,0.435795,0.009819999999999995,0.40942999999999996,0.046776080000000005,-0.436085,-0.30582,0.07518500000000002,-0.43100249999999996,-0.0486565,-0.14057999999999998,0.18589499999999998,0.12957999999999997,0.046967,-0.072497,-0.002669999999999992,-0.075225,0.504015,-0.30109,0.05858000000000001,-0.18537000000000003,-0.033354999999999996,-0.108573,0.45182049999999996,-0.35323,-0.08576,0.0924255,0.197605,-0.326295,-0.10007350000000001,0.061565000000000036,0.021055000000000004,-0.31380250000000004,0.20833000000000002,-0.1689045,0.48516,-0.16512,0.62676,0.171935,-0.472105,-0.056824,0.271638,0.21103,0.08769,0.048414999999999986,-0.5330849999999999,0.06999999999999998,0.294935,-0.33925,-0.18654999999999997,0.288675,0.319955,0.10187999999999998,-0.08726,-0.355435,-0.3336865,0.16402,0.407575,-0.39017999999999997,0.09274500000000002,-0.07233499999999998,-0.1906351,0.05093500000000001,-0.1467935,0.00022500000000000298,0.335415,-0.32047000000000003,0.120788,0.1262795,-0.166443,-0.07963999999999999,-0.374185,-0.10566499999999998,0.30362500000000003,-0.202643,0.12042000000000001,-0.09596750000000001,-0.47862,0.276535,-0.114147,0.147905,0.007085000000000008,0.10558999999999999,-0.5814,0.1597765,0.32834050000000004,0.1162,-0.021985000000000005,-0.342415,-0.34484,-0.004155000000000006,-0.132395,-0.544,-0.365525,0.16072999999999998,-0.1650155,0.298563,0.286912,-0.7061550000000001,-0.033025,-0.28289855,0.143285,-0.194685,0.19029499999999996,-0.60885,0.0032999999999999974,-0.257575,-0.033805,-0.301555,-0.17493350000000002,0.016456,-0.08799499999999999,-0.2542935,0.003740000000000007,0.20462999999999998,0.164995,0.079588,-0.91549,-0.10802700000000001,-0.584025,0.11421,0.35611499999999996,0.214485,-0.445375,-0.15803999999999999,0.24049500000000001,0.014520000000000005,-0.303755,0.1608925,0.28561,-0.21566,0.176467,-0.02557000000000001,-0.22592500000000001,0.255785,0.205785,0.104765,-0.09999999999999999,0.1065045,0.05610999999999999,-0.0689515,-0.20225500000000002,0.0993865,0.009739999999999999,-0.219395,0.349595,0.33375,0.2683115,0.130863,-0.06352500000000001,-0.471855,-0.12313999999999997,0.15401,-0.208867,-0.050439999999999985,-0.195408,-0.197845,0.1802435,-0.2875295,-0.042563000000000004,-0.07733000000000001,0.375285,0.19825199999999998,-0.157945,0.224205,-0.1258935,0.24317,0.043889999999999985,0.006599999999999995,0.20501999999999998,0.36787699999999995,0.072863,0.40831,0.133255,0.06620499999999999,0.18641,0.19241000000000003,0.038645,0.232335,-0.46482,0.02607000000000001,0.0346865,-0.1567625,0.1213605,-0.3754705,-0.29758,-0.227508,-0.0816,-0.007882999999999998,0.47890999999999995,-0.179777,0.22731500000000002,-0.2994675,-0.40058,0.245525,0.31362,-0.32057,-0.538015,-0.398535,-0.08834499999999999,-0.451965,-0.118535,-0.05586415,0.30648,-0.02408500000000001,0.019954999999999994,-0.10837,0.16340949999999999,-0.005780000000000007,0.180935,-0.08674100000000001,0.41944,-0.29051,-0.3321795,-0.050075499999999995,0.47436,-0.06215999999999999,-0.121351,-0.31295,-0.26567,0.0830885,-0.1067575,0.1745475,-0.275255,-0.250385,-0.011429999999999996,0.1395305,0.6936450000000001,-0.195457,0.0907005,0.17923100000000003,0.329456,-8.500000000000174e-05,0.009911500000000004,-0.331065,-0.179158,-0.377205,-0.45247000000000004,0.11778,-0.163715,0.028859999999999997,0.045009999999999994,0.23956999999999998,0.05962865,0.010203999999999998,0.07013,0.25457,-0.1264935,0.23884,0.29954000000000003,0.407625,-0.10309000000000001,0.40813,-0.186561,0.302885,0.074766,-0.03662499999999999,-0.402645,-0.152835,0.092095,0.19454,0.24703799999999998,-0.17724,0.301985,0.313065,-0.44348,0.36267,-0.1665355,0.47980500000000004,-0.187985,0.5932900000000001,-0.08888,0.19031,0.014979999999999993,-0.460105,0.397845,-0.44764,-0.07618999999999998,-0.33667,0.145671,-0.08265499999999999,-0.10129695,0.12468199999999999,-0.021889000000000002,0.031620999999999996,0.2194607,-0.14919500000000002,-0.09045500000000001,-0.27657950000000003,-0.34304,-0.1488345,-0.20284800000000003,-0.16568,0.08854000000000001
red+winged+blackbird,-0.052307000000000006,0.05415499999999998,-0.14796925,-0.4103875,-0.08951875,-0.20853,-0.24998749999999997,0.633575,-0.158275,0.16935999999999996,0.16249458000000003,0.059407499999999995,-0.20828750000000001,-0.058124999999999996,-0.2577525,0.24868350000000003,-0.106135,0.09275749999999999,0.05899264999999998,0.017965000000000002,-0.2731445,0.0480925,-0.034137500000000015,0.3227475,-0.10462275,-0.04622999999999999,0.43600125,-0.109355,-0.1201205,0.67369,-0.10393424999999999,-0.336175,-0.19812700000000003,-0.028354999999999998,0.055535,0.07037025,-0.27147499999999997,-0.33233,-0.4794475,0.18071925,-0.014094500000000006,0.3481045,-0.2681575,0.40386,-0.17312750000000002,-0.3150325,-0.04702900000000001,0.42723,-0.10916375,-0.2596325,0.083654,-0.546145,0.30426975,-0.045200000000000004,-0.43838750000000004,-0.5272749999999999,0.03461750000000001,0.20618150000000002,0.47126,-0.420165,-0.3876325,-0.10594150000000001,-0.022607999999999996,0.3811125,-0.23811074999999998,0.10552,-0.056892499999999985,0.0478319,-0.036993,-0.090032425,0.16245250000000003,0.5080450000000001,-0.19587000000000002,0.1221225,-0.044719499999999995,0.19063449999999998,-0.07013249999999999,-0.39444500000000005,0.13432650000000002,0.08664250000000001,-0.46689749999999997,0.35000200000000004,-0.077338775,-0.318145,0.11155499999999999,0.015350500000000001,0.25128675,0.2844675,0.4153475,-0.2393275,0.5286774999999999,0.46736750000000005,0.17837719999999999,-0.09256175,-0.16027000000000002,-0.10377750000000001,-0.010714500000000016,-0.1873775,-0.5322525,0.0031849999999999934,0.39307,0.075319,0.37872,0.324939,-0.5544250000000001,-0.1262345,-0.3370425,-0.17606750000000002,-0.17600125,-0.3113935,-0.5179175,0.593505,-0.22988425,-0.18436875000000003,-0.48260000000000003,-0.17912899999999998,-0.21832449999999998,0.43668500000000005,-0.230385,-0.23197299999999998,-0.033500000000000016,-0.40303,0.1589855,-0.33169250000000006,-0.07721700000000001,-0.33904525,-0.08301750000000001,0.6996549999999999,0.252205,-0.16166999999999998,-0.06021849999999998,0.13798625,0.09753500000000001,-0.1380275,-0.059767499999999994,0.028957499999999997,-0.12230749999999999,0.160502,-0.3624475,0.000993250000000001,-0.01850172500000001,0.05971249999999999,-0.259677,-0.3047625,0.29667000000000004,0.342329,-0.054738250000000016,-0.12665,-0.0511505,0.1669695,-0.19077000000000005,0.182315,-0.028697499999999987,0.41021075,0.35526749999999996,-0.16192,-0.12451,-0.16225999999999996,0.147265,-0.163987,-0.3314775,-0.06035549999999999,-0.020684999999999995,0.1224945,-0.15465250000000003,0.099479,-0.17097875,0.5307850000000001,-0.1280055,-0.3116575,-0.43849,-0.122906,0.537165,0.27468325,-0.14341925,-0.3466075,0.5388975,0.026702749999999997,0.08733250000000001,-0.14160425000000001,0.350215,0.05917075,0.53207,0.023997750000000005,0.069225,-0.5534025,0.39261250000000003,0.11342950000000002,0.2862425,0.127735,-0.38858499999999996,0.102015,-0.094939,-0.23729075,0.30986450000000004,0.47443499999999994,0.183922,-0.08147,-0.11663500000000002,-0.18259749999999997,0.76252,0.278211,-0.1395725,-0.36841,-0.04252125,-0.136514,-0.18210074999999998,-0.21233022499999998,-0.18283377499999998,0.168282125,0.26822,0.03799224999999999,-0.2464325,-0.191633,0.20105,-0.29096275,0.3008175,0.47213724999999995,-0.038199750000000005,-0.23692449999999998,0.2134375,-0.057972499999999996,-0.15546749999999998,-0.18702000000000002,-0.27895624999999996,-0.767185,-0.16152925,-0.07941300000000001,-0.1629225,-0.13202,-0.12457,-0.18476525,0.1937585,0.31759000000000004,0.012285499999999998,0.10262550000000001,0.03313500000000001,0.00706925,0.14479324999999998,0.253129,-0.23772474999999998,-0.102673,-0.3471675,-0.2274295,-0.10607249999999999,-0.21428,-0.10023249999999999,0.09722449999999999,0.2608525,-0.053387374999999994,0.098844975,0.429575,-0.06305499999999997,-0.2752975,0.351445,0.13997675,0.09777375,0.019057500000000005,0.23766874999999998,-0.092881675,0.12022675,-0.0034155000000000157,0.374485,-0.35671125,-0.55921,0.2099125,0.089488,0.0235695,-0.17216,0.429705,0.11970874999999999,-0.284195,0.2388525,-0.1454175,0.4716435,0.19321750000000001,-0.18132099999999995,0.0832225,0.09788,-0.41423075000000004,-0.31407525,0.2790375,-0.09991749999999999,0.32770699999999997,-0.3817625,0.1334055,-0.305625,-0.0910375,0.07331025000000001,-0.279811,-0.090692,-0.04965929999999999,-0.51405,0.47960249999999993,-0.4233925,-0.410515,-0.2131875,0.05279099999999999,0.36535999999999996,-0.21528
rusty+blackbird,0.03068499999999999,0.23934,-0.36526,-0.223068,-0.22957499999999997,-0.2516405,-0.22753,0.42474999999999996,0.09899999999999998,0.66935,0.0018857799999999999,0.013606,-0.51028,-0.10280249999999999,-0.664105,-0.0560015,-0.28435499999999997,0.188115,0.20161949999999998,-0.11302000000000001,0.362813,0.21076,-0.24226,0.330245,-0.19612000000000002,0.02120000000000001,0.49912,2.0000000000006124e-05,-0.111438,0.4248125,-0.01587999999999999,-0.027155000000000012,0.052681,0.121915,-0.04813500000000001,0.15736650000000002,-0.416585,-0.1186416,-0.272175,0.17464000000000002,0.034351000000000007,0.62269,-0.08818999999999999,0.026880000000000015,0.19027,-0.11995049999999999,-0.1932015,0.390625,0.021849999999999994,-0.25408000000000003,0.2509975,-0.676835,0.310195,0.007859999999999992,-0.23575050000000003,-0.379256,0.120965,-0.012329999999999994,0.33208499999999996,-0.33519,-0.14152,0.023363499999999995,0.08819500000000001,0.5322800000000001,-0.057099999999999984,0.028975,-0.050785,0.0215289,0.15028000000000002,-0.039659299999999995,-0.22671999999999998,0.2515621,-0.06325000000000001,0.5890650000000001,-0.2852205,0.0030589999999999992,-0.415875,0.021690000000000015,0.031093000000000003,0.01050000000000001,0.042484999999999995,0.293275,0.0010199999999999931,-0.330102,0.1922595,-0.16467199999999999,0.285545,0.13342700000000002,0.07911000000000001,-0.41594000000000003,0.42585,0.6286700000000001,-0.08148499999999997,-0.7229,-0.366055,0.13076,0.0725,-0.24472500000000003,-0.41788,-0.21197500000000002,0.0353325,-0.0791105,0.08360000000000001,0.13856,-0.27109000000000005,-0.25635,-0.188085,-0.144189,-0.39381499999999997,-0.358655,-0.54379,0.2322185,-0.34665,-0.62759,-0.6225050000000001,0.0314565,-0.150252,0.39751000000000003,-0.12826500000000002,0.12075500000000002,-0.073645,-0.441575,-0.073277,-0.63975,0.0341625,-0.302238,-0.1997,0.49505499999999997,-0.021885,0.080485,-0.230571,0.070537,0.39890000000000003,-0.293515,0.0510575,0.11795499999999999,0.028015000000000012,-0.018826,-0.078845,0.02384,0.240485,-0.07120850000000001,0.0059000000000000025,-0.41907,0.2081,0.34721,-0.010939499999999998,0.29226,-0.0816785,0.120251,-0.22225500000000004,0.11666449999999999,-0.056574999999999986,0.23229,0.097285,-0.27769,0.11102999999999999,-0.09434500000000001,0.267995,0.09700499999999998,-0.111035,-0.011706000000000001,-0.20821,-0.11945,-0.374195,0.09561650000000001,-0.19084050000000002,0.424675,0.054792,-0.1413,-0.156975,0.4028565,0.53789,-0.05016999999999999,-0.1497055,-0.06132000000000001,0.509215,-0.12158,0.32289999999999996,-0.15658,0.41928,0.318425,0.52563,0.056995000000000004,-0.026634999999999992,-0.39361999999999997,0.385455,0.108962,0.30255750000000003,0.21683999999999998,-0.633965,-0.34474,-0.03966,0.153085,0.12777449999999999,0.19552999999999998,-0.132602,-0.116748,-0.2551175,-0.50458,0.5089049999999999,0.2044745,-0.27329499999999995,-0.3898,0.130405,0.01834999999999999,0.17576999999999998,-0.53935,-0.24555500000000002,0.138895,0.0423485,0.23626999999999998,-0.247205,-0.2019555,0.197025,-0.1360255,0.027094999999999994,0.762635,-0.316015,-0.0832745,0.09325000000000001,-0.117575,-0.22141499999999997,-0.051834000000000005,-0.18761699999999998,-0.280355,-0.013916,-0.12389249999999999,-0.1790725,-0.05265999999999999,-0.020677,-0.238685,0.0842755,0.4539,-0.143052,0.3814655,0.07957000000000002,-0.008736500000000001,-0.05486999999999999,-0.1430285,-0.030799999999999994,-0.193858,-0.3916,-0.40566,0.19666,-0.363385,0.05326500000000001,0.044804999999999984,0.48067499999999996,0.252615,-0.24467299999999997,0.184275,0.19617900000000002,-0.5092,0.55741,0.08379,0.24295500000000003,-0.137525,0.38702,0.034158999999999995,-0.181875,0.193215,-0.021565,-0.1390595,-0.17652,0.05479499999999998,-0.08016000000000001,-0.091722,-0.18866,0.498665,0.06558499999999999,-0.492355,-0.09492,-0.259085,0.308855,0.249585,0.3521205,0.1365135,-0.11985499999999999,-0.205355,-0.23856499999999997,0.35103,-0.2051985,0.27454,-0.075055,-0.14811400000000002,-0.140337,0.042435,-0.205803,0.035459,0.12165599999999999,-0.0916293,-0.215371,0.30545500000000003,-0.495195,-0.3999805,-0.156206,-0.143763,-0.03851999999999999,0.11723
yellow+headed+blackbird,-0.15650475,0.13654475,-0.13234999999999997,-0.3689525,-0.145085,-0.35461750000000003,-0.29945,0.462995,-0.06149075000000001,0.012534999999999963,-0.09911542000000001,0.007462499999999997,-0.06238099999999999,-0.065525,-0.24078999999999998,0.09400125,-0.18437499999999998,-0.006002750000000001,0.26809249999999996,0.16233175,-0.08969450000000001,0.03764500000000001,-0.1954525,0.15483249999999998,-0.36977,-0.07959750000000002,0.516045,-0.13051425,-0.16644549999999997,0.4111225,0.01873275000000002,-0.28689175,0.026970500000000015,0.106094,-0.16792500000000002,0.20720149999999998,-0.20181149999999998,-0.3106675,-0.5086075,0.23772174999999998,-0.014209500000000003,0.3795345,-0.21882849999999998,0.33439825,0.170147,-0.2108125,0.06845874999999998,0.30319979999999996,0.022901249999999984,-0.18317825,0.07798750000000002,-0.507755,0.3460575,-0.008411000000000002,-0.3312985,-0.50845675,-0.029352249999999996,0.065145,0.28893749999999996,-0.385125,-0.26270475,0.0027095825000000018,0.04234250000000002,0.31768525000000003,-0.2293677,0.16077125,0.14256600000000003,-0.06594560000000001,-0.24471,-0.31495850000000003,-0.02730225,0.37719,-0.244471,0.09181,-0.0608505,0.24649949999999998,-0.17677274999999998,-0.13354675,0.25795,0.11547425000000001,-0.04410250000000002,0.41315500000000005,-0.14140750000000002,-0.2229575,0.27316425,-0.04042149999999999,0.39302000000000004,0.23471125,0.327512,-0.39822,0.34652574999999997,0.463166925,0.21376499999999998,-0.28716,-0.291655,0.1513675,-0.10037,0.05175999999999999,-0.437295,-0.12613000000000002,0.263515,0.025846300000000003,0.49485,0.3643715,-0.6126175,-0.074496,-0.19039250000000002,-0.08006500000000001,-0.177454,-0.083235,-0.3413775,0.222771,-0.11727100000000001,-0.2558075,-0.45715,0.05449649999999999,-0.15653699999999998,0.36108250000000003,-0.18705750000000002,-0.18215599999999998,-0.024145,-0.3896525,0.012312500000000004,-0.43043825,-0.047966999999999996,-0.21515925000000002,0.009600749999999991,0.6071075,0.1794625,-0.15964975,-0.17986074999999999,-0.01429625000000001,0.195123,-0.26861275,0.04490050000000001,0.15390500000000001,-0.17415694999999998,-0.12978049999999997,-0.1541925,0.019305249999999996,0.006999749999999999,0.09532499999999998,-0.1119145,-0.3909125,0.07544000000000001,0.4028675,0.085273,-0.01353575,0.038526500000000005,0.13835999999999998,0.06686999999999999,0.31001999999999996,0.1793565,0.261591,0.4873925,0.1471175,0.006502499999999994,-0.11566500000000002,0.054345000000000004,-0.133825,-0.404984,-0.133038,-0.046960249999999995,0.112109,-0.12368100000000001,-0.1156315,-0.179008,0.38569525000000004,-0.028342000000000006,0.012545000000000014,-0.18706974999999998,-0.0679285,0.2960425,0.11352949999999999,-0.11095655,-0.14710499999999999,0.3050925,0.03801145,0.15926800000000002,-0.09846,0.15825999999999998,-0.014971249999999992,0.4153975,0.17466500000000001,-0.10523575000000002,-0.5809525,0.12348,0.089394,-0.047425925,0.02745824999999999,-0.1287925,-0.0623525,-0.2781061225,-0.14426625,0.1256525,0.20091325,-0.08654224999999999,-0.1918745,-0.1348175,-0.08214249999999998,0.5765250000000001,0.28424249999999995,-0.08661049999999999,-0.5467975,-0.1252375,-0.19029374999999998,-0.24697,-0.10998999999999999,-0.115282,0.15942499999999998,0.160528,-0.10134800000000002,-0.152975,-0.11214875000000002,0.4181275,-0.07865064999999999,0.0937785,0.15071749999999998,9.499999999999786e-05,-0.17944025000000002,0.42538,-0.16681249999999997,-0.2956275,-0.13347599999999998,-0.059805,-0.5967,-0.009758250000000001,-0.0552855,-0.058810999999999995,0.050135000000000006,-0.28016875,-0.1561875,0.15613875,0.4902325,0.168368,0.044061225,0.06454500000000002,-0.02078925,0.17974475,-0.00548775,-0.05323249999999999,-0.054993299999999995,-0.265444,-0.2354635,-0.006632499999999986,-0.1938975,0.19606250000000003,-0.049155000000000004,0.24432925,0.07824500000000001,0.08138775000000001,0.29035299999999997,0.004060000000000008,-0.10173750000000001,0.42947500000000005,0.16884375000000001,-0.0023849999999999982,-0.10874249999999999,0.19704249999999998,0.031414,-0.0003285000000000232,0.02254524999999999,0.284365,-0.11246,-0.453725,0.15911324999999998,0.018688499999999997,-0.21604450000000003,-0.03947425,0.5643775,0.1455225,-0.3876425,0.003170000000000006,-0.012215000000000004,0.26982000000000006,0.11072975,-0.30432499999999996,0.08433,0.1657125,-0.29134000000000004,-0.287975,0.28468675,-0.193325,0.1972125,-0.12013674999999999,0.18940600000000002,-0.1287195,-0.023609500000000005,0.08074375,-0.094677175,0.07680100000000001,-0.033374799999999996,-0.22740500000000002,0.28051499999999996,-0.4405875,-0.30091700000000005,-0.030978000000000006,-0.074113,0.25145,-0.3280975
bobolink,0.42339,0.16476,-0.3385,0.035073,0.015576,0.21293,0.11642,-0.1228,-0.21154,0.46367,-0.63151,-0.45572,0.10906,-0.24984,-0.10449,-0.32633,-0.056312,0.013299,-0.15778,-0.052055,0.0042873,-0.090333,-0.061417,-0.27138,0.47671,-0.059819,-0.18248,-0.14938,-0.19592,-0.11929,-0.20895,-0.20083,-0.27233,-0.22499,0.3281,0.0098496,-0.36252,-0.066575,-0.09018,0.18706,-0.34574,-0.15492,0.037274,0.42491,0.34656,-0.24316,0.12226,-0.57478,-0.11206,-0.13739,-0.18723,0.057183,0.084466,0.24254,-0.10256,-0.12991,0.1369,-0.24973,0.095557,-0.0045656,0.20728,-0.43673,-0.82496,-0.008864,0.1222,0.69642,0.23679,-0.2532,-0.20257,0.11805,0.057443,0.52727,-0.060801,-0.47381,0.19022,0.18523,-0.66081,0.20358,0.28572,-0.014316,0.11159,0.37228,0.093776,-0.46204,-0.1634,-0.4701,0.40236,0.016155,-0.23083,-0.76831,0.21104,-0.054094,0.010305,0.67552,-0.27576,-0.11807,0.87903,-0.28186,-0.19949,0.70771,0.083694,-0.077625,-0.071373,-0.20404,0.07634,-0.22664,0.18585,0.020444,0.1488,0.12419,-0.3231,0.11026,0.16314,0.58786,-0.22612,-0.25641,0.31753,0.057911,-0.067949,0.28477,0.24439,-0.022864,0.076457,-0.0069539,0.18326,0.19725,-0.18117,0.23561,-0.11988,-0.34551,-0.16409,-0.31861,-0.056963,0.1497,-0.037918,-0.26572,0.06769,-0.55359,0.052958,-0.063595,0.31564,0.1114,-0.18031,-0.11667,0.28023,-0.2437,0.10526,-0.06649,0.16135,0.58597,-0.67052,0.14493,-0.00023995,0.21118,-0.44559,-0.42961,-0.097262,-0.022956,-0.23872,-0.039599,-0.40838,0.43036,0.01086,0.23656,0.0631,-0.073157,-0.08706,-0.33482,0.24098,-0.57284,-0.018997,-0.1992,0.97559,-0.073559,0.098971,-0.071695,0.25886,-0.29294,0.23291,-0.51154,-0.12402,0.17473,-0.34326,-0.30862,-0.35327,0.031706,0.61887,0.17572,0.15268,-0.32084,0.27273,0.11068,0.18438,-0.36536,0.032436,0.0093358,-0.28274,-0.68084,0.2249,-0.0101,-0.47947,-0.071942,-0.015214,-0.088584,-0.21573,0.059573,0.27679,-0.2437,0.13215,0.37517,-0.13574,-0.15148,-0.27748,-0.12826,-0.055023,-0.33311,0.083873,-0.25998,0.30668,-0.029073,-0.16676,0.27137,-0.080358,-0.20663,-0.18832,0.19963,-0.12349,0.23585,0.13353,0.38078,-0.38593,0.03432,-0.25396,0.17834,-0.1875,-0.03622,-0.15611,0.20932,0.093871,-0.6545,-0.12257,-0.10673,-0.35948,-0.60469,0.44385,0.15092,-0.45611,0.2247,-0.10184,-0.065345,-0.33869,0.34337,0.12896,0.60168,-0.62803,0.40866,-0.079282,-0.024131,-0.02614,0.13516,-0.011866,0.41505,-0.42106,-0.1579,0.016858,0.064384,0.15752,-0.28895,-0.14687,0.099425,0.0049679,-0.23245,-0.67101,-0.17687,-0.25261,0.33414,0.98103,-0.46996,-0.38943,0.0097042,0.036332,0.31597,0.16301,-0.2177,0.34646,0.33207,-0.42084,-0.25047,0.044132,-0.29063,0.32948,0.11323,-0.24481,-0.16843,-0.0063655,-0.40959,-0.016748,0.17511,-0.0019303,0.0027973
indigo+bunting,0.027479500000000004,0.191365,0.460025,0.075244,-0.109765,0.12541000000000002,-0.12761,0.4216,-0.026489999999999986,0.05944445,0.19798,-0.180079,-0.11077500000000001,0.12139,0.12920500000000001,-0.09598500000000001,-0.42227000000000003,-0.1705699,-0.0514235,0.11121700000000001,-0.136865,-0.331475,0.20176,0.39534,0.042508000000000004,-0.146983,-0.27781500000000003,0.24466245,-0.350165,0.398215,0.2867375,-0.26373,-0.335991,0.108085,0.021393500000000003,0.785045,-0.40259999999999996,0.11703795,-0.006184999999999996,-0.281,0.003035000000000003,0.1285246,-0.0378105,-0.343895,0.05259,-0.544855,-0.273535,-0.154895,-0.29107,-0.35536,0.334125,-0.058296999999999995,0.02454999999999999,-0.24881649999999997,-0.293905,-0.340845,-0.047582,-0.06683800000000001,0.26071,0.49162500000000003,-0.0886205,-0.29737949999999996,0.303985,-0.2604055,0.372675,-0.15972,0.21398,-0.30213,0.305575,0.078821,-0.138025,-0.014979500000000001,-0.4191745,-0.25976,-0.18875999999999998,0.06465500000000002,0.043464,-0.016125,0.25609,-0.26755,0.15524,-0.25115400000000004,-0.003429999999999999,-0.40789,-0.10404350000000001,0.004395,-0.073473,0.13597700000000001,0.2209595,-0.021154999999999993,-0.11145500000000001,0.25266,-0.02194,0.32904500000000003,-0.319725,0.43202,0.33494,-0.0017325000000000014,-0.08472500000000001,0.1326485,0.1976,0.053506000000000005,0.253585,0.23123500000000002,0.03866725,-0.17759,0.604705,0.507235,-0.23486049999999997,0.007080000000000003,-0.435402,-0.281405,-0.1513225,0.74369,0.351455,-0.42401999999999995,0.14509999999999998,0.66683,0.05249,-0.461615,-0.47685,-0.3619885,0.2322504,0.100935,0.36807500000000004,-0.05245,0.011814999999999999,0.562095,0.22804100000000002,0.5273950000000001,-0.142255,0.132105,0.0553655,0.02767,-0.1658,0.07351500000000001,0.131565,0.217527,-0.3150725,-0.5240165,-0.061405,0.28265,0.351765,-0.507545,0.43955500000000003,0.44506,-0.34725500000000004,-0.09694,0.06845000000000001,0.03100499999999999,-0.27597499999999997,0.176518,0.17574,0.136096,-0.5539799999999999,0.0958754,0.0705205,-0.31877,0.1730165,-0.0896605,0.0023099999999999926,-0.2905,0.08386000000000002,0.3304045,-0.2942595,0.307915,-0.24995,0.602815,-0.252455,-0.158313,-0.44558,-0.149895,0.25178999999999996,-0.084272125,0.27105999999999997,0.33159,0.154126545,0.061676,-0.12175000000000001,0.025975000000000012,0.43618999999999997,0.1946795,0.11413500000000001,0.354195,-0.08705199999999999,-0.54442,0.142195,0.298439,-0.2258325,0.005280000000000007,-0.08033500000000002,-0.32809,-0.1723,-0.1354175,0.13345305000000002,0.48558500000000004,-0.29973,0.09706500000000001,-0.18705,-0.09180350000000001,0.0012899999999999856,0.06134300000000001,-0.45242,0.377105,0.1007455,0.48319999999999996,0.7315100000000001,0.60287,0.1649025,-0.1444055,0.13759705,-0.0771265,0.192695,-0.08882500000000002,-0.154453,0.321645,0.62381,-0.32179,0.28474,-0.565255,0.381145,-0.0451545,-0.27369,-0.034874999999999996,-0.1040615,-0.05221500000000001,0.15822999999999998,-0.030325000000000005,0.41218,-0.434735,-0.20869149999999997,-0.25307,-0.083624,0.45926,-0.2052338,-0.05227000000000001,-0.14723150000000002,0.126515,-0.48558999999999997,-0.17895,-0.224695,0.026540000000000008,-0.585825,0.328585,-0.12028,0.08584,-0.231735,0.14014885000000002,0.40546000000000004,-0.319565,-0.34763,0.04621499999999999,-0.44111500000000003,-0.28524499999999997,0.28725,0.007218000000000002,0.17021999999999998,0.599275,0.954485,-0.430975,0.015710000000000002,-0.401825,0.1170425,-0.08401499999999999,-0.22932999999999998,0.346705,0.058945500000000005,0.14952734999999998,-0.44677,0.18515500000000001,0.082765,-0.33284,-0.048891000000000004,-0.1356966,-0.0913255,-0.3323855,0.6993050000000001,-0.25743,-0.35753500000000005,0.49141,-0.3150505,0.0858335,-0.370355,-0.066905,-0.2941573,0.014925,-0.2344285,0.4657,0.032505000000000006,-0.501525,0.47492999999999996,-0.244305,-0.14798999999999998,0.314695,-0.273905,-0.14159,0.26848,0.10463,0.033714999999999995,0.06435099999999999
lazuli+bunting,0.19483550000000002,0.1405915,0.427345,0.22283,0.218505,0.273085,0.018273499999999998,0.264845,-0.1545745,0.428475,-0.05108500000000002,0.016546,-0.34160500000000005,0.071665,-0.2247,-0.15640500000000002,-0.476935,0.0777401,-0.33713000000000004,0.127977,0.12968999999999997,-0.26344505,-0.31346999999999997,0.0343,-0.0809705,-0.47282,-0.191714,0.525345,0.11083500000000002,0.42615,0.17829,-0.06489,-0.274451,0.5848,0.1906985,0.8428100000000001,-0.714625,0.17876999999999998,0.17194,-0.366705,0.18544,0.2481746,0.372624,-0.466565,-0.07382,0.12589999999999998,-0.29359999999999997,0.362695,-0.015360000000000013,-0.318855,-0.196375,0.182138,0.08657,0.16957350000000002,-0.1358965,-0.488245,-0.3605035,0.029765,0.20038499999999998,0.39515,-0.062420500000000004,-0.01896106,-0.08479999999999999,-0.2481355,0.352385,-0.257265,0.0017699999999999938,-0.33665999999999996,0.380545,0.1063635,-0.744305,-0.046589500000000006,-0.61939,-0.132576,-0.246805,0.65632,0.060227350000000006,0.12034500000000001,0.44107,-0.073965,0.5203099999999999,-0.14066000000000004,-0.20977300000000002,-0.33705,-0.24793500000000002,0.05676825,-0.07577600000000001,-0.028367000000000003,-0.0214455,-0.080225,0.1534015,0.330625,-0.053255,-0.18066500000000002,-0.420695,0.27388,0.134623,0.0208219,0.038489999999999996,0.893435,0.63229,0.235515,0.181045,0.232995,0.09336375000000001,0.21889000000000003,0.671875,0.41478499999999996,0.09173500000000001,0.00469,-0.5771,0.012264999999999998,-0.086995,0.64523,0.1921595,-0.3000275,-0.00822500000000001,0.357225,0.09100950000000001,-0.1789895,-0.34835,-0.15506499999999998,0.176965,-0.004438499999999998,0.460905,-0.38868,-0.47559999999999997,0.66974,0.0028719999999999996,0.051315,-0.46635499999999996,-0.0765715,0.014585999999999998,-0.266865,-0.02834500000000001,0.25595500000000004,-0.33930499999999997,0.40313,0.1240825,-0.2071815,0.249965,0.29467,0.047164999999999985,-0.31349499999999997,0.60908,0.22082000000000002,-0.28858300000000003,0.222665,-0.09132,-0.057203000000000004,-0.1281335,0.130868,0.18966,-0.079999,-0.5680149999999999,-0.051789600000000005,0.0431255,-0.179305,-0.0840485,0.0493175,0.020347999999999998,-0.36531,0.046990000000000004,0.2697745,0.0730755,0.16905475,0.09019999999999999,0.37899499999999997,0.166025,-0.528745,-0.377785,0.198005,0.308435,-0.15771000000000002,0.047875,-0.06101999999999999,0.153612075,0.062445999999999995,-0.030575000000000005,0.029295,0.46332999999999996,0.0779685,0.07838500000000001,0.0017150000000000012,-0.078582,-0.661465,0.17343499999999998,0.290049,0.0767325,0.003729999999999997,0.3659,-0.513825,-0.06810715,-0.11454249999999999,0.216115,0.5302800000000001,-0.28807,0.183532,0.1597437,0.1448315,-0.23276,-0.004744999999999999,-0.43544,0.157992,-0.152395,0.66089,0.75431,0.242545666,0.12897,-0.0261105,0.20778705,0.17568499999999998,0.22641,-0.12213000000000002,-0.326343,0.09347100000000001,0.27375499999999997,-0.44337000000000004,0.30979,-0.44820499999999996,-0.04361999999999999,-0.130604,0.19474,-0.15786499999999998,-0.44197149999999996,-0.36873,0.08726499999999998,0.20002000000000003,0.336295,-0.56763,-0.1761025,-0.241285,0.282821,0.390165,-0.0366163,0.36877000000000004,-0.20644,0.10027900000000001,-0.42433,-0.32443999999999995,-0.130355,0.13171500000000003,-0.18692999999999999,0.37988,0.222605,-0.348065,-0.395515,0.28636,0.10376,-0.04607499999999999,0.06744499999999998,-0.04838500000000001,-0.24828,-0.392525,0.053844999999999976,-0.10047299999999999,0.214395,0.202565,0.600515,0.159175,-0.06916499999999999,-0.12437500000000001,-0.036215,-0.16926999999999998,0.239645,0.709945,0.055965499999999994,0.23410999999999998,-0.629095,0.0358015,0.30749,-0.143525,-0.039293,-0.0585366,-0.39678,-0.17760549999999997,0.313754,-0.41946,-0.7105250000000001,0.23652499999999999,-0.1451955,0.2810635,-0.05814,-0.148427,-0.282095,-0.21728,-0.12643500000000002,0.020240000000000008,0.19784999999999997,-0.45667499999999994,0.17156,0.12023999999999999,0.297715,0.40465,-0.593205,-0.052684499999999995,0.26134,0.202185,0.251765,-0.068539
painted+bunting,0.059261,0.164625,-0.029549999999999993,-0.11687,-0.0171585,0.411965,-0.34362000000000004,0.189803,-0.40237,-0.31142,0.0981005,-0.05613,-0.089755,0.40465,0.03737499999999999,0.161905,-0.03026999999999999,-0.0602749,-0.194275,-0.137228,0.13029,-0.01158999999999999,0.620615,0.1826185,0.014494,-0.44103000000000003,-0.27209,0.08815,-0.045801499999999995,0.34742,0.65213,0.14036999999999997,-0.323396,0.271329,0.03231350000000001,0.787265,-0.5816049999999999,-0.28339000000000003,-0.008895,-0.37795,0.0133635,-0.0458904,-0.18257600000000002,-0.452805,-0.0471,0.04833000000000001,-0.16780699999999998,0.05252999999999999,-0.152985,-0.418615,-0.313605,0.179523,0.29219999999999996,0.1214385,-0.10300500000000001,-0.112136,-0.1845485,-0.07258500000000001,0.33643,0.18909000000000004,0.015114,-0.11910950000000001,0.40464500000000003,-0.1563605,0.428315,-0.572255,-0.07783,-0.6191249999999999,0.523445,-0.3060915,-0.60692,-0.24015799999999998,-0.5635399999999999,-0.1818335,-0.44459,0.305205,0.29141,0.590125,0.197635,-0.34015,-0.063955,-0.35253500000000004,-0.347208,-0.22874,-0.16702050000000002,0.28399325,0.09146500000000002,0.181972,-0.14320549999999999,0.291865,0.45316,-0.012410000000000004,-0.1122725,-0.199135,-0.2381475,0.206405,0.21999,-0.225997,-0.07168000000000001,-0.05054,0.111015,0.064885,0.143075,0.25952,-0.07001625,0.13589,0.31104925,0.32454299999999997,-0.203085,0.018095,-0.5102685,-0.1184975,-0.052210000000000006,0.3705585,0.18470550000000002,-0.27993745,-0.205215,0.6419,0.153485,-0.33096000000000003,-0.33774,-0.468715,0.176365,0.337485,0.16654500000000003,0.003275,-0.35542999999999997,0.355595,-0.0079985,0.53704,-0.198986,-0.021233500000000002,-0.052106,0.08020500000000001,-0.10543999999999998,0.09411000000000001,0.027155,0.49885500000000005,0.1840725,-0.07738149999999999,0.16535,0.539085,-0.11316999999999999,-0.3327,0.22867700000000002,0.42396,-0.16131500000000001,0.098535,-0.076252,-0.170245,0.011150000000000007,0.234573,-0.04911500000000002,-0.240454,-0.433175,0.0611854,-0.1292045,-0.08182500000000001,0.1663365,0.0701745,-0.11293,0.023454999999999976,0.24243800000000001,0.12804949999999998,0.1905155,0.22456500000000001,-0.30074,0.56091,0.20259000000000002,-0.25345,-0.20882,-0.27481,0.128995,-0.101466,0.26456,-0.020985000000000004,0.181054,-0.044294,0.07465250000000001,-0.49322,0.19762999999999997,0.2793745,0.29185,0.202895,-0.085788,-0.8102400000000001,-0.16818149999999998,0.129179,0.2803825,0.322405,0.31048,-0.4372065,-0.07208010000000001,0.06980750000000001,0.196305,0.12069000000000002,0.0007250000000000034,0.4115,-0.02108500000000002,-0.2321885,0.138395,-0.053654999999999994,-0.29687,0.013054999999999983,0.505985,0.22108999999999998,0.52814,0.44542,-0.073685,-0.048523,0.33987205000000004,-0.06334025,0.0966275,-0.699055,0.277837,0.14633200000000002,0.54343,-0.30669,0.172165,-0.378469,0.571675,0.159976,0.029575000000000018,-0.3471,-0.0321215,-0.332175,0.192604,-0.10254915,0.135575,-0.5988,-0.43076,-0.23198999999999997,-0.086449,0.161785,-0.0204303,0.118979,-0.309785,0.0392345,-0.5629500000000001,-0.201335,-0.164035,-0.207972,-0.36680500000000005,0.407855,-0.10558499999999998,-0.103128,-0.230905,-0.19737999999999997,0.130636,0.15732000000000002,-0.2263,-0.107125,0.18002500000000002,-0.27325,0.8444400000000001,-0.079488,0.34353999999999996,0.164413,0.50287,0.006680000000000019,-0.005684999999999996,-0.23095500000000002,0.39837,0.0812745,0.14348,0.11425,-0.1401795,0.009484999999999993,-0.550575,-0.05381,0.210795,-0.13345,0.109579,-0.0623616,-0.142086,0.1235895,-0.15972000000000003,-0.44212,-0.42083000000000004,-0.053669999999999995,0.0851445,-0.1064615,-0.079285,-0.086495,-0.19810499999999998,0.25166499999999997,-0.19637500000000002,0.3328,0.018504999999999994,-0.322775,0.248466,-0.07231800000000001,0.0686095,0.22392,-0.40002499999999996,-0.170155,0.7238450000000001,0.36234500000000003,0.1049373,0.040271
cardinal,-0.24603,0.313,-0.11443,-0.41947,-0.081996,0.31588,-0.65767,-0.11996,-0.14544,-0.91662,-0.76039,0.1726,-0.51983,0.042233,-0.20162,-0.01535,-0.16552,-0.96571,0.27559,-0.99977,-0.41334,0.46299,0.012328,-0.50959,0.2707,-0.43169,-0.4949,0.14892,0.1892,-0.59163,-0.10128,0.40991,-0.71629,0.62514,-0.205,0.10725,0.19825,-0.53361,-0.042634,0.19403,0.46086,-0.75246,-0.28087,0.83671,-0.79117,0.43463,0.41942,0.54719,-0.40383,-0.080007,-0.25979,0.56969,0.18136,0.52531,-0.24521,0.14008,0.15768,0.609,-0.17345,0.18317,-0.16665,0.045091,-0.30942,0.97127,-0.051853,-0.61892,-0.31741,0.080058,-0.42234,-0.061303,0.0042656,0.045353,-0.47322,-0.0081666,-0.037422,0.061927,0.17693,0.485,-0.069826,-0.46783,-0.15713,-0.2516,-0.69409,0.29864,-0.36578,0.63393,0.15735,-0.38942,-0.12679,-0.27795,0.14557,-0.041136,-0.51921,-0.44451,-0.35862,-0.40801,0.28353,-0.042293,-0.6946,-0.086119,0.48675,-0.095197,0.048324,0.61348,0.023143,-0.039491,-0.74568,-0.029504,-0.18567,0.2928,-0.1346,0.11808,0.061128,0.1314,-0.21021,-0.10793,-0.031645,-0.94483,0.2236,-0.53799,-0.0077499,0.0069121,0.41093,-0.19304,0.15823,-0.46464,0.62855,0.202,-0.66364,0.21099,0.29841,-0.64589,-0.21306,0.68999,0.57273,-0.20627,-0.10376,-0.55765,-0.2535,-0.33431,0.01987,0.30523,-0.63419,0.40271,0.11232,-0.13021,-0.27836,-0.60151,-0.67361,-0.5398,0.64812,0.37962,-0.2531,0.23648,0.38693,-0.19965,0.59654,-0.49959,-0.2382,-0.72701,-0.1854,-0.084048,0.55518,-0.31005,-0.60809,0.19064,0.24663,0.39575,0.069068,-0.23695,-0.042436,-0.39283,-0.73382,0.16622,-0.29913,-0.094247,1.056,0.83081,0.12343,0.28814,0.60963,0.54867,-0.35892,0.14182,-0.67153,-0.19763,-1.1329,0.16176,-0.69998,0.51001,0.21547,-0.70624,0.23619,-0.060628,-0.79616,-0.4769,-0.02168,0.33991,0.49543,0.25256,-0.08329,0.35664,-0.48722,-0.17065,-0.34739,0.37811,-1.0234,0.39791,0.14426,0.34584,0.72785,0.707,0.32648,-0.46728,0.14702,0.14848,0.26488,-0.89049,0.1542,-0.23425,-0.16187,-0.28308,-0.30194,0.35149,-0.20587,-0.066768,0.47392,0.063293,0.01533,0.50122,-0.023368,0.46573,0.69122,0.1254,-0.46837,-0.28964,0.26694,0.48336,-0.30211,0.37938,-0.94918,-0.37105,-0.30028,-0.25886,0.44468,0.032871,-0.39924,-0.71943,-0.064331,-0.3517,-0.16706,0.5849,0.055699,0.14,0.77233,-0.3909,0.70097,-0.74429,0.10679,-0.79158,-0.75336,0.27297,0.53603,0.17305,0.017692,-0.61742,-0.56564,0.085276,-0.56805,0.33828,-0.60213,-0.34085,0.053079,-0.031173,-0.2656,0.27356,-0.43725,-0.30746,0.12165,0.15625,0.99667,-0.011832,0.98274,0.43753,-0.56994,0.73696,-0.71895,-0.33757,0.36114,-0.056681,-0.15799,0.47422,0.7573,0.80346,0.40576,-0.55991,-0.42003,-0.75157,-0.33516,0.26938
spotted+catbird,0.151905,0.141185,-0.014259999999999995,0.32153,-0.0005749999999999922,-0.457725,0.11362449999999999,0.249515,-0.0255682,0.05643000000000001,-0.030796499999999997,0.07714750000000001,0.28808700000000004,0.144245,-0.269591,-0.028675000000000006,0.24851499999999999,-0.08426000000000002,-0.70448,-0.15710000000000002,0.105575,0.62932,-0.0202153,-0.19945000000000002,-0.356,-0.67154,0.1051575,-0.061770000000000005,0.1388265,0.2718435,0.147455,-0.46326500000000004,-0.35397399999999996,-0.07057,0.25787000000000004,0.0849,-0.37766500000000003,-0.1402785,-0.30257500000000004,0.153741,-0.17607165,-0.09711000000000002,0.19649,0.228225,-0.12744499999999997,0.03815175,0.251625,0.100895,0.025174999999999975,0.018899999999999993,-0.055218500000000004,-0.608795,0.19574000000000003,-0.265913,-0.011869999999999992,-0.0257,-0.07272499999999998,-0.41366,0.11912500000000001,0.1366735,-0.436635,-0.006885000000000002,0.0025499999999999967,0.4376315,0.205945,0.31327299999999997,-0.237755,0.190555,0.07728439999999999,0.07718999999999998,0.012970999999999998,0.212455,0.03180000000000001,0.191135,-0.75831,0.2362725,-0.390725,0.15178000000000003,0.575435,-0.220695,-0.18067,0.43303,-0.244645,0.546515,0.293815,-0.1825164,0.0511205,0.10727499999999998,-0.274105,-0.35808,0.290905,-0.07927499999999998,-0.16672,0.75928,-0.22744999999999999,0.46687999999999996,-0.234925,0.14254,-0.28155,0.539215,0.186937,0.562395,0.0910829,0.11571999999999999,-0.1586825,0.1841615,0.2970115,0.1847535,0.312315,0.11371999999999999,0.12340500000000001,0.46447,0.03261,0.200794,0.51561,0.013474999999999987,-0.08998700000000001,0.05503000000000001,-0.150035,-0.19273,-0.11877,-0.57046,0.23339585,0.099054,-0.017969999999999986,-0.1780919,0.1553725,-0.12422899999999999,0.66954,-0.368485,-0.33837,-0.42634,-0.217915,0.34345000000000003,-0.0042730000000000025,-0.020955,0.054794999999999996,-0.09891350000000002,-0.73678,-0.102386,-0.04149,0.46182,0.12465000000000001,0.07238500000000002,-0.1770005,-0.18044,0.17320000000000002,-0.17686000000000002,-0.1347505,-0.35746500000000003,-0.251005,0.39226,0.243805,-0.075709,0.019709999999999978,-0.816775,0.1926945,0.050242,0.20686,0.298971,-0.6352800000000001,-0.332962,-0.013114999999999988,0.017001499999999996,0.007000000000000006,-0.375735,-0.188825,0.256546,-0.11961499999999999,-0.03949,-0.0223885,-0.121615,0.5028600000000001,-0.065047,0.11871749999999999,-0.29188000000000003,-0.101505,0.337569,0.1703525,-0.66581,0.391945,-0.217305,0.2999225,0.030295000000000002,0.09769235000000001,-0.44888500000000003,0.51657255,0.029214999999999998,0.0565505,-0.40975,-0.046845,0.318305,0.028310000000000002,-0.16523,-0.23392149999999998,0.24155500000000002,0.0433704,0.22548999999999997,-0.28890000000000005,0.055902,0.264938,0.020220000000000002,-0.07952,-0.0292155,0.18478499999999998,0.143045,0.02959045,-0.0642105,0.0679902,0.29113500000000003,0.2200365,-0.0995635,-0.356395,-0.1908195,0.59775,-0.504765,-0.12039500000000003,0.32271,0.014264500000000001,-0.0950595,0.21844999999999998,-0.0915015,0.1559985,-0.027865,0.42657,0.530075,0.39798999999999995,-0.05782499999999996,0.2738815,0.02715999999999999,0.17695899999999998,0.06277350000000001,-0.15073,0.1935215,0.1035605,0.036004,-0.0774505,0.166348,-0.054457000000000005,0.22594999999999998,0.164515,-0.04828500000000001,-0.44146,0.3384435,0.19871499999999997,0.39207499999999995,0.2290545,-0.350525,-0.058339999999999996,0.16726999999999997,-0.32238500000000003,-0.032577499999999995,-0.252725,0.037402,0.12602000000000002,0.21256899999999998,0.1602555,0.34016349999999995,-0.1370905,-0.291455,0.08541,0.07725,0.5017575,0.050159999999999996,-0.225194,0.0875206,0.131875,-0.0328605,-0.49007,-0.083827,0.018880000000000008,-0.47792499999999993,0.043539999999999995,-0.26186,-0.02105499999999999,-0.161255,-0.22456499999999996,0.38732999999999995,-0.474185,0.12505455,-0.531855,0.23747949999999998,0.15559,0.042919999999999986,-0.634165,0.351495,-0.0038499999999999923,-0.0035600000000000007,-0.009089999999999987,-0.0466755,0.1349285,0.248292,0.39601000000000003,-0.0021059999999999994,-0.453785,-0.165305,-0.2305565,0.210605,0.0650511,-0.09515000000000001
gray+catbird,0.11543500000000001,-0.14467000000000002,0.10756990000000001,-0.06724,-0.004784999999999984,-0.395465,-0.0305205,0.194565,0.0083363,-0.024414999999999992,0.074815,0.032766,0.41822000000000004,0.2504,-0.36388,-0.18955349999999999,0.073574,-0.1805,-0.60523,-0.08274999999999999,0.07125000000000001,0.56653,0.125751,0.126475,-0.528235,-0.62601,0.36415,-0.007849999999999996,0.19075999999999999,5.4499999999998994e-05,0.132882,-0.103115,-0.45155,-0.36724,0.08429000000000003,0.515105,0.0040150000000000186,-0.250935,-0.262225,-0.171014,-0.1642165,0.22043000000000001,0.16589,0.01303,0.260795,-0.18930375,-0.229865,-0.28967,0.1524535,-0.3024,-0.029019999999999997,-0.24083499999999997,0.22182000000000002,-0.28307,0.34272,-0.02681499999999999,0.04872499999999999,-0.39544,-0.13868,-0.1708015,-0.18886999999999998,-0.126885,-0.14881499999999998,0.20554,0.0723965,0.038229999999999986,-0.22805999999999998,0.342525,0.32444,0.189545,0.182277,0.03793500000000001,0.079739,0.245965,-0.6486799999999999,0.0691275,-0.72227,0.24306499999999998,0.5908500000000001,-0.527645,0.030149999999999996,0.47731,-0.310245,0.47841500000000003,0.14286500000000002,0.2229736,0.35158999999999996,0.452335,-0.2139185,-0.33370500000000003,0.265625,0.044575000000000004,-0.129785,0.6619649999999999,-0.252015,0.641965,0.021285,0.48168999999999995,-0.11741000000000001,0.82689,0.36884,0.11887,0.046311,0.26033,-0.2803475,0.23902,0.07205149999999999,0.252503,-0.017625000000000002,-0.09343,0.19964500000000002,0.20335999999999999,-0.183175,0.209344,0.34449,-0.29381999999999997,-0.194615,0.15419500000000003,-0.347985,-0.512945,-0.128165,-0.22990850000000002,0.18477,0.2870205,0.169525,-0.204148,0.12191949999999999,-0.0711975,0.24611499999999997,-0.31138,-0.236545,-0.323985,-0.32563,0.22154000000000001,0.1143505,-0.11284,-0.334625,0.1453665,-0.42776000000000003,-0.19737000000000002,0.23893,0.599775,0.1718715,0.09394500000000001,-0.16556549999999998,0.029979999999999993,0.1463565,-0.297964,-0.021325500000000004,-0.289545,0.07986500000000002,0.123302,0.089175,-0.36064999999999997,0.01405999999999999,-0.89576,0.037803500000000004,-0.420354,0.2772,0.250116,-0.8494600000000001,-0.12204700000000002,0.133235,0.0346865,-0.316825,-0.16799999999999998,-0.26881,0.327391,-0.07063499999999999,0.040411,-0.1108335,0.307875,0.060945000000000006,-0.0353955,0.144862,-0.1999765,0.20464500000000002,0.48167000000000004,0.064005,-0.6709099999999999,0.44639999999999996,0.13748,0.425715,-0.010819999999999996,-0.11741765000000001,-0.365165,0.6587449999999999,-0.11728949999999999,-0.2556445,-0.008600000000000024,0.06895000000000001,0.29454,0.04171,0.01851395,-0.08850999999999998,0.19901500000000003,-0.025607599999999998,0.5768249999999999,-0.45276000000000005,-0.05810000000000001,0.5199779999999999,-0.07898499999999999,0.142525,-0.0857405,0.201185,0.08893,0.06876045,0.09823950000000001,-0.35158480000000003,-0.07996499999999998,0.2567515,0.024455675000000003,-0.24163,-0.1474645,0.48607500000000003,-0.12235,0.18282499999999996,0.026334999999999997,0.1235275,-0.514535,0.0009750000000000036,-0.1018225,0.2474335,0.32778,0.38306,0.47511,0.43768999999999997,0.2279875,0.344425,-0.28492,0.141924,0.053658500000000005,-0.08620275,0.26211,-0.059285000000000004,0.0610005,-0.027211199999999998,0.10472300000000001,-0.2753215,0.279115,0.024225500000000004,-0.327865,-0.298685,0.408535,-0.24318500000000004,0.331755,0.0349825,-0.70336,0.0004600000000000021,-0.076263,-0.401305,0.03752,-0.11319900000000001,-0.082913,0.06112000000000001,0.20487799999999998,0.38743,0.51289,0.2027745,-0.3835865,0.10558,-0.03574000000000001,0.68837,0.181445,-0.086864,0.1705106,0.36122,-0.14910500000000002,-0.326025,-0.102328,-0.31926,-0.460205,-0.19133,-0.414145,-0.43817,-0.06680000000000003,-0.061429999999999985,0.33552,-0.27332,0.306635,-0.407645,0.1597545,0.032725000000000004,0.1688165,-0.55042,0.39312499999999995,-0.15668999999999997,0.12741999999999998,-0.17442,0.047404,0.28162,0.5577000000000001,0.5057975,0.366107,-0.2078395,-0.08309,-0.052205,0.35684499999999997,0.19167499999999998,0.456985
yellow+breasted+chat,-0.69873275,0.042389750000000004,0.261155,-0.22207029500000003,-0.100751,0.2229525,-0.1090775,-0.39813000000000004,0.34438925,-0.3638525,-0.1178145,-0.15905750000000002,-0.39144599999999996,-0.01783499999999999,0.37163,0.13473025,-0.12203249999999999,0.09179225000000002,-0.012025500000000001,0.15350025,-0.1801575,0.06836250000000002,0.26676500000000003,0.11545625000000001,-0.3721325,-0.5923675,0.5645825,-0.08477124999999999,0.09288149999999999,0.0723925,-0.09482525,-0.41994425,0.17388849999999997,-0.23547000000000004,-0.45057500000000006,0.3788325,-0.12492899999999998,-0.3372625,-0.04949999999999999,-0.05854999999999999,-0.1324024,0.31458775,0.1406475,0.26097575,0.10325100000000001,0.11668,0.6097275,-0.181421,-0.3804725,-0.33897750000000004,-0.1091375,0.121641,0.270814,-0.32052250000000004,0.1193475,0.15684325,-0.2070425,-0.5383375,-0.027412500000000006,-0.1407175,0.018175250000000004,-0.2497264175,-0.22804000000000002,0.04547250000000001,-0.11265719999999999,-0.295435,0.405556,0.4773425,-0.12966525,-0.1899675,-0.10433499999999998,0.025279165000000003,-0.21846749999999998,0.1530745,0.13222,0.23945299999999997,0.07591724999999999,0.19017325,0.231705,-0.43126675000000003,-0.03474,0.1446725,-0.129465,-0.28162750000000003,0.2847225,0.171483,-0.2870747,-0.09669125,0.247058,-0.21715375000000003,-0.24104000000000003,0.18984942500000002,0.20331000000000002,0.1177725,0.1841525,0.2830335,0.3656875,0.21553705,0.40931225,-0.25946749999999996,0.189725,0.0455875,-0.0798925,0.24294,-0.105735,0.198828,-0.021427500000000002,-0.02316350000000001,-0.21992999999999996,0.057652499999999995,-0.38248000000000004,0.11861999999999999,-0.02534750000000001,-0.20814249999999998,0.0807158,-0.077886,-0.037904499999999994,0.62437,-0.07288952500000001,-0.1380325,-0.433155,-0.225696,0.46554249999999997,-0.16218499999999997,-0.3341825,0.055025000000000004,-0.18719675,0.3407825,0.26570275,-0.44171475,-0.03957574999999999,-0.09780875,-0.747922,-0.026914999999999994,0.048583000000000015,-0.18349025000000002,0.04867004999999999,-0.01599499999999999,-0.198765,0.31749499999999997,-0.08250775000000002,-0.055120000000000016,-0.000454000000000003,-0.46643,-0.24931750000000003,0.14179399999999998,0.050714499999999996,-0.0015547500000000214,0.18174300000000002,0.113388,-0.10903,0.041215,0.0382175,0.35306899999999997,0.009337499999999999,-0.1665025,0.30611,-0.14198500000000003,0.08350275,-0.009742500000000001,-0.17629525,0.021992500000000012,0.07507,-0.061571000000000015,-0.178367,0.27728949999999997,-0.3489675,0.6147275,0.1902935,-0.0410655,-0.46545225,0.08974249999999999,-0.5192775,0.05993949999999999,-0.09230474999999999,-0.50911,-0.1162975,0.2765875,0.11174325,-0.28650749999999997,-0.04525500000000001,0.01146875,-0.0867,0.017627000000000004,-0.4313175,-0.4106675,0.5130025,0.3481825,-0.134239675,-0.18058749999999998,0.0215775,0.0641005,-0.2521761225,0.054201250000000006,0.367029,-0.057562,-0.131994,0.25838525,-0.4159225,-0.4367025,0.4031275,-0.118495,0.08788,0.25855,0.46272250000000004,-0.2814175,-0.2693625,-0.10188024999999998,-0.3645775,0.062669,0.05884725,-0.4852375,0.2449025,-0.1360875,0.14282250000000002,0.110817,0.1267625,-0.24695649999999997,-0.034358,0.1114425,0.1572865,0.12817499999999998,-0.08884249999999999,-0.2200585,0.0377325,-0.010072500000000012,0.016550750000000003,-0.2098935,-0.1253105,0.09883499999999999,-0.3004,-0.2317975,-0.3422445,0.18342500000000003,0.53228,-0.083596275,-0.1656575,0.10457425000000001,-0.47165025,-0.04439499999999999,0.10808999999999999,0.03800049999999999,-0.1195725,0.24687150000000002,0.19907249999999999,0.29119,-0.1870675,-0.3092925,-0.12181825,0.028315999999999994,0.15551475,0.004959999999999992,0.047284,-0.2368275,-0.05677475000000001,0.10402875,0.21214100000000002,-0.12490000000000001,0.26398,0.06262474999999999,0.1947845,-0.3435275,0.263715,0.12017499999999998,-0.5391175,-0.051689250000000006,-0.35644750000000003,-0.07337450000000001,0.087695,0.2165015,-0.19454000000000002,-0.1911875,0.1206825,-0.04126249999999998,-0.1715625,-0.140302425,-0.6848624999999999,-0.012770000000000004,-0.315176,-0.035259,-0.17850749999999999,0.070736,-0.2167275,-0.07155500000000001,0.07947575000000001,0.068303,0.029177999999999996,0.187863,-0.03823075,0.01535075000000001,-0.02833250000000001,0.15109125,-0.8303149999999999,0.0322325,-0.4905525,-0.5642745,0.22690249999999998,0.304565,0.25539749999999994,-0.02763249999999999
eastern+towhee,0.1270955,0.16549850000000002,-0.134811,0.259455,-0.260735,0.030354999999999993,0.0915135,0.63215,0.571345,-0.364875,-0.710815,0.594895,-0.02031999999999999,0.264775,0.2833155,0.12965500000000002,-0.014644999999999998,0.22019000000000002,-0.057984999999999995,-0.1433365,0.29080100000000003,-0.12977,0.32694350000000005,-0.028859999999999983,0.11721,-0.0193625,0.203875,-0.0067929,-0.07834500000000003,0.05749,-0.010734999999999995,-0.1453015,0.085653,0.24817,0.0696775,0.587075,0.076768,0.010524000000000002,-0.227586,-0.08491915000000001,0.15539,-0.5199849999999999,-0.01165999999999999,-0.098358,-0.02225499999999997,0.1838655,0.59292,-0.200805,-0.2177265,-0.159145,0.434265,0.05061499999999999,-0.20886000000000002,-0.39866,0.0464285,-0.320181,-0.06559500000000001,-0.128732,0.5622149999999999,0.12783,-0.526735,-0.17089100000000002,0.1136848,-0.15654500000000002,-0.27536,0.0315281,-0.482375,0.359745,0.121525,0.2860755,0.05486500000000001,-0.164925,-0.101675,0.06952,-0.6981900000000001,0.4330865,-0.1623417,0.1758168,0.42295499999999997,0.083532,0.28697,0.16767185,-0.19397135,-0.2122925,0.1464,-0.357155,0.166467,-0.07600599999999999,0.20919500000000002,-0.08044000000000001,-0.016962,0.050352499999999994,0.053500000000000006,0.42162,-0.76144,-0.14531499999999997,0.51071,-0.63088,-0.555895,0.49878500000000003,0.446745,0.46196000000000004,0.330125,0.31505500000000003,0.49755000000000005,-0.23757499999999998,0.13811500000000002,0.059854,0.577115,0.10364500000000001,-0.249385,-0.40961499999999995,0.245379,0.31513,0.42566,-0.06901395,0.170665,-0.090045,0.13019,0.1295975,0.14148,-0.25966999999999996,-0.33035,7.000000000000062e-05,-0.12982,0.49804499999999996,-0.0888345,-0.0495145,0.46203500000000003,-0.257985,-0.120483,0.10986299999999999,-0.053635,0.56167,0.17163299999999998,-0.480095,-0.19495,-0.0478895,-0.194925,-0.10300999999999999,-0.195375,-0.2497,-0.40793,-0.0731595,-0.22424149999999998,0.0442715,-0.054565,-0.5451349999999999,-0.22950500000000001,0.2133405,0.454947,-0.121574,0.21689999999999998,-0.224915,0.015520000000000034,-0.10752049999999999,0.277767,0.172654,0.286325,0.276285,0.0023299999999999987,-0.013740000000000002,0.1989095,0.432645,-0.07304,0.48287,-0.022947999999999996,-0.45432,-0.7217800000000001,-0.7487349999999999,0.197465,-0.2767075,0.321675,0.499735,0.06708499999999999,0.34772000000000003,0.489305,0.09358999999999999,-0.15242650000000002,-0.48913549999999995,0.19267499999999999,-0.32384650000000004,-0.08388,-0.125405,0.49744499999999997,0.154307,-0.12023499999999998,-0.015310000000000018,-0.679365,-0.1751445,0.211665,0.27581849999999997,-0.096391,-0.221485,0.2649955,-0.2041,-0.0030849999999999905,-0.67526,-0.07388499999999999,0.48283000000000004,-0.013349999999999973,-0.349045,-0.602695,0.022895999999999993,-0.48897999999999997,0.40123,-0.523155,0.05380499999999999,0.5250699999999999,0.43176200000000003,-0.385235,0.32409750000000004,0.07131000000000001,0.015919,-0.00037249999999999783,-0.181125,-0.33652000000000004,-0.157785,0.27688050000000003,-0.203699,0.38913,0.426851,-0.453885,-0.17084500000000002,-0.1026,0.203168,0.042911,-0.28147500000000003,0.09160299999999999,-0.27044999999999997,0.09937599999999999,0.015555,-0.1796,0.440295,-0.030119499999999994,-0.529435,-0.19479449999999998,-0.014307499999999994,-0.11910950000000001,-0.15067,-0.42113999999999996,0.54904,0.33302,0.18198,0.20213584999999998,0.21425699999999998,-0.014372000000000001,0.398305,-0.1368595,-0.031727000000000005,-0.269565,0.781115,0.11472999999999998,0.387175,-0.17434,0.2086705,0.42553,0.35544,-0.103245,0.334815,-0.053854,0.188265,0.127961,0.05773499999999998,-0.198713,-0.426405,0.0829695,-0.1099765,-0.23596999999999996,0.1188355,0.025935999999999994,-0.613165,0.029905,-0.112882,0.29591500000000004,0.46613499999999997,-0.40756499999999996,0.308105,-0.101595,-0.06916499999999998,0.142235,0.19899,-0.15617999999999999,0.15078499999999997,-0.3305676,0.007370000000000015,0.16562500000000002,0.057717000000000004,-0.31744750000000005,0.018120000000000004,0.0094665,-0.33046,0.30774,0.7122799999999999,0.334675,0.502885,0.21079,-0.65354,0.30219,0.075272
chuck+will+widow,-0.45067,-0.139558925,-0.10624645,-0.13234125,0.1968025,0.1537115,0.01408595,-0.159295,0.02838249999999999,-0.4608495,-0.085504,-0.5926325,0.06644675,-0.17370750000000001,-0.052133250000000006,0.1043895,-0.014064999999999994,-0.134985,0.10119725,-0.1464805,0.11499124999999999,0.42254,0.04420049999999998,-0.1206925,0.06967324999999999,0.1455075,-0.075169,0.17462,-0.05204,-0.14711675,-0.18696749999999998,0.44746,0.26396149999999996,-0.075307,-0.67845,-0.10296749999999999,0.27692374999999997,-0.19256,0.0967215,-0.15551949999999998,0.32143700000000003,0.1119975,-0.03242249999999999,0.32824475,-0.014259999999999995,-0.15860000000000002,0.23622674999999999,0.051887499999999996,-0.28661,-0.13260775,0.0894235,-0.003175000000000011,-0.15359099999999998,-0.0450155,-0.06848675000000001,0.11283500000000002,0.011102749999999998,0.1080875,0.21642250000000002,-0.5681025000000001,-0.06205025,-0.102683,0.174871,0.1958835,0.1370955,-0.5171250000000001,0.220325,-0.4684825,-0.007569000000000006,-0.05809175,-0.004637500000000003,-0.284455,0.03248250000000002,0.39941499999999996,0.066665,-0.0544755,-0.05464074999999999,-0.14586912500000002,-0.188012,-0.08590799999999998,-0.24866749999999999,0.385803,0.15423974999999998,0.11378999999999999,-0.02631,-0.00918575,0.3296325,0.257731,-0.1217625,-0.18963999999999998,-0.04366500000000001,-0.02398625,-0.247332,-0.027672749999999968,-0.1040175,-0.07558849999999999,-0.2357655,-0.0679945,0.1995675,-0.05036922499999999,0.2067725,-0.12172250000000001,-0.22557550000000004,-0.03688250000000001,0.026162499999999998,0.1850075,0.259335,-0.2631875,0.222605,-0.509803665,0.1709545,0.42975735000000004,0.2082675,0.0020620000000000013,0.1530075,0.15174750000000004,0.025834999999999997,0.13853749999999998,0.379425,-0.29594,0.010790000000000008,0.436425,-0.1362805,-0.3312175,0.09897575,-0.05117755000000001,0.36887499999999995,-0.12958250000000002,0.140955,-0.06061,-0.085852,0.3030575,-0.11943275,0.136565,0.09245199999999999,-0.27754799999999996,-0.211805325,-0.04427075,-0.13034825000000003,0.1227085,0.2571135,0.08831925,0.0603745,0.214204,-0.1945105,-0.070981,-0.15638200000000002,0.09985725000000001,-0.060107499999999994,-0.04215724999999999,0.0128225,-0.21475775,0.22353250000000002,0.045932500000000015,0.28257215,0.15399999999999997,0.0630225,-0.20021075,0.2329125,-0.20862725,0.04411319999999999,0.019814250000000005,0.472541,0.3939842,-0.11987475000000002,0.04555200000000001,-0.04125849999999999,0.0297115,-0.263445,-0.03254750000000001,-0.08411249999999999,0.26079250000000004,-0.29563675,-0.1981655,-0.37041674999999996,-0.10398,0.03157025000000001,-0.152734375,0.21851225,0.3381275,0.41187399999999996,0.5218975,0.0663975,0.1304575,-0.19437225,0.11338000000000001,-0.5989225,-0.147595,-0.17579250000000002,0.2612775,-0.0614625,0.06773250000000001,-0.1497075,0.05104749999999998,-0.02886749999999999,0.3235675,0.1442545,0.013558500000000001,0.32064750000000003,-0.303775,1.0053349999999999,-0.028318999999999997,0.28132599999999996,0.24099500000000004,0.49970575000000006,-0.2008255,0.09216499999999998,0.09872250000000002,0.15476499999999999,-0.2013725,0.269405,-0.43233,0.06539500000000001,-0.29822424999999997,0.021150000000000002,-0.05088325,0.06416575000000001,-0.05677749999999998,-0.012117999999999993,-0.14155600000000002,-0.17168750000000002,-0.01192399999999999,0.015857750000000004,-0.023657499999999998,-0.28679625,0.25490999999999997,0.21356275000000002,0.19282000000000002,0.023599999999999996,-0.07855949999999999,-0.07133275,-0.186919,-0.015187499999999993,0.10580999999999999,0.0241462375,0.16802,-0.051120250000000006,0.29071,-0.025050249999999996,0.0153815,-0.14465725000000001,-0.144355,0.2835975,-0.0508125,-0.18641275000000002,0.25869825,-0.032210000000000016,-0.495385,0.17593050000000002,-0.14050675,-0.022754999999999997,0.14977815,-0.22326000000000001,0.15990175,0.68008825,-0.09977725000000001,0.41548799999999997,-0.09998699999999999,0.364375,-0.2493479,0.13660375,-0.181805,0.241765,0.2295134,-0.0994025,0.05110999999999999,-0.014905249999999998,0.29964,0.2465975,0.0780755,0.0979925,-0.230535,0.2391575,-0.05811849999999999,-0.1014341,0.19490375,-1.0368075,-0.28584750000000003,0.2824,-0.1494275,-0.1466165,0.212368,0.389399,-0.1085475,-0.34376625,0.12264125000000001,-0.08182999999999999,0.23685250000000002,-0.1885345,-0.13477875,0.2290895,-0.097557,0.42920375,-0.1345975,-0.5395224999999999,-0.00885349999999999,0.21170312500000002,0.11014249999999999,-0.15970600000000001,0.35210575
brandt+cormorant,0.229105,-0.04923435,0.1923545,0.07735,0.232515,0.364613,-0.717275,-0.011595000000000001,-0.137945,0.30096,-0.161942,-0.2278765,-0.087345,0.39851000000000003,0.03293500000000002,0.14858185000000002,-0.281965,0.0133185,-0.07499999999999998,0.05887499999999998,0.482295,0.08026000000000001,-0.1770125,-0.353105,0.42539249999999995,0.157043,-0.016199999999999992,0.160825,0.309317,0.275535,-0.263797,-0.1032585,-0.339067,0.0463295,0.49034500000000003,-0.13535,0.35238,-0.05948500000000001,-0.458665,0.20210050000000002,-0.430635,0.22955,0.54257,-0.372965,-0.37992,0.118627,0.436089,-0.29374,-0.53558,-0.588295,0.421555,-0.49490500000000004,0.141122,0.137505,0.022995,-0.33340000000000003,-0.2113,-0.017259999999999998,-0.029245,-0.002714999999999995,-0.11845999999999998,0.0021659999999999943,0.495725,-0.12780999999999998,0.50203,-0.19268000000000002,-0.037820000000000006,0.257149,-0.1026725,-0.419395,-0.0460935,0.06996350000000001,-0.3292875,0.19659500000000002,-0.24357,0.24022999999999997,-0.581455,0.442295,0.178439,-0.052268,-0.053539500000000004,0.332895,0.175234,0.12999000000000002,0.513355,-0.29625500000000005,0.26165,0.35017,-0.24321299999999998,-0.45201,0.151133,-0.268375,-0.006940000000000002,0.284615,0.19077349999999998,-0.026087000000000003,0.31259,0.28776,-0.34652000000000005,0.288907,0.18795,-0.04319499999999998,-0.21903,0.058279999999999985,0.35853999999999997,-0.24928999999999998,-0.47031500000000004,-0.31679,-0.18296,-0.17946499999999999,-0.2953655,-0.12141000000000002,-0.17851999999999998,-0.48678,0.199335,0.003679999999999961,-0.05532500000000001,0.047300000000000036,-0.021390000000000006,0.293261,0.27113,0.2518,0.35053,0.150425,0.63496,-0.15167499999999998,0.41859,0.12424049999999999,0.049793,0.023629999999999984,-0.4302,-0.04105600000000001,0.172708,-0.37818575,0.215285,-0.27336350000000004,-0.15477000000000002,-0.1638895,0.017445000000000002,0.31876499999999997,-0.22221,-0.165746,-0.06542999999999999,-0.33730849999999996,0.24321500000000001,-0.024947499999999997,0.526735,0.266013,0.17072500000000002,0.0021999999999999797,-0.42566000000000004,0.20754999999999998,-0.03055525,0.15032949999999998,0.038165,0.248913,0.10591499999999998,-0.496575,-0.45365,-0.35292999999999997,-0.27407050000000005,-0.204717,0.16373000000000001,0.209125,-0.438525,0.374465,0.1211,0.55891,-0.006964999999999999,-0.13904899999999998,-0.07985499999999998,0.286585,-0.1440975,-0.091005,-0.263525,-0.154895,-0.0646099,-0.223835,0.183025,-0.0325375,0.30078,0.378095,-0.38358,0.15860549999999998,-0.20634,-0.49177,-0.11725500000000001,-0.10399,0.0729855,0.385725,-0.159695,0.161023,0.26693,-0.115535,0.03518000000000002,0.21899,0.503385,0.314295,0.45568,-0.11102,-0.10292599999999999,-0.43813,-0.676945,0.020411,-0.049345,-0.03895499999999999,0.33162766499999996,-0.0756925,0.035318,0.32613000000000003,0.09793049999999999,-0.1990923,0.19684000000000001,-0.597165,0.054675,0.044985000000000025,-0.354878,0.14804250000000002,0.09979149999999999,-0.20501399999999997,0.006755000000000004,0.13177650000000002,-0.13561499999999999,-0.55505,-0.004029999999999992,-0.04594999999999999,0.296335,-0.6818599999999999,-0.053537999999999995,-0.10134399999999999,0.11692500000000002,-0.023195000000000007,-0.3541085,0.3492885,-0.20358300000000001,-0.29107500000000003,0.16339599999999999,0.265045,-0.00526365,-0.084195,-0.196258,0.32215,-0.10006499999999999,0.170205,0.0513895,0.0786345,-0.32616,-0.43598,0.22087,0.0588095,-0.18203850000000002,0.277955,0.004025000000000001,-0.03601499999999999,-0.23757899999999998,0.15246061,-0.15608000000000002,-0.129325,0.404495,-0.27537500000000004,-0.154172,0.28674,-0.2649495,-0.0532575,-0.2124625,-0.088503,0.20243,0.02639000000000001,-0.50415,0.10017500000000001,-0.44035,-0.0769,0.26012,-0.071808,0.48424,0.0945455,0.67294,0.3932205,-0.42413500000000004,-0.1392765,0.1644365,0.537245,-0.30928,-0.06439650000000001,-0.341,-0.35042235000000005,-0.25153499999999995,0.145665,0.030834999999999987,0.017620000000000025,-0.12056999999999998,-0.08614999999999999,0.065925,0.0855355,-0.49557700000000005,-0.421615,0.222,0.19982,-0.0810155,-0.61695
red+faced+cormorant,0.3734655,0.00694015,0.42218,-0.35798,0.1755324,0.2237,-0.20773375,0.11173925,-0.2625225,-0.26657,0.144258,-0.26505,-0.10038749999999999,0.40603750000000005,0.31443,0.04572250000000001,-0.6555500000000001,-0.012416749999999999,-0.35475375,-0.2410575,-0.049567099999999996,-0.115669,0.0017199999999999993,-0.3456925,0.21584799999999998,-0.10276675000000002,0.34398625,0.039171500000000005,0.07257249999999998,0.65307,-0.023102499999999998,-0.15085025,-0.595185,-0.134828,-0.007407500000000011,0.163667675,-0.046035000000000006,-0.06676750000000001,-0.24421775,0.30003425,-0.060427499999999995,0.13314700000000002,0.48314324999999997,-0.009550000000000003,-0.26341074999999997,-0.0358155,0.2980625,-0.1081475,-0.41144749999999997,-0.42899825,0.13969250000000002,-0.297445,0.13671925000000001,0.0724825,-0.117005,-0.3290425,-0.24960249999999998,0.03066400000000001,0.14745375,0.0035675000000000012,-0.048297499999999986,-0.21763350000000004,0.14453950000000002,-0.44543499999999997,0.12144175000000001,-0.37498250000000005,-0.3123125,0.264819425,-0.1436255,-0.44198000000000004,0.04118300000000001,0.3305975,-0.5276225,0.0632,-0.169468,0.36330749999999995,-0.26402000000000003,0.2620525,0.24399749999999998,-0.1726425,-0.2252885,0.18587,0.203054975,-0.3142555,0.342055,-0.219457,0.23495924999999998,0.25151749999999995,0.102247,-0.017589999999999995,0.12824175,0.07922365000000002,-0.09902447499999999,0.296635,0.238979,0.1715925,0.24369225,0.19574249999999999,0.0012125000000000052,0.10535749999999999,0.53300875,0.2065295,-0.012319500000000011,0.05775749999999999,0.0683025,-0.028804999999999997,-0.18166134,-0.209715,-0.22014,-0.20144725,-0.42025674999999996,-0.18396500000000002,-0.38474674999999997,-0.30928925,0.419525,-0.410335,-0.119445,0.5041912500000001,0.08526249999999999,0.016262500000000013,0.037219999999999996,-0.193719,0.010992500000000002,0.25543499999999997,0.3441225,0.08802500000000002,0.0361875,0.2201975,0.28247,-0.029675000000000007,-0.21067349999999999,-0.013151999999999997,-0.225187,-0.436521,0.36599,-0.3518375,-0.035547499999999996,-0.06577,-0.0200725,0.06146549999999999,-0.054578225,0.15273555,-0.31766249999999996,-0.35251999999999994,0.2727175,0.16756300000000002,0.236735,-0.21822949999999997,0.1100675,0.08377199999999999,-0.050215000000000065,0.2220675,-0.10213799999999999,0.06143275000000001,0.3129675,0.18158074999999999,0.25846925,-0.411677,-0.5509875,-0.07815749999999999,0.014310749999999999,0.03129050000000001,0.357513875,0.4742075,-0.3421425,0.201315,-0.15837500000000002,0.42594,0.126465,-0.097364,-0.262015,0.1386455,-0.10301,-0.025766750000000005,-0.235935,-0.34682,0.0613925,-0.030122249999999996,0.284805,0.16677575,0.2374845,0.28280425,-0.090313,0.13268525,-0.41630999999999996,-0.35185,0.095035,0.13125385,0.1218475,0.20284249999999998,-0.03089999999999999,0.1677355,0.1830585,-0.094539,0.39608325,0.1673315,0.2502365,0.052567499999999996,0.15400999999999998,-0.2256725,0.4952525,-0.2058015,-0.35809749999999996,0.051423250000000004,0.00784375,0.023469250000000004,0.46064275,-0.079204725,0.07630922499999998,0.20925712500000002,0.016886250000000005,0.10437769999999999,-0.050275000000000014,-0.45377675000000006,0.416505,-0.22967525,-0.0481375,-0.10194775,0.130178,-0.13297149999999996,0.21303750000000002,-0.1391085,0.1620975,-0.4240575,-0.09854874999999999,-0.4137675,0.15070225,-0.591638,-0.1283805,-0.3105315,-0.1681125,0.053807249999999994,-0.434909,0.30069,-0.04875049999999999,-0.1466185,0.08378075,0.23930975,0.11697025,-0.2017575,-0.2356205,0.29729,-0.36762275,0.28305025,-0.28329299999999996,0.0664945,0.07116000000000003,-0.11069999999999999,-0.080925,-0.142731,-0.1849115,0.3443875,0.01491,-0.3309275,0.140895,0.143069,-0.5014475,0.17926125,0.07131874999999999,-0.18161500000000003,-0.2394925,0.06698499999999999,-0.14628265000000004,-0.11040825,-0.39140094999999997,-0.10529999999999999,0.3092375,-0.18107175,-0.41046499999999997,0.24052500000000002,-0.08765125000000001,-0.097725,0.227423,-0.0363005,0.30646125,0.33306800000000003,-0.43771,0.45936,-0.2285425,-0.011019750000000002,0.040137,0.3676745,-0.19097805,0.109717,-0.16195,-0.237657,-0.153845,0.1158235,0.31196999999999997,-0.239500375,-0.12219549999999998,0.20936,-0.21876250000000003,0.17864175,-0.747008,0.027157499999999973,0.08423999999999998,0.1853765,0.199627,-0.461985
