class_label,0,1,2,3,4,5,6,7,8,9,10,11,12,13,14,15,16,17,18,19,20,21,22,23,24,25,26,27,28,29,30,31,32,33,34,35,36,37,38,39,40,41,42,43,44,45,46,47,48,49,50,51,52,53,54,55,56,57,58,59,60,61,62,63,64,65,66,67,68,69,70,71,72,73,74,75,76,77,78,79,80,81,82,83,84,85,86,87,88,89,90,91,92,93,94,95,96,97,98,99,100,101,102,103,104,105,106,107,108,109,110,111,112,113,114,115,116,117,118,119,120,121,122,123,124,125,126,127,128,129,130,131,132,133,134,135,136,137,138,139,140,141,142,143,144,145,146,147,148,149,150,151,152,153,154,155,156,157,158,159,160,161,162,163,164,165,166,167,168,169,170,171,172,173,174,175,176,177,178,179,180,181,182,183,184,185,186,187,188,189,190,191,192,193,194,195,196,197,198,199,200,201,202,203,204,205,206,207,208,209,210,211,212,213,214,215,216,217,218,219,220,221,222,223,224,225,226,227,228,229,230,231,232,233,234,235,236,237,238,239,240,241,242,243,244,245,246,247,248,249,250,251,252,253,254,255,256,257,258,259,260,261,262,263,264,265,266,267,268,269,270,271,272,273,274,275,276,277,278,279,280,281,282,283,284,285,286,287,288,289,290,291,292,293,294,295,296,297,298,299
antelope,-0.061041,0.39273,-0.36057,0.070092,0.63131,-0.17562,0.012631,0.25451,0.032111,-0.026165,-0.21886,-0.13511,0.43878,0.25874,0.10905,-0.20129,-0.0014654,-0.10999,-0.16763,0.18972,0.010329,-0.22456,0.57403,0.099256,-0.15881,-0.06136,-0.078243,0.0019953,0.040863,0.20521,0.58772,0.052474,-0.21299,0.022977,0.5977,-0.12253,0.29275,0.34863,-0.59599,-0.50782,-0.36214,-0.37376,0.11375,-0.28327,0.1332,0.23693,0.0036294,0.57736,0.63231,-0.51294,0.064768,-0.088533,-0.011105,0.026557,0.34328,-0.15662,-0.82361,0.29924,0.49831,0.10406,-0.71351,-0.17426,0.86036,0.01586,0.43496,0.070956,0.087216,-0.01591,0.44981,-0.10453,-0.31169,0.17725,-0.19819,0.15153,0.069434,0.52956,0.3354,0.077703,0.13274,0.71682,-0.24702,-0.13145,0.16505,-0.60328,0.19937,-0.33908,-0.36007,0.20018,-0.21706,0.034614,0.44871,-0.31634,0.48187,1.0157,-0.30786,0.29691,0.18998,-0.21025,-0.74125,0.67444,0.49917,0.065645,0.016335,0.54318,-0.58538,-0.020061,0.58208,-0.50056,0.2441,0.24376,-0.060456,0.080744,-0.5976,-0.084381,0.2679,0.70483,0.20011,0.54116,0.11456,0.55184,0.0044695,-0.65378,0.075296,-0.41563,-0.15132,-0.10526,0.14439,0.10721,-0.23059,-0.61719,-0.42623,-0.30619,0.061585,0.19286,0.27818,-0.053914,0.050179,-0.41345,-0.1727,0.37374,0.094112,0.42959,-0.046694,0.24478,-0.4583,0.041589,0.45527,0.14678,-0.045467,-0.074253,0.055465,0.089706,0.066319,-0.16345,0.5168,-0.83622,0.32441,-0.13481,-0.49349,0.080677,-0.2198,0.32743,0.083746,0.50213,0.14806,-0.51452,-0.35225,-0.50244,-0.65969,-0.29209,-0.16894,-0.025594,0.4084,0.34228,-0.03959,-0.17512,-0.10189,0.035278,0.43169,-0.32915,0.45418,0.12404,-0.38001,-0.40852,0.41291,-0.40504,0.21494,-0.31049,-0.3295,-0.12581,-0.37665,0.37789,0.6541,-0.28608,0.10659,0.023568,0.093189,-0.44518,0.47141,1.0439,0.55816,-0.15261,0.07625,-0.20408,0.605,0.63189,-0.14898,0.17537,0.42567,0.080969,0.45137,-0.015868,-0.42258,-0.28133,0.76797,-0.81238,-0.5707,-0.033811,-0.064564,0.30148,0.064406,0.42643,-0.22967,-0.73054,-0.033757,-0.2352,0.11535,-0.18945,0.15383,0.69688,-0.22948,-0.024786,-0.44715,0.089385,0.25435,-0.037437,0.12236,0.13093,0.070771,-0.077991,-0.31319,0.67737,-0.86971,0.27147,-0.75105,0.24477,0.19128,-0.25843,0.17873,-0.55102,-0.14866,0.060156,0.21322,-0.72121,0.0027797,0.164,0.10161,0.23272,0.12118,-0.20329,0.0043717,-0.015446,0.45313,0.10603,-0.049731,0.28391,0.038838,0.43039,0.13691,0.55285,-0.43036,-0.21405,0.22749,0.37763,-0.36612,-0.1616,0.092629,0.75241,-0.57633,0.044071,-0.60702,0.055867,0.0037233,1.0196,-1.3546,-0.19259,-0.31983,-0.43036,0.11538,-0.66835,-0.22592,-0.57738,0.20736,0.11215,-0.8111,-0.73227,0.56636,0.12319,0.97602,0.53102
grizzly+bear,0.13146590000000002,0.2152715,-0.46221499999999993,0.25173930000000005,0.21799556799999997,0.15095260000000002,-0.252949,0.843137,0.34051444,-0.29639099999999996,-0.15475270000000002,-0.11055369999999999,-0.19042457999999998,0.516167,0.21769099999999997,-0.0579983,-0.03395199999999998,-0.425216,-0.09612290000000001,-0.066084,0.18033096,-0.06639199999999999,0.569739,0.544052,-0.16149940000000002,0.0966989,0.0439468,-0.2296754,-0.052618000000000026,-0.08706320000000001,0.09655525000000001,0.0505343,-0.07899362,-0.596267,-0.2496329999999999,-0.29783899999999996,-0.1085797,0.377373,-0.1386073,-0.22228599999999998,-0.637991,-0.516108,0.132915,-0.1207348,-0.658304,0.066741,-0.150315,-0.12775599999999998,0.483264,0.1368571,0.23485699999999998,-0.402416,-0.010289100000000004,0.056448000000000026,0.16869689999999998,0.697219,0.222729,0.38616890000000004,0.162601,0.15404243,-0.030293000000000014,-0.09778369999999999,0.20567469999999996,-0.223783,-0.21353,0.05586800000000003,-0.610953,-0.343787,-0.198738,-0.28144199999999997,-0.19983949999999998,0.49775800000000003,-0.48229900000000003,-0.149246,-0.038409999999999986,0.0362168,0.187090631,0.07385130000000001,0.19846019999999998,-0.2427812,0.14470699999999997,-0.008297000000000013,-0.008346199999999998,-0.48541100000000004,0.620281,-0.09567740000000001,-0.07911120000000002,0.331264,-0.012009999999999979,-0.0013718000000000011,-0.014222999999999986,-0.319208,-0.19938999999999996,0.37178600000000006,-0.423267,0.21935739999999998,0.21186359300000004,-0.346981,-0.43212200000000006,0.27747900000000003,0.143692,0.35631199999999996,-0.048090100000000004,0.163581,-0.232892,0.389969,0.277835,0.18256740000000005,0.62592,0.399095,-0.347007,0.46955899999999995,-0.42898499999999995,-0.0741403,0.27925,0.05883699999999998,-0.241317,0.1959118,0.22321950000000002,-0.021597399999999996,-0.321955,-0.33184980000000003,0.211057,0.48946200000000006,0.07490600000000001,-0.1720896,-0.481134,0.0020609999999999795,0.0024671000000000137,-0.839073,-0.259658,0.200276,-0.0063800000000000245,0.386792,-0.06254399999999999,0.21162999999999998,-0.138921,0.410632,0.12727360000000001,-0.20768099999999998,0.41466099999999995,-0.237795,0.09408549999999999,0.349579,0.142723,-0.23429060000000004,0.265004,0.35628400000000005,0.14519500000000002,0.23744999999999994,-0.290743,0.7691950000000001,-0.181674,-0.553802,0.57904,0.08022199999999999,0.493299,-0.45211999999999997,-0.58461,0.719409,0.41897189999999995,0.22864379999999998,0.412622,-0.20621799999999998,-0.602765,0.265073,0.744866,0.512069,-0.233748,-0.471215,0.07008620000000002,-0.198313,-0.0215958,0.29625199999999996,0.165138,-0.467955,0.319435,-0.108721714,-0.040858999999999986,-0.219684,0.5142450000000001,-0.160817,-0.1353249,-0.18455100000000002,-0.13817690000000002,-0.19861180000000003,0.08340840000000002,-0.2822382,0.164023,0.060155799999999995,0.415764,-0.379038,-0.24811899999999998,-0.246857,-0.54054,-0.257681,0.390053,-0.006237899999999991,0.125581,0.255469,1.240428,-0.457913,0.42979100000000003,-0.371915,-0.13792430000000003,0.286987,-0.42137,0.6322989999999999,0.09250900000000001,0.05582350000000001,0.0907548,-0.472625,0.06974940000000002,-0.31338969999999994,0.25667799999999996,-0.45859800000000006,0.330304,0.641972,-0.23424599999999995,-0.06606510000000002,-0.217172,0.44573399999999996,-0.07161399999999998,-0.008315999999999962,-0.011410199999999981,-0.19079849999999998,0.320446,-0.11645790000000003,0.08335499999999998,-0.155675,-0.32211900000000004,-0.1430878,-0.2969391,-0.24955699999999997,-0.371377,0.328352,-0.285424,-0.623749,0.11497299999999999,0.391666,-0.35116400000000003,0.611963,0.300461,-0.21358700000000003,-1.0472380000000001,-0.1806795,-0.1787414,-0.524429,-0.23740739999999996,-0.1731914,-0.027183499999999992,0.31384500000000004,-0.39015,0.138334,0.610222,0.188685,-0.15675199999999995,0.03251590000000001,-0.0953874,-0.09411610000000001,0.0233859,0.07829789999999999,-0.0014108000000000072,0.15725470000000003,-0.541193,0.20187309999999997,0.3074799,0.10604215,0.1005981,0.45213900000000007,-0.466442,0.10087699999999998,-0.1645771,0.290375,0.14501051,-0.598213,-0.9616353,-0.07059999999999997,-0.028960700000000016,-0.20884200000000003,-0.16061599999999998,0.21869799999999998,0.06202520000000001,-0.10107499999999998,-0.6384730000000001,0.05493399999999999,-0.05382650000000001,-0.04472640000000001,0.646124,-0.679161,-0.22589199999999998,-0.06416199999999998,0.267413,-0.5490440000000001,-0.238668,-0.14772570000000002,0.20218,0.5645899999999999,0.2341894,0.060844700000000036
killer+whale,0.30488799999999994,-0.08698249999999999,-0.257716,0.024060210000000002,0.250931,0.305146,-0.244942,-0.0644718,-0.24692,-0.061785100000000016,0.2158461,-0.34008399999999994,-0.0651169,0.303147,-0.23599689999999998,-0.1116807,0.505603,-0.292314,-0.644996,0.42173299999999997,-0.1531421,0.24268800000000001,0.19133300000000003,0.14248499999999997,0.019046129999999998,0.250788,0.0905995,-0.18843,-0.15341619999999997,0.28942999999999997,-0.7825120000000001,0.22000930000000002,-0.37735399999999997,-0.43711500000000003,0.381073,0.27425299999999997,0.3021501,0.198128,-0.435507,0.21268799999999996,0.22559550000000006,0.222677,0.07084499999999998,0.016616300000000014,-0.6241530000000001,0.28496448,0.11957592000000003,-0.5086719999999999,0.39764499999999997,-0.1710217,-0.0026146000000000034,0.20215000000000002,0.02819400000000004,-0.340987,-0.1824377,0.44037078399999996,-0.0773319,0.18407,-0.8475969999999999,0.030518999999999963,-0.419082,0.0025230000000000252,0.798758,0.13919050000000002,0.07588399999999995,-0.376455,-0.454822,-0.285038,0.24162699999999998,0.3061755,0.062919,0.475703,0.35888839999999994,0.492535,0.33725700000000003,0.08412299999999998,0.6976709999999999,0.425676,-0.4024650000000001,0.015761000000000025,0.34298,-0.19097340000000004,-0.588341,0.5113116,-0.12585500000000002,0.07366999999999999,-0.06426320000000002,-0.04238159999999999,-0.396729,-0.528439,-0.13244470000000003,0.04799800000000003,-0.3509001,-0.515524,-0.12149199999999999,0.4841329999999999,0.251703,-0.1150047,0.05455100000000003,-0.24970550000000002,-0.362417,0.0897578,0.6810430000000001,0.159509,0.1982965,0.323247,0.04707200000000002,-0.06145227000000001,0.29018664,0.8686519999999999,-0.137508,0.230483,-0.6584810000000001,-0.2890751,0.612286,-0.1321102,0.2015257,0.297531,-0.0034005999999999967,-0.222429,-0.10987759999999999,-0.203527,-0.178736,0.812151,0.11138699999999999,0.28284659999999995,-0.577043,-0.286253,0.133774,-0.382416,-0.404155,-0.03339949999999999,0.208208,-0.004682999999999965,0.31986714,0.1735239999999999,0.029092999999999966,-0.3920868,0.16151500000000002,0.2686122,0.534802,0.341229,0.4127254999999999,-0.14542199999999997,-0.2407253,0.05444150000000002,0.524545,0.29633269999999995,0.057533400000000005,-0.16522599999999998,-0.454639,0.6196409999999999,0.14194399999999996,0.07897110000000003,0.435078,-0.289654,-0.0766647,-0.2553715,-0.3254702,-0.12045800000000002,0.18873820000000005,-0.018018999999999993,0.6144449999999999,-0.319718,-0.1007652,0.09114589999999999,0.404177,-0.08245999999999999,-0.0873418,0.06428499999999998,-0.09534699999999996,-0.1343369,0.029965299999999993,0.39454369999999994,-0.315836,-0.2400545,0.3468247,0.04331370000000001,0.274863,-0.360442,0.5880327,-0.14319780000000004,-0.002996999999999972,-0.090791,0.34443799999999997,-0.9575490000000001,0.23149249999999996,0.1506474,-0.22389119999999998,0.12495849999999997,0.164238,0.077427,-0.399551,-0.4833057999999999,0.053236599999999995,0.06809199999999996,-0.05972245000000001,-0.254605,-0.48085009999999995,-0.372053,1.1212900000000001,0.23432050000000001,-0.04364099999999997,-0.43752199999999997,-0.20412840000000002,0.7068669999999999,-0.526563,0.37596699999999994,0.05797399999999998,0.34779000000000004,0.3702144,-0.12946169999999999,0.25885800000000003,-0.03015409999999999,-0.057097699999999994,0.07062449999999998,0.16387719999999997,0.5133319999999999,0.0150294,0.08560699999999999,0.19272,0.368254,-0.23163449999999997,-0.6353406,-0.011122300000000003,-0.022915000000000046,-0.0556195,-1.20123,-0.131716,-0.13561810000000005,0.44977600000000006,-0.02421409,0.12088199999999999,0.18502359999999998,0.14465499999999998,-0.053372,-0.270464,0.19931930000000003,-0.08089299999999999,0.041210000000000024,-0.053925999999999974,0.064535,-0.39799799999999996,-0.0987056,-0.9171369999999999,0.254316,0.49710699999999997,0.196449,-0.3717459,0.1929785,-0.421098,-0.08074199999999998,0.08320699999999998,0.7856700000000001,0.664378,-0.3635404,0.08975570000000004,-0.017241999999999952,0.151233,-0.0386279,0.11301099999999999,0.15661999999999995,-0.12345699999999998,0.259286,-0.019680000000000017,0.3239249999999999,-0.045166700000000004,0.0032159999999999828,0.014333999999999986,0.08877760000000001,-0.059726999999999975,-0.36249899999999996,0.14806629999999998,-0.0940941,0.28523600000000005,-0.20295499999999994,-1.20959,-0.331778,-0.1296119,-0.02160820000000001,-0.676685,0.01939245,0.007279700000000007,0.13130470000000002,-0.578812,-0.4375959999999999,-0.29667699999999997,-0.373364,0.47717009999999993,-0.04505142000000001,-0.349404,-0.22696700000000003,-0.13032899999999997,-0.329698,-0.7435590000000001,-0.4996769999999999,0.366645,0.07130574,0.6154462999999999,0.026372100000000016
beaver,-0.3514,-0.007505,-0.14778,-0.46901,-0.1119,0.4092,-0.074681,0.51707,-0.43498,0.33134,-0.31833,-0.080066,0.21677,-0.13342,-0.21866,0.3733,0.33032,0.046164,0.094801,-0.11548,0.081606,-0.099535,0.48208,0.39303,-0.017432,-0.057213,0.19813,-0.20217,-0.18287,-0.17697,0.14627,-0.4773,0.024544,0.068798,0.19569,-0.042859,0.10946,0.12501,-0.31531,0.084685,-1.0046,-0.23706,0.10835,0.47048,0.22423,0.24288,0.23758,-0.042114,0.4216,-0.38529,-0.0081878,-0.26025,-0.043388,-0.088497,0.23556,0.63993,-0.40015,0.46746,0.48098,0.22568,-0.039031,-0.36127,0.17694,-0.65642,0.36193,-0.11949,-0.11032,0.46239,0.45144,-0.16603,0.42228,-0.044549,0.060838,0.62979,-0.68401,-0.011331,-0.06138,0.49892,0.027058,-0.18946,0.53537,-0.21464,0.056508,-0.52408,0.47562,-0.14977,-0.31296,-0.078097,-0.35547,-0.2406,-0.20804,-0.25321,0.69181,-0.11872,-0.78062,0.28764,0.10111,-0.35215,-0.85269,0.59923,0.12356,-0.057448,-0.15435,-0.035323,-0.040542,0.37071,0.12811,-0.13818,0.3454,0.19499,-0.44705,-0.066524,-0.33296,-0.19809,-0.27593,-0.17446,0.18483,0.38251,0.0043477,0.53758,0.17112,0.11514,0.09476,0.15956,-0.083666,0.15233,-0.039319,0.098734,0.10387,-0.46822,-0.076582,-0.086901,-0.13981,-0.26611,0.23276,0.060732,0.54551,0.092904,-0.48529,-0.6848,0.33956,0.24538,0.10989,-0.49474,0.2702,-0.27224,0.5612,0.41072,0.0035769,0.065584,0.086096,0.57655,-1.0439,0.048831,0.64331,-0.37618,0.030291,-0.24164,-0.56959,-0.19291,0.58075,-0.22506,0.18296,-0.21574,-0.024225,0.47489,0.54356,-0.3986,-0.7276,-0.78264,0.20189,-0.0039075,0.16137,0.39934,0.198,-0.036036,0.12909,-0.19249,-0.058942,-0.18264,0.49888,0.73839,0.21743,-0.45267,0.39279,0.10185,-0.53659,-0.76371,-0.015892,-0.039487,0.3299,0.51654,-0.16224,-0.029744,-0.4631,-0.029583,0.31633,-0.63677,0.42222,-0.32674,0.84417,-0.36731,-0.18885,-0.32243,-0.0369,0.28968,-0.082716,0.58107,-0.013657,0.19313,-0.17508,-0.32181,0.23492,-0.68996,0.037062,-0.018572,-0.23265,0.11487,0.34133,-0.42921,-0.33731,0.19895,0.013493,-0.11337,0.33397,0.095662,-0.23713,0.34911,0.23761,-0.2856,0.45029,-0.0006193,-0.50116,-0.30684,-0.065965,-0.26231,0.91524,0.13282,-0.14858,-0.1128,0.11025,0.50822,-0.19847,0.13507,-1.2924,-0.61905,0.24562,-0.013429,0.48826,-0.14738,-0.54528,0.2695,0.26358,-0.084601,0.41169,-0.1037,0.74743,-0.11137,-0.47129,-0.11412,-0.49728,-0.088837,-0.13843,0.035908,-0.086661,0.22476,0.66732,-0.42778,-0.094236,0.27858,-0.45695,-0.3671,-0.23708,-0.14922,-0.50295,-0.22371,-0.22619,0.47267,-0.80247,-0.0066486,-0.62277,0.25136,0.85804,-0.3229,-0.85486,-0.091149,0.39446,0.097558,-0.022912,-0.14749,-0.70112,-0.39414,-0.43012,0.5647,-0.56163,-0.66804,0.069772,0.19428,-0.17835,0.66161
dalmatian,0.24442,-0.047341,-0.11192,0.29135,0.34293,0.092279,-0.21582,-0.17587,-0.19776,0.67221,-0.78596,-0.28021,0.084194,0.39987,0.95517,0.1476,0.32407,-0.40286,-0.015528,0.52576,0.51405,0.34809,-0.43594,0.11203,-0.416,-1.0188,0.56611,-0.051571,-0.052903,0.50642,-0.24508,-0.31891,-0.7343,0.20382,-0.25206,0.57486,0.086678,-0.31066,0.018559,0.12421,0.11064,-0.62526,-0.036193,-0.7353,0.041747,-0.22797,0.40755,0.41789,-0.70902,0.28616,-0.42311,-0.23131,0.2822,-0.3253,-0.032172,-0.1353,-0.17306,-0.18966,0.42683,0.20582,-0.15148,-0.12794,0.60324,-0.028155,0.78506,1.0841,0.43841,0.13236,0.37205,-0.54236,0.28,-0.27909,-0.10069,-0.62085,-0.202,0.44979,-0.20866,0.12458,0.55016,-0.21431,-0.58334,0.27772,-0.21234,-0.18165,0.0068389,0.088941,0.040393,0.57855,0.28115,-0.036057,-0.11207,0.064643,0.20945,-0.50179,-0.19259,0.45182,0.54038,0.97012,-0.19809,1.1122,0.58962,0.16935,-0.024467,-0.1673,0.10586,-0.12799,-0.37909,-0.23362,-0.016047,0.93073,0.37623,0.17714,-0.20605,0.56543,0.37062,-0.2108,-0.8377,0.29991,0.17486,0.41342,-0.16114,0.33129,-0.25812,-0.35661,0.1689,0.12285,-0.81661,0.56572,0.30868,-0.36991,-0.011162,-0.65147,-0.53379,-0.01837,0.32537,0.38485,0.55786,0.45252,0.18226,-0.73412,-0.12358,0.21451,-0.79567,0.44483,0.706,-0.068004,0.6759,-0.43811,-0.096114,0.057162,-0.61165,0.51593,0.53355,-0.060436,0.039668,0.29118,0.17488,0.32545,0.13066,0.45956,-0.023642,-0.1755,0.17071,0.26685,-0.27675,-0.12998,0.3762,0.23491,0.32868,0.43842,0.19888,-0.02528,-0.4657,0.92735,-0.16208,-0.59039,-0.0707,-0.3097,-0.26204,-0.043808,0.21257,-0.37009,0.30113,-0.061742,0.79932,-0.28367,0.41757,0.12932,0.45912,-0.33544,-0.044666,-0.494,-0.36606,-0.2933,0.6045,-0.353,0.18716,0.1527,-0.24974,0.081502,-0.19769,0.14682,0.49073,0.20294,0.078196,-0.053777,-0.027056,0.037245,0.61643,0.48154,-0.34947,0.032161,0.074184,0.32341,0.11517,0.33258,-0.074922,-0.069957,0.56893,0.34741,-0.083122,-0.45299,0.12429,-0.74071,-0.22212,-0.19724,0.57083,-0.42692,-0.39261,0.015142,0.30146,-0.10196,-0.23207,0.29117,0.33616,-0.12505,-0.066322,0.2112,0.080262,0.084858,0.065832,-0.51719,0.14884,-0.11867,0.099214,0.26632,-0.51115,0.5544,-0.32111,0.34764,-0.3172,0.65305,0.67899,0.21107,-0.032704,0.43613,-0.098884,0.15025,0.3296,-0.17826,0.26808,0.48963,-0.17377,0.17202,0.053768,-0.10434,-0.15108,-0.22831,-0.12345,-0.080633,0.14415,-0.88031,-0.1276,-0.38073,-0.025094,-0.050066,0.13828,0.16903,-0.1973,0.036042,0.04322,0.30991,0.17957,0.12036,-0.80392,-0.26326,-0.24503,-0.43527,0.28737,-0.12102,-0.44025,0.35442,0.034815,-0.52122,-0.4436,-0.18107,-0.25854,0.31221,0.53838,-0.39252
persian+cat,-0.2302339,0.22496289999999997,0.11616160000000005,-0.15463,0.1581172,-0.24177200000000001,-0.16046500000000002,0.19767056,-0.314337,-0.8519369999999999,0.319001,0.018465000000000023,-0.08762650000000001,-0.05615199999999999,0.318238,0.220335,0.40502530000000003,0.315558,0.0192694,-0.04702519999999999,0.515929,-0.296692,-0.009563499999999989,0.370553,-0.591088,-0.515215,0.254784,-0.624464,0.281728,0.2307819,-0.49671416999999995,-0.19308819999999996,-0.527091,-0.2154905,-0.305577,-0.06447500000000003,-0.23180800000000001,-0.13563900000000007,-0.349392,0.5184850000000001,-0.514496,-0.11869100000000002,0.058740999999999995,-0.10766060000000002,0.07636410000000005,-0.01848440000000001,0.5852189999999999,0.13092400000000004,-0.37197100000000005,-0.38326799999999994,-0.14489699999999994,-0.0992948,0.409912,0.15123199999999992,0.09710399999999994,-0.25627830000000007,-0.47339400000000004,0.279421,0.477236,-0.07837699999999997,0.0671084,0.3377251,0.2746854,0.14216799999999996,-0.0045369999999999855,-0.14703699999999992,-0.2430588,0.27158140000000003,0.18876500000000002,0.01596200000000003,0.14412000000000003,0.459584,0.1726906,-0.248235,0.01732929999999999,0.14412000000000003,0.19772420000000004,-0.09098200000000001,0.369328,-0.512952,0.18284,-0.021705599999999995,-0.1853128,0.018078700000000003,-0.0762589,-0.30461439999999995,-0.2864082,0.550583,0.10315550000000002,-0.6759329000000001,-0.42319199999999996,-0.130875,-0.182122,0.280976,0.01398569999999999,0.27604100000000004,0.28891500000000003,-0.194347,-0.19165599999999997,0.22996850000000005,0.10210864000000001,0.20310334000000005,0.395026,0.05544199999999999,-0.258895,0.04112299999999999,0.27001200000000003,-0.249614,0.10549900000000005,0.761419,0.21041120000000002,0.11573310000000003,-0.6516789999999999,0.480147,0.08843999999999998,-0.08524128000000002,-0.231068,0.03621599999999997,0.19529370000000004,-0.31937499999999996,-0.2580158,0.192522,-0.233856,-0.09170982000000001,0.376423,0.12317210000000002,-0.561554,0.47929600000000006,0.51695,-0.129199878,-0.0014768000000000073,-0.1248929,-0.173184,0.46149699999999994,-0.030916999999999986,-0.270393,0.05386009999999999,-0.11377099999999997,-0.18644199999999997,-0.18620399999999998,0.340129,0.299217,-0.35832649999999994,-0.30536100000000005,0.056161800000000005,-0.063289,-0.2187977,0.35738799999999993,-0.24675219999999998,0.242955,-0.15507769999999999,0.28546140000000003,-0.055211300000000005,0.15590500000000002,0.211871,0.02856099999999999,-0.09267640000000002,0.079325,0.28570300000000004,-0.037190000000000056,0.7188019999999999,0.25187960000000004,0.279459,0.618241,-0.20484800000000003,0.054674999999999994,0.409288,0.1778959,-0.3576771999999999,0.24493142000000004,-0.05040899999999999,-0.2799515,0.2509196,0.4385927,0.22181220000000001,-0.24416399999999994,-0.1547529,-0.233367,0.02884100000000002,-0.05014309999999999,-0.00656200000000004,-0.33500100000000005,-0.07208050000000002,0.154955,-0.127543,-0.0879892,0.5324012,0.042699298,0.415637,-0.232105,-0.226269,0.347142,-0.06949799999999995,-0.424376,-0.26068990000000003,0.017984800000000006,-0.19489969999999998,-0.36219579999999996,0.05776700000000001,0.0833343,1.28625,0.3500258,0.33440739999999997,-0.153295,0.445098,0.3429218,-0.21701249999999997,-0.512524,-0.1205004,-0.07305609999999998,-0.136804,-0.017762999999999987,0.251489,0.06453230000000001,0.546635,-0.14713326000000002,0.08269837000000001,-0.319702,0.10358099999999995,0.028948500000000016,-0.1784039999999999,0.214276,0.0446784,-0.223923,-0.0714645,-0.26185290000000006,0.13370400000000002,0.13111450000000002,-0.012028299999999992,0.12606399999999998,0.007113000000000008,-0.029316299999999997,-0.504408,0.364476,0.0903002,0.23389510000000005,-0.2143478,-0.25335070000000004,-0.14154899999999998,-0.09839470000000003,0.23169799999999996,-0.26357579999999997,-0.20081599999999997,0.28035270000000007,-0.48404529999999996,-0.03001688,-0.705047,0.210409,-0.05819900000000002,0.80001,-0.10868029999999998,0.1999246,-0.173992,0.271325,0.44006084,0.2033652,0.43130471,0.19585200000000003,0.19876,0.30700700000000003,0.0706308,0.10436480000000001,-0.37685099999999994,-0.23450060000000006,0.18334,-0.17363220000000004,0.21211650000000004,-0.486622,0.19068000000000002,0.2809649999999999,-0.07959499999999999,-0.329,-0.11857399999999998,-0.531391,-0.274714,-0.369889,-1.04672,0.45578799999999997,-0.611707,0.1758814,-0.39643599999999996,0.5762889,0.06398000000000002,-0.310659,-0.17304399999999998,0.07720099999999998,-0.2260683,-0.12891550000000002,0.041616,-0.359672,-0.221135,0.37905799999999995,-0.496063,-0.26328,-0.26024499999999995,-0.315358,0.6509670000000001,-0.140776,0.10148599999999997,0.19117699999999999
horse,0.36644,0.044491,0.15735,-0.096563,-0.28673,0.38474,0.014717,-0.032079,-0.5931,-0.758,0.37954,0.19648,-0.12906,0.47898,-0.22356,0.83269,0.036926,0.64044,0.0035343,-0.37028,0.098275,0.36589,0.069618,0.47442,0.21356,-0.70693,0.48244,-0.73257,0.44024,0.37384,-0.2011,-0.33331,0.058148,-0.48068,-0.70045,0.35382,-0.048946,0.21268,-0.31971,-0.27298,-0.38031,-0.14426,0.32441,-0.48592,0.25828,-0.13681,0.67602,0.07865,0.22718,-0.39585,-0.46659,0.093791,0.13611,0.1599,0.27122,0.18914,-0.5265,0.36636,-0.41394,-0.1947,0.15396,0.26031,0.65253,0.1192,-0.07087,-0.33097,-0.50355,-0.0369,0.055362,-0.48271,0.0087827,0.64673,-0.0072435,-0.63788,-0.14221,-0.40526,-0.060919,-0.69815,0.12783,-0.22633,0.29314,0.36234,0.14002,-0.04038,0.088464,-0.44306,-0.16378,0.038109,0.082347,0.51784,0.57216,-0.15847,0.37392,0.2311,0.064005,-0.027121,0.053415,0.22671,0.098136,0.19454,-0.053678,0.067613,-0.28538,-0.25086,-0.070512,0.18141,-0.30241,-0.61756,-0.24724,0.59232,-0.22673,0.28033,-0.23974,-0.025559,-0.25066,0.25601,-0.24743,0.32439,0.35437,-0.15191,0.0079952,0.14701,-0.0010967,-0.38891,0.18957,0.17553,-0.2942,0.91866,-0.55162,-0.2183,0.41183,0.20676,-0.18071,0.83647,0.019069,-0.13811,0.33211,-0.21253,0.047446,0.36905,0.30453,0.15333,-0.30717,-0.41002,0.14689,-0.81757,-0.24733,-0.31988,-0.58598,0.45272,-0.1094,0.9277,-0.44646,-0.15616,0.084289,-0.51624,-0.12726,-0.037546,0.47568,0.13031,0.067664,-0.17915,-0.2041,0.10553,0.25395,-0.044308,0.71205,0.12581,-0.27402,0.29444,0.035155,0.68323,0.050133,-0.18257,0.29659,-0.72355,0.076414,-0.021217,0.19489,0.063135,0.19866,0.26378,-0.36751,-0.18225,0.23068,0.037336,0.19641,-0.26196,0.50887,-0.41845,-0.67548,-0.072357,0.1701,-0.65653,0.10725,-0.089212,-0.40815,-0.47787,-0.20753,-0.11294,2.0469,0.18843,-0.026986,-0.36119,0.80353,0.63043,0.3051,0.0044293,-0.11349,-0.10417,-0.06007,-0.34464,0.22453,-0.33838,-0.057661,-0.32224,-0.28334,-0.23185,0.41329,-0.092918,-0.10947,-0.57018,-0.011696,-0.97895,0.19359,-0.087294,-0.14663,-0.3612,-0.0021043,0.84799,-0.32889,-0.45002,-0.18276,-0.062633,0.56348,0.37458,-0.47577,-0.55301,-0.34315,0.69743,-0.26164,-0.35123,0.20328,-0.26569,-0.71323,-0.44505,-0.56525,0.50282,0.01507,0.049888,-0.69307,0.12744,-0.34952,-0.24252,1.4932,-0.43323,0.17232,0.3376,-0.065503,-0.088749,-0.069387,0.058888,0.0053,0.20457,-0.042053,-0.4791,0.37696,-0.26835,-0.42893,0.242,-0.44046,-0.16824,0.82183,-0.24433,-0.2336,0.0074017,-1.5593,0.070477,-0.10252,-0.067595,-0.26432,-0.22202,0.58198,0.42261,-0.086291,0.36847,-0.24741,-0.10417,0.20434,-0.45977,0.1471,0.60233,-0.56922,-0.063424,0.0093679,-0.1252,-0.075303,0.21883,0.36608,0.31938
german+shepherd,-0.044009000000000006,-0.04228399999999996,0.040279999999999955,0.328848,-0.32660199999999995,-0.471157,-0.466338,-0.016797580000000003,-0.170957,-0.37025100000000005,0.3974469999999999,-0.09316699999999999,0.152699,0.06378389999999999,-0.007381120000000002,0.09679399999999996,0.31149099999999996,-0.238522,-0.24714399999999997,-0.10397200000000001,0.16308730000000002,-0.11900099999999997,-0.13429799999999997,0.5789469999999999,-0.37211,-0.07770000000000005,0.146755,0.39224800000000004,0.087401,0.378213,-0.11405900000000005,-0.207455,-0.14966999999999997,0.231545,-0.45494599999999996,-0.28652917000000006,0.575814,0.004171199999999986,-0.07579599999999995,0.39595199999999997,-0.17719320000000002,-0.010135200000000025,-0.04821129999999999,-0.5993600000000001,-0.3386797,0.0446035,-0.06507399999999998,0.407316,-0.14153540000000003,-0.289321,-0.3411888,-0.436711,-0.202353,0.385037,-0.061189400000000005,0.20175139,-0.25662630000000003,0.26627609999999996,-0.21550999999999995,-0.053758999999999946,0.322069,0.17209999999999992,0.45476099999999997,-0.6186689999999999,-0.203447,-0.1304578,-0.10281380000000001,-0.266354,-0.1320098,0.01777519999999999,0.213706,0.2723535,-0.21745310000000004,0.019273,-0.152298,-0.228807,0.47280500000000003,0.08448200000000004,-0.10185050000000001,-0.010083999999999954,0.042833899999999994,0.19307199999999997,0.041953100000000014,0.5785629999999999,0.251982,0.1951116,0.007745999999999975,0.628233,-0.2860525,-0.14456599999999994,-0.14379399999999998,-0.10027099999999999,-0.10390599999999997,-0.06973399999999999,-0.05731499999999995,-0.5243909999999999,0.53863516,0.47734699999999997,-0.718016,-0.11507060000000004,-0.17751940000000002,-0.09593800000000002,0.32995699999999994,-0.09663520000000003,-0.18823199999999995,-0.1847410000000001,-0.309592,0.005490999999999968,0.2866681,0.1355779,0.1028782,0.14958130000000003,-0.003453199999999993,-0.12499740000000001,-0.106498,0.1560954,-0.390613,-0.140198,0.1134,-0.165755,-0.03057799999999994,0.266471,0.22641899999999998,-0.17229999999999998,0.041480199999999995,-0.03279299999999996,0.057101300000000035,0.1659978,-0.003898600000000002,-0.528228,0.17856,0.221217,-0.1191285,0.30759559999999997,0.286638,-0.024736999999999988,0.429373,-0.16781729999999997,-0.15223599999999998,-0.352905,0.31902,-0.1030876,0.01047019,0.01885910000000001,0.041238000000000025,0.19194680000000003,0.049740100000000016,0.182219,-0.13415390000000005,0.43898800000000004,0.10031400000000004,0.353079,0.273889,0.023896400000000005,0.44844,0.6727420000000001,-0.12112840000000001,-0.2842325,0.15690969999999999,0.010177999999999979,0.33300399999999997,-0.330794,0.735877,0.16446099999999997,-0.48317499999999997,0.509332,0.1260205,0.30264800000000003,0.18390360000000006,-0.207557,0.22868390000000005,-0.23855699999999996,-0.09894000000000006,0.06546099999999999,-0.07526499999999997,0.484916,-0.16996499999999998,-0.24154400000000004,0.19798180000000004,-0.01661099999999996,0.22912600000000005,0.09595109,-0.2996031,-0.34537300000000004,0.25670090000000007,-0.37023300000000003,-0.3102847000000001,-0.40614,0.12023010000000003,-0.0681346,-0.20655069999999998,0.022138999999999978,-0.07697899999999996,-0.06943269999999999,-0.0643126,0.383608,-0.004566399999999991,-0.465945,0.0966476,0.13201279999999999,0.862591,0.1530961,0.053917999999999966,0.1358904,-0.022356000000000015,-0.33071000000000006,0.21277699999999988,0.0561175,-0.18904549999999998,0.0570335,0.163927,0.010691700000000002,-0.503557,-0.535408,0.07509040000000002,0.191103,-0.01216579999999999,0.22468400000000002,-0.21970299999999998,0.12441749999999999,0.563067,0.0241998,-0.03653399999999999,-0.437557,-0.22440200000000005,-0.06690307999999999,0.0770235,-0.44548999999999994,-0.11563299999999997,0.34748499999999993,0.373495,0.354683,-0.0420906,0.404215,0.15575649999999996,0.646477,-0.16572599999999998,0.39142399999999994,-0.24496800000000002,0.08455099999999999,0.07647199999999997,0.257087,0.09184000000000006,-0.29163,0.10677690000000001,0.14277700000000004,-0.121267,-0.21881870000000003,0.1779366,0.1510332,0.11181759999999999,-0.295025,0.17204160000000004,0.49017900000000003,0.698532,0.518189,0.283213,-0.42791999999999997,0.314547,0.1361764,0.09039029999999999,-0.10975900000000004,-0.21524699999999994,0.311784,-0.334899,-0.21595799999999998,-0.62946,-0.133516,-0.333479,0.009024999999999977,-0.17478199999999997,-0.276239,0.056892999999999985,-0.237321,-0.1012405,0.096805,-0.6331200000000001,0.7837761,0.26398200000000005,0.28129499999999996,-0.352761,0.710332,-0.41808300000000004,0.045465999999999986,-0.07476299999999997,0.13365690000000002,0.122564,-0.12042970000000001,-0.0047109000000000005,0.49007,-0.014154299999999991,-0.1085374,0.03899799999999998,-0.2134606,-0.04593799999999999,0.19413250000000004,-0.0674163,0.08447499999999998,0.163615,0.1471016
blue+whale,0.39936699999999997,-0.093530009,-0.05730699999999998,-0.07654089000000001,0.087212,0.16321899999999998,-0.24897999999999998,0.005555700000000011,-0.17393356999999998,-0.25067110000000004,0.13550910000000002,-0.29127849999999994,-0.09312790000000001,0.438183,-0.18403599999999998,-0.11353049999999999,0.309178,-0.1483245,-0.610538,0.2952995,-0.316391,0.08732999999999998,0.22912400000000002,0.31636800000000004,0.0886041,-0.14579400000000006,0.014817999999999984,-0.07430099999999998,-0.1700098,0.3418601,-0.380119,-0.04640570000000001,-0.477305,-0.24453899999999998,0.05652999999999994,0.6294740000000001,0.23788499999999996,0.03948499999999999,-0.44958299999999995,0.26954046,0.04455957,0.248243,0.229698,0.10652030000000005,-0.7233780000000001,0.2631375,-0.07084908000000001,-0.4745769999999999,0.251584,-0.31301170000000006,-0.022518100000000006,0.1168459,-0.05546999999999999,-0.445924,-0.30725,0.41705229999999993,-0.09906300000000001,0.28575500000000004,-0.6910749999999999,0.154158,-0.3737082,-0.25036800000000003,0.7192042999999999,-0.047611999999999995,0.439955,-0.5184599999999999,-0.417679,-0.2113022,0.38561500000000004,0.345414,0.0772227,0.343403,0.35107549999999993,0.511243,0.13683599999999996,0.241956,0.5412756,0.42840599999999995,-0.114558,-0.32377900000000004,0.1734944,0.004034700000000002,-0.720659,0.4868084999999999,0.216406,0.19440500000000002,0.1700728,0.007465200000000012,-0.454623,-0.5755359999999999,0.2219933,-0.0034069999999999795,-0.27830699999999997,-0.31822419999999996,-0.29935,0.604133,0.297564,0.0547179,-0.057228999999999995,-0.007977500000000012,0.006067000000000045,0.16746680000000003,0.609061,0.04404800000000002,0.06381999999999996,0.20488499999999998,0.04520300000000001,0.061394730000000015,0.15241499999999997,0.8271550999999999,-0.20704499999999998,0.02049499999999998,-0.442979,-0.28896079999999996,0.40933299999999995,-0.1678048,0.0897067,0.442635,-0.0649546,-0.34526700000000005,-0.10535989999999998,-0.15957700000000002,-0.03413899999999999,0.7549499999999999,0.1699077,0.25923719999999995,-0.54152,0.06396700000000005,0.02985099999999999,-0.479349,-0.522445,-0.0695489,0.05406799999999998,-0.15353399999999998,0.453531,0.2565249999999999,0.09934099999999998,-0.33099,0.13219,0.36277200000000004,0.499663,0.449373,0.41546149999999993,-0.413667,0.001005700000000019,0.05920550000000002,0.358063,0.19971199999999995,-0.1063926,-0.09094899999999999,-0.16445199999999996,0.6358949999999999,0.298766,-0.0767505,0.5329290000000001,-0.36745300000000003,-0.124626,-0.412255,-0.21527599999999997,0.0894331,-0.07149380000000002,-0.3680980000000001,0.38003699999999996,-0.22748,-0.07466228999999999,0.17045300000000002,0.19039399999999995,0.06783100000000003,-0.160618,0.13239009999999998,-0.2597899,-0.175181,0.0446029,0.48873199999999994,-0.30184099999999997,-0.5436740000000001,0.359044,0.12145770000000003,0.166386,-0.17573499999999997,0.613722,0.0351312,-0.03869699999999998,-0.207125,0.381374,-0.906822,0.377855,0.14766659999999998,-0.2057799,0.1610227,0.210084,0.22896,-0.261344,-0.6226299999999999,0.121156,0.19867149999999997,-0.18635545000000003,-0.050296,-0.627047,-0.137324,1.3084000000000002,0.2305111,-0.06370199999999998,-0.19433299999999998,-0.09692040000000002,0.6037104999999999,-0.35026859999999993,0.40113999999999994,0.045088999999999976,0.19323269999999998,0.5016210000000001,-0.165216,0.09189899999999998,-0.16072609999999998,0.07972780000000003,0.19534200000000002,0.5246050000000001,0.39525979999999994,0.17875470000000002,0.014767999999999962,0.47847900000000004,0.2139667,-0.18271199999999999,-0.710022,0.047962700000000004,0.052255999999999955,-0.12931150000000002,-1.038816,-0.10040649999999998,-0.09784210000000004,0.363514,0.005368010000000003,0.08856479999999999,0.307573,0.27775869999999997,-0.100451,-0.322748,0.0757166,-0.24053800000000003,-0.0741646,-0.2343997,0.0776429,-0.360867,0.0015694000000000055,-1.030957,0.20282699999999995,0.40124499999999996,-0.07841400000000004,-0.306258,0.107084,-0.30418799999999996,-0.07219799999999997,0.18882500000000002,0.6238089,0.24749259999999998,-0.534343,-0.1564663,0.02265800000000004,0.165195,-0.0522584,0.1315915,0.346748,-0.10874499999999998,0.177476,-0.016014000000000014,0.40424999999999994,-0.06403550000000001,0.122496,-0.12217800000000004,0.1537036,-0.1992123,-0.490521,0.22741,-0.18783300000000003,-0.009268000000000026,-0.2625019999999999,-1.3022900000000002,-0.30812,-0.194546,0.26366480000000003,-0.5594149999999999,0.19697130000000002,-0.19594330000000004,-0.0820853,-0.498685,-0.5220969999999999,-0.37905099999999997,-0.21628009999999998,0.600729,-0.19344042000000003,-0.16515299999999997,-0.0791606,-0.39504000000000006,-0.34156600000000004,-0.601026,-0.5957399999999999,0.527763,-0.08046726000000001,0.913415,-0.02227589999999999
siamese+cat,-0.18415269999999997,0.326101,-0.1022744,-0.14221899999999998,0.19115020000000002,-0.20087,0.09221600000000003,0.016942160000000005,-0.216711,-0.4086989999999999,0.26443249999999996,-0.170289,-0.1357795,-0.07950879999999999,0.32314,0.09587099999999997,0.598102,0.03812099999999993,-0.06324560000000003,-0.0828374,0.532378,-0.164161,0.04962950000000003,0.401861,-0.3990159999999999,-0.11307399999999998,0.0060989999999999656,-0.684116,0.478084,0.08941199999999999,-0.598563,-0.3919,-0.437787,-0.099272,-0.18764399999999992,0.2048239,-0.186337,0.109452,-0.2725019999999999,0.646657,-0.4530914,0.04871589999999999,0.1739332,-0.0008492000000000048,0.003290100000000011,0.06527140000000001,0.47070627,0.030172000000000032,-0.37057000000000007,-0.382482,-0.21802709999999997,-0.217844,0.5863510000000001,0.33195199999999997,0.12141599999999994,-0.11049330000000002,-0.4049193,0.299857,0.24765769999999998,-0.19102999999999998,0.014181200000000001,0.226021,0.06063719999999999,0.30173799999999995,0.06835700000000003,-0.21725799999999995,-0.209217,-0.0029443999999999963,-0.04280800000000003,-0.11435949999999999,0.25622400000000006,0.691067,0.112162,-0.110385,0.1625023,0.14385900000000007,0.00948353,-0.296752,0.4504,-0.40829279999999996,0.129269,-0.1290636,0.1485362,-0.11965130000000002,-0.09277660000000001,-0.41656899999999997,-0.2842536,0.3032489,0.09956150000000001,-0.572963,-0.46002899999999997,-0.258375,-0.09751059999999998,0.39101600000000003,0.024303599999999995,0.31132100000000007,0.20750400000000002,-0.172387,-0.429769,0.16016750000000002,0.14338564000000004,0.04326634000000001,0.7036180000000001,-0.11020300000000004,-0.21842799999999998,0.0415778,0.11084399999999997,-0.33954500000000004,-0.039034999999999986,1.007368,0.02528449999999999,0.0707691,-0.6854289999999998,0.370893,0.252162,0.012643020000000001,-0.10889929999999998,0.011273999999999965,-0.021456300000000005,-0.24446199999999998,-0.2637059,0.19484400000000002,-0.25846500000000006,0.0035266800000000017,0.17474499999999998,-0.08935990000000002,-0.460244,0.583798,0.528938,-0.11408639999999998,0.1849336,-0.008792899999999985,-0.24860700000000002,0.3755259999999999,-0.04592899999999999,-0.379617,0.2054555,-0.21814399999999998,-0.281887,-0.355155,0.344107,0.1835619,-0.46985299999999997,-0.44423700000000005,-0.08571120000000002,-0.182536,-0.131822,0.546271,-0.2672269,0.289764,-0.317093,0.201378,-0.12441320000000002,0.3849580000000001,0.28837100000000004,0.149893,-0.11369740000000003,0.003165799999999998,0.26344900000000004,0.1869961,0.6546709999999999,0.18084560000000002,0.2347593,0.3781639,-0.27299,0.20076600000000003,0.265111,0.213907,-0.4321539999999999,0.014925620000000002,-0.25153800000000004,-0.2105915,0.409088,0.3692,0.10527420000000001,-0.543381,-0.228066,-0.257892,-0.17711500000000002,-0.104303,0.02335099999999997,-0.2678181,0.0701984,0.338075,-0.144097,-0.17202520000000004,0.608663,0.3693697000000001,0.641981,-0.354127,-0.195924,0.2126196,-0.41227199999999997,-0.28155499999999994,-0.07900299999999999,0.18269080000000004,-0.17257664,-0.3379558,-0.231493,0.0835593,1.158573,0.386753,0.34045899999999996,-0.03877599999999998,0.07070399999999999,0.440597,-0.12788699999999997,-0.565369,-0.10767179999999998,-0.03821799999999998,-0.15660700000000002,0.01615800000000002,0.25495100000000004,0.09874130000000003,0.599879,0.004516140000000002,-0.06204263,-0.36574300000000004,0.17729999999999996,-0.022382099999999988,-0.45997229999999995,0.02821899999999998,-0.053552100000000005,-0.31179,-0.15025050000000004,0.029060100000000012,0.291024,0.0374965,-0.019314699999999994,-0.008663000000000032,-0.21565500000000004,-0.1126257,-0.4313771999999999,0.034784999999999996,-0.17089180000000004,-0.0353939,-0.33710000000000007,-0.0995317,-0.22217699999999999,0.0764243,0.21406999999999998,-0.16544399999999998,-0.22278799999999996,0.30408870000000005,-0.583027,-0.0755846,-0.42413300000000004,0.22307200000000005,0.11974000000000001,0.639384,-0.326306,0.09356860000000002,-0.02938299999999998,0.175592,0.473924,0.238491,0.476552,-0.0022583999999999903,0.209179,0.194876,0.02489099999999999,-0.039743200000000006,-0.376347,-0.10575560000000002,0.32683300000000004,0.1501548,-0.041824500000000014,-0.24808689999999997,0.1535763,0.36374309999999993,-0.051388999999999976,-0.28814300000000004,-0.15279379999999998,-0.694321,-0.254422,-0.11304129999999998,-0.7332422,0.24948099999999995,-0.813199,0.32843500000000003,-0.0330399999999999,0.6397740000000001,-0.140848,-0.1700835,-0.4548103,0.233594,-0.07442789999999999,0.10435850000000002,-0.07010970000000002,-0.596405,-0.1933031,0.40835599999999994,-0.583414,-0.409467,-0.11523099999999994,-0.3816886,0.423451122,-0.166012,0.352307,0.25986200000000004
skunk,0.23226,0.026442,-0.44338,-0.011711,0.21821,-0.38051,0.19237,0.23735,-0.28865,0.27151,-0.1956,-0.17485,-0.18701,-0.25922,0.18031,-0.088084,-0.10579,0.32001,-0.033283,0.42586,0.34814,0.34443,0.23484,-0.56004,-0.01398,-0.28233,0.58249,-0.0092293,0.1474,-0.052884,0.25708,-0.18198,-0.19798,-0.45176,0.99895,0.077857,-0.49306,0.16399,-0.99765,-0.35757,0.014964,0.18006,-0.056761,-0.54755,-0.25356,0.70804,0.41149,-0.2489,-0.34255,-0.65194,0.55472,-0.61278,-0.063249,0.34631,-0.23237,-0.075313,0.066594,-0.099804,0.52477,0.20293,0.3681,-0.20454,0.20321,-0.12935,-0.10304,-0.14959,-0.29245,0.33581,0.5229,0.056831,-0.039707,0.7769,0.22621,-0.043232,-0.8262,0.24458,-0.32026,0.5531,0.48088,-0.1259,-0.38974,0.42839,0.60891,0.098585,0.34187,0.25929,0.37674,0.7902,0.18246,-0.82429,0.2936,0.13849,0.56321,-0.1068,0.23293,0.050578,0.26814,-0.9797,-0.59079,0.90375,0.0029657,-0.59145,0.46905,-0.23117,-0.01248,-0.038908,-0.057599,-0.14278,0.64018,0.22114,0.095558,-0.22797,-0.35943,0.21854,0.45885,0.13464,-0.42699,0.59547,-0.58563,0.25588,-0.25083,-0.14173,-0.0028267,-0.051972,-0.15668,0.10523,-0.011824,0.89591,0.072207,-0.23672,0.45945,-0.56069,0.247,-0.010559,-0.80507,-0.37662,0.47215,-0.24232,0.19877,0.1385,0.33892,0.071001,0.38709,-0.64753,0.14728,0.17753,-0.13837,0.3565,0.1363,0.25183,-0.038398,1.0258,0.0079089,-0.35637,0.60016,-0.518,0.27107,0.24267,-0.036763,0.5511,-0.072337,0.053463,-0.06104,-0.3327,0.17085,-0.23313,-0.56626,0.31299,-0.52634,-0.46407,0.47073,-0.080296,0.44489,0.2688,0.03225,-0.28303,0.21428,-0.21222,0.25509,-0.24492,0.24052,0.11732,0.024372,0.38512,0.13615,-0.12709,-0.030451,-0.28139,0.10974,-0.071678,0.09528,0.1413,-0.31295,-0.11738,-0.47625,-0.048843,0.13359,0.52902,-0.31209,0.00034262,0.10076,-0.067247,0.59558,-0.93636,-0.67863,0.17941,0.20109,-0.15191,-0.37824,0.13949,-0.0108,0.00041377,0.45638,-0.41147,0.56946,-0.24083,0.09632,0.66932,0.55624,0.80309,-0.16505,0.20274,-0.24608,-0.3923,0.19022,-0.42492,-0.3822,-0.10402,-0.34822,-0.60152,0.2002,-0.36244,-0.12095,-0.10998,0.52137,0.045343,0.83286,0.18678,-0.30195,-0.19193,-0.084665,-0.27623,-0.41641,-0.25935,-0.40716,0.32203,0.39377,0.33107,0.23296,0.051074,0.35249,0.089112,0.31117,0.57051,0.69677,0.0088267,0.23212,0.46248,0.15175,0.31043,0.32655,0.54107,0.037746,-0.22491,0.17207,0.90219,0.23417,0.48802,-0.23403,0.32208,0.60172,-0.79986,-0.46594,-0.29311,0.20849,0.082604,0.24897,-0.025221,-0.78384,0.048543,-0.45746,0.36757,0.34969,0.20595,-0.30533,0.09655,0.38246,-0.39332,0.026074,-0.58951,-0.44378,-0.32037,0.10007,-0.12714,-0.10705,-1.1551,0.30572,0.5505,0.39534,0.30746
mole,-0.65422,-0.036112,0.28575,-0.46044,0.058752,-0.67171,-0.74759,-0.20613,0.35784,-0.15327,0.087913,-0.68516,-0.069675,0.065339,0.14426,-0.2096,-0.057372,0.068274,-0.45944,0.50821,0.14531,-0.90213,0.16475,0.52095,0.16797,-0.26572,-0.55052,0.35484,0.23269,0.14228,-0.41906,-0.24722,-0.82297,0.25016,0.86549,0.062852,0.53405,0.30849,-0.41786,0.20216,-0.28912,0.078069,-0.37222,0.10204,0.027091,-0.23714,-0.16233,0.27472,-0.49952,0.082743,0.15054,-0.21693,-0.060888,0.21212,-0.092702,0.39037,-0.48731,-0.62404,0.69359,-0.2527,-0.22293,-0.28086,0.42758,0.197,0.12267,-0.12376,0.20479,-0.22091,-0.056233,-0.35864,0.34304,0.92189,0.016719,-0.91694,-1.0843,0.015241,0.43055,0.24866,0.3597,0.044406,-0.00451,0.14645,0.14343,-0.43628,0.24599,-0.20547,-0.13613,-0.35909,0.34165,-0.6703,-0.23112,-0.0089709,0.52724,0.38708,-0.086513,-0.31304,-0.1894,-0.44787,0.14216,-0.26692,-0.097116,0.24462,-0.050614,-0.3122,0.41873,0.1706,0.16426,-0.27578,-0.29123,0.44077,0.24259,0.30542,-0.032284,-0.41658,0.48897,0.013161,-0.10723,0.051787,-0.54523,0.21016,-0.13187,-0.57918,0.14358,-0.26365,-0.15297,-0.11838,-0.34967,-0.024148,0.083627,0.05097,-0.32438,-0.31025,-0.85422,0.33701,0.57826,-0.23504,-0.046108,-0.52157,-0.45819,-0.15885,0.10883,0.57193,-0.076887,-0.20242,-0.76645,-0.15671,-0.309,0.67709,-0.33678,-0.089794,-0.48949,0.29406,-0.36166,-0.36467,0.11397,-0.55077,0.21784,-0.030008,0.56217,0.7803,0.060136,0.50493,0.5606,-0.036908,0.38141,0.10934,-0.84261,-0.1994,0.70388,-0.69382,0.23463,0.47131,0.21198,-0.034311,0.052264,0.058703,-0.88868,-0.083274,0.46091,-0.36791,0.41222,0.3646,-0.66502,-0.22862,0.26509,-0.65975,0.37911,-0.11339,-0.27419,-0.1411,0.30837,0.5351,-0.34497,0.069398,-0.2489,0.46208,-0.15356,-0.22048,0.26998,-0.093289,0.51118,0.35873,0.084197,0.39484,-0.065233,0.28109,-0.53946,0.42542,0.13954,-0.51077,0.2196,-0.08616,0.079394,0.81382,-0.39945,0.17344,0.47705,-0.12476,0.36907,0.40533,-0.55559,0.063376,-0.19946,-0.87696,0.74817,-0.54227,-0.15777,-0.43384,-0.22816,0.1728,-0.32442,-0.22185,0.22082,-0.30043,-1.0047,-0.23157,0.25971,0.060723,0.52219,-0.42713,-0.34753,-0.37738,0.23737,0.43604,-0.27294,-0.39305,0.49739,-0.042709,-0.27351,-0.31639,-0.3011,0.11106,-0.21066,0.092886,0.13748,0.14237,0.0087048,0.31204,-0.081632,0.18144,-0.094183,0.76611,0.07742,-0.66822,0.12415,-0.23162,0.3907,-0.21624,0.41556,0.60784,0.16505,-0.46205,0.089405,0.37426,-0.54487,-0.21613,-0.25038,0.40244,-0.46114,-0.14846,-0.032181,0.053717,0.083327,0.48754,-0.50133,-0.087173,0.30387,-0.41179,0.5929,-0.12221,-0.92802,0.082006,0.4728,0.35112,-0.44989,-0.92822,0.66598,0.30783,0.11057,-0.44771
tiger,0.31805,0.38612,0.10725,0.28261,-0.044965,0.010612,0.43426,1.1006,0.15124,-0.75199,0.54254,-0.25544,-0.164,0.16128,-0.01706,-0.2241,0.12682,0.84087,-0.27631,0.04431,0.26123,-0.038948,-0.14925,-0.60481,-1.1059,-0.11135,-0.059403,-0.22909,0.67889,0.18288,0.06961,-1.3831,0.05736,-0.33441,-0.26577,-0.34069,0.17086,0.59148,-0.83631,0.48743,0.24388,-0.42785,0.39639,-0.18224,-0.31574,-0.41929,0.43294,-0.315,-0.2339,-0.0095833,0.96671,-0.18473,0.15179,0.35956,-0.05443,0.24032,-0.017691,1.0346,-0.23621,-0.046284,-0.63183,-0.26131,0.22495,0.65933,0.097632,-0.14428,-0.51098,-0.6434,0.22279,0.47017,0.06845,0.34013,0.050337,0.024793,-0.013726,0.22475,0.53832,-0.60123,0.24434,0.35062,0.14058,-0.24493,0.10419,-0.49484,0.32629,-0.63158,-0.81345,-0.035166,0.23366,-0.26914,-0.015012,-0.091551,-0.35173,0.032239,0.44592,0.3262,0.20522,-0.4646,-0.56885,-0.4661,0.0977,0.371,0.55914,0.33662,0.55955,-0.026679,0.020628,0.16219,-0.079194,0.21179,-0.081665,0.096164,-0.82605,-0.16286,0.098834,0.089302,0.18239,0.52664,-0.64723,-0.27549,-1.049,-0.5939,-0.20139,0.5816,-0.29544,-0.23005,0.19733,0.31993,0.040029,-0.42565,-0.26076,0.28575,-0.10009,-0.020921,-0.16854,0.23219,0.012139,-0.16396,-0.22856,0.31307,0.044448,0.027773,0.42594,-0.4287,-0.39471,-0.40541,0.06398,0.55482,0.048681,-0.26031,-0.25607,-0.068518,-0.21721,-0.21251,0.48762,-0.4804,-0.39291,-0.26542,0.30685,1.3879,0.31551,0.37906,0.048222,-0.26885,-0.67447,-0.058845,0.014894,0.31901,-0.8533,-0.53998,-0.65799,-0.22534,-0.099321,0.70429,0.11255,-0.28921,0.14851,0.25052,0.53332,-0.013101,0.060388,-0.15534,-0.16244,0.18062,-0.0025835,0.10043,-0.14026,0.29892,0.26348,-0.07395,0.37324,0.15981,0.20407,0.10287,0.066057,0.096447,0.4999,-0.032505,0.11403,-0.30171,1.8904,-0.42511,-0.14158,-0.54888,-0.20008,0.37909,-0.6607,-0.20747,-0.36918,0.068243,0.056493,0.067445,-0.21361,-0.9983,0.32986,-0.55691,0.17576,0.35422,-0.065196,-0.016417,0.83042,0.26428,0.29994,-0.5164,0.12353,-0.46543,0.38272,-0.36424,-0.36278,-0.56585,0.23366,-0.72896,0.35874,-0.0062963,-0.080878,-0.1936,0.21159,-0.090342,-0.79771,0.30855,-0.48318,0.13295,0.040856,0.95406,-0.73737,0.46077,-0.082662,0.22545,0.25722,-0.57956,-1.1102,-0.24182,-0.53534,-0.39995,0.89786,-0.4703,0.68895,-0.0644,-0.30525,-0.24539,0.10649,0.00011519,0.052123,-0.23651,-0.27918,0.12954,0.13222,0.45636,-0.1659,-0.16413,0.21242,-0.098367,0.27643,-0.35059,0.42767,-0.36123,-0.53538,0.11485,-0.25226,-0.17993,-0.14363,0.12369,0.23747,0.20453,-0.61958,-0.23841,-0.57274,-0.22474,0.21683,-0.28839,-0.35495,-0.44978,-0.7392,-0.10828,0.0060953,0.94683,0.36775,0.1424,0.2597,0.25982
hippopotamus,0.18955,0.15659,-0.15386,0.31573,0.74632,0.35527,0.019864,0.11564,-0.32482,0.41117,-0.52222,0.41088,0.068887,0.38568,0.38322,-0.65504,0.026276,0.21296,-0.377,0.19788,-0.42051,0.39745,0.42835,0.46617,-0.39098,-0.15346,-0.099802,-0.16863,0.36175,0.80858,-0.78987,0.40033,-0.18767,0.20259,0.92199,0.14202,0.30315,0.19307,-0.43355,-0.041168,0.47971,0.31833,0.17547,-0.41595,-0.37459,0.006609,0.10568,0.28064,-0.0087262,-0.25095,0.23169,0.0068052,0.1362,-0.16643,0.30055,-0.13326,-0.21432,-0.0034351,-0.062157,0.29273,-0.25071,0.035373,-0.35706,0.1339,0.025783,-0.29682,0.13548,-0.41381,0.17354,0.0079725,0.21916,0.1068,0.10018,-0.53145,-0.22322,0.11595,-0.098375,0.34104,0.29372,0.31953,-0.42178,-0.22149,-0.050513,-0.85269,0.14568,0.061223,-0.81295,0.082574,-0.027007,-0.45938,0.10149,0.041736,0.010211,0.2422,-0.061589,0.51515,0.25234,-0.78514,-0.17062,0.34542,0.4872,0.14578,0.84354,-0.22531,0.13412,0.37682,0.09796,-0.39464,0.43521,-0.036579,-0.08382,0.74931,-0.89933,0.14005,0.24394,-0.26478,-0.14649,0.11641,0.21663,0.055589,-0.12163,-0.28748,-0.51884,0.10179,-0.13393,-0.015693,-0.1006,0.52063,-0.062966,-0.69448,0.024463,-0.72063,0.39704,-0.13973,0.41548,-0.32326,0.15172,-0.54306,-0.17998,0.26027,-0.20582,0.12404,0.19252,0.020784,0.63948,-0.25692,-0.1571,0.26189,-0.28648,-0.26279,-0.9143,-0.089801,0.21547,0.66644,0.15434,-0.25348,-0.2353,-0.027593,0.0016739,0.27097,0.52668,0.082599,0.32715,0.061293,0.008698,0.098034,0.0069019,0.30417,0.053336,-0.58593,0.10623,0.80064,0.91196,0.025886,-0.47417,-0.6936,-0.091507,-0.15802,0.59711,0.034449,0.42395,-0.0027741,0.041561,-0.062984,0.19546,-0.48801,0.40743,0.63345,0.25996,-0.11795,0.59551,0.055179,0.11013,-0.55163,-0.4458,0.17293,0.14581,-0.29238,-0.70809,-0.056956,-0.065198,0.12128,0.014598,-0.50289,0.40482,0.31856,-0.14458,-0.058885,-0.15956,-0.095644,-0.11298,-0.22185,-0.38664,-0.13347,0.26701,-0.44942,-0.034822,-0.16228,-0.098126,-0.20304,0.26954,0.045345,-0.66926,-0.65162,-0.44036,-0.80442,-0.0055924,-0.42165,0.44153,0.094189,0.27615,-0.057729,-0.77354,0.052395,0.033888,0.19731,-0.44949,-0.52067,0.19029,-0.01033,0.09055,0.11436,-0.46561,0.19113,-0.15189,-0.35755,0.21587,0.092492,-0.20864,0.15182,-0.56959,-0.43454,0.57851,-0.30092,-0.13412,0.0049051,0.037745,0.0497,-0.085974,0.20663,-0.41757,0.27381,0.17912,-0.1104,-0.4577,0.4198,0.094479,0.4973,0.09448,0.45814,0.095705,-0.05472,-0.14449,-0.058256,0.00052226,-0.15292,0.73502,0.35499,-0.62618,0.09815,-0.033866,0.21859,0.69407,0.5445,-0.26364,-0.49488,-0.17761,-0.22232,0.41097,-0.7073,-0.074429,-0.20046,-0.16728,-0.13901,-0.49815,-0.93892,0.43595,-0.14526,0.46001,0.069061
leopard,0.036092,0.32482,-0.42392,-0.14936,-0.5213,0.056462,0.15079,0.83645,-0.033506,-0.40202,0.032541,-0.12799,-0.078763,0.066492,0.23386,-0.62624,0.43352,0.18262,-0.32585,-0.14503,-0.094748,0.057828,-0.1802,-0.19643,-0.32662,-0.17808,0.58709,-0.10808,-0.062875,0.53114,0.0079316,-0.55173,0.24692,0.015967,0.36646,-0.70941,0.14848,0.10053,-0.2366,0.28121,-0.30971,-0.60645,0.17816,-0.093853,-0.59517,-0.20766,0.88438,-0.12652,-0.60261,-0.6311,-0.27101,-0.24198,0.66897,0.029202,0.4414,-0.068962,0.1293,0.018625,0.20217,0.60148,-0.65131,-0.068824,-0.077981,-0.10153,0.52743,0.53068,-0.03243,-0.025012,0.41044,-0.45337,0.086974,0.98639,0.15149,-0.23886,-0.071715,0.0050501,0.32824,-0.026897,0.40464,0.0023748,-0.055538,0.064055,0.001168,-0.5516,0.17895,0.084751,-0.53827,-0.11599,-0.41611,-0.39399,-0.41275,-0.54975,-0.14077,0.78645,0.39135,0.55905,0.24215,-0.14554,-0.63656,0.0029738,0.046033,0.42892,0.74306,-0.42989,-0.29256,-0.18352,0.88612,0.079177,0.1086,0.97004,-0.31015,0.34363,-0.66138,0.050332,0.44175,-0.18688,-0.070569,0.25369,-0.1202,-0.4447,-0.34887,-0.51778,-0.10008,-0.092722,-0.04889,0.033141,-0.42728,0.68913,0.38719,-0.32613,-0.2375,-0.50677,-0.20496,1.0226,-0.26553,-0.11758,0.21174,-0.35729,-0.096673,0.035209,0.51598,0.21942,-0.024618,-0.42146,-0.093381,-0.18405,-0.53085,0.36959,-0.32594,0.6304,-0.25337,0.12027,-0.23551,-0.22727,0.0080594,-0.36053,0.20831,-0.15093,0.065636,0.55742,0.36035,0.028849,0.12585,0.25921,-0.042163,0.11608,0.59206,0.46156,-0.67916,-0.70938,-0.25822,-0.14793,0.32373,0.42484,-0.036104,-0.63455,0.29431,-0.053905,0.27362,-0.068692,0.21263,-0.12489,0.051453,0.10469,0.37906,-0.47241,0.52199,0.57406,0.065426,-0.53703,0.37744,0.47155,0.0049501,-0.46629,-0.12992,-0.20093,-0.057594,0.10452,0.08159,0.34992,1.1341,-0.71389,0.020874,-0.1987,0.44576,0.13843,-0.42643,0.2848,-0.22727,0.063012,0.35615,0.0123,-0.087877,-0.50663,0.068661,-1.1182,0.53153,-0.075796,0.36975,0.042786,-0.21693,0.43245,0.33977,0.21326,-0.1533,-0.62597,0.34514,-0.12841,0.099374,-0.14332,-0.10252,-0.19276,-0.068513,0.29999,0.084536,-0.08444,0.020859,-0.33882,0.16922,0.2561,-0.24205,0.098486,-0.27419,0.74752,-1.2171,0.43871,-0.37049,-0.68817,0.3728,-0.49403,-1.001,0.33695,0.11835,-0.13107,1.1556,-0.42166,0.4081,0.47719,0.72509,0.11596,0.1735,0.055429,-0.096685,-0.21993,-0.029492,0.029503,0.2527,0.24412,0.16167,-0.10877,0.18447,-0.35039,-0.54201,-0.056387,-0.77128,-0.3057,0.40642,0.040447,-1.2055,0.24884,-0.03149,0.11172,0.24097,0.13603,-0.55428,0.094341,-0.98051,-0.0057706,0.31494,-1.0759,-0.35069,-0.30552,-0.26455,0.3643,-0.95309,-0.17613,0.17119,0.28811,0.33474,0.5227
moose,-0.2007,0.15278,-0.027269,-0.44747,0.27557,0.10378,-0.13971,0.012512,-0.091325,0.39496,-0.06571,-0.3378,-0.39423,0.51532,-0.26213,0.65266,0.26057,0.041223,-0.11968,0.3158,0.033925,0.1301,0.6089,0.62475,-0.20279,0.15912,-0.055109,-1.0,0.20271,-0.33188,-0.026037,-0.24266,-0.35252,-0.19838,0.20458,0.086201,0.095955,0.59724,-0.24358,-0.15731,-1.0068,0.65652,0.11825,-0.034627,-0.44656,0.13526,0.086361,-0.066828,0.25999,-0.12535,-0.24236,0.24759,-0.26627,-0.14325,0.43639,0.82272,0.17036,0.21381,0.18047,0.21564,0.14434,-0.23003,0.38221,-0.65506,0.11988,-0.26757,-0.44361,-0.32353,0.37018,0.09508,0.010798,0.29182,0.18855,0.18273,-0.35622,-0.41713,0.10432,0.22581,0.15776,-0.32735,-0.31982,0.31404,0.55108,-0.51843,0.027323,-0.089522,-0.61351,-0.010873,-0.4908,0.27937,-0.06619,0.12056,0.068139,0.78785,-0.035632,0.062971,0.35094,-0.19422,-0.68572,0.17664,0.20431,-0.0097741,-0.10705,-0.17689,-0.71573,0.38365,0.0076815,-0.30097,0.14417,1.1364,0.34521,0.1526,-0.77709,-0.32208,0.34061,-0.062595,-0.18623,0.85841,0.022771,0.094221,-0.67846,0.20501,0.69652,0.040339,0.050476,-0.050811,-0.24895,0.13542,0.197,-1.0473,-0.26086,0.20296,0.56474,-0.19592,0.74292,-0.24134,0.39278,0.28592,0.32611,0.073127,-0.078412,0.34142,0.063871,0.21947,0.47869,0.4517,0.40776,-0.068738,-0.37073,-0.50757,0.14367,0.67876,-0.36436,0.12259,0.44049,-0.87061,0.2653,-0.42784,-0.092643,0.094959,0.13572,0.095823,0.21189,-0.40843,-0.41137,0.10468,0.14579,-0.29725,-0.36621,-0.55042,-0.37193,0.16595,0.006589,-0.064377,0.22866,-0.4686,0.32227,0.20115,-0.10792,-0.23761,0.58724,0.54658,-0.59076,-0.64223,-0.21946,-0.49481,0.16155,0.034482,-0.43419,-0.087824,0.17864,-0.23688,0.12048,-0.36259,0.12346,0.6642,0.41493,0.03555,-0.029444,0.11014,0.84813,-0.70122,0.21131,0.0024241,-0.19426,0.27144,-0.053675,-0.21653,0.061894,0.1548,0.15221,0.040833,0.34443,-0.018853,-0.56839,-0.43476,-0.44326,0.70787,0.042306,-0.1986,-0.42445,0.5563,-0.078058,-0.32638,0.39897,0.058019,0.25797,-0.20068,0.30418,-0.045928,0.28294,-0.25247,-0.34207,-0.6815,0.015837,0.48671,-0.34133,0.099765,-0.033443,0.38389,0.12959,0.0083553,-0.30406,-0.30439,0.20603,-0.3154,0.31861,-0.11324,0.029687,0.15268,0.16053,0.27382,0.36924,-0.040856,0.58061,0.21823,0.10349,0.48753,-0.34001,0.10359,-0.083296,-0.31545,0.14972,0.21907,-0.46518,-0.33316,0.20351,0.38563,-0.34114,0.45306,-0.28619,0.070529,-0.44774,0.064019,0.075008,-0.12493,-0.39246,0.36795,-0.62979,-0.56551,-0.72187,0.37989,0.56425,-0.040134,-0.76146,0.016443,0.33021,-0.0078182,0.62029,-0.53788,-0.41659,-0.30299,0.30988,-0.061845,-0.35763,-0.61232,0.33861,0.40533,0.030432,0.44659
spider+monkey,-0.2649114,0.26198000000000005,-0.160168,-0.29875700000000005,0.14182889999999998,-0.059926999999999994,-0.20394,0.37310699999999997,-0.140278,-0.011666899999999994,-0.10091999999999995,-0.5162410000000001,0.367207,-0.055316000000000004,0.0624205,-0.16205290000000003,-0.09722730000000002,0.06211240000000001,-0.520655,0.44000300000000003,0.08158209999999999,0.198032,0.296266,-0.1130736,-0.32734599999999997,-0.09535099999999999,-0.1308912,-0.629467,0.494478,0.15668680000000001,0.14285499999999995,0.10335099999999997,-0.25207999999999997,0.052840499999999985,-0.12114350000000002,0.500787,-0.049781199999999984,0.1197855,-0.35425700000000004,0.35347399999999995,-0.325088,0.1595845,-0.592519,-0.2818305,-0.05683699999999999,-0.333441,0.414874,-0.28394,-0.1048609,0.220703,-0.236389,-0.03044343,0.2133292,0.559281,-0.11671590000000001,0.32078999999999996,0.349689,0.13475199999999998,0.0031100000000000294,-0.358435,-0.092196,0.16516509999999998,0.11471800000000004,0.29456799999999994,-0.08788099999999996,0.123555,-0.212477,0.22082100000000002,0.46651200000000004,0.06298389999999998,-0.16369299999999998,0.6840750000000001,0.07513099999999999,-0.11827899999999997,-0.20808100000000002,0.32385200000000003,0.17432999999999996,-0.21406810000000004,0.493146,0.22257574,0.09811199999999995,-0.43370299999999995,0.155881,-0.26976500000000003,-0.135519,-0.21266999999999997,0.446164,-0.06393830000000003,-0.0009787200000000006,-0.6227530000000001,-0.1286428,-0.564674,0.21166200000000002,-0.16492660000000003,-0.2499468,0.18598199999999998,0.210005,0.2442186,0.05677870000000003,-0.319042,0.7336929999999999,0.26130699999999996,0.5206299999999999,0.11994850000000001,0.366554,-0.4386955999999999,-0.0602128,-0.019356199999999994,0.291231,0.5358502,-0.13161450000000002,0.431607,-0.8841839999999999,-0.008926800000000009,0.498236,-0.212456,-0.384107,0.34451,-0.27445169999999997,-0.377132,-0.26772379999999996,-0.446055,-0.126701,-0.2666031,-0.341148,-0.06364899999999997,-0.17284339999999998,0.543613,0.209411,-0.427641,-0.10368379999999999,0.053804599999999994,-0.24083430000000003,0.0365246,0.06813699999999998,-0.03971120000000001,-0.1718999,-0.40797700000000003,-0.48279500000000003,-0.0970251,-0.31518599999999997,0.1519434,-0.46248599999999995,-0.5698829999999999,0.1772849,-0.23491300000000004,-0.1000834,-0.38040399999999996,0.2730537,-0.359877,-0.638978,0.131824,-0.31927200000000006,0.3477159999999999,-0.210995,-0.7154429999999999,0.13089599999999998,-0.393381,-0.5600312999999999,0.36429899999999993,0.3810799999999999,0.11594199999999998,0.595823,0.391622,-0.013529020000000003,-0.2829,-0.30243200000000003,0.16420189999999998,0.04741650000000001,-0.590519,-0.05742500000000002,-0.416878,0.03788160000000003,0.2791174,-0.009302960000000002,-0.32710049999999996,0.012913749999999998,0.08134350000000001,0.167882,-0.391628,0.46184841,0.23883999999999997,0.1622995,0.6541669999999999,0.04644240000000001,-0.470068,0.752857,0.10502500000000001,0.41353399999999996,-0.2516132,0.0566817,0.1447507,0.11872599999999994,-0.04822130000000001,-0.3011952,-0.05095299999999999,0.124645,-0.3752,-0.3831019,-0.518205,1.35712,0.41244000000000003,-0.24381380000000002,0.04253040000000001,-0.0808714,0.37404499999999996,-0.16839350000000003,0.12695799999999996,0.06312426,0.08809820000000002,-0.33193,-0.476046,-0.0010049999999999781,-0.437521,0.700263,0.20209500000000002,0.05550960000000001,0.0060250000000000165,0.308099,0.07832170000000001,-0.6782079999999999,0.1635669,0.0015766000000000113,0.1317703,-0.153203,-0.25207599999999997,0.0836329,0.272111,-0.361356,-0.18094000000000002,-0.08085160000000002,-0.44667999999999997,-0.45944699999999994,-0.039185899999999996,0.439079,0.37635799999999997,-0.33196999999999993,0.05325100000000002,0.02479019999999999,-0.1772331,0.429864,-0.258131,-0.692269,0.13561559999999998,-0.864255,-0.3129829999999999,-0.717136,0.22256499999999996,-0.42073399999999994,0.1822351,-0.2025954,0.10482260000000002,-0.16823700000000003,-0.19018169999999998,0.621961,0.639318,0.648899,-0.168364,0.35477000000000003,-0.0904913,0.23648600000000003,-0.617553,0.020269500000000003,-0.17388340000000002,0.366768,0.46024299999999996,-0.19822899999999996,-0.07169350000000002,-0.158294,-0.20252900000000001,0.0971178,-0.20071799999999995,-0.14787530000000002,-0.15651649999999998,0.0832041,-0.13610999999999998,-0.929319,-0.12518305000000005,-0.754761,-0.022290499999999998,-0.441496,0.405068,-0.05785199999999999,0.312938,-0.6216924,0.10280821000000001,-0.18906040000000002,0.39985,0.2243555,-0.485417,-0.349244,-0.2768516,0.0902709,0.432698,-0.5147200000000001,-0.06106770999999999,-0.061983300000000005,0.49317999999999995,0.490062,0.1114806
humpback+whale,0.35118399999999994,-0.22049600000000003,-0.44577100000000003,0.04462311000000001,0.21993800000000002,0.253513,-0.22781200000000001,-0.1086933,-0.45783200000000007,0.1351889,-0.07412490000000002,-0.327682,0.25472510000000004,0.278292,-0.21082599999999999,-0.11694389999999999,0.41652100000000003,-0.33585000000000004,-0.76196,0.28739479999999995,-0.379436,0.1551696,0.010268,0.266805,0.0843621,-0.004854000000000025,0.0920368,-0.09632429999999999,-0.19067499999999998,0.3509195,-0.5197120000000001,0.0867373,-0.428915,-0.40701,0.668062,0.437519,0.406707,0.025099999999999983,-0.43266899999999997,0.464052,0.2442975,0.259058,0.07262999999999999,-0.2039437,-0.8519760000000001,0.403905,-0.10297608,-0.4820109999999999,0.416872,-0.1192957,0.0215351,0.145462,-0.212514,-0.5466340000000001,-0.36502100000000004,0.5467869999999999,-0.06965009999999999,0.178307,-1.1279439999999998,0.392319,-0.706548,-0.1820796,0.987209,0.014732500000000016,0.20659699999999998,-0.22465799999999997,-0.30679,-0.05027899999999996,0.37288,0.402513,-0.15556830000000002,0.338972,0.2658799999999999,0.683638,0.22933199999999998,0.07592999999999997,0.8002319999999999,0.6011489999999999,-0.29113500000000003,-0.161224,0.237626,-0.07310340000000001,-0.486368,0.49399049999999994,0.031125999999999987,0.166664,-0.09370520000000004,-0.019258799999999993,-0.392382,-0.562762,0.1714913,-0.016435999999999992,-0.524868,-0.284305,-0.14808339999999998,0.5499919999999999,0.44256,0.009298499999999998,-0.0838036,0.18281050000000001,-0.31796599999999997,0.04817269999999999,0.80866,0.04064000000000001,0.13794399999999998,0.386031,-0.003810999999999981,-0.16157427000000002,0.40761000000000003,1.102439,-0.05096399999999998,0.116345,-0.75563,-0.402068,0.5001009999999999,-0.1458979,0.04582369,0.37209000000000003,-0.02191126,-0.0996741,0.043930000000000025,-0.259168,-0.1202924,0.97638,0.12842969999999998,0.35101499999999997,-0.588011,-0.309536,0.155272,-0.414366,-0.6916990000000001,-0.12046280000000001,0.23937799999999998,-0.10071899999999998,0.567492,0.39948399999999995,0.257807,-0.664374,0.10568860000000001,0.29001018,0.4263085,0.420546,0.578495,-0.38964600000000005,-0.0880643,-0.0236494,0.592903,0.397136,0.18943140000000003,-0.10861989999999999,-0.479581,0.690228,0.322442,-0.17348190000000002,0.283041,-0.32593300000000003,-0.13850400000000002,-0.300382,-0.5103260000000001,0.137557,-0.030105800000000012,0.06512900000000003,0.5752379999999999,-0.2676887,-0.22293000000000002,0.132932,0.352982,0.004846000000000017,-0.117841,-0.01577900000000003,-0.241051,-0.040390999999999996,0.14695000000000003,0.45280099999999995,-0.29315899999999995,-0.297599,0.41050299999999995,0.07038270000000002,0.170463,-0.21387999999999996,0.791547,-0.08297280000000001,-0.21435,-0.233078,0.5294749999999999,-1.0692300000000001,0.489878,0.240792,-0.398784,0.195493,0.14043299999999997,0.1197162,-0.387809,-0.6018579999999999,-0.054995,0.243118,0.00774179,-0.17222200000000001,-0.54365,-0.283517,1.062814,0.370375,-0.09467399999999998,-0.31818799999999997,-0.06768840000000001,0.94051,-0.41171099999999994,0.41229399999999994,0.34697900000000004,0.269286,0.7091130000000001,-0.11416488,0.33210300000000004,-0.02803909999999999,-0.27849320000000005,0.06288479999999998,0.1867363,0.4326499999999999,0.06624570000000002,0.201125,0.46520400000000006,0.264019,-0.322677,-0.8345520000000001,-0.09971830000000001,0.304982,0.22048850000000003,-1.259892,-0.12644799999999998,-0.0692461,0.44603500000000007,0.09486461000000002,0.21053400000000003,0.29484699999999997,0.391297,-0.401054,-0.2555825,0.1133183,-0.0888754,-0.08563509999999999,-0.272059,0.21197000000000002,-0.28389,0.06546640000000001,-1.173613,0.547086,0.547813,0.179757,-0.488565,0.223832,-0.401217,-0.222519,0.12289729999999999,0.700494,0.22245999999999996,-0.506335,0.1037957,-0.05155599999999996,0.31710900000000003,-0.07108310000000001,0.30775300000000005,0.46770500000000004,-0.23866,0.159437,0.1087587,0.663636,-0.0608075,0.102294,0.134013,0.042208600000000006,-0.126957,-0.460047,0.20876499999999998,-0.0779472,0.32220499999999996,-0.551897,-0.791315,-0.359582,-0.11299624999999999,-0.02359120000000001,-0.6754009999999999,0.0072999,0.10239170000000004,-0.1012283,-0.8196430000000001,-0.829642,-0.36883299999999997,-0.315671,0.6128399999999999,-0.20106342000000002,-0.21194129999999997,-0.15679400000000002,-0.061121999999999954,-0.5398120000000001,-0.774606,-1.000284,0.319956,0.03946074000000001,0.825104,-0.18945690000000004
elephant,0.21553,0.17279,-0.16796,0.37043,0.32252,0.33791,0.40798,0.25326,-0.52837,-0.17699,-0.14878,-0.061526,-0.5151,0.097219,0.15773,-0.057379,0.37675,-0.018866,-0.64969,-0.20751,-0.26426,0.37092,0.19486,0.21626,-0.51401,0.02408,0.023308,-0.24848,0.03832,0.80956,0.11741,-0.18876,-0.67371,-0.20263,0.35006,0.41065,0.13683,0.38046,-0.51786,-0.099708,-0.01702,-0.20879,-0.18681,-0.64044,-0.41538,-0.22146,0.4196,-0.25002,0.21875,-0.17492,0.57553,-0.17824,-0.46709,0.26721,0.34064,0.13872,-0.0083405,0.67928,-0.63697,0.027342,-0.38947,-0.42949,0.48891,0.21014,0.56858,0.44429,-0.51684,-0.32123,0.43381,-0.11835,-0.34051,0.53615,-0.1871,-0.20519,0.43377,0.089071,1.0804,-0.18561,-0.011586,-0.016495,0.34277,0.11123,-0.0198,-0.40017,-0.21429,-0.47868,-0.37378,0.035601,-0.49206,-0.63784,0.021621,-0.36724,-0.14725,0.30102,-0.11917,0.17239,0.4039,0.013835,-0.27035,0.21749,0.11378,0.57866,0.67455,-0.64566,-0.11213,-0.43326,-0.076579,-0.14373,0.26772,0.64378,0.032992,0.38989,-1.0908,-0.11352,0.30785,-0.13474,0.19553,0.54312,-0.23793,-0.46913,-0.41279,-0.11949,-0.46534,-0.21021,-0.23721,0.14337,-0.042655,0.31183,-0.36392,-0.89525,0.43398,-0.4758,0.060432,0.28002,0.63698,-0.027512,0.49283,-0.43161,-0.052438,0.24736,0.13936,-0.046256,-0.56724,-0.06536,-0.013964,-0.098321,0.59939,-0.13343,-0.16981,-0.045958,-0.52682,0.76165,0.085298,0.11108,-0.01393,0.1344,-0.0014236,-0.16746,-0.11966,0.49227,0.4906,0.21021,0.89823,-0.25619,-0.048149,-0.25008,0.31488,-0.01861,-0.15381,-0.46069,0.2819,-0.015572,0.71606,-0.066346,-0.17665,-0.27894,0.70726,0.14989,0.10492,-0.20297,-0.0018992,0.098904,-0.30561,-0.16652,0.20035,-0.63917,0.18286,0.5062,0.57853,0.21063,0.38625,0.20772,-0.034759,-0.10518,-0.35193,0.27383,0.15986,-0.037893,-0.25353,0.16399,1.5732,-0.19679,0.05822,-0.45619,0.5029,0.74128,-0.19772,0.16896,-0.13964,-0.17724,0.013617,-0.12544,0.04627,-0.62279,0.3919,-0.70154,-0.23222,-0.30037,0.020476,0.34074,0.023366,-0.10034,-0.032015,-0.37149,-0.42143,-0.38886,-0.16684,-0.090223,-0.12665,0.024611,0.18583,-0.34303,-0.28162,-0.023165,0.29605,0.35803,-0.63909,-0.40045,0.10223,-0.29693,-0.43419,0.30849,-0.22215,0.19107,-1.2367,-0.15573,0.028381,0.20699,0.25308,-0.012864,-0.23681,-0.38484,0.001718,-0.36617,0.81716,-0.096267,-0.0045399,0.052251,-0.010517,-0.1554,0.064661,0.34407,0.18066,-0.10015,-0.36951,0.11389,0.3522,0.48235,-0.57891,0.44209,0.11559,0.069067,-0.15903,-0.54896,-0.2882,-0.24076,-1.0323,-0.049748,-0.39217,0.22364,-0.68148,-0.45829,0.37927,0.24295,-0.93563,-0.22239,-0.3673,0.11888,-0.30726,-0.64333,0.015829,0.072207,-0.43673,-0.31228,-0.1238,-0.08452,0.14025,0.16913,0.49023,0.32985
gorilla,-0.032414,0.2249,-0.43593,0.67813,0.33767,0.35434,-0.26199,0.12323,0.2224,-0.25107,0.1807,-0.24883,0.16252,-0.1402,0.35286,-1.1048,0.47334,0.30348,-0.20281,0.099709,0.69101,-0.012983,0.55521,-0.038152,0.03469,-0.2468,0.23326,-0.64496,0.18738,0.12433,0.014926,-0.5052,0.064326,-0.39113,0.12469,0.51612,-0.036108,0.026732,-0.0026822,0.14402,0.12968,-0.59073,-0.020388,0.28231,-0.48432,-0.16716,-0.13527,-0.20739,0.088149,-0.18339,0.448,-0.34997,-0.28246,0.0047619,-0.26313,0.25506,0.18332,0.3997,0.21391,0.24193,-0.4492,0.21952,0.13596,0.3188,0.42697,0.62858,-0.051777,-0.17135,0.087441,-0.57833,0.0094242,0.34005,0.032283,-0.046695,0.54782,0.94634,0.48427,-0.1826,0.1121,-0.17447,-0.34758,-0.36214,-0.35123,-0.40637,-0.034348,-0.70186,0.071644,-0.17667,0.47153,-0.881,-0.32706,-0.21679,0.46635,0.45589,-0.32372,0.50436,0.14668,-0.099445,-0.27986,0.68248,0.20738,0.30906,0.72987,-0.39518,0.42511,-0.33564,0.12027,0.30507,0.54705,0.73008,-0.18883,0.58037,-1.0546,0.73481,0.18152,-0.083992,-0.18257,0.37906,0.39903,-0.011579,-0.18282,0.12053,-0.44848,0.59698,-0.21584,-0.66315,-0.031828,0.52873,0.64124,-0.84596,-0.37397,0.21154,-0.20118,0.72856,-0.23954,-0.1759,0.35542,0.14245,-0.39187,-0.075407,0.37015,-0.53255,-0.22174,-0.77313,0.10997,-0.4735,0.4067,-0.28387,-0.52075,-0.21266,-0.85237,0.32378,-0.13636,0.5308,-0.15402,0.17715,0.26891,-0.51838,-0.3308,1.0188,0.095811,-0.25266,0.74685,-0.42375,0.053006,-0.79696,0.61016,0.0076399,-0.2692,-0.44255,0.1291,0.34082,-0.1044,0.41585,0.14722,-0.51715,0.11016,-0.087372,-0.52055,-0.20577,0.69151,0.21914,-0.071783,0.28091,-0.21553,0.034322,0.40443,0.88027,0.33209,-0.14302,0.67856,0.55294,-0.50929,0.17501,-0.37338,0.23611,-0.091601,-0.32528,-0.42746,0.057234,0.85658,-0.36357,0.19494,-0.29326,-0.31874,0.89354,-0.72981,-0.068424,-0.522,-0.0097235,-0.21672,-0.322,-0.12685,-0.71759,0.62744,0.11965,-0.43957,-0.23269,0.17106,-0.17619,-0.65015,0.071008,0.14863,-0.56351,0.19821,-0.37758,-0.12226,0.11824,-0.087838,-0.12985,0.15527,6.8505e-06,-0.69781,-0.20592,0.10529,-0.19375,0.19122,-0.30808,0.41703,-0.056999,0.23495,-0.20481,0.32607,0.27525,-0.2499,-0.24321,0.22671,0.025763,0.020323,0.077137,0.0526,0.021229,0.55567,-0.073266,0.30018,0.64973,-0.10268,-0.45173,-0.21084,0.22137,-0.44834,0.50587,0.11,0.59619,-0.10796,0.22627,-0.30469,0.92673,0.27298,0.35195,-0.27284,-0.6131,-0.32849,-0.48039,0.43129,-0.023563,-0.071388,0.12808,-0.72339,0.13843,-0.38444,-0.12802,0.40951,-0.023681,-0.79456,-0.17548,-0.11574,0.1393,-0.041272,-0.48682,0.42523,-0.32406,-0.29783,-0.24554,-0.28296,-0.061139,0.42671,0.58329,0.37449,0.26636
ox,-0.27084,-0.61014,-0.17594,-0.24243,-0.49816,-0.063242,-0.38104,0.31366,0.035401,0.86115,-0.0027976,0.0037744,-0.21553,0.026567,0.14223,0.83998,0.24929,-0.23647,-0.13197,-0.20976,0.024395,-0.33637,-0.31245,0.31004,-0.24443,-0.077561,0.24256,-0.53471,0.87607,-0.076564,0.25287,-0.43134,-0.41332,-0.42401,0.34094,0.29993,0.3372,-0.37479,-0.49871,-0.12525,0.40935,0.038281,0.26649,-0.80055,-0.38687,-0.055021,-0.30204,-0.34386,-0.39609,0.048946,0.65243,0.60905,0.14899,0.18315,0.46709,0.18883,0.12502,0.4349,-0.35086,0.074046,-0.30873,0.057686,0.74122,-0.10361,0.095936,0.32385,-0.77009,0.0080104,-0.043423,0.19737,0.011049,0.39126,0.32751,0.21491,0.10701,-0.12431,0.51156,-0.31435,0.033427,-0.45485,-0.018819,0.27766,0.35712,-0.55366,0.049399,-0.69173,-0.15108,0.69914,0.26065,-0.18321,0.64523,-0.35769,0.19571,-0.014856,-0.18523,0.17911,-0.11138,0.012634,-0.73054,0.34443,0.082664,0.48444,-0.33593,0.1313,0.17956,-0.42532,0.1598,0.039867,0.19417,-0.14142,-0.30796,0.097668,-0.92591,-0.036071,0.34958,0.13489,-0.45217,-0.34479,0.15913,-0.1901,-0.23801,-0.23968,-0.2593,-0.053995,0.62546,0.15371,-0.54553,0.80049,-0.073632,-0.45114,0.22835,0.21847,0.46883,0.12848,-0.024098,0.12652,0.70913,0.31621,-0.25551,0.35378,0.068597,0.74655,-0.13475,-0.78134,0.26247,-0.31838,-0.13132,-0.0047413,-0.36691,-0.049899,-0.49004,0.82713,-0.2774,-0.17039,0.13559,-0.49631,0.0029889,0.093594,0.0026814,0.068141,-0.006916,0.24978,-0.021086,-0.082217,0.070183,0.35761,0.18223,0.2676,-0.33292,-0.58546,0.34503,0.86092,0.40842,-0.39642,-0.48007,-0.72247,-0.26198,-0.31428,0.015151,-0.084801,0.16349,0.22412,-0.45963,0.17944,0.4716,-0.45459,-0.17272,-0.040984,0.19759,-0.071448,0.016453,-0.10199,0.33056,-0.12168,0.088271,-0.028423,-0.34608,0.2951,-0.24917,0.43471,0.97012,-0.25324,-0.23143,0.14579,0.56847,0.44782,-0.20189,0.49645,0.21345,-0.17442,-0.2063,-0.20177,-0.077777,-0.3814,0.24907,0.068989,0.75107,0.58087,0.058096,-0.13189,-0.30899,0.29259,-0.13312,-0.68303,0.47535,-0.76007,-0.79294,0.32735,-0.4594,0.56752,-0.013219,-0.16373,-0.07831,-0.53945,-0.12747,0.26952,-0.36541,-0.41893,0.021243,0.47995,-0.21338,-0.15207,-0.30961,-0.2023,-0.35685,-0.14766,0.073118,0.43133,0.36735,-0.17886,-0.26636,0.15211,0.080528,-0.68061,0.14222,0.18275,-0.41194,0.65283,-0.21218,-0.22695,-0.25102,-0.046689,-0.093592,0.24772,0.61042,0.0011049,0.25966,-0.32961,-0.4433,0.27498,-0.85646,-0.029028,0.67784,-0.10663,-0.1851,-0.14439,-0.15698,-0.29308,-0.6222,-0.10976,-0.45884,0.19572,0.15998,0.40934,-0.49588,0.6753,0.27898,-0.53111,0.49177,-0.11459,-0.43715,-0.09519,-0.10677,0.31236,-0.63061,-0.2501,0.43793,0.29586,0.67286,0.45387
fox,-0.1157,-0.025048,-0.11013,-0.04806,-0.085504,0.37308,-0.9479,0.59662,-0.020006,-0.30469,0.24997,-0.20005,0.19284,0.47197,0.27099,0.3419,-0.29186,-0.39718,0.55653,0.32774,0.09486,-0.46588,0.62119,0.20709,0.082332,-0.10175,0.32067,-0.31875,0.17941,-0.24127,-0.017961,-0.087154,0.33423,-0.045026,-1.2193,0.19321,0.21427,0.23893,-0.18084,-0.1592,-0.10387,0.2206,0.25423,0.20815,-0.33072,-0.20672,-0.31424,0.026498,0.21955,-0.31157,-0.078914,-0.015089,-0.040848,-0.23807,0.31983,-0.074173,0.22983,0.055735,0.0056743,-0.77368,0.27412,-0.18999,0.53825,-0.19784,-0.10898,-0.34022,0.31582,0.50317,0.33955,-0.27143,-0.033026,0.34279,-0.49815,0.25056,-0.12791,-0.15912,-0.0087541,0.1045,0.21969,-0.059077,-0.376,0.060835,0.18427,-0.083592,0.11632,0.75145,0.065186,-0.33258,0.14249,-0.65348,-0.0026661,0.10233,-0.38731,0.60529,-0.27326,-0.35777,-0.53533,0.049589,0.20224,-0.32805,0.39305,-0.2754,-0.13042,0.95833,0.38853,0.59884,-0.30503,-0.10708,0.4567,0.72182,-0.044221,-0.068201,-0.29903,0.26483,0.006681,0.14919,-0.53155,-0.61697,-0.54271,-0.41103,-0.17534,0.13229,0.026958,-0.15111,-0.16844,-0.30684,-0.051189,0.9294,-0.60882,-0.11373,-0.42237,-0.40481,-0.34182,0.38472,-0.11566,0.022679,0.44793,0.18849,-0.19598,-0.068914,-0.4452,0.41643,0.058319,-0.39575,-0.40471,0.42855,0.16339,-0.16965,-0.057793,-0.10358,1.0223,0.90564,-0.55851,-0.24856,0.075582,-0.27374,0.38838,0.51561,0.060029,-0.05199,1.0113,0.0083607,0.49764,0.032839,0.025892,0.40404,-0.37393,0.13384,-0.29458,0.34668,0.052114,0.10785,-0.847,0.40936,0.38801,0.45079,-0.4388,0.19777,0.19102,-0.07658,0.25788,0.35642,0.23305,-0.16206,-0.050847,0.13708,0.051338,-0.38552,-0.25497,0.053901,-0.62922,0.3278,-0.20383,-0.17265,-0.099668,0.24485,0.0327,0.32325,0.23912,0.0077014,1.289,0.06803,0.020671,0.26268,0.19434,0.56238,0.071863,-0.065502,-0.22858,0.092883,0.39936,-0.28038,0.35633,0.15203,-0.27883,0.038225,-0.39636,0.32488,0.24332,0.22621,0.23518,-0.064747,0.62858,-0.11848,0.1271,-0.12697,1.0015,-0.25693,0.2045,-0.18789,-0.12913,-0.096456,0.12301,-0.13377,-0.12808,0.041857,0.86418,0.36137,0.090372,-0.010687,0.44736,0.078975,-0.32992,-0.1447,-0.61296,-0.41543,-0.26104,-0.84169,0.47352,-0.4764,-0.34393,0.082156,-0.24477,0.79361,0.26183,0.46648,0.19135,-0.055033,0.23492,0.11178,-0.37291,0.26764,0.11074,0.68041,-0.0010361,-0.042537,0.94006,-0.28939,-0.20841,0.33001,0.073318,-0.51902,-0.36412,-0.41372,0.20266,0.43162,-1.0174,0.25093,0.38136,-0.14332,-0.20525,-0.18724,0.59925,0.35604,-0.91457,-0.22401,-0.042382,-0.13299,0.61671,0.44886,-0.11361,0.20483,0.25485,0.27581,-0.87158,-0.13156,0.26117,0.15815,-0.32199,0.71042
sheep,0.21236,0.62958,0.021152,-0.084636,-0.090599,-0.095031,-0.55557,0.89546,-0.49035,-0.28363,-0.1331,-0.61323,0.3043,0.35412,0.1674,0.07466,0.37288,-1.0356,-0.053809,0.52713,-0.15085,0.13986,0.027436,0.22077,-0.32269,-0.32949,0.23351,-0.19651,-0.12677,0.58659,-0.27959,0.14144,-0.7893,-0.10479,0.30843,-0.44313,0.68649,0.34423,0.041998,-0.33845,0.12713,0.092188,0.1335,-1.0752,-0.20071,-0.1997,-0.3406,0.01746,0.51597,0.15555,-0.30973,0.22927,0.19191,0.27435,-0.1488,0.12847,-0.48678,0.11842,-0.56499,-0.3626,0.0068037,0.27433,0.83127,-0.34126,-0.23361,0.052869,-0.36606,-0.24345,-0.2096,0.34108,0.1746,0.6066,0.13413,0.20828,-0.052155,-0.56422,0.37069,-0.064967,-0.083693,0.32886,-0.34041,-0.079037,-0.57038,0.031335,-0.043057,0.16026,-0.00027501,0.13842,0.056265,0.15941,0.28416,-0.43854,-0.02485,0.56802,-0.19987,-0.20786,0.43132,0.43537,-0.68559,0.86741,-0.027742,0.31571,0.06096,-0.25457,-1.2027,0.42865,0.47056,-0.16092,-0.29974,0.55453,-0.17539,0.29631,-1.1366,-0.038812,-0.30548,0.55733,-0.14606,0.60131,0.25793,-0.33551,-0.61388,0.014024,0.22196,0.29048,-0.11362,0.23842,-0.53807,0.23126,-0.47449,-0.86484,0.26848,-0.14398,-0.25449,0.49164,0.30148,-0.048764,0.54649,0.17293,-0.062623,-0.1792,-0.0045222,0.33319,-0.079365,-0.10447,-0.79202,-0.07898,0.4481,-0.50348,0.011523,-0.08352,-0.63954,0.57248,-0.13737,0.07956,0.43059,0.014746,-0.31002,0.29304,0.44106,-0.10157,-0.020767,0.065398,-0.087993,0.28606,-0.22189,-0.069071,0.61818,-0.63182,-0.13156,0.032003,0.40694,0.14364,0.18708,-0.084427,-0.093954,-0.45794,-0.20494,-0.27725,0.24491,-0.19989,0.67344,0.39538,-0.58354,-0.19535,-0.045289,-0.23987,0.41682,-0.82225,0.082885,-0.033134,-0.60714,0.71239,0.35873,-0.39332,-0.071305,0.12957,-0.28387,-0.42415,-0.34948,0.28366,0.87335,0.086304,-0.11565,0.44672,0.79106,0.415,0.31775,-0.011176,0.063613,-0.11405,0.24434,-0.20431,-0.05869,-0.25732,-0.040027,-0.050189,0.12429,-0.23867,0.36475,-0.073784,-0.36278,-0.099288,-0.19678,-0.77305,0.58947,-0.22951,0.16592,0.23732,0.087863,0.77699,0.23679,0.17297,-0.56438,0.05708,0.79586,0.39286,-0.048049,0.050132,-0.29471,0.04483,-0.53479,0.45168,-0.47617,-0.44052,-0.75531,-0.33307,-0.10427,-0.18702,-0.012484,-0.19042,-0.69324,-0.044324,-0.085404,-0.078048,1.1839,1.1173,0.14227,0.5129,0.29839,-0.29065,0.39716,-0.41482,-0.085964,-0.048437,-0.15185,-0.15566,0.40542,-0.54165,0.021988,-0.10547,-0.39374,0.38819,0.13128,-0.42369,-0.57921,-0.30464,-1.4146,0.70015,-0.26654,0.2665,-1.1717,-0.073125,-0.026728,0.47447,-0.68251,0.59796,0.017331,-0.36963,0.072078,-0.051813,-0.18009,-0.016563,0.27416,-0.19404,-0.8539,-0.1689,0.29922,0.064054,0.81198,0.11408
seal,1.0808,0.47483,-0.65655,-0.45799,-0.13659,-0.21276,0.11347,0.78196,0.23601,-0.67574,-0.18974,-0.39681,-0.043893,0.017715,-0.68471,0.48353,-0.1471,-0.1025,-0.29445,-0.15361,-0.13036,-0.31976,0.040002,0.43845,0.00019647,-0.45587,0.076259,0.081319,0.22054,0.38997,0.40783,-0.50759,-0.19704,0.27807,-0.15751,0.29322,0.1417,0.58168,-0.1849,-0.099367,-0.55635,0.19071,-0.074106,0.078672,-0.46574,0.042227,-0.10151,-0.13372,0.42761,-0.25148,-0.044525,0.14421,0.24354,-0.16809,0.26197,0.032032,-0.13807,0.37666,-0.52274,0.18735,-0.10742,0.03951,0.009394,-0.09614,0.61267,-0.024227,0.070692,-0.061052,0.33514,0.055653,-0.16894,-0.035495,0.13953,0.70554,-0.6456,0.399,0.46654,0.058986,-0.5192,-0.10381,0.31125,0.0034799,-0.46363,0.092947,-0.40912,-0.37202,-0.22335,0.028685,-1.0226,-0.35257,-0.65015,-0.096234,-0.41437,0.076665,-0.12162,0.37654,-0.37539,0.14003,-0.54732,-0.52229,0.32826,0.34497,0.4448,-0.39835,-0.043856,-0.078339,-0.38365,-0.10828,0.21417,0.37513,0.098572,0.51173,-0.32373,-0.69308,-0.42753,0.2738,-0.34733,0.46093,0.31795,-0.15392,-0.18521,-0.0047494,0.1707,-0.079525,-0.066747,0.20907,-0.077114,-0.0088037,0.60856,0.20259,0.27027,-0.0075603,0.55043,0.15866,0.22676,-0.046016,0.034369,-0.056982,0.4291,0.26923,0.30551,0.087293,-0.0059374,-0.36464,-0.39481,-0.32297,-0.084363,0.079773,0.50594,0.023081,-0.20334,0.61514,-0.27263,-0.64583,0.57035,0.14414,-0.72238,-0.46981,0.18315,0.027473,-0.010269,0.61984,0.43168,-0.032125,-0.10843,0.34126,0.33522,-0.017294,0.23299,-0.045294,-0.14214,0.093035,0.11418,0.16744,0.77878,0.19991,0.27343,0.20324,-0.055337,-0.51699,0.25497,-0.019128,0.09953,-0.27334,0.41323,-0.49544,-0.11164,-0.20761,-0.10085,0.43808,0.769,0.33147,-0.58404,0.057482,0.49429,-0.27306,-0.22326,-0.21009,-0.33287,0.19617,0.88322,0.19884,0.38589,-0.35276,-0.024899,-0.015071,0.041946,-0.11931,-0.43275,0.076284,0.38946,-0.23515,0.22432,0.14569,0.30579,-0.45228,0.11781,-0.12454,-0.20498,0.51562,0.50698,-0.031473,0.53698,0.11515,-0.36406,-0.41921,0.11042,-0.61802,0.1876,-0.21107,0.50768,0.26152,0.024021,-0.061978,-0.2271,0.064529,-0.087854,-0.76696,0.56483,0.73024,-0.31193,0.0094058,-0.014081,0.27256,-0.85352,0.07325,0.079219,0.018831,0.13672,-0.62905,0.002334,-0.00046082,0.32679,-0.17004,0.34474,0.19041,0.14476,-0.12234,0.32581,0.1062,-0.345,0.23207,0.12476,-0.10696,-0.4182,1.0141,-0.066773,-0.42279,-0.046863,-0.78569,0.13297,-0.49832,0.37065,-0.1312,-0.52365,-0.46029,-0.75252,-0.34976,0.2868,0.17194,-0.054896,0.25674,-0.011345,0.56777,-0.5045,-0.14836,0.17223,-0.013316,0.63631,0.042249,-0.49141,-0.11521,0.02822,0.36538,-0.050026,0.1505,0.45847,-0.16551,-0.40004,0.035377
chimpanzee,0.37754,0.37145,-0.11111,0.25694,0.15893,0.26936,-0.39439,-0.61922,0.33274,-0.1108,-0.096925,0.37475,0.024066,-0.33771,0.0092826,0.16984,0.48827,0.49055,-0.29182,0.22191,-0.3277,0.31114,0.43964,-0.35219,0.22567,0.25714,0.39886,-0.55106,0.39888,0.32569,-0.031744,-0.29674,0.10156,-0.15118,0.47186,0.31046,-0.054944,0.31179,-0.25125,0.077369,0.46079,-0.25707,0.068221,-0.50107,-0.4927,-0.091881,0.22112,0.18334,-0.019555,-0.29486,-0.10734,-0.41623,-0.097369,-0.14284,0.01677,-0.52866,0.46939,0.12054,-0.4828,-0.33983,-0.47587,0.17649,0.43545,-0.18268,0.33872,0.34641,0.28245,-0.063859,0.28711,0.28848,-0.087013,0.51617,0.5115,-0.25112,0.42525,0.55947,0.3122,-0.4375,-0.317,0.057148,-0.025031,-0.39366,-0.091999,-0.068608,0.24706,-0.8182,-0.0023478,-0.27351,-0.10816,-0.63667,-0.58087,0.0074979,0.46405,0.16287,-0.45487,-0.1751,0.23526,0.2697,0.17441,0.13011,0.28455,-0.55697,1.1456,-0.30738,0.31606,0.73758,-0.18413,-0.0097845,0.32503,0.91531,-0.18055,0.2392,-0.78832,0.32048,0.1952,-0.22942,-0.35313,0.3928,-0.035071,0.29869,-0.49188,0.28319,-0.29705,0.1287,-0.97694,0.4863,-0.081971,-0.12006,-0.10333,-0.64457,0.050138,-0.47527,-0.09326,0.63724,-0.061824,0.33771,0.29107,0.0093652,-0.54193,0.037479,0.18751,-0.43975,-0.41897,0.11579,0.16951,-0.26312,0.15367,0.60645,-0.17175,-0.26753,-0.96691,0.40893,0.23252,0.35353,-0.51244,-0.41426,-0.0015824,-0.043168,0.028308,0.96871,0.11323,0.21795,0.48393,0.21613,-0.0028308,-0.37732,0.30783,0.032643,-0.010628,-0.83107,0.10491,-0.11922,0.66346,0.56962,-0.158,-0.73035,-0.036068,-0.34076,0.39542,-0.60008,0.39747,0.19274,0.30594,0.56552,-0.36395,0.1637,0.18908,0.84062,0.19243,-0.18793,0.34679,-0.17536,0.031003,-0.27086,-0.71638,0.75728,0.024183,-0.59062,-0.56076,-0.37357,0.036674,-0.095546,0.18986,-0.32738,0.084635,0.579,0.087842,0.073189,-0.21688,0.1317,0.008467,-0.50269,0.18811,-0.5359,0.5164,0.45137,-0.29489,-0.50044,0.39616,-0.057495,-0.90875,0.41721,-0.35414,0.040413,0.2002,-0.41517,-0.55182,-0.047925,-0.39946,0.38421,-0.28601,-0.18647,-0.3717,-0.073694,-0.564,0.30299,-0.47371,-0.20123,0.16404,0.0019044,0.27008,0.30227,0.41673,0.14976,-0.17677,-0.28548,-0.20728,0.3691,0.17863,0.37706,0.41781,-0.38111,-0.059389,-0.084748,0.39203,0.9471,0.65508,0.090385,-0.0043521,0.28065,0.094762,0.27871,-0.43917,-0.25586,-0.1672,0.49083,-0.014018,1.1058,-0.21991,0.65045,-0.22838,-0.47924,0.0027812,-0.25365,0.3994,0.021532,-0.21226,0.30836,-0.73783,-0.61853,-0.27923,-0.24074,0.17848,-0.12629,-0.57841,0.040426,-0.24131,0.018785,0.17917,-0.08885,-0.26633,-0.4426,0.25235,-0.10341,0.19169,-0.31057,0.43895,0.10342,0.30773,0.13206
hamster,0.32205,-0.14413,0.14921,-0.44753,0.58744,-0.095484,0.27037,-0.26095,-0.31475,0.22631,-0.50025,-0.21276,-0.07978,-0.36954,-0.053405,0.35102,0.52738,-0.18474,-0.47669,0.14668,0.40802,0.36054,0.11906,-0.33088,0.45082,-0.014435,0.2445,-0.33296,1.147,0.20498,-0.38861,-0.005207,-0.065759,-0.29324,0.46633,0.12617,-0.062682,0.047639,-0.51076,0.51876,-0.54798,0.71096,-0.45104,-0.64259,0.21936,0.040152,0.77755,0.15475,-0.047457,-0.32288,-0.013192,-0.23142,0.2772,0.24673,0.64388,0.36155,0.60876,-0.14953,0.066752,-0.36089,-0.062075,0.44684,-0.099736,-0.41365,0.28612,0.52071,-0.01807,0.096509,-0.042126,0.71145,0.77836,0.80723,0.18953,-0.033912,-0.54461,0.75667,0.19812,-0.38047,0.62071,0.20573,-0.074658,0.72379,0.24819,-0.30843,0.11064,-0.036795,0.36832,0.71863,0.18445,-0.59065,0.16809,-0.19156,0.14153,0.27052,0.22495,0.22397,0.022761,0.27635,-0.40497,-0.055593,0.68258,0.018106,0.45625,-0.23128,0.17714,0.1778,-0.50604,-0.086693,0.1667,-0.010258,-0.85378,0.74547,-0.38542,0.21689,0.77473,-0.10202,-0.055784,0.28587,-0.25667,0.12984,0.21056,-0.11345,0.45936,-0.039058,0.31017,-0.20338,-0.2077,0.50552,0.46786,-0.34796,-0.19739,-0.41267,0.57207,-0.2934,-0.12357,0.27362,0.26463,-0.48822,-0.66478,-0.1344,0.5931,0.31853,-0.67334,-0.65797,0.14874,-0.083249,0.10551,-0.52112,-0.1176,0.33458,-1.1195,0.22433,0.084536,0.11863,-0.51841,-0.36925,0.46028,0.13548,-0.31497,0.16099,0.21055,0.018919,-0.45614,-0.13954,0.28316,0.011407,-0.38485,-0.036886,0.23081,-0.13293,0.074767,0.33796,-0.16407,0.59888,-0.036785,-0.52754,0.063096,-0.22535,0.52945,-0.47566,-0.078573,-0.23323,0.47614,0.16072,0.0137,-0.44457,0.56049,-0.013626,0.77075,-0.99619,0.40748,-0.56746,-0.19325,0.40439,0.11961,0.16686,0.58035,-0.035556,-0.21324,-0.43521,0.43422,0.00689,-0.073445,-0.19312,0.48379,0.25353,0.081044,-0.046049,-0.43057,0.22996,0.0073686,-0.22231,0.42682,-0.3044,-0.023702,0.19406,0.034828,-0.10341,0.28624,0.10365,0.064506,0.16256,-0.55413,0.13589,0.15877,-0.10491,0.38426,0.22896,-0.51025,-0.010731,-0.21465,-0.14696,-0.12035,0.13407,0.069433,0.43523,-0.11175,0.28791,0.42189,-0.75421,0.70113,-0.12585,0.096973,0.50558,-0.26795,0.04688,-0.16204,0.87416,0.87203,0.70587,0.22438,0.42994,0.41288,-0.046651,0.71563,0.64846,-0.16323,-0.17734,0.089875,0.024555,0.099378,-1.0193,0.15918,-0.5427,0.48522,-0.17693,0.20165,-0.09008,0.22567,-0.053701,-0.40668,0.1004,-0.55259,-0.23934,0.43504,-0.34567,0.62277,0.2582,-0.89629,-0.18634,-0.18384,0.091608,0.14689,0.3676,-0.59203,0.23077,0.039862,-0.4136,0.27201,-0.059742,0.36603,-0.11577,0.35006,-0.22698,-0.39651,-0.62257,0.26696,0.18281,-0.049662,0.15795
squirrel,-0.29676,0.34166,-0.17101,-0.15898,0.077783,0.064431,-0.022556,0.17071,-0.10806,-0.0035495,0.31834,-0.31506,0.6709,-0.067435,0.063676,0.10382,-0.26914,-0.36344,-0.59245,0.26412,0.58762,-0.041884,0.82051,0.057505,0.016177,-0.50319,0.36247,-0.25942,-0.31649,0.12218,-0.012054,-0.12228,-0.33844,-0.48356,0.41791,0.40256,-0.18624,0.1996,-0.38503,0.53189,-0.62709,-0.2823,-0.30181,-0.62086,-0.38647,0.10504,0.36748,-0.3492,0.30253,-0.79941,-0.024445,-0.028189,0.1648,0.20326,0.050257,-0.20522,-0.23098,-0.13733,0.50423,0.18901,-0.22138,0.19903,0.55808,-0.028328,-0.038159,0.40416,-0.095105,0.68035,0.65452,0.045071,-0.018555,0.53363,-0.45823,0.12106,-0.39952,0.44487,0.077277,0.38929,0.54081,0.0017059,0.044392,0.39336,0.58659,-0.58098,-0.17306,-0.20638,0.085027,0.10458,-0.1171,-0.35472,0.41149,0.0012187,0.18241,0.60016,-0.059852,-0.0068848,0.10437,0.18825,-0.671,0.24696,0.44574,0.20724,0.52585,0.32469,-0.018249,-0.5398,-0.44733,-0.20626,0.46461,0.59911,0.036391,0.11764,-0.82834,0.11022,0.77659,-0.3099,-0.22268,0.5785,-0.33496,-0.14088,-0.38292,-0.12239,0.25473,0.35915,-0.11341,0.15953,0.18897,-0.024111,0.13647,-0.78424,-0.30368,0.069133,0.22883,0.50418,0.23708,0.43939,0.21729,-0.13125,-0.5959,-0.33702,0.2625,0.34129,-0.24431,-0.39646,-0.091793,0.16122,0.15644,-0.56039,-0.11739,-0.31878,-0.39768,0.71206,-0.29392,0.4388,-0.11599,-1.0412,0.6227,-0.42785,-0.24367,1.0012,0.23405,0.123,0.56403,-0.011179,-0.35986,-0.12734,-0.26271,0.28211,-0.027439,-0.94824,-0.45136,-0.68945,0.16695,0.38851,0.44569,-0.052338,0.48413,-0.30718,0.35663,-0.42408,0.91321,0.55523,0.1949,-0.0066429,0.11259,-0.22108,0.71148,-0.33115,0.24628,-0.1253,-0.29165,0.16933,-0.12134,-0.64162,-0.26017,0.32684,0.34371,-0.1584,0.10011,-0.41522,0.81967,0.20041,0.14788,0.20312,-0.1123,0.71055,-0.068438,-0.54598,0.050446,0.2063,0.028248,-0.30292,-0.5169,0.26978,-0.015955,-0.14292,0.22026,0.57954,0.4231,0.34441,-0.67289,0.082264,-0.055145,-0.27417,0.24078,0.16793,0.13657,0.11718,-0.077539,-0.44158,-0.44416,-0.003439,-0.24205,-0.066084,0.17103,0.43405,0.075801,0.30648,-0.4249,-0.23518,0.40786,-0.32386,-0.48601,-0.10162,-0.66311,-0.088099,-0.24899,0.011142,-0.026261,-0.24037,-0.19835,0.45788,0.003659,-0.12426,0.19523,0.73651,0.28485,0.19716,-0.30781,-0.11563,0.33515,0.34326,0.57279,0.14774,0.52591,0.21104,-0.067535,-0.043719,0.53484,0.62897,-0.41622,-0.49424,-0.66453,-0.1411,0.052844,-0.20764,-0.22916,0.12815,-0.55703,-0.11518,-0.84225,0.52165,0.029775,-0.1401,-1.0462,-0.23816,0.31038,-0.035801,0.50265,-0.40789,-0.26032,-0.14473,0.46441,0.56788,-0.62472,-0.35795,-0.29011,0.29694,0.10354,0.18412
rhinoceros,0.31808,0.048548,-0.58024,-0.038922,0.3219,-0.056342,0.49636,0.13742,-0.57463,0.41007,-0.27421,0.043432,-0.2615,0.29563,0.23057,-0.37757,-0.17551,0.366,-0.4558,0.059571,0.26476,0.70982,0.6781,0.075989,-0.84476,0.13974,0.11797,-0.15162,-0.316,0.68083,-0.49922,-0.0079356,-0.473,-0.35591,0.73741,-0.46847,0.39467,0.7159,-0.6436,0.037322,0.13693,0.58798,0.30309,-0.5243,-0.24439,-0.48338,0.17733,-0.14686,-0.73633,-0.32428,1.1002,-0.43291,-0.016837,0.3126,0.38058,-0.29726,0.14619,0.61463,-0.12815,0.49933,-0.86956,-0.35147,0.12161,-0.054791,0.29476,0.035152,0.020733,0.2466,0.61932,-0.27053,0.31579,0.0040071,-0.39723,0.27574,0.42789,0.36807,0.43681,-0.33396,0.20716,0.29273,-0.45765,0.17819,0.37196,-0.52806,0.35201,-0.07874,-0.26975,0.16082,-0.043983,0.024426,0.34476,-0.53707,0.058365,0.59234,0.50992,0.55339,0.212,-0.49329,-0.26254,0.36877,0.39408,0.58735,0.49314,-0.17692,-0.84996,-0.16935,0.17794,0.0044134,0.65268,0.28997,0.36895,0.59142,-0.95808,-0.18342,0.38161,-0.30075,0.24948,0.20477,-0.073098,-0.39272,-0.53242,-0.49338,-0.3634,-0.10233,-0.22344,-0.041524,-0.0049616,0.24564,-0.25896,-0.82412,0.1916,-0.35852,-0.33764,0.15983,-0.00062807,-0.00078507,0.10765,-0.24313,0.032637,0.7961,0.17723,-0.017549,0.085726,-0.23189,0.6284,-0.22884,0.593,0.10344,0.027531,-0.13015,-0.34666,0.43672,-0.18303,-0.28539,-0.53759,-0.19902,0.051333,-0.086963,-0.08374,0.19664,-0.44427,0.14478,-0.051561,0.14295,-0.38602,-0.14844,-0.39536,0.36156,-0.26278,-0.9015,0.73879,-0.12834,0.49733,0.42012,-0.41958,-0.56009,0.25319,-0.068367,0.62308,-0.070123,0.34602,0.36513,-0.3287,0.20952,0.28192,-0.33573,0.13931,0.33153,0.27635,0.014706,0.42196,0.088533,0.30431,0.27293,-0.45321,0.42656,0.42718,0.60374,0.053841,0.65363,0.62272,0.056322,-0.19406,-0.27961,0.58846,0.5775,0.45421,-0.34958,-0.25702,0.059166,-0.06646,-0.18368,-0.138,-0.62864,0.52874,-0.44874,-0.33852,0.13132,0.055276,0.68918,-0.29226,0.10592,-0.014423,-0.37154,-0.30761,-0.86375,-0.044259,-0.24428,0.080044,0.0012896,0.3768,-0.2995,-0.28682,0.37109,0.18106,0.069222,-0.25587,-0.36488,0.3269,-0.066791,-0.63714,0.34616,-0.2792,0.81446,-0.61026,-0.31484,0.10369,-0.15079,0.28812,-0.26262,-0.46122,-0.21031,-0.47177,-0.43499,-0.33843,-0.20977,-0.16166,0.7438,0.2521,0.074698,-0.30051,0.011759,0.07079,0.21951,-0.31019,0.048293,0.089402,1.029,-0.21445,0.64691,-0.10537,0.12154,-0.42246,0.18446,-0.44669,-0.021902,0.16494,0.26326,-0.31099,-0.37358,-0.35686,0.14672,0.35783,0.39588,-0.79576,-0.32412,-0.50279,0.37271,0.11047,-0.75071,-0.021517,-0.20021,-0.18139,-0.18008,-0.51166,-0.39294,0.42176,0.24478,0.39993,0.084213
rabbit,0.088871,-0.10337,0.053579,-0.5799,0.63779,0.08249,-0.64281,0.31863,-0.0039571,-0.38014,0.71967,-0.2808,0.20132,0.34031,-0.16945,0.46676,-0.069059,0.39166,0.31039,0.22355,0.082286,-0.35594,0.49041,0.74962,-0.082578,-0.53612,0.25635,-0.4411,0.61387,-0.24391,-0.18942,-0.061949,-0.32721,-0.49841,-0.011385,-0.16141,0.38714,-0.020609,-0.65432,0.2806,-0.25953,-0.093341,0.20803,-0.16031,-0.32115,0.081926,0.3265,-0.28752,-0.22476,-0.22121,0.096653,0.20741,-0.12345,0.76428,-0.14787,0.23016,-0.27371,-0.13257,-0.31182,-0.11031,-0.1758,0.088985,0.24057,-0.080838,-0.13103,0.069725,0.19976,-0.096419,0.15039,0.1708,0.34296,0.36087,-0.076831,-0.23445,-0.51423,0.05526,0.47701,0.10566,0.30723,-0.24473,0.20977,-0.11577,0.47452,-0.54752,0.034945,0.086519,0.40241,0.22697,-0.12988,-0.88866,-0.07587,-0.24431,-0.15855,0.47791,-0.045351,-0.0112,-0.2305,0.40815,-0.75764,-0.46227,0.16832,0.31477,-0.12767,-0.095952,-0.26795,0.26315,0.044837,-0.1197,-0.219,0.096635,-0.074109,0.82365,-0.9248,0.24974,0.43555,-0.11554,-0.60792,0.39725,-0.4919,-0.33467,-0.51149,0.13521,-0.0032549,0.084372,-0.48142,-0.13482,0.14682,0.56023,-0.56737,-0.14581,0.077724,-0.018165,0.26701,0.47937,-0.1724,-0.1002,0.29139,0.9409,-0.017944,-0.13016,0.21088,-0.23673,-0.53011,-0.46842,-0.067223,-0.044471,-0.11626,-0.22976,-0.63038,-0.27133,-0.9586,0.96554,-0.36618,0.36592,-0.0026073,-0.54695,-0.063865,0.027126,0.070873,-0.027021,0.65018,0.6145,0.063743,0.088201,0.29946,0.088036,-0.13838,-0.0019842,-0.12621,-0.36976,0.12396,0.37734,0.5678,1.077,0.056546,-0.44029,0.47418,-0.16004,0.080529,-0.83735,0.074409,-0.10094,0.21736,0.13738,0.32319,-0.7114,-0.23681,-0.41416,0.24353,0.041628,-0.15203,-0.07703,-0.50568,-0.3074,-0.12908,-0.087207,-0.20466,-0.2069,0.37114,-0.69878,1.103,0.67126,0.37294,0.0065944,0.040251,0.23118,-0.32942,-0.24827,0.042046,0.036348,-0.19089,-0.58053,0.14646,-0.3238,0.14552,0.16471,0.24773,-0.16674,0.36336,0.010406,-0.29437,-0.35259,-0.67035,-0.39309,0.69641,-0.54222,0.17196,-0.2358,-0.28207,-0.40874,0.45555,-0.52788,-0.75427,0.11812,0.12215,0.72975,0.33856,-0.0067799,-0.17223,-0.30696,0.23191,0.077404,-0.65548,0.1703,-1.3525,-0.19788,-0.2201,0.3428,0.16677,-0.55177,-0.078782,-0.043525,0.11401,-0.29519,0.72206,0.36161,0.10509,0.36759,-0.23362,-0.28673,-0.13588,0.27391,0.39089,0.10789,-0.010823,-0.2415,0.61304,-0.97643,-0.34653,0.56235,-0.24314,-0.099019,-0.17667,-0.1858,-0.056024,0.072973,-0.25285,0.18507,-0.99996,0.20031,-0.24603,0.2663,-0.14366,-0.081268,-1.1205,0.13723,0.44174,-0.24189,0.0471,-0.38537,-0.37444,-0.29952,0.23706,0.00072191,-0.25684,-0.77804,0.37022,0.61774,0.89962,0.18893
bat,0.14844,0.14671,0.06088,-0.22451,0.12772,0.0082175,-0.45777,-0.054502,-0.64595,-0.69808,0.34166,-0.17705,-0.93579,-0.41671,-0.079141,0.26106,-0.54206,0.14596,-0.17897,-0.31536,-0.13175,0.17764,0.29926,-0.17534,0.27228,-0.075229,0.27187,-0.0645,-0.38835,-0.31367,0.4361,-0.094591,0.0013953,-0.044813,-0.98869,0.03548,0.012869,0.31842,-1.0348,0.72132,0.23075,0.61275,0.072785,-0.19485,0.053034,-0.28683,-0.36721,-0.73221,0.093045,0.36688,-0.33092,-0.67915,-0.41152,-0.1766,0.28924,0.37815,-0.28436,-0.12879,0.38792,-0.06855,0.18699,-0.418,-0.4001,-0.053858,0.19407,-0.19485,-0.14911,-0.31767,0.35697,0.58919,0.31392,0.2058,0.14753,-0.030572,-0.32673,-0.42546,-0.14659,-0.13559,0.25259,-0.059839,-0.12248,0.42799,-0.30651,-0.60982,-0.59937,0.32926,-0.28351,-0.12797,0.31867,0.045225,0.5483,-0.15087,-0.34028,-0.26914,0.079893,0.27235,0.28319,-0.83316,-0.046854,-0.06692,0.271,0.31732,0.35744,-0.43006,0.85284,0.11985,0.79473,0.10627,-0.44636,0.52084,0.20951,-0.55882,-1.0896,-0.28435,0.51105,-0.26766,-0.92155,0.14417,-0.20803,-0.62128,-0.69239,-0.15011,-0.19017,-0.34111,-0.42683,0.41736,0.69249,-0.28769,0.6761,0.10874,0.28832,0.21801,-0.47516,-0.13035,0.25028,0.02095,-0.17349,-0.286,-0.47182,-0.75829,0.027729,-0.18227,-0.027271,-0.41031,-0.18774,-0.44539,-0.33775,0.02508,0.015384,-0.29204,-0.35517,-0.25435,-0.39119,-0.74824,-0.40361,-0.713,0.23275,-1.0112,-0.15626,-0.12441,0.024047,0.0076449,-0.14583,0.18968,0.23003,0.14726,-0.017199,0.77538,0.039971,-0.51989,-0.28647,-0.23323,0.42346,0.53927,0.087394,0.43039,-0.065926,0.12223,0.081445,0.057706,0.58548,0.27851,0.52143,0.43077,-0.32284,-0.013684,0.55357,0.56024,-0.44999,0.39553,-0.27662,0.21352,0.62047,-0.35061,0.015888,-0.021424,0.34404,0.15411,0.36189,-0.22786,1.1139,0.67115,-0.098917,-0.59067,-0.19423,0.65671,0.27311,-0.17444,-0.099111,0.10724,-0.038575,0.23542,-0.072156,-0.35411,0.14989,-0.62594,-0.26736,0.14296,0.62289,0.19022,-0.31664,0.37379,-0.35945,0.017909,-0.44441,-0.22514,0.067267,-0.29208,-0.073588,0.19947,-0.30242,-0.10616,-0.50847,0.57773,-0.57555,0.31643,-0.59891,0.10252,-0.28749,-0.042471,0.6432,-0.17613,-0.71429,-0.085264,-0.30021,-0.16491,0.12859,-0.17789,-1.0586,-0.0075271,0.37538,-0.097964,0.41598,-0.30288,0.55618,-0.00051704,0.26487,-0.87185,-0.28692,-0.33518,0.29415,-0.43406,-0.55734,0.41554,-0.33749,0.23817,-0.45615,-0.2373,-0.086946,1.1032,-0.52759,-0.30334,0.3359,0.34551,0.014265,-0.2986,-0.9497,0.16476,-0.70541,0.13573,-1.1124,0.16758,-0.10907,0.42591,-0.66142,0.10933,0.29785,-0.088303,-0.046972,-0.16498,-0.15567,-0.3606,0.16446,0.19919,-0.57001,0.17156,0.22912,-0.52549,0.22625,0.17514
giraffe,0.38835,0.41179,-0.055106,0.069247,0.13089,0.41533,-0.14682,-0.27895,-0.46187,0.18029,0.066809,-0.17659,0.34924,0.074536,0.3027,0.1671,0.056931,0.3389,-0.43864,0.38168,-0.28755,0.27936,-0.017045,0.19477,0.046818,-0.017888,0.24184,0.40314,-0.037616,0.42291,-0.18814,0.028767,-0.18745,0.34492,0.4269,0.216,0.19365,0.60585,-0.36342,0.11285,0.33426,-0.054218,0.25209,-0.48387,-0.86353,0.39266,-0.22207,-0.018027,0.10537,-0.42789,0.11489,-0.44363,-0.13117,-0.22205,0.055268,-0.09014,-0.20562,0.61004,0.11861,0.41403,-0.69551,0.24095,0.17503,-0.25209,0.37614,0.13614,0.37437,0.10823,0.18577,0.33134,-0.0095188,-0.2709,-0.19703,-0.005659,0.36465,0.019028,-0.13552,-0.042426,0.011245,0.19227,-0.25688,-0.13814,-0.053386,-0.90146,0.11234,-0.15367,-0.56472,-0.053497,-0.26596,-0.31541,-0.029712,-0.24991,0.52814,0.7354,-0.45068,-0.072667,0.090822,-0.19622,-0.15224,0.18587,0.23235,0.46683,0.69825,-0.3306,-0.64474,-0.12173,0.50722,-0.15326,-0.0020004,0.40671,0.13161,0.88527,-0.84182,0.15117,0.065781,-0.10997,-0.40196,0.067499,0.10332,0.28728,0.043381,-0.30948,0.20583,-0.1407,0.16502,-0.19986,-0.56239,0.1505,-0.13937,-0.85391,-0.041266,-0.82457,-0.35134,0.094282,-0.055048,0.4324,0.63344,-0.15519,-0.079925,0.43982,-0.11677,0.00045678,0.38657,0.45794,0.21421,-0.28587,-0.098746,-0.12457,0.19894,0.031781,-0.90396,-0.11875,0.2526,0.27912,-0.54481,-0.32329,-0.060773,-0.47237,0.1794,0.55099,0.0031909,0.092402,0.26562,0.28277,0.29502,-0.066184,0.024104,-0.20671,-0.086551,-0.43985,0.13767,0.18663,0.29328,0.36758,-0.23862,-0.6016,-0.43241,0.10928,0.42449,-0.49235,-0.11524,-0.2922,0.072466,0.023298,0.5552,-0.35733,0.30953,0.64001,0.21155,0.063748,0.25709,-0.021107,-0.10565,-0.45419,-0.54762,0.3415,-0.063631,0.13365,-0.086363,0.32877,0.36466,-0.50195,0.063856,-0.61582,0.88638,0.50627,-0.516,-0.022151,-0.048398,-0.1409,0.20141,-0.1504,0.031834,-0.63161,0.42474,-0.96904,-0.081315,-0.50772,-0.32357,-0.38616,-0.2979,-0.060515,-0.28881,-0.33809,-0.47486,-0.48432,-0.070859,-0.0021344,-0.082085,-0.067211,0.09838,-0.31869,-0.744,-0.070888,0.13079,0.018405,-0.43536,0.0080539,-0.034547,-0.58031,-0.091774,-0.23192,-0.73127,0.0058163,-0.17768,0.12264,0.26559,-0.12792,-0.38273,-0.038906,-0.50019,-0.20718,0.23552,-0.17039,0.35918,0.14234,-0.41001,0.028152,0.32112,-0.15199,0.13632,0.21588,-0.07207,-0.43009,-0.70037,0.065001,0.68912,0.77572,0.065635,0.41035,-0.30774,-0.31036,-0.038509,-0.23923,0.0063289,-0.20546,0.43906,0.40701,-0.62986,0.27164,-0.62923,-0.042838,0.20534,0.14509,-0.62701,0.20515,-0.027682,-0.0041029,-0.1655,-0.72625,0.46164,-0.37689,-0.30417,-0.28593,-0.48719,-0.67105,0.21875,0.59866,0.68179,0.57324
